fc.0.weight
0.3429812788963318,-1.0816762447357178,2.0225331783294678,1.0790923833847046,-0.28550994396209717,-0.2750566601753235,-0.1436901092529297,-0.44807153940200806,-0.4187924265861511,-0.4030803442001343,-0.10149544477462769,-0.11359554529190063,-0.6436566710472107,-8.113136291503906,-0.22861120104789734,-0.0018853368237614632,-0.4896550178527832,-4.921658515930176,1.2896796464920044,0.33841854333877563,0.06778717041015625,-0.2684522867202759,-0.4848916530609131,-0.07153093814849854,-0.9877412915229797,-1.0122653245925903,-0.05871744081377983,0.8349609375,0.2742171883583069,-1.8616153001785278,0.6325952410697937,0.06464466452598572,-0.8020143508911133,-0.036976758390665054,1.7214446067810059,0.3719172477722168,0.04172125086188316,2.030421018600464,1.058252215385437,-0.03069847822189331,-2.5508346557617188,0.3025544583797455,0.1758727729320526,0.03646327182650566,-1.7277449369430542,-1.2785415649414062,1.1616142988204956,0.8434672355651855,-1.1687076091766357,1.0863158702850342,-2.685486078262329,-0.3865446150302887,-0.4392191767692566,-0.22926519811153412,0.14733712375164032,-0.41123104095458984,-0.303600013256073,0.02158147096633911,-0.4724690914154053,-0.19621342420578003,-0.2685964107513428,2.136308431625366,-0.25437670946121216,-1.516582727432251,1.3655378818511963,-0.5588542819023132,-1.0656886100769043,-1.105144739151001,-2.954746723175049,0.8010827898979187,0.4264342784881592,0.19011428952217102,0.9651703238487244,0.7220326066017151,-0.047053128480911255,-0.19102200865745544,-0.9566023349761963,-1.6157355308532715,0.9814205765724182,-1.4399363994598389,-1.177197813987732,-0.2108575701713562,-3.09684681892395,0.30024662613868713,-1.0275238752365112,-5.028506755828857,-0.5978928208351135,0.16617213189601898,0.749666690826416,0.2265884131193161,-1.3422040939331055,0.8612857460975647,-0.18075257539749146,-0.07956284284591675,0.19578611850738525,-0.11174356937408447,2.385075330734253,-0.06721287965774536,-0.4577687084674835,-0.3961925804615021,0.8315433263778687,0.17039263248443604,2.002251386642456,-1.9654266834259033,-1.247042179107666,1.7849711179733276,0.4554002583026886,-1.874974250793457,0.10582427680492401,1.6000189781188965,-0.7764186263084412,-0.42005184292793274,0.09182418882846832,2.0136594772338867,-1.4280328750610352,-0.3776162564754486,-0.10496534407138824,1.9209233522415161,-3.888880729675293,-0.911523699760437,0.027570374310016632,-0.49743586778640747,-0.9711045026779175,-0.9434415102005005,0.7466578483581543,0.9038359522819519,-1.5021870136260986,-0.6572381854057312,0.37437066435813904,-0.5110855102539062,-2.0184826850891113,-0.054148852825164795,-2.6439619064331055,-0.555692195892334,0.8147455453872681,-0.026999684050679207,1.3884507417678833,-2.5428621768951416,-0.07966473698616028,-0.32853177189826965,1.067413568496704,-1.2816050052642822,0.03203672543168068,0.2755454182624817,-0.42747920751571655,0.4502202570438385,-0.3902859687805176,0.006423043552786112,0.7892516851425171,-0.004876609891653061,-1.6171952486038208,-0.1672486960887909,0.8803483843803406,-2.502775192260742,-2.271975040435791,-1.2476564645767212,-0.9789906740188599,-0.8546775579452515,-2.8198277950286865,-0.02103600464761257,0.0142822265625,-0.4420563578605652,0.31411486864089966,-0.3601539134979248,-0.474592924118042,-0.2738567590713501,-0.34581416845321655,0.3525165319442749,-2.9291396141052246,1.8594210147857666,-1.2253574132919312,0.24683260917663574,1.0705887079238892,0.5188391804695129,0.2334780991077423,-0.13613787293434143,-0.6904837489128113,0.11253152042627335,1.534889817237854,2.163059949874878,-0.012518584728240967,-0.3105156421661377,0.08129644393920898,-0.039524853229522705,-4.196229934692383,-0.9498037099838257,0.2213285267353058,-0.27518659830093384,-2.7267658710479736,0.7329995632171631,1.4547466039657593,-0.8960258960723877,-0.2272944450378418,-0.12327426671981812,0.232521653175354,-0.1169365644454956,0.8482384085655212,-1.2776756286621094,-2.976472854614258,-1.3219010829925537,-0.2900814712047577,-1.2786697149276733,1.5756930112838745,-0.6015350222587585,0.5906440615653992,-3.5646920204162598,-2.2760257720947266,-0.47041043639183044,0.12714435160160065,-2.394524335861206,-0.9747719168663025,-1.1952763795852661,1.49934983253479,-1.002938151359558,-1.9389070272445679,-1.4348474740982056,-5.307187080383301,-0.4456092417240143,0.31078824400901794,1.527773380279541,1.1411643028259277,0.6383792161941528,-2.3749516010284424,-0.5890424251556396,-0.32581496238708496,-3.104964256286621,0.2216101437807083,0.23915524780750275,0.6963275671005249,0.43063873052597046,0.050720300525426865,-0.1690732091665268,2.3876421451568604,-2.8998351097106934,-0.6309993863105774,0.13896018266677856,-2.5427536964416504,-1.7267049551010132,0.8122433423995972,0.352703332901001,-0.7396395802497864,-1.6625282764434814,-0.1850242167711258,0.4498245418071747,0.3957313001155853,0.9472177028656006,-1.5201367139816284,-0.25080975890159607,1.542235255241394,-1.815076470375061,0.8066560626029968,-0.7398240566253662,0.7136845588684082,0.8893995881080627,-1.4249651432037354,0.29948803782463074,0.20493337512016296,-0.6527989506721497,0.8559491634368896,-1.132670283317566,-0.5036796927452087,1.0094157457351685,-2.0432276725769043,0.14978523552417755,1.0829304456710815,-3.4384615421295166,0.12897472083568573,-0.25484007596969604,1.4287621974945068,-2.467390298843384,1.0526772737503052,-0.6366264820098877,0.6878608465194702,-1.2868201732635498,-0.5392627716064453,-0.35819968581199646,-1.3385181427001953,-0.7285435199737549,0.865094780921936,-0.4593402147293091,-0.5899293422698975,-1.9589951038360596,1.8396129608154297,1.1695425510406494,-0.28261590003967285,0.5692198276519775,0.7160230875015259,-0.24116824567317963,-0.14830078184604645,1.8049036264419556,0.5723870396614075,0.45525166392326355,0.5872399806976318,-0.7049069404602051,-1.924466609954834,-0.7853065729141235,-1.7078417539596558,-2.3015084266662598,1.0501670837402344,-0.3717162013053894,-0.06947863101959229,0.017650306224822998,-0.0051999688148498535,-0.06884658336639404,1.634413242340088,1.0272369384765625,-0.09232266992330551,-0.2692830264568329,-0.17781823873519897,-0.03753930330276489,-0.408841073513031,-0.2481786608695984,0.15852411091327667,-0.3153751790523529,-0.14402160048484802,-0.446854829788208,1.4871013164520264,0.221577987074852,-0.45404982566833496,-1.7332795858383179,1.6336740255355835,0.30069077014923096,0.17046281695365906,-0.0967073142528534,0.05022001266479492,-0.14166563749313354,-0.4874526262283325,0.23956769704818726,1.7119611501693726,-0.146366149187088,-0.7862523794174194,-1.8450871706008911,0.042704999446868896,-0.22946101427078247,0.3377871513366699,-0.43469661474227905,-1.9148999452590942,-1.0015625953674316,-0.49679312109947205,0.9263298511505127,1.2500330209732056,-1.0620571374893188,-2.2811050415039062,-0.24183879792690277,0.10381501913070679,0.1806209683418274,0.1344691514968872,-0.17186564207077026,-0.917195200920105,-0.021288761869072914,1.5542266368865967,0.3762214481830597,-0.3430335521697998,-0.10009253770112991,-0.8390872478485107,-0.023536352440714836,0.8440352082252502,-3.0942728519439697,-0.29117459058761597,-0.44843247532844543,-1.6455693244934082,0.6716325879096985,-0.21440938115119934,1.5597208738327026,1.3290404081344604,-1.0416591167449951,-0.5263832807540894,1.3635573387145996,0.6039620637893677,-1.6700119972229004,0.9389257431030273,-1.2876474857330322,-3.794764995574951,-1.038403034210205,0.9111185669898987,-2.764918804168701,-0.31599587202072144,-0.09471994638442993,-0.14615052938461304,0.3793365955352783,-2.0257179737091064,-0.864669144153595,0.3081274926662445,0.5015404224395752,1.3321495056152344,-0.31854626536369324,-0.7870088219642639,-0.07467009127140045,-0.45967644453048706,-0.2532609701156616,-0.3945044279098511,0.1314263939857483,0.7812055349349976,-1.3209155797958374,-0.1855364441871643,0.0011238151928409934,-2.1431095600128174,0.9812819361686707,0.020398391410708427,-2.2953546047210693,-0.3579557538032532,-0.9162556529045105,-2.0495035648345947,-1.3450253009796143,0.17532123625278473,-0.04402421414852142,0.8958483338356018,-0.9248397350311279,-0.03691023588180542,0.15421724319458008,-0.39131879806518555,0.03652060031890869,-0.29027557373046875,-0.4739741384983063,-0.4692181348800659,-0.3035486340522766,-3.289127826690674,-1.8040482997894287,0.1856071949005127,-1.1427078247070312,0.31844663619995117,-2.8480777740478516,0.891254723072052,-0.8067873120307922,-1.5416487455368042,1.6604465246200562,-2.651641845703125,0.5018771290779114,-0.31464123725891113,0.5850836634635925,-1.7329527139663696,-1.8380603790283203,-1.6600124835968018,0.5175413489341736,0.5281886458396912,0.07116187363862991,-0.027530230581760406,-2.239269733428955,-1.639663815498352,0.4258813261985779,-1.1804699897766113,-1.8836915493011475,-1.1718651056289673,1.6650394201278687,-1.8041157722473145,1.6331101655960083,-1.0427823066711426,-0.12915125489234924,0.5085654854774475,-4.626425743103027,-0.15161319077014923,-0.29138731956481934,1.7761389017105103,-0.026515552774071693,-3.1855461597442627,0.5916482210159302,-0.1718960702419281,-0.4230436086654663,-1.9497401714324951,-0.6524391770362854,0.16740098595619202,-0.9731335043907166,0.2683130204677582,-1.570181965827942,1.1362264156341553,-1.0481270551681519,-1.5984715223312378,-0.8009358644485474,0.7429643869400024,1.5800564289093018,-0.8275485038757324,-2.6285574436187744,0.24214519560337067,0.8902112245559692,0.4939576983451843,-1.0476539134979248,1.1557388305664062,-1.1261088848114014,1.036542296409607,0.4630695581436157,-2.850355386734009,1.4336832761764526,0.49022597074508667,0.052282050251960754,0.3489087224006653,1.5669606924057007,-0.16034884750843048,0.27230170369148254,-1.2986747026443481,1.1064563989639282,1.561305046081543,0.9711050987243652,0.24721990525722504,-13.383248329162598,0.13122431933879852,0.03721330314874649,-0.3930116593837738,2.1492598056793213,-1.729610562324524,0.5473858118057251,-0.931354284286499,-1.331323266029358,-2.0743567943573,2.1479485034942627,-0.2702711820602417,-0.2726712226867676,-0.31170421838760376,-0.12739145755767822,-0.8136884570121765,-3.1263427734375,0.4200212061405182,-0.811083197593689

fc.0.bias
-0.6422544121742249,0.04116654396057129,-0.11897677183151245,0.0329136922955513,-0.3741573095321655,-0.0520554780960083,1.1010240316390991,-1.042542815208435,0.1666056215763092,-1.3766971826553345,0.9665765762329102,0.6537582278251648,0.33788418769836426,1.4752938747406006,-0.060595154762268066,-1.610714316368103,-1.0143702030181885,-0.1686425656080246,-1.5442962646484375,-0.5783084630966187,1.3140838146209717,1.0188822746276855,0.6005029082298279,-0.36749082803726196,-0.6374348998069763,-1.0311846733093262,0.23859795928001404,-0.27546727657318115,-0.48747536540031433,0.26744210720062256,-0.008735266514122486,0.5644850134849548,1.5902711153030396,0.670272946357727,0.4500287175178528,0.4896464943885803,-0.5258780121803284,1.0106558799743652,-0.4445257782936096,1.2653764486312866,-0.46033310890197754,-0.3902665376663208,0.3359597325325012,-1.7116800546646118,-0.7359750866889954,-0.32049620151519775,1.4945826530456543,0.11733301728963852,-0.30222582817077637,-0.496818482875824,0.20157864689826965,0.110039122402668,0.24890777468681335,-0.9949129223823547,1.013285517692566,0.23852835595607758,0.7655945420265198,-1.0755163431167603,-0.06878289580345154,0.42819640040397644,-0.39874356985092163,-1.215826153755188,-1.0988643169403076,-0.022897031158208847,-0.7514340281486511,-1.162179708480835,-1.0303659439086914,-0.5596312284469604,-0.5816540718078613,0.6046613454818726,-0.39146745204925537,-1.1921135187149048,-1.0925836563110352,-0.33934932947158813,0.5888153314590454,-0.09059518575668335,-1.2180862426757812,-0.27945905923843384,-0.1241188645362854,-1.281870722770691,-2.017353057861328,-0.37132614850997925,0.19071491062641144,-0.4517258405685425,0.9504998326301575,0.4474272131919861,-0.4699762463569641,-0.7825595140457153,1.501656174659729,1.071579098701477,0.4131571352481842,-0.0019470596453174949,-0.02585444413125515,-0.005662048235535622,-0.44471079111099243,1.184861183166504,-1.244538426399231,-0.2763366103172302,-0.7372425198554993,-0.3893781304359436,0.8194208145141602,-0.8298689723014832,-0.39990752935409546,0.06628794968128204,0.2127242386341095,-0.905812680721283,-0.09486861526966095,-0.5023172497749329,-1.0475261211395264,0.5973014235496521,0.9918539524078369,0.4805435538291931,0.5857646465301514,-0.8440215587615967,0.15063777565956116,0.07072806358337402,-0.7263926267623901,-1.5406084060668945,-1.294100284576416,-0.9946560859680176,-0.7116302847862244,-1.201830267906189,-1.1273118257522583,0.4651075601577759,-1.0339467525482178,0.683454692363739,-0.11433559656143188,-0.1098419651389122

fc.2.weight
0.017118968069553375,0.0718841552734375,-0.08142472803592682,0.07605183869600296,-0.009088451974093914,-0.004807543475180864,-0.1350674331188202,0.006789801642298698,-0.03674336522817612,0.006813541054725647,-0.10375873744487762,-0.05140465497970581,-0.07170797884464264,-0.09424783289432526,0.020077209919691086,0.005584751721471548,-0.028519807383418083,0.068109892308712,0.009431879036128521,-0.06313830614089966,0.002181824529543519,-0.012003271840512753,-0.10525386780500412,0.03602468967437744,-0.06552483886480331,0.030996881425380707,-0.16978991031646729,-0.051078274846076965,-0.06391261518001556,0.0818914845585823,-0.04888073354959488,0.005247828084975481,0.014286189340054989,-0.024639468640089035,-0.05011362582445145,0.02733941189944744,0.053697433322668076,-0.0520239919424057,-0.10994722694158554,-0.06761757284402847,0.06598195433616638,0.029904358088970184,-0.02656436152756214,-0.017809895798563957,0.011128252372145653,-0.06422313302755356,-0.08637060970067978,-0.033645544201135635,0.04324396327137947,-0.07337095588445663,-0.1154429018497467,0.05842864513397217,-0.08797517418861389,-0.0008072742493823171,-0.027507368475198746,0.032538678497076035,-0.025678250938653946,0.03516070917248726,-0.12508411705493927,-0.12895193696022034,-0.01825481653213501,0.07668804377317429,-0.14337429404258728,-0.05617064610123634,-0.13048678636550903,0.0666259154677391,-0.017323119565844536,-0.07411795854568481,0.005744848866015673,-0.14583665132522583,-0.04354985058307648,-0.01621110737323761,-0.05698339641094208,-0.09110728651285172,-0.1015453115105629,0.07458130270242691,-0.09794164448976517,0.07004067301750183,0.03911533206701279,-0.08380482345819473,-0.0471203587949276,-0.002468846505507827,-0.034184232354164124,-0.052867550402879715,-0.10570584237575531,0.013387797400355339,-0.03753359243273735,-0.05873813480138779,-0.06703811883926392,-0.06841882318258286,-0.048624295741319656,-0.03406645730137825,-0.05540241673588753,-0.06268423050642014,0.054974377155303955,0.010923509486019611,0.04507806897163391,0.035321883857250214,0.06166921183466911,0.00026311445981264114,-0.02087440714240074,-0.021019598469138145,-0.0389423593878746,0.07394278049468994,-0.051195625215768814,-0.026866041123867035,-0.08431398123502731,-0.02674148976802826,-0.052509088069200516,-0.10440894216299057,0.027144649997353554,-0.048411935567855835,0.03634367138147354,-0.03160944581031799,0.03349937126040459,-0.007840815000236034,-0.05456902086734772,-0.09619047492742538,-0.06745355576276779,0.001165921799838543,-0.06247841194272041,-0.008035029284656048,-0.01543838158249855,-0.031115489080548286,-0.06544998288154602,-0.036395225673913956,-0.06923342496156693,-0.06068990379571915,-2.2428646087646484,0.08168094605207443,-0.05006428062915802,3.2679355144500732,-5.50387716293335,-0.02937939763069153,-0.24300487339496613,-0.9806855916976929,-0.12243829667568207,-3.570796012878418,-0.6537689566612244,0.6110462546348572,2.4742331504821777,0.32144075632095337,0.026181094348430634,0.2560739517211914,2.92340087890625,-2.5893149375915527,-1.6643695831298828,-2.6135997772216797,0.378562331199646,-2.5474419593811035,1.1559778451919556,-0.017518527805805206,2.796923875808716,-2.0397799015045166,-1.2825045585632324,0.22148840129375458,-4.521295070648193,-2.9049689769744873,-0.7136861085891724,-0.19627562165260315,0.591233491897583,3.724010705947876,0.5207949280738831,-0.009800399653613567,-0.06248822435736656,1.038121223449707,0.5782384276390076,-2.786515235900879,-0.037122491747140884,0.029316293075680733,1.538583517074585,0.7653412818908691,-4.45948600769043,0.04230624809861183,0.6406202912330627,-0.09983803331851959,0.015184297226369381,0.6074600219726562,-2.0721614360809326,2.5517327785491943,0.19974790513515472,5.18431282043457,-0.29858630895614624,0.29976046085357666,-1.2035901546478271,-0.3490760624408722,0.004949489608407021,-1.1806491613388062,-0.1937028020620346,-0.2544388473033905,-4.128068923950195,0.8046584129333496,-0.888694703578949,-1.4205265045166016,-0.47354573011398315,-0.4358339011669159,0.4386337697505951,1.1157820224761963,-5.03665828704834,0.9260684251785278,0.42160138487815857,-1.2550783157348633,-2.694031000137329,-0.004490356892347336,-1.1259710788726807,-0.05064912140369415,0.03174407780170441,0.26489537954330444,0.891097903251648,0.012040658853948116,0.8518393635749817,0.08617562800645828,-0.5978024005889893,-0.2298102229833603,-0.0074508460238575935,-3.742567539215088,0.3874892592430115,0.3362949788570404,-0.6182424426078796,1.1515586376190186,0.08431517332792282,-2.0960209369659424,0.009387051686644554,0.03179814666509628,-2.1062417030334473,-0.08045198023319244,-0.07014326006174088,-3.3757076263427734,0.35461923480033875,-2.3564677238464355,0.022075675427913666,-0.06446003168821335,-2.494664192199707,-2.7091188430786133,0.19021283090114594,0.017976144328713417,0.5299493670463562,0.5480597019195557,-0.17104452848434448,2.483761787414551,-0.3768772482872009,0.3916563093662262,-0.068012535572052,-0.830991804599762,2.0841524600982666,1.1083482503890991,-3.944824695587158,1.0176470279693604,0.3134162127971649,0.3899812698364258,-1.1891149282455444,0.7017258405685425,-4.460805892944336,0.6614412069320679,0.043380580842494965,-0.8064777851104736,0.001046419027261436,0.024573171511292458,0.07271996885538101,0.012238053604960442,-0.05311185494065285,-0.07471286505460739,-0.08659844100475311,0.039113741368055344,0.008508418686687946,0.026259656995534897,-0.10496379435062408,0.07213898003101349,-0.113348588347435,-0.11118686199188232,-0.009157930500805378,-0.07859935611486435,-0.05026480555534363,-0.050086408853530884,0.05717471241950989,-0.010774441063404083,-0.08788571506738663,-0.07527194172143936,-0.1340598165988922,0.06478005647659302,0.059673674404621124,0.020628726109862328,-0.03032051771879196,-0.1005723774433136,0.011656178161501884,-0.10289213806390762,0.005049130879342556,0.024319181218743324,-0.059963732957839966,-0.0863223522901535,0.016121475026011467,-0.10564328730106354,-0.045599423348903656,-0.10258402675390244,0.04841158539056778,-0.015278737992048264,-0.06089314445853233,0.08620254695415497,0.0518387071788311,-0.03167399391531944,0.01292820181697607,0.013003240339457989,-0.06173509731888771,-0.020732101052999496,-0.011935829184949398,0.02601470798254013,-0.08221449702978134,0.05396091565489769,0.0008208350627683103,-0.006257249042391777,-0.051142748445272446,-0.06970873475074768,-0.06192712113261223,-0.0518549419939518,-0.09583333134651184,-0.12791353464126587,-0.0092984763905406,0.053663209080696106,-0.07695457339286804,-0.09862539917230606,-0.10396064072847366,-0.0948718786239624,0.006484061945229769,-0.013437047600746155,-0.07560762017965317,-0.0244287196546793,-0.11307984590530396,-0.07033029198646545,-0.008642601780593395,0.040738508105278015,-0.044181324541568756,0.06595631688833237,-0.009822923690080643,-0.056620486080646515,0.06485676765441895,-0.03978082165122032,-0.08727139979600906,-0.06516037881374359,0.0071840183809399605,0.07270239293575287,-0.13439033925533295,-0.032992664724588394,0.06855736672878265,-0.10476216673851013,-0.1169782429933548,-0.002601079409942031,-0.11757603287696838,-0.028659528121352196,-0.12305279821157455,0.04208347573876381,0.0023986403830349445,0.056500643491744995,-0.02649003267288208,0.07394406199455261,-0.03154943510890007,-0.1140652671456337,0.06142972409725189,0.012055378407239914,-0.0459657721221447,-0.02209019474685192,-0.05236820876598358,-0.01749880611896515,0.03331000357866287,0.03189839795231819,-0.09816011041402817,-0.01284321304410696,0.027975156903266907,-0.023120814934372902,-0.05314278602600098,-0.0437898114323616,-0.038802798837423325,-0.03140237182378769,-0.08564316481351852,-0.1274523288011551,0.017771823331713676,-0.06103312596678734,-0.062279112637043,0.01636999100446701,-0.07473114132881165,-0.03880569711327553,-0.06619539856910706,0.054146017879247665,0.07334829866886139,-0.05608087033033371,-4.655554294586182,-0.07598789036273956,-0.01637137494981289,-0.9958726763725281,1.8686927556991577,0.01325297076255083,-1.3530099391937256,1.9609676599502563,-0.2814739942550659,1.1867828369140625,-0.13938535749912262,-0.5120455622673035,-2.7692019939422607,-0.712803840637207,0.07846774905920029,2.7632930278778076,-0.5613954663276672,-0.2619022727012634,-3.1860458850860596,2.6972525119781494,-4.086402416229248,1.5630217790603638,0.06439367681741714,-0.0037820683792233467,-0.7468187808990479,-2.7405714988708496,1.4308338165283203,2.0555355548858643,2.7191946506500244,-3.763174057006836,0.22254031896591187,0.5429551005363464,-1.964550256729126,-2.330911636352539,1.7140454053878784,-3.221564531326294,-0.05875575542449951,-3.2469820976257324,-0.35944864153862,3.3846981525421143,-0.04247819632291794,0.08008105307817459,0.15432271361351013,-0.5249689817428589,-1.6454700231552124,-0.05331150442361832,-2.173288106918335,-0.667329728603363,-0.07147665321826935,0.5594683885574341,0.8788231611251831,-1.0800912380218506,1.4552898406982422,0.9984498620033264,-0.5404523611068726,-0.4785255789756775,-0.09224401414394379,-1.683343529701233,-2.945648431777954,-1.3318381309509277,0.6374757885932922,-2.9312119483947754,-4.973803997039795,0.8946336507797241,0.3740646541118622,-1.310799479484558,0.46272963285446167,-2.0015993118286133,-1.826963186264038,0.5021228790283203,1.5834648609161377,-1.8556395769119263,-0.29755493998527527,0.14952751994132996,0.8981205821037292,0.08043435961008072,2.630812644958496,-0.011947598308324814,0.014163913205265999,0.6845144629478455,-2.0059380531311035,0.04792318865656853,-0.0991375744342804,0.07460035383701324,-1.2287929058074951,1.347471833229065,0.07690586149692535,-0.03893640637397766,0.13041315972805023,1.5012867450714111,-0.5517372488975525,-0.1542070060968399,-1.5594048500061035,-0.35442814230918884,0.07058928906917572,-1.0711287260055542,1.0551694631576538,-0.08614218235015869,1.002299427986145,0.7125024795532227,-0.6464256644248962,0.12469599395990372,0.003661876078695059,0.1171213835477829,-1.9224655628204346,1.1318359375,-2.673203468322754,1.6929000616073608,-1.317158579826355,-0.6460651159286499,-0.7364761829376221,1.2265888452529907,0.6092284917831421,-2.746591329574585,-0.5543459057807922,-0.21921657025814056,-1.4156312942504883,3.9125969409942627,1.262915849685669,-2.066950798034668,-2.4771430492401123,2.244668483734131,0.7172540426254272,2.1768810749053955,0.526786208152771,-0.6658768057823181,0.031702689826488495,1.2271674871444702,-0.16660591959953308,-0.049761950969696045,-0.018647799268364906,4.565340518951416,1.5106558799743652,0.03663444146513939,-1.9898797273635864,-0.1304703652858734,-0.20920953154563904,0.3189381957054138,-0.3136662542819977,-0.5560238361358643,0.13309848308563232,-0.23570048809051514,-0.0881616398692131,0.8176750540733337,-1.4453672170639038,-1.1085078716278076,1.6824418306350708,2.7239630222320557,-0.5456255674362183,-1.1982202529907227,-0.08000965416431427,0.07736124843358994,-1.8321045637130737,0.07994243502616882,0.05951668694615364,-0.00673072412610054,0.8025639057159424,0.9909424781799316,-0.11428743600845337,-0.46969491243362427,-1.168741226196289,3.932558536529541,0.23119066655635834,-1.243990421295166,-0.03478875383734703,-1.728887915611267,0.1099245697259903,-0.5975029468536377,0.08181927353143692,-0.07091858237981796,0.24366118013858795,0.19403281807899475,-0.07979520410299301,0.02921842783689499,-0.7497541308403015,1.229907512664795,0.07589415460824966,-1.1170951128005981,-1.973879098892212,0.609504222869873,1.2448354959487915,-1.059197187423706,-1.2773466110229492,0.05934106931090355,-1.648753046989441,0.3905033767223358,-1.506003499031067,-0.4981597661972046,0.10652539879083633,1.7915138006210327,-1.763048529624939,1.119916319847107,-1.2478853464126587,0.36719390749931335,0.8356983661651611,-0.9582452178001404,-0.2828008532524109,-1.813991904258728,0.7388048768043518,0.7985773682594299,0.08567634224891663,0.4819774627685547,-1.177839994430542,0.021280912682414055,-1.4497222900390625,-0.03921792656183243,0.006363683845847845,1.371985912322998,-0.025944167748093605,0.08360964059829712,1.3641440868377686,-0.015048036351799965,-0.20431667566299438,-2.1447794437408447,-0.026824666187167168,0.11581789702177048,-1.4228776693344116,-1.1922534704208374,0.33200129866600037,-3.981200695037842,-2.0078680515289307,-0.040589671581983566,-0.02760494127869606,-1.5104453563690186,-0.47547727823257446,-0.04310134798288345,-0.608273983001709,-0.19840514659881592,-1.3893991708755493,-1.0759137868881226,-0.08553657680749893,-0.08207425475120544,-0.09515294432640076,0.31178727746009827,-0.20376195013523102,-2.060904026031494,0.08212266862392426,-0.3730601668357849,-0.9559801816940308,-0.9155722856521606,-0.061635736376047134,-0.4350847899913788,0.12160400301218033,0.9974164366722107,-1.8624109029769897,1.1278300285339355,0.2744019329547882,-0.8186630606651306,0.9501404166221619,0.3105388879776001,-0.48842567205429077,2.3081107139587402,0.5075964331626892,-2.715256929397583,-0.08047790080308914,0.18384647369384766,0.006145789287984371,0.031073374673724174,0.02843521349132061,0.009616653434932232,-0.04978610947728157,0.07974867522716522,-0.017628880217671394,-0.045087940990924835,-0.0718950405716896,0.028538310900330544,-0.0020673349499702454,-0.005459582898765802,0.023298807442188263,0.03991498425602913,-0.02390012890100479,-0.00391593761742115,-0.0700986310839653,-0.11627870798110962,0.06996801495552063,-0.005628975108265877,0.004207087680697441,-0.10986270010471344,-0.06931990385055542,0.08130857348442078,0.08266209810972214,-0.024484239518642426,-0.11899624764919281,-0.08027275651693344,-0.09884578734636307,0.07184754312038422,0.08186792582273483,-0.08467599004507065,-0.05520216003060341,-0.10440007597208023,-0.04119043052196503,0.02375170588493347,-0.032312240451574326,0.04247252270579338,-0.08503183722496033,0.08468809723854065,-0.0659748762845993,-0.05213001370429993,-0.012344698421657085,-0.08670469373464584,0.00276107806712389,-0.038740359246730804,0.04767423868179321,-0.11584676057100296,-0.08005870878696442,0.0067219482734799385,-0.04380614683032036,-0.05886148661375046,-0.008922712877392769,0.04890267178416252,-0.009058969095349312,-0.00666118273511529,-0.011286298744380474,-0.01042803656309843,-0.021909702569246292,-0.037000562995672226,0.052954014390707016,0.0420287624001503,-0.010429092682898045,0.040165018290281296,0.053109101951122284,-0.08704483509063721,-0.0016961127985268831,0.05413948744535446,0.01769929565489292,-0.03785889223217964,-0.023572450503706932,-0.1165737584233284,-0.058448225259780884,0.007609750144183636,0.021507879719138145,0.0699242651462555,-0.11643222719430923,-0.0066880094818770885,-0.05055796727538109,-0.009761863388121128,-0.04170335456728935,-0.030399614945054054,-0.0817989781498909,-0.03125063329935074,-0.06336388736963272,-0.11861114203929901,0.08508435636758804,-0.10451823472976685,-0.032050300389528275,-0.101357601583004,-0.01963396556675434,-0.044504564255476,-0.09652949124574661,0.07949969917535782,-0.0057244375348091125,-0.09577961266040802,0.030931593850255013,0.07346493005752563,0.021205933764576912,0.0292345080524683,-0.04423225298523903,-0.018919499590992928,0.002295580692589283,-0.06978257745504379,-0.0967988446354866,-0.013268175534904003,-0.018312999978661537,0.00698452303186059,0.05434761196374893,-0.11540201306343079,-0.022762013599276543,0.04405456408858299,-0.002236119471490383,0.06140518561005592,-0.08402153104543686,-0.04226288944482803,-0.05774301663041115,0.06905768066644669,-0.10012397170066833,-0.08833545446395874,0.03484124690294266,0.000752630818169564,0.003247492015361786,-0.1156473308801651,-0.09743864089250565,0.010739319026470184,0.08013404160737991,-0.10908610373735428,-0.3217218816280365,0.07683463394641876,0.03841941058635712,3.019517660140991,-1.8568283319473267,-0.0865178033709526,0.19272680580615997,0.6858034133911133,-2.032155990600586,-0.3355408012866974,0.6371140480041504,-0.3291183412075043,2.350607395172119,0.38943007588386536,-0.0845399796962738,-6.598312854766846,-2.6797919273376465,-0.35989251732826233,-4.299831867218018,-0.49468934535980225,0.1401817798614502,2.0757176876068115,0.530870795249939,0.05807562544941902,2.4866321086883545,-4.4850544929504395,-1.077355146408081,-3.295607805252075,-0.18918754160404205,2.951613187789917,0.22504974901676178,-0.08882171660661697,0.8672628402709961,-3.7249388694763184,2.5756337642669678,0.08491701632738113,-0.06838338822126389,0.5257887840270996,0.7757713198661804,3.1972389221191406,-0.04509110003709793,0.05902087688446045,2.5742814540863037,-4.055234909057617,-2.990821123123169,0.06562411785125732,1.2641160488128662,-8.855382919311523,0.024034619331359863,-0.5551410913467407,0.6570004224777222,2.7776670455932617,-0.1481654942035675,-1.894913911819458,-0.0003569932305254042,0.08803091943264008,0.9609440565109253,-3.133528709411621,1.3373993635177612,-3.548081159591675,0.6143730282783508,-1.9993932247161865,-4.46501350402832,0.011193053796887398,-1.9626935720443726,-2.0031204223632812,-1.6216702461242676,0.8233423829078674,-2.015962839126587,0.4239272475242615,-3.6007776260375977,-4.681585788726807,-0.8371630311012268,0.1281880885362625,0.4987572431564331,0.036054689437150955,-0.1594247817993164,-0.04762662202119827,-0.08132258802652359,0.4033278822898865,1.565493106842041,0.06396842747926712,2.415114641189575,-0.06213826686143875,0.09858846664428711,0.8999913930892944,-0.01786414161324501,-0.5374969244003296,0.7573458552360535,-0.5872230529785156,1.4978001117706299,0.7615908980369568,0.8447130918502808,2.6081225872039795,-0.07439728081226349,0.3622484803199768,0.580044150352478,0.08621174842119217,0.719200849533081,0.7766584753990173,0.8908153772354126,-1.205310583114624,0.014125927351415157,0.018262971192598343,1.7709603309631348,0.011313890106976032,1.2516306638717651,1.7314753532409668,-0.7225781679153442,0.3966306746006012,0.8286779522895813,0.984272301197052,2.758420944213867,-0.2722410261631012,0.13645008206367493,-0.0901888832449913,-0.6291178464889526,-1.5684541463851929,-3.5712034702301025,0.5011535286903381,-6.3628082275390625,-2.793459177017212,-3.954787015914917,-3.2679975032806396,0.639434814453125,1.1806542873382568,-0.059161603450775146,1.1605082750320435,-4.697761535644531,-0.0674346312880516,0.08788038045167923,-0.24807845056056976,-0.6507866382598877,-0.03970400616526604,-4.873359680175781,-0.388677716255188,-4.312582492828369,0.2819443941116333,-0.7154532074928284,-2.107525110244751,-1.1145673990249634,-0.9169188737869263,-0.01002854760736227,-0.11655337363481522,0.4750117361545563,-1.4272640943527222,3.0065348148345947,-0.19894355535507202,-2.176374912261963,-2.63388991355896,0.2878253161907196,0.05442967265844345,0.7472302913665771,-2.0300161838531494,-0.39999744296073914,0.08670751750469208,-0.3753873407840729,-0.3516852557659149,-0.5895981192588806,0.46565672755241394,-2.4895081520080566,0.18181371688842773,0.6174396276473999,-1.303383231163025,0.03791118040680885,-1.352587103843689,0.4353930652141571,0.6077808737754822,0.02340574562549591,-0.04263877496123314,-1.2090579271316528,0.5609963536262512,-3.6928012371063232,-0.0759897530078888,-2.235994577407837,-2.3539342880249023,-0.04872122034430504,0.4490226209163666,-0.2862330675125122,0.10791199654340744,-1.3246612548828125,-0.032769352197647095,-1.4780036211013794,0.1393754780292511,-5.295321941375732,1.6450515985488892,0.060377903282642365,-0.3238295912742615,-0.5146209597587585,1.2013864517211914,-1.5549482107162476,0.044012557715177536,-2.381157875061035,0.2163546234369278,1.2903764247894287,-2.5735669136047363,-0.9405097961425781,-1.2073081731796265,-3.8090744018554688,0.3835325539112091,0.15958096086978912,0.848560631275177,-0.3642953038215637,0.003956546075642109,0.2740905284881592,0.042650554329156876,-0.026288433000445366,0.40562212467193604,1.4898860454559326,-0.08806899189949036,2.3122246265411377,0.06623905897140503,-2.275688648223877,0.5763618350028992,0.005238695070147514,-1.3360296487808228,-0.565021812915802,-4.2838945388793945,-0.056483350694179535,-0.7876370549201965,-0.06868276000022888,-3.885481834411621,0.07784676551818848,-1.3819172382354736,0.5438581705093384,-0.08156397193670273,-0.8647711873054504,-0.27602195739746094,-0.855941891670227,-1.1444145441055298,-0.02776229754090309,0.025337494909763336,-0.9618621468544006,0.2772025167942047,-1.4613765478134155,-2.942943572998047,0.8488728404045105,0.6477347016334534,-0.25410911440849304,-2.4012763500213623,-3.0356550216674805,-1.1801173686981201,0.0728648230433464,-4.5217461585998535,0.46922412514686584,0.48728781938552856,0.7551517486572266,-1.3340373039245605,-1.6687790155410767,-0.27169743180274963,-4.0180344581604,-0.42327481508255005,0.05121412128210068,-1.5977106094360352,0.054557524621486664,-1.6199342012405396,-0.04363960400223732,0.0741867870092392,0.06494144350290298,0.07738356292247772,-0.04849623516201973,0.005502028856426477,-0.002727852901443839,-0.07945625483989716,0.008726570755243301,0.01727837696671486,-0.06671537458896637,-0.005659103859215975,-0.12251386046409607,-0.059161167591810226,-0.0694451704621315,-0.0949896052479744,0.0436965636909008,0.02756640873849392,0.04939497634768486,0.023603251203894615,-0.01919379271566868,0.012642398476600647,0.041873540729284286,0.05275358632206917,0.01193853747099638,-0.038307737559080124,0.005779729690402746,0.023847926408052444,-0.1257762908935547,-0.052074793726205826,-0.01389772817492485,0.022671956568956375,0.0589350126683712,0.059527408331632614,0.01351131685078144,0.0026869301218539476,0.04141411557793617,-0.025132300332188606,-0.07218281924724579,-0.024155981838703156,0.06450244039297104,0.059326283633708954,0.02183602936565876,0.008393724448978901,-0.07354117184877396,-0.04278305545449257,-0.009102131240069866,-0.07666393369436264,0.0718136802315712,0.04486311599612236,-0.019328013062477112,-0.054506201297044754,-0.13616904616355896,-0.10435429960489273,-0.07229915261268616,-0.03748982027173042,-0.09025242179632187,-0.07286453247070312,0.03570485860109329,-0.0958201214671135,-0.1272359937429428,-0.08925297111272812,0.0354965440928936,-0.10571593046188354,0.03013572096824646,-0.09211637824773788,0.01797282136976719,-0.08595580607652664,0.03817838802933693,-0.1199805736541748,-0.15398052334785461,0.013225613161921501,-0.14163507521152496,-0.03822722285985947,-0.012066517025232315,0.08511783182621002,-0.12145661562681198,0.06141425669193268,0.05704359710216522,-0.004577503073960543,-0.0617489330470562,-0.06739134341478348,0.031887806951999664,-0.06250006705522537,-0.0902983769774437,0.017542840912938118,0.07797250896692276,-0.045152775943279266,-0.14824558794498444,-0.03677752614021301,-0.07446860522031784,-0.07607442140579224,-0.10494077205657959,0.02328673005104065,0.05803164839744568,-0.06888525933027267,0.04284679517149925,0.05452505126595497,-0.01347142830491066,0.0323958657681942,-0.02157668210566044,0.01468995213508606,0.033089153468608856,0.0781596302986145,-0.020615659654140472,-0.03696643188595772,0.038056228309869766,0.03638719767332077,-0.06615345925092697,-0.08562783896923065,-0.07063599675893784,-0.0114675834774971,-0.07234955579042435,-0.08137467503547668,0.03925357758998871,0.042207516729831696,-0.10600687563419342,-0.02848047763109207,-0.009449353441596031,-0.06174749881029129,0.05190220847725868,-0.10473814606666565,0.020562808960676193,-0.0006666376139037311,-0.016958292573690414,0.019222861155867577,-0.03122430294752121,-0.12627777457237244,-0.5788583159446716,-0.04125216603279114,0.0187893807888031,-4.637169361114502,-1.5624287128448486,-0.06717252731323242,1.12533438205719,2.666527271270752,0.32759708166122437,1.9275140762329102,0.6410105228424072,-5.193132400512695,-7.21236515045166,1.301445484161377,0.024805337190628052,4.485874652862549,-0.775348424911499,-4.3660149574279785,0.28727781772613525,-2.59584379196167,-7.134359359741211,-1.5733119249343872,-0.34126144647598267,-0.06619595736265182,-0.21532875299453735,0.06691546738147736,4.44304895401001,0.24557006359100342,2.9036803245544434,-9.276639938354492,0.20718207955360413,-0.4120558202266693,-5.868154525756836,-7.153862476348877,-5.546857833862305,-1.222023606300354,0.07498245686292648,-1.5755829811096191,0.3402079939842224,-4.137670993804932,0.03299398720264435,0.049401964992284775,-0.06878887116909027,-0.10799337923526764,0.6724576950073242,0.05128331482410431,-3.7567079067230225,4.347164630889893,0.03683420643210411,-0.6476805210113525,0.7957165241241455,-5.177204132080078,-2.410856008529663,0.9220748543739319,1.0192418098449707,-2.655182361602783,-0.4252730906009674,0.04828174412250519,-4.506597995758057,0.286478191614151,0.30734333395957947,-1.165772557258606,-2.820993185043335,0.5980215072631836,0.43248432874679565,-0.5287027955055237,-6.322902679443359,-1.5024813413619995,-1.1447635889053345,0.25769373774528503,1.674383282661438,0.33312734961509705,-1.2300639152526855,0.34362903237342834,-4.278293132781982,0.03825222700834274,0.4389892816543579,-0.012379741296172142,0.03251940757036209,2.1787211894989014,-2.7970023155212402,0.04066865146160126,-1.784382700920105,-0.07892831414937973,-0.04409271478652954,-3.4828460216522217,0.028839949518442154,1.8688063621520996,0.18806840479373932,-2.075099468231201,1.4682490825653076,-0.10433553904294968,-0.21659354865550995,4.094634532928467,-0.06772080808877945,0.4910939931869507,-0.316602885723114,0.037018388509750366,1.6955806016921997,4.403848648071289,-5.1765336990356445,0.4400900602340698,-0.027395661920309067,0.06070168316364288,-1.8946771621704102,1.1888686418533325,-3.9662363529205322,0.5304513573646545,-0.8251418471336365,-3.098034620285034,-1.707389235496521,3.8137259483337402,-4.85114860534668,-4.710781574249268,-0.04400298371911049,0.14346322417259216,-0.08027991652488708,3.893942356109619,1.61981999874115,-1.8451600074768066,-1.8467954397201538,1.434491515159607,1.3162626028060913,-1.4152872562408447,-4.461031913757324,-3.9730987548828125,-0.05657297745347023,0.8416026830673218,0.0018853930523619056,-0.016596827656030655,-0.082689568400383,-0.0003022139717359096,-0.134892076253891,0.03276558220386505,-0.02977602928876877,-0.08443383127450943,0.02915341407060623,-0.019307635724544525,-0.025223076343536377,-0.0498606376349926,-0.10304670035839081,-0.00590289244428277,0.015981031581759453,-0.006928516086190939,-0.08412067592144012,-0.051056157797575,-0.04496629163622856,-0.05006854981184006,-0.01390934456139803,-0.04336294159293175,0.02209056168794632,-0.03186957165598869,-0.0008102174615487456,-0.10371027141809464,-0.05508815497159958,-0.09430968016386032,-0.0802447646856308,0.03955122455954552,0.057176318019628525,-0.1683376133441925,-0.05864090472459793,0.05225098878145218,-0.03751712292432785,-0.0008127783657982945,0.020649099722504616,-0.033991631120443344,0.053353529423475266,-0.05029725655913353,-0.02101297490298748,-0.02851828560233116,-0.073819100856781,0.05542074143886566,-0.04133376479148865,-0.012895481660962105,-0.07278292626142502,-0.10419654846191406,0.0620746873319149,-0.07599376887083054,-0.02387055568397045,0.009043259546160698,-0.10943733900785446,0.03326873108744621,-0.013826251961290836,-0.07387646287679672,-0.14263799786567688,-0.017849445343017578,-0.1591111570596695,-0.12024452537298203,-0.010824690572917461,-0.018284188583493233,-0.07975661754608154,0.030080055817961693,-0.0047000073827803135,-0.101941779255867,-0.08288676291704178,-0.02881327085196972,0.006259586662054062,0.007781167048960924,0.016342081129550934,0.036081381142139435,-0.049894336611032486,0.008647446520626545,-0.1207234114408493,0.0738077387213707,-0.14514265954494476,0.009171511977910995,-0.03978032246232033,-0.10350128263235092,-0.1711258441209793,0.0071077183820307255,-0.03665816783905029,-0.0039276122115552425,-0.0891016349196434,-0.002185072749853134,0.008075262419879436,-0.05248936638236046,-0.13679219782352448,-0.1485470086336136,0.030076202005147934,0.016671160236001015,-0.018989983946084976,-0.015403686091303825,-0.04197516292333603,-0.03580739349126816,-0.08599822968244553,0.013033248484134674,-0.04402107745409012,-0.030320990830659866,0.04923383891582489,-0.07995060831308365,-0.017115077003836632,0.00717635452747345,0.046995341777801514,0.00990543607622385,-0.035951390862464905,-0.0027356676291674376,-0.04872426390647888,-0.02008892223238945,-0.02899213694036007,-0.060802485793828964,-0.04870110750198364,-0.07104897499084473,-0.07042089849710464,-0.05103788524866104,-0.11524777114391327,-0.06825016438961029,-0.04448395222425461,0.02908746711909771,-0.07247582823038101,-0.12044928967952728,-0.07782924920320511,-0.02875223569571972,0.034494124352931976,0.033241987228393555,-0.028485611081123352,-0.0798289105296135,-0.09004044532775879,0.06460695713758469,-0.05610404908657074,-0.0757341980934143,-0.0013896680902689695,0.022690534591674805,-0.06927068531513214,0.027294553816318512,-0.0216628760099411,-0.06251676380634308,0.032223232090473175,0.01563071645796299,-0.033621955662965775,-0.007805476896464825,-0.050218433141708374,0.06720459461212158,0.017283529043197632,-0.04377572983503342,0.05448024719953537,0.03693325072526932,-0.006628155708312988,0.0249433983117342,-0.056487828493118286,-0.00010307011689292267,-0.004529877100139856,-0.029930351302027702,-0.019332261756062508,-0.13064934313297272,-0.07946937531232834,0.05159779265522957,0.01726911962032318,0.04580443352460861,-0.04744955152273178,0.08418011665344238,-0.0008488136809319258,-0.039781078696250916,0.010703644715249538,0.03665480762720108,-0.05591157451272011,-0.009448301047086716,0.007042495999485254,0.05294239521026611,-0.07068275660276413,0.022571196779608727,-0.0220585186034441,0.06437307596206665,0.02633107453584671,0.03398505598306656,-0.07382406294345856,-0.08394405245780945,-0.058718740940093994,0.04767489433288574,0.007948250509798527,0.03590318560600281,-0.07003811001777649,-0.04103870317339897,-0.09443975985050201,-0.032774049788713455,-0.04123932123184204,-0.005842785816639662,0.024329308420419693,-0.0255537498742342,-0.01461071614176035,-0.07984857261180878,-0.10719840973615646,-0.055836454033851624,0.0011709517566487193,-0.07900185137987137,0.014091630466282368,-0.02139819599688053,0.03495640307664871,-0.10265421122312546,-0.07501035928726196,-0.04571930691599846,-0.04264696314930916,0.009779596701264381,-0.03946230188012123,0.07044452428817749,-0.09265457093715668,-0.04660753905773163,-0.025056270882487297,0.012739580124616623,0.01874779723584652,-0.02858845889568329,-0.0036542019806802273,0.049021847546100616,-0.07502113282680511,0.028588006272912025,-0.12267839908599854,0.004497315268963575,0.01586155779659748,-0.018446672707796097,-0.11727134138345718,-0.05683746933937073,0.021781153976917267,-0.026170631870627403,-0.05401012301445007,-0.02108796499669552,-0.09054834395647049,-0.018810303881764412,-0.01573033630847931,0.011230708099901676,0.008701132610440254,-0.007161055225878954,-0.024552688002586365,-0.09634362906217575,0.05586063116788864,0.024688720703125,-0.07415840774774551,-0.1254435032606125,-0.1060921847820282,-0.12702393531799316,-0.07983779162168503,-0.006233897991478443,0.005492961499840021,-0.1079641580581665,-0.06980542093515396,0.052486319094896317,-0.04107986390590668,0.01802685111761093,0.0560460239648819,-0.05480852350592613,0.061982132494449615,0.02833588607609272,-0.05390659719705582,0.03458540514111519,0.06684664636850357,-0.06649530678987503,1.812238335609436,-0.0816015899181366,0.005427449941635132,-0.26969680190086365,1.4192503690719604,-0.0752599835395813,0.15874439477920532,-2.865478038787842,-1.4833483695983887,1.4478347301483154,1.4452927112579346,-0.6581581830978394,2.7804391384124756,-0.09802640974521637,0.030877791345119476,2.433584451675415,1.1669632196426392,0.3274463415145874,-0.32666152715682983,3.6075711250305176,1.9475816488265991,0.5797045826911926,-0.28465506434440613,-0.029508262872695923,-1.7133311033248901,-2.69122052192688,1.472080111503601,-0.5736313462257385,1.314018726348877,-0.49203622341156006,0.02633778005838394,-0.36123231053352356,-0.7745425701141357,1.273744821548462,0.39213183522224426,-1.0705440044403076,-0.0734335258603096,0.02814612351357937,-0.3936270773410797,-1.4642482995986938,-0.009388431906700134,0.07061620056629181,-0.9333347082138062,2.6454577445983887,-1.8965545892715454,0.07341615110635757,1.2754325866699219,-1.7444156408309937,0.030583512037992477,0.2774882912635803,0.9173542261123657,0.7256523966789246,0.9976394772529602,0.4526817798614502,1.821427583694458,-0.391543984413147,0.2249116450548172,-1.413030982017517,1.192899227142334,1.990392804145813,-0.13254857063293457,1.5214847326278687,0.6720991134643555,0.12879307568073273,-1.3886970281600952,1.6072338819503784,0.9697278738021851,0.9897173047065735,0.09043752402067184,0.7145769000053406,1.4975775480270386,0.7117369174957275,2.0387918949127197,-0.5056521892547607,2.5386006832122803,-0.08436597883701324,-1.8344833850860596,-0.03260986879467964,-0.022528596222400665,3.345005512237549,-2.657315492630005,-0.054814472794532776,0.014052771031856537,-0.0026874409522861242,0.16328690946102142,1.971471905708313,-0.08143166452646255,-0.34598180651664734,0.021147001534700394,1.0691097974777222,2.484741687774658,0.0393066331744194,-0.16046400368213654,-0.25713610649108887,0.014438951388001442,0.6024852395057678,-7.808931350708008,-0.06067464500665665,-2.077803611755371,0.10924497991800308,-0.4462723731994629,-1.576218843460083,-0.08058387786149979,0.020922454074025154,2.556431293487549,-3.5860631465911865,0.9815999269485474,-0.8483640551567078,-0.3413001596927643,3.369345188140869,0.1521257758140564,2.0499415397644043,2.3511855602264404,-0.7844926714897156,0.525479793548584,-1.174107313156128,-2.690406084060669,3.087897539138794,-1.4803956747055054,1.9736539125442505,-1.724395513534546,0.5732922554016113,-1.0202429294586182,3.004974365234375,2.049563407897949,0.6536160707473755,0.07514423877000809,0.38174909353256226,-0.9614200592041016,-0.0003627789847087115,-0.014238269068300724,-0.5177493691444397,2.196962356567383,-0.06881418824195862,0.08612717688083649,1.7909839153289795,0.39320963621139526,0.3285287022590637,0.9925747513771057,0.08620922267436981,-1.9907485246658325,0.6144041419029236,-0.05145064741373062,-1.2096220254898071,-1.649969458580017,0.19797280430793762,-3.491485118865967,2.6010448932647705,-0.7243905067443848,1.9251444339752197,0.7099303603172302,-0.011169283650815487,1.4581745862960815,-0.4292205274105072,-0.8611878156661987,0.2007366567850113,1.2505168914794922,-0.3106430768966675,0.2664092183113098,1.141237497329712,0.7449017763137817,0.8055193424224854,1.6838997602462769,0.3891020119190216,0.030255509540438652,0.45593252778053284,0.883245050907135,3.0989975929260254,-0.08028365671634674,-0.07733086496591568,1.1381638050079346,0.890602707862854,-1.1022785902023315,0.04701678082346916,3.22895884513855,-1.0549795627593994,0.029134156182408333,0.17213453352451324,1.3020789623260498,0.3456980288028717,-1.6748387813568115,0.2766931354999542,1.3748140335083008,0.28241682052612305,-0.253926545381546,-1.855547547340393,-1.5734583139419556,-0.1929095834493637,0.5590894222259521,-2.965028762817383,-0.15259984135627747,-0.5928818583488464,0.24378441274166107,-0.5435582399368286,-1.2341357469558716,0.7334903478622437,-1.9369484186172485,1.760048508644104,0.31005266308784485,0.18015415966510773,0.4556993842124939,0.06517819315195084,0.713444173336029,0.031941916793584824,1.8243839740753174,0.08599358052015305,-0.0641326755285263,0.4745338559150696,-0.1586548089981079,-0.021485134959220886,1.5769797563552856,0.071592777967453,0.47692081332206726,-0.20621199905872345,-0.06605615466833115,-1.2749810218811035,0.9129696488380432,0.04327927902340889,-0.8876404762268066,0.3466443717479706,0.5396910309791565,1.4175817966461182,-0.014313491061329842,0.7605662941932678,-0.26388049125671387,-0.02629544958472252,0.9013181328773499,-1.2628339529037476,0.8967466354370117,0.21120834350585938,-0.07651277631521225,-0.003264796454459429,1.9216415882110596,1.0275862216949463,-0.5168357491493225,1.8715741634368896,-1.7883374691009521,-1.4298803806304932,0.8100276589393616,1.0887876749038696,-0.7286637425422668,-1.6130069494247437,0.9561750292778015,-0.0652390569448471,0.16394856572151184,3.5316197872161865,0.44757184386253357,-1.1660176515579224,-2.004077434539795,-0.5664347410202026,0.3856230676174164,3.690220355987549,-0.1519961804151535,-2.2255501747131348,-0.0012301611714065075,1.0799295902252197,0.590811014175415,0.02333528734743595,-0.02660508267581463,1.7527892589569092,0.49755263328552246,-0.08452589064836502,-2.782360315322876,0.005161973647773266,-5.510324001312256,0.643639326095581,-1.9655309915542603,-0.7996028661727905,0.1063912883400917,-1.414243459701538,0.04601282998919487,3.126985788345337,0.14959895610809326,0.7770700454711914,7.799699306488037,-3.751431703567505,-1.754520058631897,-0.5886373519897461,-0.8887572288513184,0.05349905788898468,-0.625394344329834,-3.0222768783569336,0.843051016330719,0.3470365107059479,1.1469651460647583,-0.730111300945282,-0.3257119953632355,-0.2992342412471771,-2.1857376098632812,2.870102882385254,-0.7612781524658203,-1.0922170877456665,0.021914685145020485,-0.7893241047859192,-0.6403898596763611,-1.4805082082748413,-0.04696819558739662,-0.006754843518137932,0.2884075343608856,-0.08544367551803589,-3.70267653465271,0.07886014133691788,-4.432666778564453,1.1625096797943115,0.041186943650245667,0.02791130356490612,-0.9103673100471497,1.2101088762283325,-1.5909061431884766,2.4085185527801514,-4.350744247436523,0.5997253060340881,-1.2964147329330444,3.606862783432007,0.3130473494529724,-1.0299065113067627,-0.41689470410346985,2.4609439373016357,-0.6422954201698303,1.1289536952972412,-0.6928178071975708,1.675558090209961,0.3244337737560272,-1.794826865196228,1.306849479675293,-3.2047107219696045,0.7729979157447815,2.307359457015991,0.18129685521125793,-0.019305141642689705,-3.2153329849243164,-0.05892612785100937,-0.9972609281539917,-0.07938939332962036,0.05973167344927788,0.9446207284927368,-2.934811592102051,0.03240511938929558,1.6816240549087524,0.026526689529418945,-3.056574821472168,1.0826917886734009,0.009754118509590626,0.9931800365447998,-1.2184377908706665,-3.269705295562744,0.7234241962432861,-1.065952181816101,-0.058962978422641754,-2.400639295578003,-0.05467239394783974,-6.244793891906738,4.165956497192383,0.07423801720142365,-0.14971643686294556,0.49835190176963806,-0.8833630681037903,-1.3669787645339966,0.08144208043813705,0.08073848485946655,-3.190518617630005,0.4253768026828766,-0.2168714702129364,-1.6126290559768677,0.11639153212308884,-1.3833930492401123,-0.3685729205608368,-3.8174476623535156,-1.7992414236068726,1.7348259687423706,-0.4218750596046448,0.6778548955917358,0.37776243686676025,1.5634000301361084,1.2634245157241821,-1.2720335721969604,-1.527355670928955,0.6177191734313965,-2.1831514835357666,0.8365728259086609,2.174102783203125,0.36524954438209534,0.05273732915520668,-0.6752253770828247,-0.7497518658638,-0.055880356580019,0.057192113250494,3.563878297805786,-0.5276157855987549,-0.008950230665504932,-0.6057349443435669,-0.7414247989654541,-0.7451798915863037,-6.242751598358154,-0.3215722441673279,-0.27652353048324585,1.321163296699524,-0.2889932096004486,-0.07851263135671616,-0.8396682143211365,-0.7950602173805237,-0.7904936671257019,-4.9529619216918945,0.9997251629829407,1.1083312034606934,0.17499969899654388,-0.02453714981675148,0.05193924531340599,-0.4997554123401642,-3.047375202178955,-4.764166355133057,-4.093532562255859,-4.227121829986572,1.107026219367981,-0.11177588254213333,-0.9407158493995667,0.5551550984382629,1.8958500623703003,-0.06255603581666946,0.610277533531189,-0.025564517825841904,0.7173110246658325,1.1809666156768799,-2.66861629486084,-0.051762018352746964,-0.07868112623691559,-0.8444458842277527,-1.3565424680709839,-0.8929829001426697,-0.0332181416451931,0.05925186723470688,2.4000015258789062,-0.010035269893705845,2.0715479850769043,0.024159668013453484,1.8534836769104004,3.0512912273406982,1.371093511581421,-1.9576061964035034,0.7120859026908875,0.4161423146724701,0.030808288604021072,1.2197521924972534,2.4263551235198975,-0.24744220077991486,-6.082967758178711,-0.03700792416930199,0.5584883093833923,-0.9559534192085266,-2.1706721782684326,-0.8610199093818665,-1.6855175495147705,2.534857749938965,0.25648584961891174,-0.07144294679164886,3.217682123184204,-1.433310866355896,-0.13943985104560852,3.0541062355041504,-0.06357130408287048,-5.102761745452881,0.028297340497374535,-0.02356584370136261,1.6641573905944824,-5.698721408843994,0.04784323647618294,-0.7001742720603943,0.015075579285621643,-0.858619213104248,0.9456075429916382,0.08463505655527115,-1.6862705945968628,-0.38823172450065613,1.0670698881149292,-0.5878645181655884,-1.3165096044540405,-0.37479040026664734,2.8723464012145996,0.05139948055148125,0.25950050354003906,-1.4187082052230835,-0.028461692854762077,0.15099574625492096,-0.4908621311187744,0.7319857478141785,-0.3652334213256836,-0.05536824092268944,0.00990736298263073,2.105315685272217,0.3968474864959717,0.9974316358566284,-0.6256207227706909,-2.099876880645752,2.2227330207824707,-0.07512150704860687,1.8880066871643066,-2.039982795715332,1.7904984951019287,0.0042572165839374065,-0.8555576801300049,2.3415884971618652,0.3753893971443176,-2.4821128845214844,0.7416735887527466,0.6444888114929199,-4.169676303863525,-1.7499122619628906,5.319244861602783,-4.132440090179443,0.9642044901847839,-0.031069697812199593,0.5154308676719666,-0.7093076705932617,0.009441315196454525,0.017124980688095093,-0.07840820401906967,-0.44465145468711853,-0.04319962486624718,-0.3603050410747528,-0.7968453168869019,-0.22602839767932892,0.1483643800020218,-0.15108546614646912,-0.5751864910125732,-0.13940389454364777,-0.17341896891593933,-0.002267321338877082,0.27233171463012695,-0.05407930910587311,-1.0399881601333618,0.20190025866031647,-0.3575778901576996,-1.2310247421264648,-1.2035964727401733,0.05434226617217064,0.0881471261382103,-0.7956581711769104,0.24758869409561157,0.11309977620840073,-0.16431084275245667,0.12331996113061905,0.22630396485328674,-0.5123257040977478,-0.16406410932540894,-1.5252398252487183,0.3211315870285034,-0.1178646981716156,-2.37349009513855,-0.1267210692167282,-1.9324899911880493,-0.007438632193952799,0.6433737277984619,-0.022486617788672447,-0.001966561423614621,-0.030436106026172638,0.2990557551383972,-0.2675325870513916,0.017626876011490822,-0.38048896193504333,0.09307252615690231,0.039557259529829025,-0.2055836170911789,-0.544514536857605,-0.4408736824989319,-1.677270770072937,-0.5378410816192627,-7.755005754006561e-06,-0.11049894988536835,-2.913738965988159,0.10840170085430145,-0.32582372426986694,0.029381701722741127,-0.3166595697402954,0.44079089164733887,-0.45906558632850647,-0.10014321655035019,-0.43854981660842896,0.0682549998164177,-0.8017679452896118,-0.7404754757881165,-0.9434643983840942,-0.2743057906627655,-0.6802292466163635,-0.6656625270843506,0.1581164300441742,0.2800661325454712,-0.3859911561012268,-0.04976662993431091,0.12858325242996216,0.06816207617521286,0.022137273102998734,-0.06060495227575302,-0.09952711313962936,-0.028077440336346626,-0.4447159171104431,0.08666535466909409,-0.07680784910917282,-0.0773925930261612,0.04396208003163338,0.12715105712413788,-0.3546677529811859,-0.47683581709861755,-0.14376451075077057,-0.5913276672363281,-0.5598360300064087,-1.4801928997039795,0.021650098264217377,-0.5158982276916504,-0.4466976821422577,-0.009706934913992882,-0.7826665639877319,0.08972848206758499,-0.3889909088611603,0.05497414246201515,0.0048704370856285095,0.08018027991056442,0.09821146726608276,-0.7912912368774414,0.010075838305056095,-1.2777451276779175,0.16933993995189667,-0.16041705012321472,-0.24886707961559296,-0.45225098729133606,-0.7043265104293823,-0.7292171716690063,0.17541204392910004,-1.281619668006897,-0.0723365992307663,0.016205020248889923,0.4591604471206665,-0.8482749462127686,-1.8120161294937134,0.3770524859428406,0.16200044751167297,-0.3247317373752594,0.1421436369419098,-1.0259844064712524,-0.0737048089504242,-0.6497052907943726,-0.5027368068695068,0.0681643933057785,0.02595318667590618,-0.8357449769973755,1.2937911748886108,-0.018048608675599098,-1.2444350719451904,2.3477494716644287,0.03540125861763954,-1.6745059490203857,-1.738081455230713,-4.078690528869629,-0.8115182518959045,-0.8681314587593079,-0.007713863626122475,-4.475232124328613,0.19269618391990662,-2.546647310256958,-4.606227874755859,2.302727699279785,-0.6268687844276428,0.6593396663665771,0.4638533890247345,0.03502114489674568,1.9277474880218506,0.39402857422828674,-3.3277699947357178,-1.5457957983016968,-0.6249550580978394,-1.0619351863861084,0.10220737755298615,0.45688557624816895,0.47163188457489014,-0.850490391254425,0.621326208114624,-0.514153778553009,0.02035764791071415,0.7796913981437683,0.9887919425964355,2.675938129425049,-0.02511890046298504,0.0626135990023613,0.5224441289901733,-0.3766043186187744,-0.08278103917837143,0.056201640516519547,-0.23472745716571808,-5.349555015563965,-0.08521347492933273,0.1272800862789154,0.46606263518333435,-0.016398895531892776,-0.19189094007015228,0.7145004272460938,0.9126714468002319,-1.1429797410964966,-1.6518832445144653,-1.3371102809906006,0.4332975745201111,-1.6495285034179688,0.5803165435791016,-2.660369396209717,0.5925595760345459,-2.2383105754852295,0.22450049221515656,-0.2169632464647293,0.24051684141159058,-0.1300709992647171,-1.913014531135559,-1.1637609004974365,-1.1581366062164307,-2.066267728805542,0.8307468295097351,-0.02227615937590599,-1.3312807083129883,-0.03044998086988926,-1.3488401174545288,-0.019911151379346848,0.015958618372678757,-0.12227967381477356,-0.3735847473144531,-0.04177739843726158,2.351978063583374,0.08042994886636734,-2.334533214569092,0.10465282201766968,0.027100181207060814,-2.219571828842163,-0.26493144035339355,-0.23101966083049774,-4.164999008178711,-0.008046002127230167,0.5438454747200012,0.09036198258399963,-0.012105375528335571,-2.532141923904419,0.16709011793136597,0.04858216643333435,0.9609265327453613,-1.7765719890594482,-0.8230884075164795,0.7638339996337891,-0.022881165146827698,0.07309101521968842,-1.7491406202316284,1.7081102132797241,-1.552129864692688,1.9890719652175903,-0.5962756276130676,-2.6087450981140137,-2.05937123298645,-1.0868622064590454,1.6081547737121582,-1.667578101158142,-0.6022043228149414,0.40926745533943176,-0.022217830643057823,0.4604882597923279,0.08235631138086319,-0.5528824925422668,-3.285804510116577,-2.2102205753326416,-4.436695098876953,3.849987506866455,-1.3124030828475952,-1.079087495803833,-0.044357217848300934,1.46766197681427,0.35991185903549194,0.05955372750759125,-0.012279083952307701,2.6145994663238525,-0.06292774528265,0.041524726897478104,-0.21339668333530426,-0.15885142982006073,1.2022956609725952,-1.8644962310791016,-0.49239441752433777,-2.4070279598236084,-2.7217559814453125,-0.6236352920532227,0.031668003648519516,-1.015851378440857,-1.4380086660385132,0.12947946786880493,-1.1857985258102417,2.5552608966827393,0.002211896935477853,-0.6607286930084229,-2.632138729095459,0.048947419971227646,-1.9965370893478394,0.215244323015213,-0.2593938708305359,0.27890297770500183,-1.36777663230896,-0.9576072692871094,-0.10687977075576782,-1.6892269849777222,-0.7206688523292542,0.4827253818511963,-0.692291796207428,0.0769205093383789,-0.02124593034386635,0.2079389989376068,-1.6236402988433838,0.05194367095828056,0.01621314510703087,-0.05700182169675827,-0.6599596738815308,-1.878211498260498,0.29317033290863037,-0.06774800270795822,-0.7544771432876587,0.628299355506897,-0.0047807274386286736,-1.6776297092437744,-0.10252635180950165,-0.5133001804351807,-0.750417172908783,-0.09814600646495819,-1.874085783958435,-0.036861103028059006,0.11539769172668457,-1.6152503490447998,-2.5089924335479736,-0.3038124442100525,-0.5854576230049133,-1.0739781856536865,0.017033755779266357,0.03216760978102684,0.22622448205947876,-0.6148945689201355,-2.7208874225616455,0.1776687204837799,-0.5813036561012268,-0.4596593976020813,0.3108869194984436,-2.635820150375366,-2.53959321975708,-1.3739584684371948,-1.0068985223770142,0.05446978658437729,-0.874833881855011,-0.057710446417331696,0.06342915445566177,-0.6113609075546265,-0.41579294204711914,0.01956970803439617,0.11253092437982559,0.07578536123037338,-1.715919852256775,-1.5923926830291748,-0.08491717278957367,-0.9870187640190125,-2.7338314056396484,0.10934741795063019,-1.8269754648208618,-3.1966302394866943,-0.08119082450866699,0.4504571259021759,-0.03727317601442337,-0.1200028508901596,-1.1636757850646973,0.059963006526231766,-1.6363813877105713,-0.20611415803432465,-0.110561802983284,0.5182603001594543,0.019656699150800705,-0.046602506190538406,-0.44118204712867737,0.15152877569198608,-1.3375719785690308,-0.04727720841765404,-0.3355184495449066,-1.331115961074829,-2.688060760498047,-0.2470092475414276,-0.14928443729877472,-0.009911824017763138,-0.07646270841360092,1.1867245435714722,-1.636204719543457,-1.6308270692825317,-0.10114645212888718,-0.1460985690355301,-0.4513903856277466,-0.8782736659049988,-0.6962894797325134,1.7545416355133057,-2.618454933166504,-3.50471568107605,0.08489592373371124,0.11226274818181992,-5.1923508644104,0.041110340505838394,-0.0732407197356224,1.1011037826538086,-0.11403613537549973,-0.0771014615893364,-1.3105093240737915,-0.8428956270217896,-5.066681385040283,-1.946441411972046,-7.337611198425293,-9.223794937133789,-8.631741523742676,-1.3744994401931763,0.08567110449075699,-4.104670524597168,-2.140181064605713,-2.8472063541412354,-3.1666176319122314,-1.9648118019104004,-2.0639495849609375,-1.4713550806045532,0.5785858035087585,0.061382878571748734,1.494946002960205,-4.695440769195557,-3.5208945274353027,0.27339887619018555,-1.1930569410324097,-0.5383191704750061,0.1351137012243271,0.486307829618454,0.40106794238090515,-4.956266403198242,3.4335367679595947,-0.1172700971364975,-0.06110981106758118,0.55272376537323,0.9182584881782532,0.000668849446810782,0.01677962951362133,-0.057020869106054306,-2.305917263031006,-3.432525634765625,-7.19343376159668,0.01766456663608551,-2.023953676223755,-4.382675647735596,-0.007206426002085209,-0.40326496958732605,-1.1164175271987915,-0.1547696739435196,0.23124565184116364,-1.477783203125,-1.8564945459365845,0.15352575480937958,-1.5552836656570435,-4.72434139251709,1.05557382106781,-6.887236595153809,0.06878173351287842,-0.7538629174232483,-0.20121638476848602,0.13947781920433044,-0.46091189980506897,-2.495927095413208,0.4892086684703827,0.16559769213199615,-1.5845975875854492,-3.085109233856201,-7.0849175453186035,1.7197061777114868,-3.5692873001098633,0.5119464993476868,0.18972814083099365,0.056164100766181946,0.4543379843235016,-0.042677685618400574,-0.0348244346678257,1.9236531257629395,1.6729792356491089,-0.019257927313447,1.3791800737380981,-0.0766298919916153,-5.5073018074035645,0.7844350934028625,0.0012380426051095128,-1.3780012130737305,0.30286020040512085,-0.8332749009132385,-7.556591510772705,0.6452587842941284,2.2510063648223877,-2.8436338901519775,-0.08779986947774887,-6.647483825683594,1.759964108467102,0.03678686544299126,1.0214784145355225,-1.2476733922958374,-0.4435458779335022,-1.6131688356399536,-0.018331823870539665,-0.050289660692214966,0.1910540908575058,0.40730708837509155,-3.4229838848114014,0.24323539435863495,-1.3392608165740967,-0.9123077988624573,0.371105819940567,1.1841959953308105,-0.16572122275829315,-0.39127859473228455,-0.03346363082528114,0.3827272653579712,-0.17499743402004242,1.9318287372589111,1.4251822233200073,-0.3998470604419708,-1.6457610130310059,-6.775067329406738,-1.59916090965271,-9.225915908813477,-4.097805500030518,0.7699097990989685,0.05206768959760666,1.1816331148147583,0.019223660230636597,0.08003454655408859,-0.08629544079303741,-0.03708112984895706,-0.10080087184906006,-0.07780491560697556,-0.056652601808309555,-0.0249008946120739,-0.14725206792354584,-0.027488872408866882,0.01641024649143219,0.0799190029501915,-0.030426159501075745,-0.10815799236297607,-0.06332959979772568,-0.037799395620822906,0.048669520765542984,0.06174882873892784,-0.12134817987680435,0.0766395702958107,-0.06408900022506714,-0.054753948003053665,0.06108294799923897,-0.07853332906961441,-0.07035612314939499,0.035274624824523926,-0.11183374375104904,-0.03424098342657089,0.04324707016348839,-0.04635770246386528,-0.07223710417747498,-0.09853158891201019,-0.09668160229921341,-0.05301901698112488,-0.12596888840198517,-0.04811175540089607,-0.03516921401023865,-0.07653141021728516,-0.011478215456008911,-0.11657460778951645,0.037090007215738297,0.006035470869392157,-0.07478144764900208,0.010393842123448849,-0.01874643936753273,0.003560944925993681,-0.012960940599441528,-0.01916087605059147,-0.0551498681306839,-0.09344813972711563,-0.07502385973930359,-0.0035693624522536993,0.00802510604262352,0.026527756825089455,-0.029539335519075394,0.0446966290473938,0.033716730773448944,-0.0644931048154831,-0.046803876757621765,-0.09155190736055374,-0.03817584365606308,-0.07143723219633102,-0.026825763285160065,-0.05890442803502083,-0.11234363913536072,0.029085487127304077,0.019236160442233086,-0.11244813352823257,-0.0032549016177654266,-0.04051980376243591,-0.014643171802163124,-0.13159719109535217,-0.07281391322612762,-7.399584137601778e-05,-0.06309854239225388,-0.02532961219549179,0.03303986415266991,0.03400223329663277,-0.004070258233696222,-0.0851765051484108,-0.08123915642499924,0.08619745075702667,0.0032911570742726326,0.006415129639208317,0.0719631090760231,-0.03610199689865112,0.01032999251037836,0.0055358135141432285,-0.007638676092028618,-0.0597916916012764,0.05309567600488663,0.029673999175429344,-0.08855476975440979,-0.06697317957878113,-0.010326294228434563,0.054866354912519455,0.04031321033835411,0.05275586247444153,-0.04232592135667801,-0.028847413137555122,-0.06458504498004913,-0.12997989356517792,-0.007268150337040424,-0.02432318776845932,-0.07184145599603653,-0.08608972281217575,-0.09342902153730392,0.12150020152330399,-0.017983155325055122,0.04309263825416565,0.0038082983810454607,0.06161345914006233,-0.08919356763362885,-0.03785135969519615,0.04027865082025528,-0.04198259115219116,0.010224675759673119,-0.05198763683438301,-0.02521844394505024,-0.08825745433568954,0.010897924192249775,-0.01276867464184761,-0.08318941295146942,-0.02886211685836315,-0.0977858379483223,-0.02110055275261402,0.06651339679956436,-0.065180703997612,0.5528636574745178,0.00881621427834034,0.047080568969249725,0.77447509765625,1.429166555404663,-0.05475394055247307,0.294906347990036,0.3286699652671814,2.623621702194214,1.1032696962356567,0.07692159712314606,-0.9719942808151245,-1.4475380182266235,-0.5194160342216492,-0.028465496376156807,0.7369219660758972,0.7205973863601685,-0.49516725540161133,-1.9848709106445312,0.21966107189655304,-1.5699663162231445,2.295224666595459,-0.20500056445598602,0.06934972107410431,-1.089809775352478,2.385605573654175,0.2007652074098587,1.042943000793457,-9.50437068939209,-10.242301940917969,-0.18109165132045746,-0.22552484273910522,-0.378322571516037,1.596211552619934,-1.5604039430618286,-0.6792845129966736,0.0674687996506691,1.990465521812439,-1.2231266498565674,-0.9955897331237793,-0.05711223557591438,0.027625340968370438,-3.574458122253418,1.1525988578796387,2.1233112812042236,-0.08282002806663513,-3.3777222633361816,2.420053482055664,-0.04943513497710228,1.1488277912139893,-1.0304784774780273,-1.6735937595367432,-1.2833597660064697,-0.3693264126777649,-4.166893482208252,-5.5386128425598145,-0.1366334855556488,-0.09724871069192886,-0.907318651676178,-1.5823822021484375,-0.3226638734340668,0.032563358545303345,-1.4809519052505493,-0.5889066457748413,0.7540684938430786,-0.2819041311740875,-0.6456361413002014,0.8604089617729187,-1.1182810068130493,1.1963958740234375,1.2845081090927124,1.3011143207550049,-0.2951364815235138,-1.20396089553833,-0.26352596282958984,-0.029278025031089783,1.8968472480773926,0.06803999841213226,0.007597991731017828,-1.021775245666504,-0.13620838522911072,-0.07974783331155777,-3.250929117202759,0.0571729801595211,0.04210202768445015,-1.3729898929595947,0.04188951104879379,1.0277146100997925,-1.9336339235305786,-1.0081266164779663,-1.810217261314392,-0.8124465346336365,-0.22907280921936035,2.483555316925049,0.049907293170690536,0.7238156199455261,-1.6329545974731445,-0.014775916002690792,-1.114811658859253,1.1618667840957642,-0.4854450225830078,1.4516750574111938,0.045555926859378815,0.07802055031061172,0.9540325999259949,0.4149393141269684,-4.091066360473633,-0.9674103856086731,2.1600277423858643,0.21068072319030762,-2.3281524181365967,-3.1003620624542236,0.058017779141664505,-1.4091699123382568,4.202793121337891,-0.321258544921875,0.46270695328712463,-2.101609945297241,1.3733750581741333,0.6102725267410278,0.6026502251625061,-1.7177170515060425,1.813857078552246,0.006616558879613876,-3.1526315212249756,-3.3034238815307617,-0.04492693766951561,0.5715718865394592,-0.06587834656238556,0.04845096170902252,0.06086335703730583,-0.054090291261672974,0.0372568741440773,0.08146654069423676,0.00897243432700634,-0.07319512218236923,0.007491786498576403,-0.059258125722408295,-0.10800569504499435,-0.07986605912446976,-0.012927521951496601,-0.046733465045690536,0.03935687243938446,0.020475000143051147,-0.07728438824415207,0.03213120996952057,-0.09698877483606339,-0.026690568774938583,-0.048452142626047134,-0.03641008585691452,-0.09713291376829147,0.02213456481695175,-0.01627606339752674,0.029147354885935783,-0.05519118160009384,-0.03558187931776047,-0.08027689903974533,-0.09258025884628296,-0.07956862449645996,0.027367329224944115,0.05630003288388252,0.020660806447267532,-0.11432059109210968,0.023750292137265205,-0.05150792747735977,-0.05965935438871384,0.007481666281819344,0.08249012380838394,0.025522319599986076,0.004153203219175339,-0.05852404981851578,-0.018599655479192734,-0.05414352938532829,-0.023358425125479698,-0.02813236601650715,-0.06643517315387726,0.014931290410459042,0.03332792595028877,-0.031175823882222176,0.021589184179902077,-0.058959558606147766,-0.08949154615402222,-0.01951698586344719,-0.03052361123263836,-0.041083380579948425,0.04052386060357094,0.011970149353146553,-0.059422675520181656,-0.09125075489282608,-0.0844516009092331,-0.07150525599718094,-0.061166439205408096,0.05255741998553276,0.020230086520314217,0.027857454493641853,0.028772318735718727,0.02716187946498394,-0.05022093281149864,-0.0011440106900408864,-0.06815081089735031,0.0010510418796911836,-0.03865426406264305,0.014049751684069633,0.040872715413570404,-0.05607584863901138,-0.032089345157146454,0.013973576948046684,0.019236551597714424,0.0012194802984595299,0.0470971018075943,-0.08082650601863861,0.07782101631164551,-0.08346852660179138,0.10117737948894501,-0.03349166736006737,-0.03409198299050331,-0.07368027418851852,-0.005502304993569851,-0.08717497438192368,-0.03065117448568344,-0.006852810736745596,-0.02267901599407196,0.022620055824518204,-0.12657491862773895,-0.08004540205001831,0.07096606492996216,0.05220739170908928,0.03646966069936752,-0.10510172694921494,0.030863899737596512,0.08043891191482544,0.020344514399766922,0.0019643264822661877,-0.10953909158706665,-0.047933828085660934,0.026567960157990456,-0.05690866708755493,-0.09385371953248978,0.05373113229870796,-0.09739317744970322,-0.07390285283327103,-0.03384963050484657,0.04075934365391731,-0.03842177242040634,-0.03356108441948891,-0.04865266755223274,-0.057715434581041336,-0.09804941713809967,0.006606753915548325,-0.020191378891468048,0.01463968027383089,0.042275696992874146,0.004460294730961323,-0.04872208088636398,-0.004379647318273783,-0.035631194710731506,-1.002579689025879,-0.024015136063098907,-0.08176332712173462,3.7551324367523193,-4.6068949699401855,-0.07888692617416382,0.22202803194522858,0.22631554305553436,-4.135246276855469,1.0809388160705566,-0.9220908284187317,-0.7312132120132446,-0.9097487330436707,0.04797681048512459,-0.08233950287103653,-1.0628471374511719,2.62534499168396,-0.425491601228714,1.3931611776351929,-2.081965684890747,-1.8965644836425781,1.0317790508270264,0.024049516767263412,0.0331813283264637,0.2511884272098541,-1.5515905618667603,-1.6209052801132202,-0.8709798455238342,-2.4553675651550293,1.4270164966583252,-2.1981098651885986,0.8335925340652466,-0.6918832659721375,0.47930166125297546,0.699449896812439,0.9711865186691284,-0.0006156706367619336,0.7488069534301758,-2.7943527698516846,-3.3105502128601074,0.010702960193157196,0.00841762125492096,0.0413038432598114,-1.9707651138305664,-3.722027540206909,-0.04393070191144943,-2.0023367404937744,-0.47260352969169617,-0.04855626821517944,-1.3356422185897827,-0.7831660509109497,3.4552385807037354,1.5914052724838257,2.595669984817505,-3.878448009490967,-2.8976681232452393,-0.05818617343902588,0.7984068393707275,1.652712345123291,-0.231667160987854,0.053663093596696854,-0.9947540163993835,-3.115572929382324,-0.9358499646186829,-0.7976399660110474,-0.8831024765968323,0.4003659784793854,-2.276263475418091,1.7929972410202026,-0.659773051738739,-4.3240509033203125,0.012704262509942055,-1.3445390462875366,-2.451385974884033,-1.0783158540725708,0.022741079330444336,1.782875895500183,-0.040195196866989136,0.00015772857295814902,-1.3111310005187988,-1.377366065979004,0.06701928377151489,2.128814935684204,0.04496888443827629,1.1667836904525757,-0.38833704590797424,0.06497184932231903,-6.55683708190918,0.4199218451976776,2.126232862472534,-4.775617599487305,1.0586986541748047,-0.0864856094121933,-2.5046980381011963,-0.05303756147623062,0.676136314868927,-1.6369616985321045,-0.023201607167720795,0.9191680550575256,-1.4973965883255005,-0.7481935620307922,-2.0469908714294434,0.02053545042872429,0.031218497082591057,-2.2814154624938965,-0.7731202244758606,-0.21848833560943604,-0.4736209511756897,-1.0816818475723267,1.007955551147461,1.6660913228988647,1.1098833084106445,1.1026772260665894,-1.770975947380066,-0.263791024684906,1.636569857597351,1.6451771259307861,0.33866214752197266,-1.1589491367340088,-0.4588184058666229,1.860282063484192,0.052304912358522415,-4.821483135223389,4.100488662719727,-0.7320818305015564,0.9693273305892944,0.005162124987691641,-0.1179661825299263,-0.9809125065803528,-0.028493091464042664,0.055705659091472626,-1.1506762504577637,-0.31521376967430115,-0.07831306010484695,-0.6474916338920593,1.9983654022216797,-1.7279729843139648,-0.4398197531700134,-0.3409525156021118,-2.340000867843628,0.6402375102043152,-0.25953394174575806,-0.034338194876909256,-1.001378059387207,-2.2455389499664307,-0.9924595355987549,-1.355468511581421,-0.27420762181282043,0.008171536028385162,1.0702427625656128,0.3757053017616272,0.0685214176774025,1.782665491104126,0.16094224154949188,-0.12310194224119186,0.11861935257911682,-0.3148305416107178,0.912411630153656,0.2810707688331604,0.2410796731710434,0.3761734068393707,-4.428552150726318,2.6162269115448,0.41480594873428345,-0.045856159180402756,0.9543087482452393,1.3320984840393066,3.7720556259155273,0.07114789634943008,0.03228791058063507,2.1672308444976807,-0.1354876160621643,-4.384194374084473,0.056613627821207047,0.5507076382637024,-4.273830413818359,-0.053031954914331436,-0.2907458245754242,-0.4635462164878845,0.6058322191238403,0.18756020069122314,-1.300369143486023,-1.020599365234375,-0.3277272582054138,-0.2598760426044464,-1.145435094833374,-0.05309993401169777,-4.127286434173584,0.5968560576438904,-3.4051685333251953,-0.4337145686149597,-0.10777360945940018,0.5193737745285034,-1.8103344440460205,0.5084338188171387,0.7263705134391785,-1.989883542060852,-0.8994053602218628,-0.5442048907279968,-1.054184079170227,-1.096558928489685,-0.057353727519512177,-5.918700218200684,0.06984498351812363,0.9983126521110535,-0.06403206288814545,0.009504130110144615,2.082759380340576,-1.3827242851257324,-0.02064516954123974,1.474242091178894,0.05676809325814247,-0.7042890191078186,0.7541466355323792,-0.04523426294326782,-2.1494674682617188,0.2106815129518509,-3.1961939334869385,-2.1669235229492188,1.2632901668548584,1.0025851726531982,-0.13665130734443665,0.018517259508371353,-0.4584673345088959,1.3874766826629639,-0.08604803681373596,0.8244559168815613,2.4054219722747803,0.3013472855091095,-0.017105238512158394,-0.009462272748351097,-0.01944437436759472,0.660493016242981,2.3713653087615967,-0.37273240089416504,-0.44516295194625854,-0.017557542771100998,0.718881368637085,-0.026952609419822693,-0.24283607304096222,0.6226378679275513,-1.2650293111801147,0.18903769552707672,0.6730376482009888,0.016096387058496475,1.8539657592773438,0.28010109066963196,0.11162904649972916,-8.424281120300293,-0.2789706587791443,-13.52517032623291,-6.883625030517578,-1.3276938199996948,1.554906964302063,0.08456744998693466,1.479233980178833,0.35690510272979736,0.06419403105974197,-0.07540257275104523,5.547093868255615,-1.5812681913375854,-0.052274346351623535,0.3654877841472626,-1.015774130821228,-0.7748557925224304,-2.5551257133483887,3.0757412910461426,-0.3760259449481964,-0.9025695323944092,-0.574338972568512,0.012947321869432926,-0.2747950255870819,2.4864134788513184,2.2807743549346924,0.9863032698631287,-1.6155205965042114,2.068579912185669,0.2131614238023758,0.22451965510845184,0.07550880312919617,0.6813322305679321,0.5260030031204224,-2.5613555908203125,-0.2204296886920929,0.9430831074714661,-1.2012255191802979,-0.7335720062255859,0.2680034637451172,1.1637065410614014,-0.6032019853591919,0.17970937490463257,0.22452768683433533,0.0677950382232666,0.9176086783409119,-0.01329443883150816,0.6544442772865295,-0.05939691886305809,0.06104639172554016,0.5685201287269592,0.635019838809967,1.0094655752182007,0.03968974947929382,1.9271607398986816,-4.637179374694824,0.0783274695277214,0.9455420970916748,0.17733323574066162,2.771235942840576,1.947035551071167,2.5075716972351074,-1.6662992238998413,0.4279119074344635,-0.18274220824241638,2.388460636138916,0.622879683971405,-1.6778010129928589,0.18318644165992737,0.5712270140647888,1.7458957433700562,1.7867847681045532,0.15828357636928558,-0.6046841144561768,2.508809804916382,-0.5547612905502319,1.5654817819595337,-0.5030571818351746,-1.9395742416381836,1.161388635635376,-1.7778202295303345,0.28763502836227417,-4.240325927734375,-0.011013560928404331,-0.0948357954621315,0.010247363708913326,0.06554554402828217,-0.008565142750740051,-0.6997932195663452,-0.08036200702190399,2.0451223850250244,0.05474405735731125,0.6061252951622009,1.2391357421875,-0.05723392218351364,-5.992072105407715,-0.5776348114013672,-1.962137222290039,0.2752135396003723,1.3629481792449951,-1.198149561882019,-5.575636863708496,0.023972759023308754,-0.7899028658866882,1.5472935438156128,0.02061203122138977,1.0970200300216675,-3.0369229316711426,1.9738576412200928,-0.017697228118777275,0.020751938223838806,-0.05592356622219086,-5.0036821365356445,-0.07080207765102386,0.9971023797988892,-0.8952425122261047,-0.44734320044517517,1.5073487758636475,0.8489274978637695,0.16678763926029205,-0.3562498092651367,0.7993240356445312,0.14761248230934143,-0.5197573304176331,1.2299821376800537,-1.0752760171890259,-1.652557373046875,2.3708183765411377,-2.0198757648468018,-1.7805469036102295,-4.888591289520264,1.7952090501785278,-1.678008794784546,2.0795700550079346,-0.06058529391884804,-0.3598463535308838,-0.5974878072738647,-0.03120259754359722,0.04726273939013481,-1.7931996583938599,-1.043237328529358,-0.014540314674377441,-2.500859498977661,-1.4688036441802979,0.37600812315940857,1.218981146812439,-4.016983985900879,-1.852159857749939,-0.5283219218254089,-0.7717769742012024,0.05537870153784752,2.2107110023498535,1.9468798637390137,-6.884531021118164,6.667752742767334,-1.3607455492019653,0.9514358043670654,-0.647750198841095,-1.9314552545547485,0.0021451376378536224,3.4909210205078125,1.6420483589172363,0.28074392676353455,0.7107791900634766,-2.824737310409546,-1.8589268922805786,0.6304628849029541,-0.46886858344078064,0.5185869336128235,0.5217792987823486,-3.540109157562256,-1.3815230131149292,0.036785684525966644,-1.7086727619171143,-5.597092151641846,-0.5674943923950195,-0.028412602841854095,-0.049521997570991516,-0.43833303451538086,1.824724555015564,0.8225857019424438,0.06365159898996353,-0.2296241670846939,-0.003621496492996812,-0.0039643533527851105,-3.3434247970581055,-1.4546189308166504,-0.8310327529907227,-1.2025681734085083,1.6376863718032837,-3.1206250190734863,-5.377852916717529,-3.401610851287842,3.3598973751068115,-3.4592533111572266,0.1681791990995407,0.29398882389068604,2.6214544773101807,4.8045430183410645,-2.575537919998169,0.4408467411994934,1.519783616065979,-2.496760129928589,-0.5089206695556641,1.27069890499115,1.6546454429626465,-1.7352279424667358,1.8789085149765015,1.3210221529006958,-0.9300544261932373,-2.8815248012542725,0.04066647216677666,2.1670491695404053,-0.06602095067501068,0.10014083236455917,1.3169257640838623,2.063187599182129,0.06864012777805328,1.751894235610962,0.08065309375524521,-2.489514112472534,-0.48286792635917664,0.020997390151023865,0.6797658801078796,-3.9920403957366943,-3.1165976524353027,-0.8862771391868591,-2.705432176589966,2.130396842956543,-1.6554607152938843,-0.08713141828775406,-2.3683218955993652,-0.4796707034111023,-0.02760564722120762,0.7416719794273376,0.38260069489479065,-0.026857692748308182,0.6887279748916626,-0.06488224864006042,-0.0018115452257916331,0.3943629264831543,-0.8649058938026428,-0.2866395115852356,1.681121587753296,2.228107213973999,-0.3447158634662628,-3.8707284927368164,-3.311837673187256,-3.4866631031036377,1.9139901399612427,-3.5914297103881836,-4.233541011810303,1.807453989982605,3.06990385055542,0.9314051270484924,0.6148545145988464,-7.223487377166748,1.3639947175979614,2.7040295600891113,-0.33248791098594666,3.2695529460906982,-0.4318196177482605,0.0193888358771801,-2.665708303451538,-0.060213036835193634,0.019461559131741524,-0.03093084506690502,0.06718939542770386,0.07268150895833969,0.055386681109666824,-0.039838917553424835,-0.02275952138006687,-0.010702661238610744,0.002485804958269,0.04272739961743355,0.037997495383024216,-0.05986149609088898,-0.018488923087716103,0.03736152499914169,-0.05199401080608368,0.01598357781767845,0.0036739357747137547,0.011709384620189667,0.007021944969892502,-0.11070200800895691,-0.025449559092521667,-0.1028904914855957,-0.0521157905459404,-0.1061968132853508,-0.07524847239255905,0.02546999789774418,-0.04603103920817375,-0.0847882330417633,-0.10168968141078949,0.0443161241710186,0.015005253255367279,-0.09538348019123077,-0.017338665202260017,0.01705068163573742,-0.07723182439804077,-0.018846647813916206,-0.050166673958301544,0.046370189636945724,-0.04718059301376343,0.0710739716887474,-0.024388747289776802,0.0024347002618014812,-0.017787998542189598,-0.03458726406097412,0.036592062562704086,-0.006250223610550165,-0.0325915701687336,-0.029977945610880852,0.03870565444231033,-0.04191375896334648,0.0660461038351059,-0.027420565485954285,-0.053881071507930756,-0.018001308664679527,-0.06425942480564117,-0.00931033305823803,-0.07459495961666107,-0.03193292394280434,-0.07626474648714066,0.05008132755756378,-0.007777705322951078,-0.09434215724468231,0.03252040222287178,0.08067167550325394,-0.11415603011846542,0.001050122082233429,-0.10761323571205139,-0.060157548636198044,-0.01826256886124611,-0.08646207302808762,-0.09266910701990128,-0.08973363041877747,0.04739687591791153,-0.11774327605962753,-0.036379050463438034,-0.0793088972568512,0.030759338289499283,0.042850688099861145,-0.044602327048778534,-0.07913932204246521,0.0031729096081107855,0.04569563642144203,0.01909666322171688,0.02651078999042511,-0.03854389116168022,-0.08794157207012177,-0.08761683851480484,-0.13842932879924774,-0.06971931457519531,-0.04533257335424423,0.015604665502905846,-0.039005640894174576,0.018376793712377548,-0.05976925790309906,-0.058674488216638565,-0.015242225490510464,-0.07620711624622345,0.045581571757793427,-0.0770876333117485,-0.07665644586086273,0.0031419196166098118,0.03985777869820595,0.013029097579419613,-0.08670037239789963,0.05709695443511009,-0.06152772903442383,-0.05819030851125717,0.009722648188471794,-0.09800220280885696,-0.012850749306380749,0.03886422514915466,-0.08261395990848541,0.014613157138228416,-0.060875751078128815,-0.046626053750514984,0.05255505442619324,-0.07521699368953705,-0.02377733774483204,-0.06868930906057358,0.022369032725691795,-0.07680097222328186,-0.07269320636987686,-0.031312741339206696,-0.07755831629037857,-0.09560922533273697,0.04897308722138405,0.03901069238781929,0.23884938657283783,-0.006924769375473261,0.022648178040981293,-1.2880686521530151,1.608606219291687,0.009766878560185432,0.09779039025306702,-1.8139652013778687,-0.5603588819503784,0.05797785893082619,0.8179396390914917,-0.38759279251098633,1.1592096090316772,0.6610662341117859,0.03255438432097435,-2.2002806663513184,2.0512218475341797,1.1167267560958862,2.1889002323150635,-1.499699592590332,-0.600825309753418,-0.7505201101303101,1.030379295349121,0.041503001004457474,0.7436360716819763,0.22204098105430603,1.6248929500579834,0.9705072045326233,0.21136929094791412,0.823520839214325,-0.4733373820781708,0.31588268280029297,-1.6720649003982544,4.215674877166748,-1.2259676456451416,0.27811750769615173,-0.11625754833221436,0.2680830955505371,-1.4183151721954346,-1.8390684127807617,-0.08249935507774353,0.06344872713088989,2.503770112991333,0.8029824495315552,-0.025642210617661476,-0.0783519372344017,-0.6403577327728271,-1.0212364196777344,-0.007717561908066273,0.32759371399879456,0.22716835141181946,1.3369877338409424,1.2440763711929321,1.6699910163879395,-1.5588606595993042,-0.5315465331077576,0.21775874495506287,0.9581387042999268,0.8873696327209473,0.5606088638305664,-0.4623177945613861,0.0488886833190918,0.07122380286455154,-0.37957772612571716,-0.04408219829201698,-1.5626894235610962,0.6194654107093811,-0.7533491849899292,1.8532910346984863,0.011749966070055962,-0.9397691488265991,0.9514466524124146,1.9793058633804321,0.3043905794620514,0.054028965532779694,-0.052037689834833145,0.88860023021698,-0.06785726547241211,-0.00989646464586258,-0.5469906330108643,1.5447897911071777,0.0660398006439209,0.5194697380065918,-0.06498176604509354,-0.6551478505134583,-1.405429482460022,-0.0010681907879188657,0.4207709729671478,1.7757055759429932,0.2579176127910614,1.283631443977356,0.2635667622089386,0.2959735691547394,-0.9435184597969055,0.010974101722240448,0.6139551401138306,1.143398642539978,0.027087336406111717,0.47063755989074707,-1.6541903018951416,-0.9047319889068604,-0.19468103349208832,0.017656104639172554,0.030354227870702744,-1.362880825996399,-1.5065797567367554,0.8974642753601074,0.3744727671146393,-2.1590664386749268,-1.7326228618621826,1.1841559410095215,0.572178065776825,-0.21881790459156036,-2.3440093994140625,-0.7557352781295776,0.26707062125205994,0.7925580739974976,-2.786625623703003,-0.13185527920722961,0.4421439468860626,0.47782832384109497,-2.9673547744750977,-1.5275912284851074,1.6929231882095337,-4.934394836425781,0.9264665842056274,-0.007227320224046707,-0.6812707185745239,-0.5154701471328735,0.02471747249364853,0.08177579194307327,1.2605962753295898,0.9757160544395447,0.0014069776516407728,-0.29168784618377686,-1.8670531511306763,-3.18613338470459,-1.848204493522644,0.2479013353586197,0.7569356560707092,1.84543776512146,0.5021657347679138,0.02514776960015297,3.1026861667633057,3.8031468391418457,0.6629949808120728,0.06877874583005905,-3.016357183456421,0.6849223375320435,-0.2304733842611313,-0.052617449313402176,-0.050294581800699234,1.2546632289886475,-9.711609840393066,0.3103500008583069,-4.537731170654297,0.3290027379989624,0.24390481412410736,-0.9318159222602844,-0.22187094390392303,0.2536831498146057,4.495946407318115,-3.074960947036743,1.453976035118103,0.12645915150642395,1.6032823324203491,-1.3880184888839722,-2.9857685565948486,0.08571658283472061,0.08545155078172684,-0.5186983942985535,-1.8989295959472656,-1.8640050888061523,-0.03864563629031181,2.401052474975586,0.4688880145549774,-0.06033753231167793,-0.8074610233306885,1.4441051483154297,2.2614877223968506,0.7016563415527344,1.2365397214889526,1.4608581066131592,-0.36281314492225647,0.1407383531332016,-1.696149230003357,-0.06736250221729279,2.8559982776641846,-0.1937652975320816,1.747642159461975,-6.664540767669678,1.54702627658844,-3.1555850505828857,-1.2176742553710938,3.3165876865386963,-2.4620633125305176,0.8095743656158447,1.184417963027954,-0.0742657408118248,-2.3917574882507324,-0.40616291761398315,-1.1776787042617798,2.8579909801483154,0.06415248662233353,-3.221625804901123,0.07555701583623886,-0.03641181066632271,1.8536052703857422,-3.963618755340576,-0.02231796830892563,4.567757606506348,-0.04439210519194603,0.7593675255775452,-0.5137237310409546,-0.08723165839910507,-0.32701677083969116,0.05832997336983681,0.15243779122829437,0.14886030554771423,1.1165120601654053,-1.0698087215423584,3.2228851318359375,-0.038490861654281616,0.41535332798957825,-1.7284200191497803,0.027988510206341743,-0.9023160338401794,1.0517569780349731,-1.2569140195846558,-1.3788691759109497,-0.0841037705540657,-0.050807468593120575,2.400888442993164,-3.0308191776275635,1.125001072883606,-1.8264821767807007,-0.490167498588562,2.2229559421539307,0.9103826880455017,1.0987941026687622,-1.3678067922592163,0.7801884412765503,0.6642063856124878,0.4590356647968292,3.384657621383667,-0.2930798828601837,-4.923991680145264,-0.14614903926849365,2.0228726863861084,0.7404565215110779,0.19376401603221893,3.782996654510498,-1.428358793258667,0.2982271611690521,0.025664711371064186,-1.054119348526001,0.03718751668930054,-0.028206566348671913,0.01820644736289978,-0.02239861525595188,0.07913877069950104,0.017918406054377556,-0.0857655480504036,-0.022683454677462578,-0.06705500930547714,-0.017862072214484215,-0.10132679343223572,-0.011731212958693504,0.04816047474741936,0.040609974414110184,-0.017488982528448105,-0.09043444693088531,0.020125262439250946,0.01760554313659668,-0.032517507672309875,0.05431799218058586,0.06958441436290741,0.001265610451810062,-0.10316884517669678,-0.03648129850625992,-0.11986825615167618,0.012145387008786201,-0.08443260937929153,-0.04234766960144043,0.016016198322176933,-0.10267613083124161,0.0399935245513916,0.03634275868535042,-0.08436555415391922,-0.07735062390565872,-0.05828287824988365,-0.021234214305877686,-0.045902807265520096,-0.08974573016166687,0.06187526136636734,0.02813841588795185,0.02610163763165474,0.043198853731155396,-0.07034669816493988,-0.0953620970249176,-0.0689246654510498,0.07894165813922882,-0.11862606555223465,0.026813624426722527,-0.03427443653345108,-0.09793832153081894,-0.021060124039649963,-0.07507331669330597,-0.007783100474625826,-0.05772972106933594,-0.1147284284234047,0.012677078135311604,-0.09966737031936646,-0.033309102058410645,-0.06622288376092911,-0.06534797698259354,0.07839316129684448,-0.11074412614107132,-0.015867872163653374,0.027119465172290802,-0.09460277855396271,-0.05519884079694748,-0.02122117392718792,-0.0530502013862133,0.06298793852329254,-0.04405047371983528,-0.05014121159911156,-0.015629934147000313,0.030055582523345947,0.016450824216008186,0.02026073820888996,-0.021222708746790886,-0.005879191216081381,-0.061819761991500854,0.07484535127878189,0.06267011910676956,-0.006825772579759359,-0.0827842503786087,0.054031532257795334,0.062338877469301224,-0.003082189243286848,-0.06974810361862183,-0.04878994822502136,-0.017455046996474266,-0.10045036673545837,0.03323250263929367,-0.04698387533426285,-0.03908977285027504,-0.07352252304553986,-0.06245308741927147,0.05668548867106438,-0.0636080801486969,-0.09807752817869186,-0.06870017200708389,-0.042015191167593,-0.0856064185500145,-0.13554023206233978,-0.005988043732941151,0.07024534046649933,-0.01845078356564045,-0.08999274671077728,-0.08704321086406708,-0.07103396952152252,0.014182034879922867,0.025000154972076416,-0.09737253189086914,0.01014343835413456,-0.034675389528274536,-0.023486783728003502,-0.11836116015911102,-0.010882081463932991,-0.04995761066675186,0.04440176486968994,0.0153519781306386,0.035113800317049026,-0.08182480186223984,-0.04602959007024765,0.05044836178421974,-0.10527455061674118,-0.06620360165834427,0.03988145664334297,-0.09046196192502975,0.045965857803821564,0.01947789080440998,-4.174924850463867,0.04811590537428856,-0.08091218769550323,4.595607280731201,-0.031623534858226776,-0.06978194415569305,-1.051383376121521,-1.9874392747879028,-1.2580771446228027,2.209709882736206,-0.4496040344238281,-0.6100422143936157,-0.9031257033348083,-0.24095892906188965,-0.06225018948316574,-0.6070625185966492,1.3771343231201172,-0.03979245573282242,3.1059939861297607,-1.0288692712783813,0.11012618243694305,-1.936276912689209,0.21129994094371796,-0.05509239062666893,0.4842308759689331,0.5508908033370972,-3.573472738265991,1.3456802368164062,-3.5223240852355957,-2.0158896446228027,-1.4814435243606567,0.44542327523231506,-3.3795082569122314,3.9326138496398926,0.66355299949646,-0.27847108244895935,0.07779684662818909,-4.149050712585449,0.18747864663600922,-1.3402867317199707,0.053236208856105804,-0.0678306519985199,-4.1748456954956055,0.31085851788520813,0.559048593044281,-0.06325056403875351,-0.4445016086101532,0.36906707286834717,-0.08119575679302216,0.745175838470459,-4.025950908660889,1.1901915073394775,-2.310260534286499,-0.09010718762874603,-3.425759792327881,-2.482307195663452,-0.06692048907279968,1.8889961242675781,-2.4413840770721436,-2.289046287536621,0.2290748804807663,-1.6225661039352417,0.2042091190814972,3.1098508834838867,0.023001831024885178,-2.2362427711486816,0.02159060910344124,0.12979525327682495,2.5759503841400146,1.1545908451080322,-1.2831412553787231,2.1290509700775146,1.3771005868911743,0.7413224577903748,0.11541406065225601,-0.01811894029378891,1.2565604448318481,0.0816134437918663,0.018664099276065826,3.084280014038086,1.1498363018035889,0.08214948326349258,0.38324037194252014,-0.037145037204027176,-2.6120731830596924,-1.096365213394165,0.08120878040790558,-5.53267765045166,-1.0597476959228516,-1.5916063785552979,-6.244566440582275,0.05002767592668533,0.23936964571475983,1.317198634147644,-0.05110408738255501,-1.1093920469284058,-1.1783421039581299,-0.030071808025240898,1.268433690071106,-0.9214555621147156,-3.080009698867798,-0.4902266561985016,0.06053926795721054,0.026641717180609703,-1.3734217882156372,-0.19165931642055511,-1.3774363994598389,-0.43679550290107727,0.11820539832115173,-1.222575068473816,-0.1576056182384491,0.42030957341194153,-0.6642528176307678,0.040265101939439774,-3.4814116954803467,0.5886927247047424,1.5804184675216675,0.08585932105779648,-0.014121189713478088,-1.8157681226730347,-0.3320678472518921,-1.8183138370513916,-2.4161102771759033,3.6336076259613037,-4.706048965454102,0.01707477495074272,0.038920916616916656,-0.5009574890136719,-0.04074373096227646,-0.05005062371492386,0.001653083716519177,0.0055796424858272076,-0.06390248984098434,-0.0035268377978354692,-0.10424315184354782,0.057457827031612396,0.025362424552440643,-0.15961962938308716,-0.06912876665592194,0.02928127720952034,-0.06109533831477165,-0.14315810799598694,0.061584487557411194,-0.1721070408821106,-0.1066892147064209,-0.13321955502033234,-0.1443437933921814,0.1165139302611351,0.12345513701438904,-0.019590027630329132,-0.023930946364998817,0.004597009159624577,-0.0930367261171341,-0.011127935722470284,-0.04392242431640625,0.01853463612496853,-0.08826541155576706,-0.10781848430633545,-0.048785630613565445,-0.006673579569905996,-0.08031285554170609,-0.1032244935631752,-0.12114468216896057,-0.07509070634841919,-0.08591823279857635,-0.02399933524429798,-0.07450845837593079,-0.01799728535115719,-0.08393392711877823,0.05265563726425171,-0.12922759354114532,-0.011386814527213573,-0.039959609508514404,0.05906670168042183,0.021006716415286064,0.033385004848241806,-0.007673002313822508,-0.1240071952342987,0.004764040000736713,0.04606178030371666,0.011069482192397118,-0.04539104551076889,-0.10312201827764511,-0.02021854743361473,0.0815008208155632,-0.1622573733329773,-0.0533682182431221,-0.11432358622550964,-0.15270216763019562,-0.03889599069952965,-0.019565623253583908,-0.13560380041599274,-0.08088391274213791,-0.19907772541046143,-0.12679798901081085,0.11556591093540192,0.1261603832244873,-0.1168946921825409,-0.047299377620220184,-0.04599200561642647,-0.03136289864778519,-0.24581065773963928,0.006932851858437061,0.08373794704675674,0.0029037988279014826,0.04880505055189133,0.018857141956686974,-0.12169595062732697,-0.03481436148285866,-0.05971352756023407,0.1406816989183426,0.07853589951992035,0.05184740200638771,-0.10947670787572861,0.041965302079916,-0.08212125301361084,-0.03992904722690582,-0.05514855682849884,-0.13911211490631104,0.0020092255435884,-0.14412005245685577,-0.0988709107041359,0.01616070233285427,0.07478233426809311,-0.009271222166717052,0.027740444988012314,0.00034130277344956994,-0.08062513172626495,-0.11451225727796555,-0.08925821632146835,-0.02856960892677307,-0.04870108142495155,-0.008803293108940125,-0.01787536032497883,-0.1213754266500473,-0.08609125018119812,-0.06438060849905014,-0.11143924295902252,-0.10505946725606918,0.058400653302669525,0.02510686218738556,0.04003356024622917,-0.17512743175029755,0.09346234053373337,-0.10364343971014023,-0.17575259506702423,0.03680809959769249,-0.024904409423470497,0.006758664734661579,-0.018075760453939438,-0.10004954785108566,0.1501503735780716,-0.11207347363233566,0.026960818096995354,-0.056033845990896225,-0.047686975449323654,-0.05719606578350067,0.044914230704307556,-0.024320164695382118,0.07368140667676926,-0.0024603623896837234,0.08759161084890366,-0.004304873291403055,-0.06690642237663269,-0.01941033825278282,-0.09361203014850616,-0.061312559992074966,-0.022251393646001816,-0.06509652733802795,-0.0783635750412941,-0.07500718533992767,-0.06857038289308548,-0.03861482813954353,-0.005926405545324087,0.10266485810279846,0.06690856069326401,0.013147532008588314,-0.11359430104494095,-0.0023260414600372314,0.07202070951461792,-0.02334968000650406,-0.11466994881629944,-0.10550299286842346,0.011659636162221432,-0.013216239400207996,-0.0702877938747406,-0.07440756261348724,-0.03958479315042496,-0.006567917764186859,-0.08419787138700485,-0.1193736121058464,-0.07319824397563934,-0.016114015132188797,0.024197682738304138,-0.033186689019203186,0.01838892139494419,0.02019370347261429,0.04506290331482887,-0.0012828476028516889,0.0404742993414402,0.05357576534152031,-0.013276783749461174,-0.05876695364713669,-0.04939647391438484,0.055253032594919205,0.010041647590696812,-0.0896793082356453,0.0629052221775055,0.014383000321686268,0.027529580518603325,0.012832775712013245,-0.10401742160320282,0.05972116440534592,0.03181154280900955,-0.028213603422045708,-0.0020347372628748417,-0.12045720964670181,-0.025364646688103676,0.0405491478741169,0.06041372939944267,0.021469583734869957,-0.11064425855875015,0.006304878741502762,0.023997414857149124,0.09983832389116287,0.01572122983634472,-0.013337330892682076,-0.03815978765487671,-0.027940211817622185,0.018878242000937462,0.032490454614162445,-0.0046827783808112144,-0.05935187637805939,-0.08260549604892731,-0.027205368503928185,-0.11272452026605606,-0.0013464809162542224,0.07497882843017578,0.057740259915590286,0.012306236661970615,-0.03612223267555237,-0.03637522831559181,-0.005465561058372259,-0.12916094064712524,0.01261752936989069,0.04519336670637131,-0.11520382016897202,0.017089735716581345,-0.018040627241134644,0.04541296511888504,0.08416931331157684,0.04611065238714218,0.004151482600718737,0.002462766831740737,0.026231398805975914,-0.015635991469025612,0.0011844352120533586,0.000830798817332834,0.07645610719919205,-0.0648123025894165,-0.11149624735116959,0.06188114732503891,-0.12805241346359253,-0.06953823566436768,-0.060788121074438095,-0.09961678087711334,