fc.0.weight
-0.01940905675292015,-0.7338988184928894,1.4025852680206299,0.6216055154800415,-0.28550994396209717,-0.2750566601753235,-0.1436901092529297,-0.44807153940200806,-0.4187924265861511,-0.4030803442001343,-0.10149544477462769,-0.11359554529190063,-0.5937806367874146,-8.321094512939453,0.034923724830150604,0.31636181473731995,0.2528950572013855,-2.7749626636505127,0.7808400988578796,-0.3637387454509735,0.06778717041015625,-0.2684522867202759,-0.4848916530609131,-0.07153093814849854,-0.9194837808609009,-0.21678245067596436,0.23537763953208923,0.7546549439430237,0.3760474622249603,-1.8776861429214478,0.7323998212814331,0.1877909004688263,-0.674872875213623,0.26842668652534485,1.361167311668396,-0.11047197133302689,0.9200366139411926,1.2533572912216187,0.003549536457285285,0.5289013981819153,-0.47517651319503784,0.4480879306793213,-0.22764529287815094,-0.42416468262672424,-3.509404420852661,-0.257846862077713,-0.10613056272268295,1.015114426612854,-0.8981832265853882,0.5162619948387146,-1.0165836811065674,0.4026775062084198,-0.7565619945526123,0.24741312861442566,-0.2304416000843048,-0.45672306418418884,-0.303600013256073,0.02158147096633911,-0.4724690914154053,-0.19621342420578003,-0.5227731466293335,1.6188251972198486,0.5738075971603394,-0.6214839220046997,1.2781661748886108,-0.5179094672203064,-0.4506962299346924,0.01560207363218069,-3.0726287364959717,1.0093507766723633,-0.34042736887931824,0.704014003276825,1.0310757160186768,0.7333808541297913,0.09966277331113815,-0.14080113172531128,-0.9566023349761963,-1.6157355308532715,0.9814205765724182,-1.4399363994598389,-0.7383090257644653,-0.07166969031095505,-2.4385616779327393,-1.2762305736541748,-0.7881799936294556,-1.262904405593872,0.08378628641366959,0.3157193064689636,0.9730294346809387,-0.1562090665102005,-1.2423386573791504,-0.27521196007728577,-0.18075257539749146,-0.07956284284591675,0.19578611850738525,-0.11174356937408447,1.9608489274978638,-1.1787750720977783,-0.15832054615020752,-0.17072223126888275,0.5582916736602783,0.5184537768363953,1.3509076833724976,-0.5729695558547974,-0.5660102963447571,0.9711964726448059,-0.07222076505422592,-1.0160380601882935,0.6083885431289673,0.5440196990966797,0.49763521552085876,-0.4405016005039215,-0.17033278942108154,1.3320189714431763,-1.2098854780197144,0.48383092880249023,0.060818906873464584,1.1103790998458862,-1.7302109003067017,0.05602314695715904,0.027570374310016632,-0.49743586778640747,-0.9711045026779175,-0.9434415102005005,1.4620583057403564,-0.07677317410707474,-0.7855729460716248,-0.06058827415108681,-0.5755489468574524,-0.2924385666847229,-1.662658452987671,-0.37784063816070557,-2.058260679244995,-0.8891921043395996,0.2517463266849518,-0.39756539463996887,0.5167697072029114,-1.7818052768707275,-0.8363703489303589,-0.5616753697395325,0.376590371131897,-0.7427256107330322,0.22153005003929138,-0.18664796650409698,-0.42747920751571655,0.4502202570438385,-0.3902859687805176,0.006423043552786112,0.5115900635719299,-1.3757450580596924,0.04037884622812271,-0.4710865318775177,1.0500075817108154,0.14295391738414764,-1.5296472311019897,-1.0315731763839722,-0.7467341423034668,-1.7972501516342163,-3.4468302726745605,-0.021922117099165916,0.0142822265625,-0.4420563578605652,0.31411486864089966,-0.3601539134979248,-0.474592924118042,-0.2738567590713501,-0.34581416845321655,0.3525165319442749,-0.8968071341514587,0.33887815475463867,-1.7492897510528564,0.05054463446140289,0.9297838807106018,0.5703881978988647,0.5045206546783447,0.6039984822273254,0.1966095119714737,-0.14647944271564484,1.718982458114624,0.8065195679664612,-0.012518584728240967,-0.3105156421661377,0.08129644393920898,-0.039524853229522705,-1.8914973735809326,-0.32779261469841003,-0.4272882640361786,-0.2362768054008484,-1.2680282592773438,1.056905746459961,0.9949910044670105,-0.6383379101753235,-0.2272944450378418,-0.12327426671981812,0.232521653175354,-0.1169365644454956,1.0708953142166138,0.2568472623825073,-3.3835184574127197,-0.878745973110199,0.3379788398742676,-1.4016631841659546,0.48457977175712585,-0.693105161190033,0.16615381836891174,-4.223608493804932,-0.7575933337211609,0.17648297548294067,-0.25411468744277954,-1.334985613822937,-0.4417378306388855,-0.9508095383644104,1.510525107383728,0.090980164706707,-0.37044599652290344,-0.2559463381767273,-4.2646331787109375,0.20537179708480835,-0.45623666048049927,1.119545817375183,1.2798972129821777,0.15303033590316772,-2.3683314323425293,-0.6578640937805176,-0.365332692861557,-0.6829767823219299,0.35216301679611206,0.8662064671516418,0.7726030349731445,0.5159217715263367,0.23239995539188385,-0.017759501934051514,0.5915612578392029,-1.9158297777175903,-0.3926044702529907,1.03177809715271,-0.8150796890258789,0.053784195333719254,0.5012155175209045,-0.09115111082792282,-0.7396395802497864,-1.6625282764434814,-0.1850242167711258,0.4498245418071747,0.3957313001155853,0.9472177028656006,-1.5201367139816284,-0.25080975890159607,0.7006068229675293,-0.23797260224819183,0.7995082139968872,-1.3504760265350342,0.7646338939666748,1.0469272136688232,-1.464572548866272,-0.014619887806475163,0.20493337512016296,-0.6527989506721497,0.8559491634368896,-1.132670283317566,0.4476970136165619,1.1659623384475708,-0.5434139966964722,0.7087730169296265,1.0411068201065063,-1.4666317701339722,0.16835850477218628,0.8358500599861145,0.23118945956230164,-0.6412891149520874,0.9848268032073975,0.6858693957328796,0.7196263670921326,-1.2550549507141113,-0.5392627716064453,-0.3264339864253998,-2.2639617919921875,-0.3599388897418976,0.06291579455137253,-0.2844996154308319,-0.3706749677658081,-0.714836835861206,1.2743809223175049,0.4413329064846039,0.711615800857544,0.2662360668182373,0.5021166801452637,0.4658295810222626,0.9039171934127808,0.7807679772377014,-0.4140201807022095,0.8332653641700745,1.2648603916168213,0.01937743090093136,-1.4503260850906372,-0.10403753817081451,-1.9428602457046509,-1.666020393371582,0.5777466297149658,0.512383222579956,-0.06947863101959229,0.017650306224822998,-0.0051999688148498535,-0.06884658336639404,1.0323125123977661,0.5987300276756287,0.4772935211658478,0.058848392218351364,-0.17781823873519897,-0.03753930330276489,-0.408841073513031,-0.2481786608695984,0.15852411091327667,-0.3153751790523529,-0.14402160048484802,-0.446854829788208,1.0158342123031616,1.0396928787231445,-0.4952089190483093,-1.2779028415679932,0.9650254845619202,0.40251460671424866,0.32468876242637634,1.1245815753936768,0.05022001266479492,-0.14166563749313354,-0.4874526262283325,0.23956769704818726,1.0825384855270386,-2.3029961585998535,-0.45835191011428833,-0.6785155534744263,0.042704999446868896,-0.22946101427078247,0.3377871513366699,-0.43469661474227905,-0.49774280190467834,-0.14662013947963715,-0.1197926253080368,1.0218700170516968,1.1054894924163818,-0.698154628276825,-0.8168615102767944,0.5778175592422485,0.10381501913070679,0.1806209683418274,0.1344691514968872,-0.17186564207077026,-0.9171233177185059,1.1956744194030762,0.561298131942749,-0.0018869576742872596,0.0015148319071158767,-0.0635874941945076,-0.8871774077415466,-0.44746133685112,-0.8522180914878845,-0.4828827381134033,0.4143467843532562,-0.10301588475704193,-0.6719529032707214,0.819270670413971,-0.6443300247192383,1.5065398216247559,1.2706197500228882,-1.158071756362915,0.12097924947738647,0.9320468306541443,0.3522868752479553,-0.5948927998542786,1.0228232145309448,-0.6349562406539917,-0.8078415989875793,0.7283841371536255,0.9564816355705261,-1.3046743869781494,-0.31599587202072144,-0.09471994638442993,-0.14615052938461304,0.3793365955352783,-1.184263825416565,-0.5569055676460266,0.5543084740638733,0.0806625634431839,1.1892024278640747,-0.8756221532821655,-0.030844544991850853,0.5059434771537781,-0.45967644453048706,-0.2532609701156616,-0.3945044279098511,0.1314263939857483,0.7812055349349976,-1.3209155797958374,-0.1855364441871643,0.0011238151928409934,-0.46978864073753357,0.765580952167511,0.19496428966522217,-1.1682922840118408,-0.3724345862865448,-0.3592813313007355,-2.0274887084960938,-0.29400819540023804,0.17532123625278473,-0.04402421414852142,0.8958483338356018,-0.9248397350311279,-0.03691023588180542,0.15421724319458008,-0.39131879806518555,0.03652060031890869,-0.29027557373046875,-0.4739741384983063,-0.4692181348800659,-0.3035486340522766,-1.046076774597168,0.4277215898036957,0.3328217566013336,-0.4412740468978882,0.31844663619995117,-2.8480777740478516,0.891254723072052,-0.8067873120307922,-0.9496148228645325,0.5117030143737793,-0.7957575917243958,0.6251938343048096,-0.31464123725891113,0.5850836634635925,-1.7329527139663696,-1.8380603790283203,-0.8804763555526733,0.4614385664463043,0.5278622508049011,0.5667548179626465,0.3936687111854553,-1.1692752838134766,-0.46451565623283386,0.5125207901000977,-0.1626075804233551,-0.41276901960372925,-0.8032639026641846,1.0519417524337769,-0.7860286831855774,0.4717235565185547,0.4508865773677826,0.5920454263687134,0.37924325466156006,-1.563058614730835,0.3539603650569916,0.5779001116752625,1.345278024673462,0.5049719214439392,-4.700126647949219,0.5661794543266296,0.2728714048862457,0.3004014790058136,-1.4359368085861206,-0.11091256141662598,0.13243594765663147,0.04041418433189392,0.0954427495598793,-1.7679409980773926,1.1004359722137451,-0.0384068638086319,-0.7229334115982056,0.010953491553664207,0.7764766812324524,1.4573392868041992,-0.6212674379348755,-1.5407588481903076,0.9018434882164001,0.6838328242301941,0.645232081413269,-0.32762449979782104,0.23657779395580292,-1.181196689605713,0.5209656357765198,1.073993444442749,-2.5067942142486572,1.0925828218460083,0.1581563949584961,0.38654276728630066,-0.21090088784694672,0.9845548272132874,0.3843572735786438,0.9645968675613403,-2.2063019275665283,0.9562184810638428,1.2455642223358154,0.5481157898902893,-0.9117791056632996,-5.261789798736572,0.8939998745918274,-0.05351346358656883,-0.23554210364818573,1.376874327659607,-0.47249457240104675,0.8351983428001404,0.19939060509204865,-0.7410021424293518,-1.5679377317428589,0.638929545879364,-0.2702711820602417,-0.2726712226867676,-0.31170421838760376,-0.12739145755767822,-0.7819229364395142,-3.094576835632324,0.45178690552711487,-0.7793176770210266

fc.0.bias
-0.3141312301158905,0.04116654396057129,-0.11897677183151245,0.28778812289237976,-0.12410981208086014,-0.0520554780960083,1.0065687894821167,-0.9436290860176086,-0.2097267061471939,-0.8036025762557983,0.7655529975891113,0.14097386598587036,0.40665972232818604,1.082277774810791,-0.060595154762268066,-0.7980515956878662,0.23118610680103302,0.20949305593967438,-1.225746750831604,-0.5783084630966187,0.5624669194221497,0.5531606078147888,0.42608097195625305,-0.36749082803726196,-0.3503170907497406,-0.871291995048523,0.4284861981868744,-0.258096843957901,-0.5587040185928345,0.47752508521080017,-0.008735266514122486,0.24804626405239105,0.9898105263710022,0.6202253699302673,-0.27617210149765015,0.7476565837860107,-0.5258780121803284,0.3773709237575531,0.2892652451992035,0.6535176038742065,-0.46033310890197754,-0.3902665376663208,0.440317302942276,-0.9729064106941223,-0.44873350858688354,-0.32049620151519775,0.9231054186820984,-0.30232852697372437,-0.30222582817077637,0.1203666478395462,0.3967266082763672,0.8570611476898193,0.5719984173774719,0.033436331897974014,0.2407470941543579,0.5187200903892517,0.8842564225196838,-0.9268448352813721,0.2622390687465668,0.4367792010307312,-0.39874356985092163,-1.215826153755188,-0.9877662658691406,0.04585288465023041,-0.7514340281486511,-0.10815730690956116,-0.278962641954422,0.12170274555683136,-0.549888551235199,0.6729946136474609,-0.424685001373291,-0.6822760105133057,-0.5310633182525635,0.16342738270759583,0.7376816272735596,-0.09059518575668335,-0.635087251663208,-0.27945905923843384,-0.1241188645362854,-0.5576406717300415,-0.9309147000312805,-0.37132614850997925,0.34622466564178467,-0.4517258405685425,0.4802700877189636,0.5417262315750122,-0.4699762463569641,-0.03896220028400421,1.2682740688323975,0.712453305721283,-0.1177561804652214,0.5164538025856018,0.42851078510284424,0.920240044593811,-0.44471079111099243,0.8395509123802185,-0.7653228640556335,-0.2763366103172302,-0.7372425198554993,0.1028076559305191,1.1198710203170776,-0.8298689723014832,-0.39990752935409546,0.06628794968128204,0.42106473445892334,-0.905812680721283,0.6307082176208496,-0.5023172497749329,-1.0385080575942993,0.6311644911766052,0.7501813173294067,0.6426267623901367,0.24306054413318634,-0.49794942140579224,0.8637187480926514,0.6541954874992371,-0.25186678767204285,-0.4525396227836609,-0.4554885923862457,0.016160346567630768,-0.3072235584259033,-0.015775011852383614,-0.7040281295776367,0.3010677695274353,-0.5468291640281677,0.8196552395820618,-0.11433559656143188,-0.07807619124650955

fc.2.weight
0.0478447824716568,0.0718841552734375,-0.08142472803592682,0.07605183869600296,-0.009088451974093914,-0.004807543475180864,-0.10118729621171951,0.006789801642298698,-0.00839089136570692,0.023321570828557014,-0.05023602396249771,-0.011476979590952396,-0.07170797884464264,-0.05979270488023758,0.020077209919691086,0.005584751721471548,-0.028519807383418083,0.068109892308712,0.009431879036128521,-0.06313830614089966,0.002181824529543519,-0.012003271840512753,-0.10525386780500412,0.03602468967437744,-0.09296899288892746,0.05592641234397888,-0.13811200857162476,-0.06083192303776741,-0.06391261518001556,0.0818914845585823,-0.04888073354959488,0.011942571960389614,0.014286189340054989,-0.024639468640089035,-0.05011362582445145,0.049699265509843826,0.053697433322668076,-0.0520239919424057,-0.10994722694158554,-0.06761757284402847,0.06598195433616638,0.029904358088970184,-0.02656436152756214,-0.017809895798563957,0.04122199863195419,-0.06422313302755356,-0.08637060970067978,-0.0019207530422136188,0.04324396327137947,-0.07337095588445663,-0.07030030339956284,0.05842864513397217,-0.08797517418861389,-0.0008072742493823171,-0.027507368475198746,0.010335366241633892,-0.025678250938653946,0.03516070917248726,-0.12508411705493927,-0.12895193696022034,-0.01825481653213501,0.07668804377317429,-0.10091743618249893,-0.05617064610123634,-0.13048678636550903,0.0666259154677391,-0.017323119565844536,-0.07411795854568481,0.005744848866015673,-0.11084102094173431,0.0018166204681620002,-0.01621110737323761,-0.05698339641094208,-0.09110728651285172,-0.1015453115105629,0.07458130270242691,-0.12099955230951309,0.07004067301750183,0.03911533206701279,-0.08380482345819473,-0.05916975811123848,-0.002468846505507827,-0.034184232354164124,-0.052867550402879715,-0.0752015933394432,0.013387797400355339,-0.03753359243273735,-0.03032037988305092,-0.032441142946481705,-0.06841882318258286,-0.048624295741319656,-0.07935968041419983,-0.02895519696176052,-0.06268423050642014,0.054974377155303955,0.046434253454208374,0.04507806897163391,0.035321883857250214,0.06166921183466911,0.00026311445981264114,-0.02087440714240074,-0.021019598469138145,-0.0389423593878746,0.07394278049468994,-0.051195625215768814,-0.026866041123867035,-0.08431398123502731,-0.02674148976802826,-0.052509088069200516,-0.10440894216299057,0.027144649997353554,-0.048411935567855835,0.03634367138147354,-0.03160944581031799,0.03349937126040459,0.017129426822066307,-0.05456902086734772,-0.09619047492742538,-0.07717517018318176,0.001165921799838543,-0.06247841194272041,-0.008035029284656048,0.013821020722389221,-0.031115489080548286,-0.06544998288154602,-0.036395225673913956,-0.06923342496156693,-0.06068990379571915,0.2360946536064148,0.08168094605207443,-0.05006428062915802,3.6425657272338867,0.24829831719398499,-0.02937939763069153,0.3524555265903473,-1.0343736410140991,-0.2934211790561676,-2.8615195751190186,0.5635348558425903,2.084254503250122,0.7919597029685974,0.3103032410144806,0.026181094348430634,-0.3028485178947449,-1.2989494800567627,0.04316248744726181,0.011807807721197605,-2.6135997772216797,0.8953214883804321,0.37100592255592346,-0.3709126114845276,-0.017518527805805206,1.3290700912475586,-1.1161773204803467,-0.4690757989883423,-0.5907677412033081,-1.5859893560409546,-0.6368687152862549,-0.7136861085891724,-1.3015769720077515,-0.2646314799785614,3.807309865951538,0.32561394572257996,-0.13064570724964142,-0.06248822435736656,-0.1801927238702774,-1.2091282606124878,-3.0781004428863525,-0.037122491747140884,0.029316293075680733,1.0358331203460693,-0.8487238883972168,-0.3054206669330597,0.04230624809861183,0.5098907351493835,0.6264243721961975,0.015184297226369381,-1.4472744464874268,-0.4663602411746979,2.1013455390930176,0.14099714159965515,0.23824435472488403,1.5033618211746216,-1.9729925394058228,0.5978254675865173,-0.3490760624408722,-0.5864266157150269,0.26717427372932434,-0.1937028020620346,-0.2544388473033905,-1.0697402954101562,0.9179981350898743,-0.888694703578949,-1.0193228721618652,-0.16673295199871063,0.638866126537323,0.47039687633514404,1.2744885683059692,0.1428603231906891,-0.3004944622516632,-0.8826969265937805,-2.5823538303375244,-0.8713741898536682,-0.004490356892347336,-3.8950953483581543,-0.05064912140369415,0.03174407780170441,-2.384310483932495,-0.4702224135398865,0.012040658853948116,0.22790415585041046,0.08617562800645828,0.527620792388916,-1.292181134223938,-0.0074508460238575935,-0.7898063063621521,0.23216578364372253,0.508491575717926,-0.04192964360117912,0.2004871666431427,0.011265343055129051,0.8400310277938843,0.009387051686644554,0.630363404750824,-2.199528217315674,-0.08045198023319244,-0.07014326006174088,-0.9624311327934265,0.027629001066088676,-2.3564677238464355,0.022075675427913666,-0.06446003168821335,0.01835528388619423,-2.7091188430786133,0.21998468041419983,0.017976144328713417,0.5880241394042969,0.38876473903656006,0.5707815885543823,0.7084523439407349,-0.2873597741127014,-1.9117785692214966,-0.404371052980423,-0.17757639288902283,0.5810651779174805,-1.4130241870880127,-1.6194945573806763,0.031050436198711395,0.7945519685745239,-0.4982426166534424,-0.2712723910808563,1.7119598388671875,-0.7936035394668579,0.8017367720603943,0.043380580842494965,-0.8382418751716614,0.03277401998639107,0.024573171511292458,0.07271996885538101,0.012238053604960442,-0.05311185494065285,-0.07471286505460739,-0.05485665425658226,0.039113741368055344,0.040254201740026474,0.026259656995534897,-0.07327613979578018,0.07213898003101349,-0.113348588347435,-0.07946164906024933,-0.009157930500805378,-0.07859935611486435,-0.019456325098872185,-0.050086408853530884,0.05717471241950989,-0.010774441063404083,-0.08788571506738663,-0.07527194172143936,-0.10246294736862183,0.06478005647659302,0.059673674404621124,0.052381452172994614,-0.03032051771879196,-0.06882627308368683,0.011656178161501884,-0.10289213806390762,0.005049130879342556,0.05600370094180107,-0.059963732957839966,-0.0863223522901535,0.016121475026011467,-0.07390287518501282,-0.045599423348903656,-0.10258402675390244,0.04841158539056778,-0.015278737992048264,-0.06089314445853233,0.08620254695415497,0.0518387071788311,5.022533514420502e-05,0.04467811435461044,0.013003240339457989,-0.06173509731888771,0.011008567176759243,-0.011935829184949398,0.02601470798254013,-0.08221449702978134,0.05396091565489769,0.0008208350627683103,-0.006257249042391777,-0.051142748445272446,-0.06970873475074768,-0.030183402821421623,-0.0518549419939518,-0.09583333134651184,-0.09631884843111038,-0.0092984763905406,0.053663209080696106,-0.04545240104198456,-0.09862539917230606,-0.10396064072847366,-0.0948718786239624,0.006484061945229769,0.01830962300300598,-0.07560762017965317,0.0072911824099719524,-0.08136086165904999,-0.03860021382570267,-0.008642601780593395,0.040738508105278015,-0.044181324541568756,0.06595631688833237,0.021911023184657097,-0.056620486080646515,0.06485676765441895,-0.008129199966788292,-0.055594395846128464,-0.06516037881374359,0.0071840183809399605,0.07270239293575287,-0.10269943624734879,-0.032992664724588394,0.06855736672878265,-0.07378584146499634,-0.08527440577745438,0.02914159744977951,-0.08590128272771835,0.0030864442232996225,-0.0913020446896553,0.07383646070957184,0.0023986403830349445,0.08824991434812546,-0.02649003267288208,0.07394406199455261,-0.03154943510890007,-0.08332366496324539,0.06142972409725189,0.012055378407239914,-0.0459657721221447,-0.02209019474685192,-0.02226465940475464,-0.01749880611896515,0.03331000357866287,0.03189839795231819,-0.09816011041402817,-0.01284321304410696,0.027975156903266907,0.008623332716524601,-0.05314278602600098,-0.0437898114323616,-0.038802798837423325,0.00032895614276640117,-0.08564316481351852,-0.09587164968252182,0.049520719796419144,-0.02928985469043255,-0.062279112637043,0.01636999100446701,-0.07473114132881165,-0.03880569711327553,-0.06619539856910706,0.054146017879247665,0.07334829866886139,-0.05608087033033371,-0.5601071119308472,-0.07598789036273956,-0.01637137494981289,-1.3492374420166016,1.0603846311569214,0.01325297076255083,0.1365727037191391,2.2214841842651367,1.2625759840011597,0.06729644536972046,0.3506508469581604,0.18599830567836761,0.30093175172805786,0.33211588859558105,0.07846774905920029,0.7627634406089783,0.09745994210243225,-0.5919243693351746,-3.085200309753418,2.6972525119781494,-0.7592278718948364,0.6586525440216064,0.4619820713996887,-0.0037820683792233467,1.1181519031524658,-0.15249314904212952,0.43495532870292664,0.29766014218330383,0.8741120100021362,-0.6486982107162476,0.22254031896591187,0.3869558572769165,0.3365582823753357,-0.3062957227230072,0.7471086382865906,-0.05342169851064682,-0.05875575542449951,-0.03330681845545769,0.78923100233078,2.144608736038208,-0.04247819632291794,0.08008105307817459,0.24062441289424896,-0.008879321627318859,-0.14057040214538574,-0.05331150442361832,0.808692455291748,-0.037776779383420944,-0.07147665321826935,0.005731329787522554,0.385253369808197,0.29695576429367065,-0.6045251488685608,0.8251336216926575,1.4146127700805664,-0.36214467883110046,0.1826854646205902,-1.6701748371124268,0.1273164600133896,0.05955294519662857,0.6374757885932922,-2.9312119483947754,-0.06157766282558441,-1.08247971534729,0.3740646541118622,0.3521253168582916,-0.29131585359573364,0.0034831902012228966,-1.826963186264038,1.1396050453186035,-0.6371676921844482,-0.566453218460083,0.17317825555801392,0.5864412784576416,1.9994761943817139,0.08043435961008072,0.5774251818656921,-0.011947598308324814,0.014163913205265999,0.9391356110572815,0.02674875408411026,0.04792318865656853,0.3208021819591522,0.07460035383701324,-0.16284573078155518,0.36193451285362244,0.07690586149692535,0.25989505648612976,0.5441566109657288,0.10031493753194809,0.3989797532558441,0.15976573526859283,0.3071010708808899,0.715631365776062,0.07058928906917572,0.4276380240917206,0.15228445827960968,-0.08614218235015869,1.002299427986145,0.2740649878978729,0.34204694628715515,0.12469599395990372,0.003661876078695059,0.1171213835477829,0.3000653386116028,1.1318359375,0.21210959553718567,1.6929000616073608,-1.088762640953064,-0.6513150930404663,0.003026852384209633,0.5756050944328308,0.20102223753929138,-1.252388834953308,0.16652441024780273,-0.44853538274765015,0.8121203184127808,2.1004810333251953,0.3078002333641052,0.012940396554768085,-1.9837960004806519,-0.050600674003362656,-0.1351897418498993,0.9664514064788818,0.8830106258392334,-0.48066776990890503,0.031702689826488495,1.2589246034622192,-0.16660591959953308,-0.049761950969696045,-0.018647799268364906,4.565340518951416,1.5106558799743652,0.03663444146513939,-1.8830641508102417,-0.1304703652858734,-0.17285634577274323,0.49509045481681824,-0.17779242992401123,-0.5560238361358643,0.09984341263771057,-0.10824230313301086,-0.0881616398692131,0.9105042815208435,-1.1323270797729492,-1.3080005645751953,1.7457269430160522,2.7239630222320557,-0.8096161484718323,-1.1982202529907227,0.13841545581817627,0.07736124843358994,-1.8321045637130737,0.27089923620224,0.18486501276493073,0.17171445488929749,0.9033811092376709,1.1520494222640991,-0.11428743600845337,-0.24507685005664825,-1.1774691343307495,3.932558536529541,0.23119066655635834,-1.0221887826919556,-0.03478875383734703,-1.728887915611267,0.19604185223579407,-0.5975029468536377,0.08181927353143692,-0.07091858237981796,0.12677860260009766,0.40339985489845276,-0.048415407538414,0.02921842783689499,-1.172248125076294,1.2156825065612793,0.07589415460824966,-1.0672154426574707,-1.9715218544006348,0.609504222869873,1.2448354959487915,-0.8955503106117249,-1.032105565071106,0.16080790758132935,-1.5154142379760742,0.4473855495452881,-1.506003499031067,-0.43416523933410645,0.10652539879083633,1.7915138006210327,-1.763048529624939,1.2896766662597656,-1.2478853464126587,0.5262594223022461,0.8356983661651611,-0.7759960889816284,-0.2828008532524109,-1.3485220670700073,0.7388048768043518,0.983553409576416,0.27787429094314575,0.7138697504997253,-1.177839994430542,0.021280912682414055,-1.3946512937545776,-0.03921792656183243,0.006363683845847845,1.5898603200912476,0.18774108588695526,0.08360964059829712,1.3641440868377686,-0.015048036351799965,-0.11779975146055222,-1.9189324378967285,-0.026824666187167168,0.22168020904064178,-1.2642621994018555,-1.2055033445358276,0.4487036466598511,-3.7270262241363525,-1.8476873636245728,0.08481530100107193,-0.02760494127869606,-1.5283890962600708,-0.47547727823257446,-0.04310134798288345,-0.608273983001709,-0.1134701818227768,-1.3284810781478882,-1.0759137868881226,-0.08553657680749893,-0.08207425475120544,-0.02971293218433857,0.31178727746009827,-0.0913412943482399,-2.060904026031494,0.08212266862392426,-0.31005650758743286,-0.8083085417747498,-0.7866101264953613,-0.061635736376047134,-0.37422072887420654,0.2809034585952759,1.175012230873108,-1.7321144342422485,1.3001203536987305,0.4626142382621765,-0.8186630606651306,0.5310279726982117,0.45472609996795654,-0.5968798398971558,2.3081107139587402,0.6376408338546753,-2.6026039123535156,-0.08047790080308914,0.18384647369384766,0.006145789287984371,0.031073374673724174,0.02843521349132061,0.009616653434932232,-0.04978610947728157,0.07974867522716522,-0.017628880217671394,-0.045087940990924835,-0.0718950405716896,0.028538310900330544,-0.0020673349499702454,-0.005459582898765802,0.023298807442188263,0.03991498425602913,-0.02390012890100479,-0.00391593761742115,-0.0700986310839653,-0.11627870798110962,0.06996801495552063,-0.005628975108265877,0.004207087680697441,-0.10986270010471344,-0.06931990385055542,0.08130857348442078,0.08266209810972214,-0.024484239518642426,-0.11899624764919281,-0.08027275651693344,-0.09884578734636307,0.07184754312038422,0.08186792582273483,-0.08467599004507065,-0.05520216003060341,-0.10440007597208023,-0.04119043052196503,0.02375170588493347,-0.032312240451574326,0.04247252270579338,-0.08503183722496033,0.08468809723854065,-0.0659748762845993,-0.05213001370429993,-0.012344698421657085,-0.08670469373464584,0.00276107806712389,-0.038740359246730804,0.04767423868179321,-0.11584676057100296,-0.08005870878696442,0.0067219482734799385,-0.04380614683032036,-0.05886148661375046,-0.008922712877392769,0.04890267178416252,-0.009058969095349312,-0.00666118273511529,-0.011286298744380474,-0.01042803656309843,-0.021909702569246292,-0.037000562995672226,0.052954014390707016,0.0420287624001503,-0.010429092682898045,0.040165018290281296,0.053109101951122284,-0.08704483509063721,-0.0016961127985268831,0.05413948744535446,0.01769929565489292,-0.03785889223217964,-0.023572450503706932,-0.1165737584233284,-0.058448225259780884,0.007609750144183636,0.021507879719138145,0.0699242651462555,-0.11643222719430923,-0.0066880094818770885,-0.05055796727538109,-0.009761863388121128,-0.04170335456728935,-0.030399614945054054,-0.0817989781498909,-0.03125063329935074,-0.06336388736963272,-0.11861114203929901,0.08508435636758804,-0.10451823472976685,-0.032050300389528275,-0.101357601583004,-0.01963396556675434,-0.044504564255476,-0.09652949124574661,0.07949969917535782,-0.0057244375348091125,-0.09577961266040802,0.030931593850255013,0.07346493005752563,0.021205933764576912,0.0292345080524683,-0.04423225298523903,-0.018919499590992928,0.002295580692589283,-0.06978257745504379,-0.0967988446354866,-0.013268175534904003,-0.018312999978661537,0.00698452303186059,0.05434761196374893,-0.11540201306343079,-0.022762013599276543,0.04405456408858299,-0.002236119471490383,0.06140518561005592,-0.08402153104543686,-0.04226288944482803,-0.05774301663041115,0.06905768066644669,-0.10012397170066833,-0.08833545446395874,0.03484124690294266,0.000752630818169564,0.003247492015361786,-0.1156473308801651,-0.09743864089250565,0.010739319026470184,0.08013404160737991,-0.10908610373735428,-1.4537718296051025,0.07683463394641876,0.03841941058635712,2.6677627563476562,-0.21793632209300995,-0.0865178033709526,-0.6688206791877747,0.6858034133911133,-1.3743113279342651,-1.2024965286254883,0.1829267293214798,-1.6247159242630005,0.2502780556678772,0.16189506649971008,-0.0845399796962738,-2.310948610305786,-0.27835947275161743,-2.366013526916504,-3.5745155811309814,-0.49468934535980225,-0.17967674136161804,0.590398907661438,0.29870203137397766,0.05807562544941902,2.107677936553955,-3.8631057739257812,0.05151631310582161,-1.7782903909683228,-0.5682194232940674,0.4387926161289215,0.22504974901676178,-0.14945046603679657,0.5815823674201965,1.1832549571990967,1.511650800704956,-0.3144039213657379,-0.06838338822126389,-0.3267975449562073,0.5738867521286011,2.744661808013916,-0.04509110003709793,0.05902087688446045,0.26632875204086304,-1.5430970191955566,-2.8000974655151367,0.06562411785125732,0.4317585825920105,-3.080653667449951,0.024034619331359863,0.23731712996959686,-0.3211900293827057,2.1341381072998047,-0.2434384971857071,0.04676911234855652,1.017172932624817,0.24027308821678162,-0.19002258777618408,-3.314852237701416,0.8150104284286499,-0.6800436973571777,0.6143730282783508,-1.9993932247161865,-1.7501113414764404,-0.8343496322631836,-1.9626935720443726,-0.5496888756752014,-1.0175756216049194,-0.7332797050476074,-2.047726631164551,0.013415481895208359,-1.2144529819488525,-2.8975307941436768,-0.7659613490104675,0.20216022431850433,2.511580467224121,0.036054689437150955,-0.20580445230007172,-0.04762662202119827,-0.08132258802652359,0.30443039536476135,-0.41783732175827026,0.06396842747926712,1.3057595491409302,-0.06213826686143875,-0.6709113717079163,0.24199464917182922,-0.01786414161324501,-0.9170868396759033,0.50633305311203,-0.17188146710395813,-0.4100760221481323,0.029348302632570267,-0.20591790974140167,0.56422358751297,-0.07439728081226349,0.07503359764814377,0.35648849606513977,0.08621174842119217,0.719200849533081,-0.05413518473505974,0.8230386972427368,-1.205310583114624,0.014125927351415157,0.018262971192598343,0.014951390214264393,0.011313890106976032,-0.23242120444774628,1.7314753532409668,-0.7225781679153442,-0.0756726861000061,-0.08595223724842072,0.0038384906947612762,0.18051838874816895,-0.6625146269798279,0.1632770150899887,-0.333644300699234,0.1340867131948471,0.15869084000587463,-0.9251333475112915,0.01828319951891899,-4.840056419372559,-1.6473277807235718,-4.162703514099121,-1.783110499382019,-0.752564013004303,0.6864030957221985,-0.059161603450775146,1.1605082750320435,-4.697761535644531,-0.0674346312880516,0.08788038045167923,-0.24807845056056976,-0.6507866382598877,-0.03970400616526604,-4.716778755187988,-0.388677716255188,-4.2709760665893555,0.49071821570396423,-0.6244549751281738,-2.107525110244751,-1.0057494640350342,-0.7482699751853943,-0.01002854760736227,0.007716016378253698,0.6782694458961487,-1.4272640943527222,3.080429792404175,-0.19894355535507202,-2.176374912261963,-2.63388991355896,0.5004500150680542,0.05442967265844345,0.9491404891014099,-2.086230754852295,-0.2907703220844269,0.29622477293014526,-0.18195268511772156,-0.18862828612327576,-0.5895981192588806,0.6800320148468018,-2.2811994552612305,0.18181371688842773,0.6174396276473999,-1.1245272159576416,0.03791118040680885,-1.1766729354858398,0.5307289958000183,0.6077808737754822,0.02340574562549591,-0.04263877496123314,-1.085050106048584,0.6531249284744263,-3.6928012371063232,-0.0759897530078888,-2.235994577407837,-2.3539342880249023,-0.04872122034430504,0.5464190244674683,-0.24562856554985046,0.10791199654340744,-1.3246612548828125,0.06374645233154297,-1.4780036211013794,0.35136017203330994,-5.199969291687012,1.7317529916763306,0.14641515910625458,-0.3238295912742615,-0.5146209597587585,1.2013864517211914,-1.5549482107162476,0.2549811899662018,-2.381157875061035,0.3087204098701477,1.3423417806625366,-2.5369668006896973,-0.9405097961425781,-1.2073081731796265,-3.8090744018554688,0.4795607924461365,0.3535956144332886,0.9464024901390076,-0.3642953038215637,0.003956546075642109,0.4820129871368408,0.042650554329156876,-0.026288433000445366,0.540838360786438,1.7012653350830078,-0.08806899189949036,2.4391820430755615,0.06623905897140503,-2.1848912239074707,0.715674102306366,0.005238695070147514,-1.3263481855392456,-0.35378894209861755,-4.2838945388793945,0.012203075923025608,-0.5749861598014832,0.016899114474654198,-3.80375337600708,0.07784676551818848,-1.3819172382354736,0.6013847589492798,-0.08156397193670273,-0.8647711873054504,-0.23013849556446075,-0.6796175837516785,-1.1444145441055298,-0.02776229754090309,0.025337494909763336,-0.9618621468544006,0.2772025167942047,-1.3783611059188843,-2.942943572998047,0.8488728404045105,0.745720386505127,-0.1545078009366989,-2.311689853668213,-2.9818365573883057,-1.010839819908142,0.1698157787322998,-4.346676349639893,0.6808608770370483,0.6902735829353333,0.8877224326133728,-1.2789374589920044,-1.6687790155410767,-0.07037607580423355,-4.0180344581604,-0.42327481508255005,0.19776026904582977,-1.5002505779266357,0.054557524621486664,-1.6199342012405396,-0.04363960400223732,0.0741867870092392,0.06494144350290298,0.07738356292247772,-0.04849623516201973,0.005502028856426477,0.029037056490778923,-0.07945625483989716,0.04049159958958626,0.04904092475771904,-0.06671537458896637,-0.005659103859215975,-0.12251386046409607,-0.027396423742175102,-0.0694451704621315,-0.0949896052479744,0.07546135783195496,0.02756640873849392,0.04939497634768486,0.023603251203894615,-0.01919379271566868,0.012642398476600647,0.07363874465227127,0.05275358632206917,0.043703872710466385,-0.006542800460010767,0.005779729690402746,0.023847926408052444,-0.1257762908935547,-0.052074793726205826,-0.01389772817492485,0.05443735048174858,0.0589350126683712,0.059527408331632614,0.01351131685078144,0.03445221483707428,0.04141411557793617,-0.025132300332188606,-0.07218281924724579,-0.024155981838703156,0.06450244039297104,0.059326283633708954,0.02183602936565876,0.008393724448978901,-0.041781675070524216,-0.04278305545449257,-0.009102131240069866,-0.07666393369436264,0.0718136802315712,0.04486311599612236,-0.019328013062477112,-0.054506201297044754,-0.13616904616355896,-0.10435429960489273,-0.07229915261268616,-0.03748982027173042,-0.0584874153137207,-0.07286453247070312,0.06746998429298401,-0.0958201214671135,-0.1272359937429428,-0.08925297111272812,0.0354965440928936,-0.07395171374082565,0.03013572096824646,-0.09211637824773788,0.01797282136976719,-0.05419072508811951,0.03817838802933693,-0.1199805736541748,-0.1222296729683876,0.04498601704835892,-0.10987445712089539,-0.03822722285985947,-0.012066517025232315,0.08511783182621002,-0.0896923616528511,0.06141425669193268,0.05704359710216522,-0.004577503073960543,-0.0617489330470562,-0.06739134341478348,0.031887806951999664,-0.06250006705522537,-0.05853458493947983,0.017542840912938118,0.07797250896692276,-0.045152775943279266,-0.1164805218577385,-0.03677752614021301,-0.07446860522031784,-0.04430907592177391,-0.0731760710477829,0.02328673005104065,0.05803164839744568,-0.06888525933027267,0.04284679517149925,0.05452505126595497,-0.01347142830491066,0.0323958657681942,-0.02157668210566044,0.01468995213508606,0.033089153468608856,0.0781596302986145,-0.020615659654140472,-0.03696643188595772,0.038056228309869766,0.03638719767332077,-0.06615345925092697,-0.08562783896923065,-0.07063599675893784,-0.0114675834774971,-0.07234955579042435,-0.08137467503547668,0.03925357758998871,0.07397274672985077,-0.07424300163984299,-0.02848047763109207,0.022315125912427902,-0.06174749881029129,0.05190220847725868,-0.07297414541244507,0.020562808960676193,-0.0006666376139037311,-0.016958292573690414,0.019222861155867577,-0.03122430294752121,-0.12627777457237244,-0.5322555303573608,-0.04125216603279114,0.0187893807888031,-4.633139610290527,1.2245033979415894,-0.06717252731323242,0.4071078896522522,2.605438232421875,0.07280895113945007,0.10900911688804626,0.6190142631530762,-4.0946502685546875,0.04237191379070282,0.4326171576976776,0.024805337190628052,0.7435104250907898,0.274526983499527,-5.588603973388672,-0.9626462459564209,-2.59584379196167,-1.9606528282165527,-0.2550223767757416,-1.1049574613571167,-0.06619595736265182,0.854469358921051,-0.29497063159942627,0.7528303265571594,0.19660742580890656,-0.4882732927799225,-3.1880910396575928,0.20718207955360413,-0.7303296327590942,-1.490740418434143,-5.261390686035156,1.2437783479690552,0.5592278838157654,0.07498245686292648,0.4061538577079773,-0.3697884678840637,-4.137670993804932,0.03299398720264435,0.049401964992284775,-0.6349830031394958,0.32242369651794434,-0.30330803990364075,0.05128331482410431,-0.03983509540557861,0.5151140689849854,0.03683420643210411,-1.2293041944503784,0.10554566979408264,-2.5322563648223877,-1.7561821937561035,0.8672729134559631,-1.4148919582366943,-2.1463840007781982,0.035342127084732056,-0.04593299329280853,-0.28463324904441833,0.4099463224411011,0.30734333395957947,-1.165772557258606,0.10510385781526566,-1.3210870027542114,0.43248432874679565,-1.2652952671051025,0.5049636960029602,-0.03772050514817238,-1.1447635889053345,-1.1899040937423706,-0.3544034957885742,0.29877206683158875,0.04112100601196289,-0.14148367941379547,-0.777706503868103,0.03825222700834274,0.6880174279212952,-0.012379741296172142,0.03251940757036209,0.7632229924201965,-0.205875962972641,0.04066865146160126,0.6037495136260986,-0.07892831414937973,-0.5719687938690186,-0.6186238527297974,0.028839949518442154,0.6633130311965942,-0.5758948922157288,0.10701368749141693,-0.41771799325942993,-0.019456546753644943,0.4526461958885193,1.0322754383087158,-0.06772080808877945,0.46230268478393555,-0.1175183579325676,0.037018388509750366,1.6955806016921997,0.6136674284934998,-2.747563600540161,0.4400900602340698,-0.027395661920309067,0.06070168316364288,0.4124116599559784,1.1888686418533325,-0.09533879160881042,0.5304513573646545,-0.6308995485305786,-1.0862793922424316,-0.020795073360204697,0.4207649827003479,0.16942791640758514,-1.016802191734314,-0.7775764465332031,-1.0207771062850952,0.7559937834739685,1.6019667387008667,0.34578564763069153,-0.10268893092870712,-2.510443687438965,0.04949779063463211,-1.1755077838897705,-0.4469252824783325,-0.6946690082550049,-2.27109956741333,-0.05657297745347023,0.8416026830673218,0.02230912819504738,-0.016596827656030655,-0.082689568400383,-0.0003022139717359096,-0.07056291401386261,0.03276558220386505,-0.012408491224050522,-0.08443383127450943,0.05155764892697334,0.010793827474117279,0.037818700075149536,-0.04020795598626137,-0.10304670035839081,0.021528583019971848,0.015981031581759453,-0.006928516086190939,-0.08412067592144012,-0.004846455529332161,-0.04496629163622856,-0.05006854981184006,-0.01390934456139803,-0.04336294159293175,0.04127882048487663,-0.03186957165598869,0.05030500888824463,-0.06181277707219124,-0.06876487284898758,-0.053886279463768005,-0.0802447646856308,0.03955122455954552,0.057176318019628525,-0.11740614473819733,-0.05790812149643898,0.08400628715753555,-0.011088687926530838,0.023494543507695198,0.020649099722504616,-0.033991631120443344,0.053353529423475266,-0.05029725655913353,-0.02101297490298748,-0.02851828560233116,-0.073819100856781,0.05542074143886566,-0.0356980636715889,-0.012895481660962105,-0.04102344438433647,-0.10419654846191406,0.0620746873319149,-0.07599376887083054,-0.04994647204875946,0.009043259546160698,-0.10943733900785446,0.03326873108744621,-0.013826251961290836,-0.07387646287679672,-0.06905607879161835,-0.017849445343017578,-0.11288686096668243,-0.07442211359739304,-0.010824690572917461,-0.018284188583493233,-0.014375264756381512,0.030080055817961693,-0.0047000073827803135,-0.101941779255867,-0.08288676291704178,-0.012499764561653137,0.006259586662054062,0.026575589552521706,0.01586017571389675,0.036081381142139435,-0.00849789660423994,0.008647446520626545,-0.04944224655628204,0.0738077387213707,-0.06987858563661575,0.009171511977910995,-0.03978032246232033,-0.10350128263235092,-0.11156857013702393,0.0071077183820307255,0.027420444414019585,-0.0039276122115552425,-0.08896718174219131,-0.002185072749853134,0.008075262419879436,-0.03741567209362984,-0.11150239408016205,-0.09544451534748077,0.02353176474571228,0.03333522751927376,0.017040755599737167,-0.015403686091303825,-0.04197516292333603,-0.03462175279855728,-0.08599822968244553,0.013033248484134674,-0.04402107745409012,-0.030320990830659866,0.04923383891582489,-0.07995060831308365,-0.017115077003836632,0.00717635452747345,0.046995341777801514,0.00990543607622385,-0.035951390862464905,-0.0027356676291674376,-0.04872426390647888,-0.02008892223238945,-0.0345449261367321,-0.060802485793828964,-0.04994388669729233,-0.07104897499084473,-0.07042089849710464,-0.01042610127478838,-0.11524777114391327,-0.06825016438961029,-0.04448395222425461,0.053469039499759674,-0.07247582823038101,-0.06325723230838776,-0.07376990467309952,0.014779961667954922,0.034494124352931976,0.033241987228393555,-0.028485611081123352,-0.0798289105296135,-0.09004044532775879,0.06460695713758469,-0.05610404908657074,-0.0757341980934143,-0.0013896680902689695,0.022690534591674805,-0.06927068531513214,0.027294553816318512,-0.0216628760099411,-0.06251676380634308,0.032223232090473175,0.01563071645796299,-0.033621955662965775,-0.007805476896464825,-0.050218433141708374,0.06720459461212158,0.017283529043197632,-0.04377572983503342,0.05448024719953537,0.03693325072526932,-0.006628155708312988,0.0249433983117342,-0.056487828493118286,-0.00010307011689292267,-0.004529877100139856,-0.029930351302027702,-0.019332261756062508,-0.13064934313297272,-0.07946937531232834,0.05159779265522957,0.01726911962032318,0.04580443352460861,-0.04744955152273178,0.08418011665344238,-0.0008488136809319258,-0.039781078696250916,0.010703644715249538,0.03665480762720108,-0.05591157451272011,-0.009448301047086716,0.007042495999485254,0.05294239521026611,-0.07068275660276413,0.022571196779608727,-0.0220585186034441,0.06437307596206665,0.02633107453584671,0.03398505598306656,-0.07382406294345856,-0.08394405245780945,-0.058718740940093994,0.04767489433288574,0.007948250509798527,0.03590318560600281,-0.07003811001777649,-0.04103870317339897,-0.09443975985050201,-0.032774049788713455,-0.04123932123184204,-0.005842785816639662,0.024329308420419693,-0.0255537498742342,-0.01461071614176035,-0.07984857261180878,-0.10719840973615646,-0.055836454033851624,0.0011709517566487193,-0.07900185137987137,0.014091630466282368,-0.02139819599688053,0.03495640307664871,-0.10265421122312546,-0.07501035928726196,-0.04571930691599846,-0.04264696314930916,0.009779596701264381,-0.03946230188012123,0.07044452428817749,-0.09265457093715668,-0.04660753905773163,-0.025056270882487297,0.012739580124616623,0.01874779723584652,-0.02858845889568329,-0.0036542019806802273,0.049021847546100616,-0.07502113282680511,0.028588006272912025,-0.12267839908599854,0.004497315268963575,0.01586155779659748,-0.018446672707796097,-0.11727134138345718,-0.05683746933937073,0.021781153976917267,-0.026170631870627403,-0.05401012301445007,-0.02108796499669552,-0.09054834395647049,-0.018810303881764412,-0.01573033630847931,0.011230708099901676,0.008701132610440254,-0.007161055225878954,-0.024552688002586365,-0.09634362906217575,0.05586063116788864,0.024688720703125,-0.07415840774774551,-0.1254435032606125,-0.1060921847820282,-0.12702393531799316,-0.07983779162168503,-0.006233897991478443,0.005492961499840021,-0.1079641580581665,-0.06980542093515396,0.052486319094896317,-0.04107986390590668,0.01802685111761093,0.0560460239648819,-0.05480852350592613,0.061982132494449615,0.02833588607609272,-0.05390659719705582,0.03458540514111519,0.06684664636850357,-0.06649530678987503,0.9166651964187622,-0.0816015899181366,0.005427449941635132,0.12394936382770538,0.11166469007730484,-0.0752599835395813,0.9483667612075806,-2.8750598430633545,-1.269729495048523,-0.4934317469596863,0.6255192160606384,-0.5116056203842163,1.0006810426712036,0.5750022530555725,0.030877791345119476,0.22971361875534058,0.0015747696161270142,0.4540899991989136,-0.10475696623325348,3.6075711250305176,1.8559027910232544,0.28983959555625916,-0.0223577581346035,-0.029508262872695923,-2.489987373352051,-1.1586722135543823,0.1274639070034027,-2.232180118560791,0.06747724860906601,1.5785478353500366,0.02633778005838394,-0.2620146572589874,-0.485507607460022,1.5642335414886475,0.4822418689727783,-0.019715985283255577,-0.0734335258603096,-0.061900123953819275,0.4243742525577545,-1.5605992078781128,-0.009388431906700134,0.07061620056629181,0.2783980071544647,-1.4459031820297241,-2.3342270851135254,0.07341615110635757,0.7282924056053162,-1.2068003416061401,0.030583512037992477,0.7639767527580261,-0.12457776069641113,0.9556925892829895,0.2808348536491394,-1.4169683456420898,0.11585947871208191,-0.03243391960859299,0.39619672298431396,-1.3343976736068726,0.26425987482070923,0.38119396567344666,-0.13254857063293457,1.5214847326278687,-1.012649655342102,-0.01747707836329937,-1.3886970281600952,0.590155303478241,-0.03809336945414543,-0.27079418301582336,0.09043752402067184,1.4807502031326294,1.125220537185669,-2.2643373012542725,-0.5746638774871826,0.21199581027030945,1.1513274908065796,-0.08436597883701324,-3.1027956008911133,-0.03260986879467964,-0.022528596222400665,1.0134671926498413,-3.7721054553985596,-0.054814472794532776,0.08286583423614502,-0.0026874409522861242,0.5697129964828491,-0.06168292462825775,-0.08143166452646255,-0.09649734199047089,0.6926365494728088,0.6712867021560669,-0.04343602433800697,0.4621609151363373,-0.43762579560279846,-0.6132135391235352,0.014438951388001442,0.9679445028305054,-5.072148323059082,-0.06067464500665665,-2.077803611755371,-0.4560758173465729,-0.7038235664367676,-1.576218843460083,-0.08058387786149979,0.020922454074025154,0.4088682234287262,-3.5860631465911865,0.5580788850784302,-0.8483640551567078,-0.8366214036941528,1.1001540422439575,0.719112753868103,0.46010085940361023,0.5356700420379639,0.29947012662887573,0.436652809381485,-0.2239065021276474,-1.3476029634475708,-0.06093382090330124,-2.2578392028808594,0.2996287941932678,-0.47008228302001953,-0.1527242213487625,-0.6631134748458862,3.139359712600708,0.07295375317335129,0.5846267938613892,0.07514423877000809,0.34998536109924316,-0.6052324175834656,-0.0003627789847087115,-0.014238269068300724,-0.8949766755104065,0.9488646388053894,-0.06881418824195862,-0.03158769756555557,2.020245313644409,1.2824841737747192,-0.030123885720968246,0.25272703170776367,-0.07858651876449585,0.12804590165615082,0.2074468731880188,-0.05145064741373062,0.6806139349937439,-0.007964723743498325,-0.685161292552948,-3.6470999717712402,2.6010448932647705,-0.7713379263877869,0.6212165355682373,0.3732314705848694,-0.011169283650815487,1.3082438707351685,-0.08969193696975708,0.30505743622779846,0.15329225361347198,0.7246583700180054,-0.6296280026435852,0.2664092183113098,0.38993218541145325,0.21473293006420135,-0.19990399479866028,0.8196340799331665,-0.3987466096878052,0.030255509540438652,-0.04954216629266739,0.805637001991272,2.0589380264282227,-0.08028365671634674,-0.07733086496591568,0.030902845785021782,-0.10814710706472397,-0.22520017623901367,0.04701678082346916,0.6452101469039917,-0.16075186431407928,0.029134156182408333,0.04099966585636139,0.3384944498538971,0.34256795048713684,-0.934293270111084,0.7863569855690002,1.2630501985549927,-0.32662028074264526,0.03593995049595833,-1.8715547323226929,0.01645977608859539,0.07869890332221985,0.5590894222259521,-2.965028762817383,-0.27231529355049133,-1.0931941270828247,0.24378441274166107,0.25119662284851074,-0.4406256675720215,-0.23228178918361664,-1.9053184986114502,1.1979060173034668,-0.6581810712814331,-0.5768083930015564,0.10183195769786835,0.5746304988861084,2.243088722229004,0.031941916793584824,0.5409736633300781,0.08599358052015305,-0.0641326755285263,0.5408236980438232,-0.012131939642131329,-0.021485134959220886,0.3267586827278137,0.071592777967453,-0.17402972280979156,0.4159020185470581,-0.06605615466833115,0.3285250663757324,0.3309999704360962,-0.10482452809810638,0.0830967053771019,0.10940204560756683,0.22158202528953552,0.3776739537715912,-0.014313491061329842,0.37360313534736633,0.023951269686222076,-0.02629544958472252,0.9013181328773499,0.08517587929964066,0.5128020644187927,0.21120834350585938,-0.07651277631521225,-0.003264796454459429,0.09507960081100464,1.0275862216949463,0.14919385313987732,1.8715741634368896,-1.0590832233428955,-0.7465540766716003,-0.08452720940113068,0.46509018540382385,0.12141752243041992,-1.051753044128418,0.07288181036710739,-0.3602668046951294,0.6955410242080688,1.5830903053283691,0.2004377245903015,-0.030396677553653717,-2.025237560272217,-0.0736905187368393,-0.14593590795993805,0.8338257670402527,0.7252042293548584,-0.46025267243385315,-0.0012301611714065075,1.1116864681243896,0.590811014175415,0.02333528734743595,-0.02660508267581463,1.7527892589569092,0.49755263328552246,-0.08452589064836502,-1.9493180513381958,0.005161973647773266,-3.565638542175293,0.4144991636276245,-0.520670473575592,0.7048332095146179,-0.002452743938192725,-0.937555193901062,0.04601282998919487,-0.4285440444946289,0.17580948770046234,0.40898048877716064,5.021469593048096,-3.751431703567505,-1.132246971130371,-0.7420777678489685,-0.24886466562747955,0.05349905788898468,0.15571226179599762,-1.2267353534698486,-0.46412789821624756,-0.3278569281101227,0.9462188482284546,0.4084628224372864,-0.3257119953632355,-0.01587270386517048,-1.2579591274261475,4.388374328613281,-0.7851047515869141,-0.9021129608154297,0.021914685145020485,-0.8261420726776123,-0.1344510167837143,-1.4805082082748413,-0.04696819558739662,-0.006754843518137932,-0.3051496744155884,0.40564677119255066,-0.9210925102233887,0.07886014133691788,-2.5739645957946777,0.6044259667396545,0.041186943650245667,0.03246935456991196,-0.8223879933357239,1.6254624128341675,-0.905232310295105,0.18762919306755066,0.14086973667144775,0.32742971181869507,-1.0021345615386963,3.562929153442383,-0.04965590313076973,-0.5998411178588867,-0.41689470410346985,2.4609439373016357,-0.8612247109413147,1.3496241569519043,-0.6928178071975708,0.33890044689178467,0.1614513397216797,-0.03347865119576454,1.306849479675293,-1.1701855659484863,0.7729979157447815,1.377113938331604,0.21478776633739471,0.09320603311061859,-0.8738985657691956,-0.05892612785100937,-0.21577486395835876,-0.07938939332962036,0.05973167344927788,0.5283412337303162,0.7411944270133972,0.03240511938929558,0.1836433708667755,0.026526689529418945,-1.3110146522521973,-0.2881249189376831,0.009754118509590626,1.0778502225875854,-0.7393271923065186,-1.4806629419326782,0.634982705116272,-0.2156265825033188,-0.894987165927887,-2.453657865524292,-0.05467239394783974,-1.344823956489563,0.7935510277748108,0.07423801720142365,-0.14971643686294556,-0.9001858234405518,-0.4267462193965912,-1.3669787645339966,0.08144208043813705,0.08073848485946655,-0.6598365306854248,0.4253768026828766,-0.1507616490125656,-1.6126290559768677,-0.10891303420066833,0.10236728191375732,-0.3216056227684021,-1.1555969715118408,-1.4644454717636108,2.103400945663452,-0.29109570384025574,0.8580607175827026,0.4108700752258301,0.4928993284702301,0.07054394483566284,-0.43490874767303467,0.20294201374053955,-0.14752091467380524,-0.4935362637042999,0.8365728259086609,0.9731931090354919,-0.0934210792183876,0.05273732915520668,-0.6752253770828247,-1.369382619857788,-0.055880356580019,0.057192113250494,3.9018208980560303,-1.456333041191101,-0.008950230665504932,0.22290362417697906,-0.7414247989654541,-0.428085058927536,-2.0621416568756104,0.49578332901000977,0.8963720202445984,0.24415969848632812,0.45702171325683594,-0.07851263135671616,-0.3294162154197693,-0.09308842569589615,1.622840166091919,-5.332573890686035,0.9997251629829407,0.1537754386663437,-0.5200783014297485,-0.2837064266204834,0.05193924531340599,0.01855389215052128,-2.211940050125122,0.4465348720550537,-1.9702754020690918,-0.6743670701980591,-0.3490329682826996,-0.11177588254213333,-0.2938552498817444,0.47847113013267517,2.5589146614074707,1.4744586944580078,0.6980308294296265,-0.025564517825841904,0.2226710468530655,0.09670496731996536,-2.9791390895843506,-0.051762018352746964,-0.07868112623691559,0.24260446429252625,-2.367696762084961,-1.4031964540481567,-0.0332181416451931,-0.19211511313915253,0.8609147071838379,-0.010035269893705845,0.3476395308971405,-0.5318398475646973,1.3523520231246948,2.3620617389678955,1.0440768003463745,-1.7328369617462158,-1.186863899230957,-0.08982828259468079,0.030808288604021072,-0.07119465619325638,0.021171027794480324,-0.24744220077991486,-6.082967758178711,-1.216287612915039,0.18230822682380676,-0.9559534192085266,-0.24676917493343353,-0.34623321890830994,-0.8935695290565491,2.5666215419769287,0.28256767988204956,-1.054295301437378,0.4357110261917114,-0.9668949246406555,-0.5064271688461304,0.9351853728294373,-0.06357130408287048,-0.5125576257705688,0.028297340497374535,-0.02356584370136261,1.9340946674346924,-3.033600091934204,0.04784323647618294,-0.441632479429245,0.015075579285621643,-0.5008425712585449,-0.3325219452381134,0.08463505655527115,-0.1277361363172531,0.1402677446603775,0.19966991245746613,-0.3529646098613739,-0.6711251139640808,0.1526673287153244,2.013822078704834,0.05139948055148125,0.44662994146347046,-1.5748599767684937,-0.028461692854762077,0.15099574625492096,0.821495532989502,-0.5293602347373962,-0.3652334213256836,-0.05536824092268944,0.00990736298263073,0.1478327214717865,0.3968474864959717,-0.06405680626630783,-0.6256207227706909,-2.1203269958496094,0.30832669138908386,-0.3597492575645447,0.2452721893787384,-1.231655240058899,-1.318769097328186,-0.2538693845272064,1.5285794734954834,0.7196955680847168,1.1620512008666992,-1.613946795463562,-1.3317086696624756,-0.5648282766342163,-0.8497786521911621,-0.7356892228126526,2.716379404067993,-0.7431585192680359,0.5493936538696289,-0.031069697812199593,0.5154308676719666,-0.6612723469734192,0.009441315196454525,0.017124980688095093,-0.07840820401906967,-0.44465145468711853,-0.04319962486624718,-0.3120044469833374,-0.7968453168869019,-0.17768949270248413,0.1967036873102188,-0.15108546614646912,-0.5751864910125732,-0.13940389454364777,-0.12512338161468506,-0.002267321338877082,0.27233171463012695,-0.05407930910587311,-1.0399881601333618,0.20190025866031647,-0.3575778901576996,-1.2310247421264648,-1.2035964727401733,0.1023280918598175,0.0881471261382103,-0.7376608848571777,0.2958872318267822,0.16148388385772705,-0.1162046492099762,0.12331996113061905,0.22630396485328674,-0.5123257040977478,-0.11677202582359314,-1.5252398252487183,0.3211315870285034,-0.1178646981716156,-2.37349009513855,-0.1267210692167282,-1.9324899911880493,-0.007438632193952799,0.6433737277984619,-0.022486617788672447,-0.001966561423614621,-0.030436106026172638,0.2990557551383972,-0.2191365510225296,0.017626876011490822,-0.38048896193504333,0.09759899228811264,0.039557259529829025,-0.2055836170911789,-0.544514536857605,-0.4408736824989319,-1.677270770072937,-0.5378410816192627,-7.755005754006561e-06,-0.11049894988536835,-2.913738965988159,0.10840170085430145,-0.32582372426986694,0.029381701722741127,-0.3166595697402954,0.44079089164733887,-0.45906558632850647,-0.068410724401474,-0.43854981660842896,0.0682549998164177,-0.8017679452896118,-0.7404754757881165,-0.9434643983840942,-0.22662502527236938,-0.6802292466163635,-0.6656625270843506,0.2065000683069229,0.2800661325454712,-0.3859911561012268,-0.04976662993431091,0.16899409890174866,0.06816207617521286,0.022137273102998734,-0.06060495227575302,-0.03844793885946274,-0.028077440336346626,-0.4447159171104431,0.08666535466909409,-0.07680784910917282,-0.0773925930261612,0.04396208003163338,0.17551147937774658,-0.3063962459564209,-0.47683581709861755,-0.09889291971921921,-0.5913276672363281,-0.5598360300064087,-1.4801928997039795,0.021650098264217377,-0.46855613589286804,-0.4466976821422577,-0.009706934913992882,-0.7826665639877319,0.08972848206758499,-0.3889909088611603,0.05497414246201515,0.0048704370856285095,0.08018027991056442,0.09821146726608276,-0.7912912368774414,0.010075838305056095,-1.2777451276779175,0.16933993995189667,-0.16041705012321472,-0.24886707961559296,-0.45225098729133606,-0.7043265104293823,-0.7292171716690063,0.17541204392910004,-1.234410285949707,-0.0723365992307663,0.016205020248889923,0.4591604471206665,-0.8482749462127686,-1.8120161294937134,0.4252817928791046,0.21037396788597107,-0.3247317373752594,0.1421436369419098,-1.0259844064712524,-0.0737048089504242,-0.6497052907943726,-0.4478000998497009,0.0681643933057785,0.02595318667590618,-0.8412650227546692,0.584172785282135,-0.018048608675599098,-0.2032792568206787,2.5850539207458496,1.117531657218933,-0.10313737392425537,0.07745108753442764,-1.5191398859024048,-0.013502687215805054,0.07607727497816086,-0.007713863626122475,-1.3093671798706055,0.15186312794685364,-2.1494650840759277,-3.528914213180542,2.302727699279785,-0.42549657821655273,0.05630221590399742,0.3900556266307831,0.03502114489674568,1.3717799186706543,0.19628289341926575,0.1544916033744812,0.31126266717910767,0.287978857755661,-0.5251079201698303,0.10220737755298615,0.4220200777053833,0.25001901388168335,-0.67531418800354,0.8990561962127686,-0.5635114908218384,0.02035764791071415,-0.21746720373630524,0.971127986907959,2.2656471729278564,-0.02511890046298504,0.0626135990023613,0.14151935279369354,-0.2247883528470993,-0.08988157659769058,0.056201640516519547,0.5933519005775452,-2.072628974914551,-0.08521347492933273,0.1587679088115692,0.16799026727676392,0.2044328898191452,-1.0299385786056519,0.8045284152030945,0.5897006392478943,-0.33401766419410706,-0.08007539063692093,-1.3975658416748047,0.33380603790283203,-0.10009357333183289,0.5803165435791016,-2.660369396209717,-0.1335805207490921,-1.0607513189315796,0.22450049221515656,0.011845980770885944,-0.723438024520874,-0.2484661489725113,-1.913014531135559,0.6063492298126221,-0.6909157037734985,-0.4040799140930176,0.09861841797828674,0.6326917409896851,2.1254405975341797,-0.03044998086988926,0.6510441899299622,-0.019911151379346848,0.015958618372678757,0.5773378014564514,0.055423639714717865,-0.04177739843726158,0.5211725234985352,0.08042994886636734,-0.5878476500511169,0.3740343749523163,0.027100181207060814,-0.007169636897742748,0.36688563227653503,-0.209466353058815,-0.31356510519981384,0.040288716554641724,0.02839602902531624,0.2860305607318878,-0.012105375528335571,0.059731028974056244,0.1160932332277298,0.04858216643333435,0.9609265327453613,0.06775432825088501,0.6787092089653015,0.7638339996337891,-0.022881165146827698,0.07309101521968842,0.13829363882541656,1.7081102132797241,-0.13577452301979065,1.9890719652175903,-0.5962756276130676,-0.9389963150024414,-0.22841499745845795,0.16001950204372406,-0.4093063473701477,-1.0373762845993042,0.09036765992641449,-0.2724788784980774,0.6001237034797668,1.5026276111602783,0.30459678173065186,-0.2742603123188019,-3.409973621368408,-0.30986759066581726,-2.6913349628448486,1.4826687574386597,-0.04105161502957344,-0.30083760619163513,-0.044357217848300934,1.46766197681427,0.4668113589286804,0.05955372750759125,-0.012279083952307701,2.6145994663238525,-0.06292774528265,0.041524726897478104,-0.10600730031728745,-0.15885142982006073,1.3097082376480103,-1.8327312469482422,-0.41628527641296387,-2.363245725631714,-2.7217559814453125,-0.5162074565887451,0.031668003648519516,-1.015851378440857,-1.4380086660385132,0.12947946786880493,-1.1857985258102417,2.5552608966827393,0.002211896935477853,-0.597398579120636,-2.6026899814605713,0.048947419971227646,-1.964774489402771,0.32219284772872925,-0.2593938708305359,0.3535566031932831,-1.36777663230896,-0.9576072692871094,-0.10687977075576782,-1.656463861465454,-0.7206688523292542,0.5144892930984497,-0.692291796207428,0.18386408686637878,-0.02124593034386635,0.17618931829929352,-1.6236402988433838,0.05194367095828056,0.01621314510703087,-0.05700182169675827,-0.6599596738815308,-1.8056644201278687,0.40024417638778687,-0.06774800270795822,-0.7544771432876587,0.7041672468185425,-0.0047807274386286736,-1.6776297092437744,0.004080505575984716,-0.5133001804351807,-0.750417172908783,-0.09814600646495819,-1.874085783958435,-0.036861103028059006,0.19093750417232513,-1.6152503490447998,-2.4772279262542725,-0.22786922752857208,-0.5854576230049133,-1.0739781856536865,0.11724010109901428,0.03216760978102684,0.22622448205947876,-0.6148945689201355,-2.7208874225616455,0.2848563492298126,-0.5813036561012268,-0.3517724275588989,0.4182963967323303,-2.568915367126465,-2.4994020462036133,-1.3739584684371948,-0.9305402636528015,0.05446978658437729,-0.8042982816696167,-0.057710446417331696,0.06342915445566177,-0.6113609075546265,-0.38402748107910156,0.01956970803439617,0.14429660141468048,0.07578536123037338,-1.6404573917388916,-1.5923926830291748,-0.08491717278957367,-0.8790956139564514,-2.6264593601226807,0.21650102734565735,-1.7976648807525635,-3.1963531970977783,0.02558973804116249,0.525841236114502,-0.03727317601442337,-0.012732510454952717,-1.1636757850646973,0.059963006526231766,-1.6363813877105713,-0.144309863448143,-0.110561802983284,0.5182603001594543,0.019656699150800705,-0.046602506190538406,-0.3776652216911316,0.15152877569198608,-1.3375719785690308,-0.04727720841765404,-0.3355184495449066,-1.331115961074829,-2.624530076980591,-0.1713445633649826,-0.08575309813022614,-0.009911824017763138,-0.07646270841360092,1.293843388557434,-1.636204719543457,-1.6308270692825317,-0.026391319930553436,-0.03916878625750542,-0.4513903856277466,-0.8782736659049988,-0.5951961874961853,1.7545416355133057,-2.618454933166504,-3.50471568107605,0.08489592373371124,0.11226274818181992,-2.539902925491333,0.041110340505838394,-0.0732407197356224,1.1011037826538086,1.5811420679092407,-0.0771014615893364,-1.108486294746399,-0.8428956270217896,-1.9075907468795776,-3.5186359882354736,-0.5008934140205383,-3.023216485977173,-0.8903089165687561,-0.6940970420837402,0.08567110449075699,-1.8071534633636475,0.17494605481624603,-1.142484426498413,-0.20138733088970184,-1.9648118019104004,-0.9688478112220764,0.5263247489929199,0.3484916687011719,0.061382878571748734,1.089002013206482,-3.1264874935150146,-1.3899149894714355,-0.7179314494132996,-1.9476972818374634,-0.356367290019989,0.1351137012243271,0.3187752664089203,0.9785537719726562,-1.0470085144042969,1.0720127820968628,-0.1361563354730606,-0.06110981106758118,0.20778624713420868,0.6008475422859192,0.8535640239715576,0.01677962951362133,-0.057020869106054306,-0.6955181956291199,-2.038806438446045,-3.4517529010772705,0.01766456663608551,1.2873296737670898,-4.250737190246582,-0.007206426002085209,0.6720229387283325,-0.0662091076374054,0.7239653468132019,-0.13432539999485016,0.5411902666091919,-0.6809918880462646,0.19037911295890808,-0.18960963189601898,-4.779024600982666,0.6149439215660095,-1.8522957563400269,0.06878173351287842,-0.7538629174232483,-1.3975367546081543,-0.906184732913971,-0.46091189980506897,-0.9244934916496277,0.3584103286266327,-0.9632967710494995,-1.6163610219955444,-0.0028636183124035597,-2.1130406856536865,-1.8759844303131104,-0.6762884855270386,0.35015541315078735,-0.2248522788286209,0.056164100766181946,-1.1359444856643677,-0.042677685618400574,-0.0348244346678257,0.0963917151093483,0.1326000988483429,-0.019257927313447,1.0300346612930298,-0.0766298919916153,-1.1193674802780151,0.6826806664466858,0.0012380426051095128,-3.4832494258880615,0.38884806632995605,-1.2722324132919312,-6.789254665374756,0.6569793820381165,0.005342624615877867,-2.4605562686920166,-0.08779986947774887,0.14519758522510529,1.2077527046203613,0.03678686544299126,1.0214784145355225,-2.125722885131836,0.969680905342102,-1.6131688356399536,-0.018331823870539665,-0.050289660692214966,-0.43437403440475464,0.40730708837509155,-1.7166439294815063,0.24323539435863495,-1.3392608165740967,0.6459594964981079,0.1331445872783661,-0.49956628680229187,-0.006533872336149216,-0.6127315163612366,-0.40705204010009766,-0.7357226014137268,0.7108673453330994,-0.17058582603931427,-0.49256631731987,0.030686654150485992,-1.6457610130310059,-5.67514181137085,-1.59916090965271,-2.6169538497924805,-2.1613409519195557,1.036531686782837,0.05206768959760666,1.1816331148147583,0.019223660230636597,0.08003454655408859,-0.08629544079303741,-0.03708112984895706,-0.10080087184906006,-0.07780491560697556,-0.056652601808309555,-0.0249008946120739,-0.14725206792354584,-0.027488872408866882,0.01641024649143219,0.0799190029501915,-0.030426159501075745,-0.10815799236297607,-0.06332959979772568,-0.037799395620822906,0.048669520765542984,0.06174882873892784,-0.12134817987680435,0.0766395702958107,-0.06408900022506714,-0.054753948003053665,0.06108294799923897,-0.07853332906961441,-0.07035612314939499,0.035274624824523926,-0.11183374375104904,-0.03424098342657089,0.04324707016348839,-0.04635770246386528,-0.07223710417747498,-0.09853158891201019,-0.09668160229921341,-0.05301901698112488,-0.12596888840198517,-0.04811175540089607,-0.03516921401023865,-0.07653141021728516,-0.011478215456008911,-0.11657460778951645,0.037090007215738297,0.006035470869392157,-0.07478144764900208,0.010393842123448849,-0.01874643936753273,0.003560944925993681,-0.012960940599441528,-0.01916087605059147,-0.0551498681306839,-0.09344813972711563,-0.07502385973930359,-0.0035693624522536993,0.00802510604262352,0.026527756825089455,-0.029539335519075394,0.0446966290473938,0.033716730773448944,-0.0644931048154831,-0.046803876757621765,-0.09155190736055374,-0.03817584365606308,-0.07143723219633102,-0.026825763285160065,-0.05890442803502083,-0.11234363913536072,0.029085487127304077,0.019236160442233086,-0.11244813352823257,-0.0032549016177654266,-0.04051980376243591,-0.014643171802163124,-0.13159719109535217,-0.07281391322612762,-7.399584137601778e-05,-0.06309854239225388,-0.02532961219549179,0.03303986415266991,0.03400223329663277,-0.004070258233696222,-0.0851765051484108,-0.08123915642499924,0.08619745075702667,0.0032911570742726326,0.006415129639208317,0.0719631090760231,-0.03610199689865112,0.01032999251037836,0.0055358135141432285,-0.007638676092028618,-0.0597916916012764,0.05309567600488663,0.029673999175429344,-0.08855476975440979,-0.06697317957878113,-0.010326294228434563,0.054866354912519455,0.04031321033835411,0.05275586247444153,-0.04232592135667801,-0.028847413137555122,-0.06458504498004913,-0.12997989356517792,-0.007268150337040424,-0.02432318776845932,-0.07184145599603653,-0.08608972281217575,-0.09342902153730392,0.12150020152330399,-0.017983155325055122,0.04309263825416565,0.0038082983810454607,0.06161345914006233,-0.08919356763362885,-0.03785135969519615,0.04027865082025528,-0.04198259115219116,0.010224675759673119,-0.05198763683438301,-0.02521844394505024,-0.08825745433568954,0.010897924192249775,-0.01276867464184761,-0.08318941295146942,-0.02886211685836315,-0.0977858379483223,-0.02110055275261402,0.06651339679956436,-0.065180703997612,0.8625175952911377,0.00881621427834034,0.047080568969249725,0.965373694896698,0.2281293421983719,-0.05475394055247307,0.3009738028049469,0.5897892713546753,1.9546992778778076,0.17136046290397644,-0.4953474700450897,-2.441409111022949,-2.112508773803711,-0.3983713984489441,-0.028465496376156807,0.29599958658218384,-0.157523512840271,-2.3126511573791504,-0.49368488788604736,0.21966107189655304,-0.16881024837493896,0.08956551551818848,-0.7418475151062012,0.06934972107410431,-1.0303019285202026,1.4884940385818481,-0.08898903429508209,0.6502426266670227,-3.823302745819092,-7.290603160858154,-0.18109165132045746,-0.35321319103240967,0.3005124032497406,3.0892415046691895,-1.3030236959457397,-0.35420462489128113,0.0674687996506691,0.2398078739643097,-1.7490206956863403,-0.7317571043968201,-0.05711223557591438,0.027625340968370438,-0.8471711277961731,0.10479900985956192,0.8751803040504456,-0.08282002806663513,-1.2041984796524048,0.2182491421699524,-0.04943513497710228,1.1488277912139893,0.28213343024253845,-0.1014866754412651,-0.9433188438415527,-0.13461518287658691,-2.8128111362457275,-3.0636658668518066,0.4746645390987396,-0.1337174028158188,-0.5502322912216187,0.24223347008228302,-0.3226638734340668,0.032563358545303345,0.2981819808483124,-2.1001787185668945,0.7540684938430786,-0.1895081251859665,-0.4744313657283783,0.7188909649848938,-1.1182810068130493,0.8598068356513977,0.8656758069992065,0.1983470320701599,-0.4490112066268921,-0.5972456336021423,0.5926740169525146,-0.029278025031089783,0.4743261933326721,0.06803999841213226,0.007597991731017828,-0.7919896841049194,0.37567755579948425,-0.07974783331155777,-2.0401742458343506,0.0571729801595211,-0.16865576803684235,-0.8453084230422974,0.04188951104879379,0.21858468651771545,-1.5041286945343018,0.6296747326850891,-2.1953773498535156,-0.2871217429637909,0.42526575922966003,0.7293286323547363,0.049907293170690536,-0.20362862944602966,0.8942274451255798,-0.014775916002690792,-1.114811658859253,0.6785058379173279,-0.08689615875482559,1.4516750574111938,0.045555926859378815,0.07802055031061172,0.1476416438817978,0.4149393141269684,-0.7534485459327698,-0.9674103856086731,1.1873458623886108,0.5040509700775146,-1.664902687072754,0.24885335564613342,0.30581218004226685,-0.24594490230083466,3.996642589569092,0.5748400092124939,0.5372101664543152,-2.1157023906707764,0.515827476978302,0.4119795560836792,0.6385442614555359,0.04884675145149231,0.7063466906547546,1.0188989639282227,-1.1542576551437378,0.053979743272066116,-0.04492693766951561,0.6033326387405396,-0.06587834656238556,0.04845096170902252,0.06086335703730583,-0.054090291261672974,0.0372568741440773,0.08146654069423676,0.04073738306760788,-0.07319512218236923,0.03925711661577225,-0.02749277651309967,-0.10800569504499435,-0.07986605912446976,-0.012927521951496601,-0.014969315379858017,0.03935687243938446,0.052240315824747086,-0.04551945626735687,0.03213120996952057,-0.09698877483606339,-0.026690568774938583,-0.048452142626047134,-0.03641008585691452,-0.06536763161420822,0.02213456481695175,-0.01627606339752674,0.060912806540727615,-0.023426443338394165,-0.03558187931776047,-0.08027689903974533,-0.09258025884628296,-0.07956862449645996,0.0591326579451561,0.05630003288388252,0.020660806447267532,-0.11432059109210968,0.05551498383283615,-0.05150792747735977,-0.05965935438871384,0.007481666281819344,0.08249012380838394,0.025522319599986076,0.004153203219175339,-0.05852404981851578,0.013165632262825966,-0.02237844094634056,-0.023358425125479698,-0.02813236601650715,-0.03467084839940071,0.014931290410459042,0.03332792595028877,-0.031175823882222176,0.021589184179902077,-0.058959558606147766,-0.08949154615402222,-0.01951698586344719,-0.03052361123263836,-0.009318159893155098,0.04052386060357094,0.011970149353146553,-0.059422675520181656,-0.09125075489282608,-0.0844516009092331,-0.07150525599718094,-0.029401736333966255,0.05255741998553276,0.020230086520314217,0.027857454493641853,0.060537371784448624,0.02716187946498394,-0.05022093281149864,-0.0011440106900408864,-0.03638560324907303,0.03281644359230995,-0.03865426406264305,0.014049751684069633,0.040872715413570404,-0.024310702458024025,-0.032089345157146454,0.013973576948046684,0.05100090801715851,0.03298427537083626,0.0470971018075943,-0.08082650601863861,0.07782101631164551,-0.08346852660179138,0.10117737948894501,-0.03349166736006737,-0.002327557420358062,-0.04191546142101288,-0.005502304993569851,-0.08717497438192368,-0.03065117448568344,0.024911781772971153,-0.02267901599407196,0.022620055824518204,-0.0948115810751915,-0.08004540205001831,0.07096606492996216,0.05220739170908928,0.03646966069936752,-0.07334229350090027,0.030863899737596512,0.08043891191482544,0.020344514399766922,0.0019643264822661877,-0.10953909158706665,-0.047933828085660934,0.026567960157990456,-0.05690866708755493,-0.09385371953248978,0.05373113229870796,-0.09739317744970322,-0.07390285283327103,-0.03384963050484657,0.04075934365391731,-0.006656322628259659,-0.0017972871428355575,-0.04865266755223274,-0.0259499903768301,-0.09804941713809967,0.006606753915548325,0.011573887430131435,0.04640486091375351,0.042275696992874146,0.004460294730961323,-0.04872208088636398,-0.004379647318273783,-0.035631194710731506,-0.3837084174156189,-0.024015136063098907,-0.08176332712173462,3.7551324367523193,-0.0034175729379057884,-0.07888692617416382,-0.30909478664398193,0.22631554305553436,-2.9362802505493164,-1.1408226490020752,-0.5014407634735107,1.177002191543579,-0.43557634949684143,-0.531255304813385,-0.08233950287103653,-1.0628471374511719,-0.7634687423706055,0.27867749333381653,1.3931611776351929,-2.081965684890747,-2.076645851135254,-0.13597820699214935,-0.36212804913520813,0.0331813283264637,-0.6614083647727966,-1.6128233671188354,-1.9798274040222168,-1.196263313293457,-2.0503756999969482,-1.2537682056427002,-2.1981098651885986,-0.06368395686149597,-1.9690883159637451,4.3144025802612305,0.6614159941673279,0.05683664232492447,-0.0006156706367619336,0.06349693983793259,-1.1493467092514038,-2.016002655029297,0.010702960193157196,0.00841762125492096,-1.7053766250610352,-1.055857539176941,-1.3490952253341675,-0.04393070191144943,-0.7906875610351562,-0.12662020325660706,-0.04855626821517944,-1.3356422185897827,-0.37746167182922363,2.142958641052246,1.3516128063201904,0.35543137788772583,-1.0988445281982422,-2.862011671066284,0.20993967354297638,0.7984068393707275,0.48798614740371704,-0.7864670157432556,0.053663093596696854,-0.9947540163993835,-0.8449334502220154,-1.010391116142273,-0.7976399660110474,-0.8831024765968323,0.16641400754451752,0.07774396985769272,1.7929972410202026,-1.9336899518966675,-0.6070905923843384,0.5142605900764465,-0.7599682211875916,-1.6822041273117065,-1.3276652097702026,0.022741079330444336,-1.4551236629486084,-0.040195196866989136,0.00015772857295814902,0.04599519446492195,-0.4920831620693207,0.06701928377151489,1.4667079448699951,0.04496888443827629,0.0703396275639534,-0.3043453097343445,0.06497184932231903,-2.6771280765533447,-0.19147200882434845,-0.09891374409198761,-0.5662762522697449,0.33975377678871155,-0.42562049627304077,-0.8697420358657837,-0.05303756147623062,-0.10978718847036362,-0.6852785348892212,-0.023201607167720795,0.9191680550575256,-1.491188883781433,-1.3590092658996582,-2.0469908714294434,0.02053545042872429,0.031218497082591057,-1.0291749238967896,-0.7731202244758606,-0.8578795790672302,-0.4736209511756897,-1.0816818475723267,-0.12235152721405029,0.22880667448043823,0.09150657057762146,-0.09951647371053696,-1.217570424079895,-0.45095640420913696,1.253968596458435,-0.22452984750270844,-0.34545931220054626,-1.4255012273788452,-0.22497910261154175,0.773054301738739,-1.7561990022659302,-2.146226644515991,2.088491201400757,-1.2198361158370972,0.8505756855010986,0.005162124987691641,-0.1179661825299263,-0.16638325154781342,-0.028493091464042664,0.055705659091472626,-1.5140976905822754,2.2099263668060303,-0.07831306010484695,0.03339329734444618,2.2604806423187256,0.287077933549881,-0.2649058997631073,0.5731192827224731,-0.8028706908226013,0.4823053181171417,0.5070061683654785,-0.034338194876909256,-2.3351755142211914,0.6488285064697266,-1.5084609985351562,-1.3518836498260498,-0.27420762181282043,-0.21240200102329254,0.1816534698009491,0.6781470775604248,0.0685214176774025,1.5417098999023438,0.1447652131319046,0.43673327565193176,0.3440159261226654,-0.37645670771598816,0.180564284324646,0.2810707688331604,0.5350477695465088,0.7784669399261475,-1.365194320678711,0.8905101418495178,0.7791684865951538,-0.045856159180402756,0.7788750529289246,1.0243345499038696,2.8263468742370605,0.07114789634943008,0.03228791058063507,-0.04464953392744064,-0.3868311643600464,-0.27092698216438293,0.056613627821207047,0.5284002423286438,-2.473195791244507,-0.053031954914331436,0.2211483269929886,0.6574472188949585,0.8537164330482483,-0.2918517291545868,1.0956474542617798,1.316563367843628,-0.05960814654827118,0.4355543851852417,-1.1735743284225464,0.5680245757102966,-0.0055293068289756775,0.5968560576438904,-3.4051685333251953,0.1743958592414856,-0.7749142646789551,0.5193737745285034,-0.27000561356544495,0.4720470905303955,0.15214857459068298,-2.0216457843780518,0.28572890162467957,-0.11821950972080231,0.06406503915786743,0.10541803389787674,0.4428758919239044,0.41732257604599,0.06984498351812363,0.6088946461677551,-0.06403206288814545,0.009504130110144615,0.781082808971405,0.43403154611587524,-0.02064516954123974,0.8536855578422546,0.05676809325814247,-0.3139120638370514,0.6500757932662964,-0.04523426294326782,0.7899812459945679,0.6804786920547485,0.2879638671875,-1.7499053478240967,0.9491042494773865,0.7167377471923828,0.3952506184577942,0.018517259508371353,0.6310293674468994,1.0554242134094238,-0.08604803681373596,0.8244559168815613,0.5156109929084778,0.6574488878250122,-0.017105238512158394,-0.009462272748351097,-0.01944437436759472,0.26704487204551697,2.3713653087615967,0.14026717841625214,-0.44516295194625854,-0.46205049753189087,0.7994063496589661,0.4005807340145111,0.4427247643470764,0.6666532754898071,-1.028356671333313,0.3381514847278595,0.07628948986530304,0.8221243619918823,0.5639479756355286,0.6413441300392151,0.48569032549858093,-4.86887788772583,-0.42339998483657837,-3.2223317623138428,-1.7633994817733765,-0.4951237738132477,1.178612232208252,0.08456744998693466,1.5109959840774536,0.15404438972473145,0.06419403105974197,-0.07540257275104523,5.641319274902344,0.529447078704834,-0.052274346351623535,-0.32800501585006714,-1.2789928913116455,-0.7790418863296509,-0.05466848984360695,-1.5859870910644531,-0.5575879812240601,-1.6081352233886719,-1.7605793476104736,0.012947321869432926,-1.4062155485153198,0.16692587733268738,-0.376196950674057,-0.19603432714939117,-1.6155205965042114,0.44009098410606384,1.2776165008544922,-0.5441023707389832,0.07550880312919617,0.7835529446601868,0.6315497756004333,-2.101844072341919,0.19116736948490143,0.6771236658096313,-1.680787205696106,-0.7335720062255859,0.05446590110659599,-0.05276796221733093,0.2811511158943176,0.6279323101043701,-0.22855138778686523,0.0677950382232666,0.17568203806877136,-0.2482917308807373,1.0809985399246216,-0.05939691886305809,0.06104639172554016,-3.040402412414551,-0.32517287135124207,0.6020260453224182,0.03968974947929382,-1.2484948635101318,-1.037450909614563,0.0783274695277214,0.10391517728567123,0.42439189553260803,2.239161252975464,1.5884209871292114,0.4106648564338684,-1.9059810638427734,0.14975173771381378,-0.057364512234926224,2.4946587085723877,0.1238897517323494,-1.4213272333145142,0.18318644165992737,0.5712270140647888,1.0287407636642456,2.0839738845825195,0.15828357636928558,-0.8589074611663818,0.5844951272010803,0.16603757441043854,1.597244381904602,0.6075208187103271,0.0816047340631485,0.635780394077301,-0.35640642046928406,-0.1781989485025406,0.1989532858133316,-0.011013560928404331,0.6992443203926086,0.010247363708913326,0.06554554402828217,0.3989165127277374,0.20820969343185425,-0.08036200702190399,2.321486234664917,0.05474405735731125,-1.000320315361023,0.5498053431510925,-0.05723392218351364,-4.653316497802734,-1.4126008749008179,0.1906614452600479,-1.3811184167861938,0.9390386343002319,0.1920977681875229,-1.9561281204223633,0.023972759023308754,-1.261325478553772,0.707730233669281,0.02061203122138977,1.0970200300216675,-1.8457889556884766,1.054819941520691,-0.017697228118777275,0.020751938223838806,-0.05592356622219086,-2.1283934116363525,-0.07080207765102386,-1.0422781705856323,-0.8952425122261047,-0.44734320044517517,0.5764507055282593,-0.2145736962556839,-0.5224599838256836,0.37873750925064087,1.1639679670333862,-0.11002973467111588,0.6338532567024231,0.44098976254463196,-0.06616109609603882,0.20830094814300537,0.334524929523468,-0.1393643468618393,-0.9860727190971375,-0.5743075609207153,2.126739740371704,-2.530726909637451,1.2600535154342651,-0.06058529391884804,-0.3598463535308838,-0.11281001567840576,-0.03120259754359722,0.04726273939013481,-1.7931996583938599,-0.7097749710083008,-0.014540314674377441,-2.463212490081787,-1.4688036441802979,-0.2813817262649536,1.347760558128357,-1.8612700700759888,-1.837660551071167,-1.474349021911621,-1.7181733846664429,0.05537870153784752,1.8996500968933105,0.24240389466285706,-1.8107396364212036,5.654232025146484,-1.3607455492019653,0.6744868755340576,-0.7060666084289551,-1.4516310691833496,0.0021451376378536224,-0.7655882835388184,0.9639720916748047,-0.4328187108039856,0.5580157041549683,-0.25957733392715454,-1.4259289503097534,0.6304628849029541,-1.1860148906707764,0.27567458152770996,-0.17175278067588806,-0.021985504776239395,-3.223886013031006,0.036785684525966644,-1.7756768465042114,-6.300958156585693,-0.5674943923950195,-0.028412602841854095,-0.049521997570991516,-0.7471663951873779,1.2800877094268799,0.9217133522033691,0.06365159898996353,-1.2407424449920654,0.5825160145759583,-0.0039643533527851105,-3.3434247970581055,-1.4337998628616333,-1.8581087589263916,-1.2025681734085083,0.42987585067749023,-1.5655957460403442,-1.121590495109558,-0.9983504414558411,3.313728094100952,-1.6621248722076416,-0.02194320224225521,0.29398882389068604,2.6214544773101807,0.8027193546295166,0.9562687873840332,0.4408467411994934,1.5847926139831543,-0.3415537476539612,-0.13739897310733795,1.27069890499115,0.3654876947402954,-0.4123918414115906,1.469827651977539,1.0636152029037476,-1.9095702171325684,-2.3926031589508057,0.04066647216677666,0.4968005120754242,-0.06602095067501068,0.10014083236455917,-0.022033439949154854,0.7775930762290955,0.06864012777805328,0.21582774817943573,0.08065309375524521,-0.67032790184021,-3.1236419677734375,0.020997390151023865,0.6614298820495605,-3.699216365814209,-1.3432939052581787,1.853325366973877,-2.089792013168335,-0.4386116862297058,-2.9551846981048584,-0.08713141828775406,-3.157196044921875,0.43008238077163696,-0.02760564722120762,0.7416719794273376,0.010709302499890327,0.769595205783844,0.6887279748916626,-0.06488224864006042,-0.0018115452257916331,-0.4139186441898346,-0.8649058938026428,-0.28459954261779785,1.681121587753296,1.8941545486450195,-1.7068299055099487,-3.2372422218322754,0.22148266434669495,-2.9086902141571045,1.6211912631988525,-3.3955719470977783,-4.7355217933654785,-0.24335621297359467,2.6523451805114746,1.0020557641983032,0.6812726855278015,-1.4787901639938354,0.7598556280136108,1.5007461309432983,-0.030452698469161987,2.969137668609619,-0.5932450890541077,0.0193888358771801,-2.665708303451538,-0.028448600322008133,0.019461559131741524,-0.03093084506690502,0.06718939542770386,0.07268150895833969,0.055386681109666824,-0.008073563687503338,-0.02275952138006687,0.02106248214840889,0.03420977666974068,0.07449241727590561,0.06976096332073212,-0.05986149609088898,0.013276278041303158,0.03736152499914169,-0.020230179652571678,0.01598357781767845,0.03543876111507416,0.011709384620189667,0.007021944969892502,-0.11070200800895691,-0.025449559092521667,-0.1028904914855957,-0.0521157905459404,-0.1061968132853508,-0.04350052773952484,0.057234976440668106,-0.014266588725149632,-0.0847882330417633,-0.10168968141078949,0.0443161241710186,0.015005253255367279,-0.09538348019123077,0.014424779452383518,0.01705068163573742,-0.04546695202589035,-0.018846647813916206,-0.050166673958301544,0.046370189636945724,-0.04718059301376343,0.0710739716887474,-0.024388747289776802,0.0024347002618014812,-0.017787998542189598,-0.0028221276588737965,0.036592062562704086,0.025514205917716026,-0.0008265451178885996,-0.029977945610880852,0.03870565444231033,-0.01015087217092514,0.0660461038351059,-0.027420565485954285,-0.053881071507930756,0.01376346405595541,-0.06425942480564117,0.0224550012499094,-0.07459495961666107,-0.03193292394280434,-0.04449966549873352,0.05008132755756378,-0.007777705322951078,-0.09434215724468231,0.03252040222287178,0.08067167550325394,-0.08239234238862991,0.001050122082233429,-0.07584842294454575,-0.060157548636198044,0.013502411544322968,-0.05470184609293938,-0.06142932549118996,-0.08973363041877747,0.04739687591791153,-0.08597853779792786,-0.036379050463438034,-0.0793088972568512,0.030759338289499283,0.042850688099861145,-0.044602327048778534,-0.07913932204246521,0.0031729096081107855,0.04569563642144203,0.01909666322171688,0.058275576680898666,-0.03854389116168022,-0.08794157207012177,-0.05585167557001114,-0.10666454583406448,-0.03795443847775459,-0.013568218797445297,0.04736877977848053,-0.007240558974444866,0.05014227703213692,-0.05976925790309906,-0.026909340173006058,-0.015242225490510464,-0.07620711624622345,0.045581571757793427,-0.04532623291015625,-0.07665644586086273,0.0031419196166098118,0.03985777869820595,0.013029097579419613,-0.05493582785129547,0.05709695443511009,-0.029762975871562958,-0.05819030851125717,0.009722648188471794,-0.09800220280885696,0.018913861364126205,0.07062961906194687,-0.08261395990848541,0.014613157138228416,-0.02911265380680561,-0.014863596297800541,0.05255505442619324,-0.07521699368953705,0.007986500859260559,-0.06868930906057358,0.05413336679339409,-0.045035965740680695,-0.04092821478843689,-0.031312741339206696,-0.07755831629037857,-0.09560922533273697,0.04897308722138405,0.03901069238781929,-0.18507206439971924,-0.006924769375473261,0.022648178040981293,-0.8694232106208801,0.23685279488563538,0.009766878560185432,-0.1066947802901268,-2.0782041549682617,-1.2519710063934326,0.05382853373885155,0.6123299598693848,-0.3375091850757599,0.4467589259147644,0.5062590837478638,0.03255438432097435,-0.4987078905105591,0.7191445827484131,0.9615821242332458,0.8773062229156494,-1.499699592590332,-0.7872686982154846,-0.18304577469825745,0.36999794840812683,0.041503001004457474,0.9639127850532532,-0.20287883281707764,0.018541371449828148,0.2410193383693695,-0.9007705450057983,0.28033939003944397,-0.4733373820781708,0.09270752966403961,-2.26076602935791,1.875709056854248,0.27282166481018066,0.5990685820579529,-0.11625754833221436,0.31954309344291687,-0.5434996485710144,-1.663801908493042,-0.08249935507774353,0.06344872713088989,-0.05857982113957405,0.18656058609485626,-0.6363352537155151,-0.0783519372344017,-0.10654836893081665,-1.3193024396896362,-0.007717561908066273,-0.12003755569458008,0.24532151222229004,1.7328108549118042,0.12581248581409454,1.6774388551712036,-1.498145341873169,-0.4919486343860626,0.19262853264808655,0.879172146320343,0.6357207298278809,0.037097807973623276,-0.4623177945613861,0.0488886833190918,-0.05998839810490608,-0.6736227869987488,-0.04408219829201698,-0.2917483150959015,0.5974655151367188,-0.08321528136730194,1.8850468397140503,-0.41147562861442566,-0.10945647209882736,0.7643589973449707,0.4922170639038086,-0.12592092156410217,-0.47997716069221497,-0.052037689834833145,0.7301785349845886,-0.06785726547241211,-0.00989646464586258,-0.7440210580825806,-0.009773798286914825,0.0660398006439209,0.548963725566864,-0.06498176604509354,-0.050683606415987015,0.06524999439716339,-0.0010681907879188657,-0.4331797957420349,1.9849414825439453,0.05595223233103752,-0.4326072633266449,0.8515335321426392,0.2726895213127136,-0.0028786584734916687,0.010974101722240448,0.36060261726379395,0.9278984069824219,0.027087336406111717,0.47063755989074707,-0.09340211749076843,-0.6036280393600464,-0.19468103349208832,0.017656104639172554,0.030354227870702744,0.11290371417999268,-1.5065797567367554,0.26089346408843994,0.3744727671146393,-1.0208691358566284,0.014384716749191284,0.9927985072135925,0.5265973210334778,0.0625155121088028,-1.634595513343811,-0.4447554051876068,0.08101864159107208,0.5844579339027405,-1.8149299621582031,0.22736094892024994,0.13365982472896576,-1.159989356994629,-0.11114385724067688,-1.0870308876037598,1.02577805519104,-1.3536826372146606,1.427001953125,-0.007227320224046707,-0.7130342125892639,0.828301191329956,0.02471747249364853,0.08177579194307327,1.6649422645568848,0.6832910776138306,0.0014069776516407728,0.11510470509529114,-2.1138482093811035,-2.994462490081787,-1.0353503227233887,-0.04202884063124657,0.6161887049674988,0.49402862787246704,0.1632058322429657,0.02514776960015297,0.6202419400215149,0.3293571472167969,1.5713129043579102,-0.03582347184419632,-3.016357183456421,0.323465496301651,0.21685247123241425,-1.3130297660827637,-0.050294581800699234,-0.11290290951728821,-3.525129556655884,-0.2274869978427887,-3.0452892780303955,0.05573653429746628,0.8747844099998474,-0.9318159222602844,-0.9011061787605286,-0.5763031840324402,3.2292582988739014,0.4912329912185669,1.712731122970581,0.12645915150642395,1.155429482460022,-1.8859519958496094,-2.4918131828308105,0.08571658283472061,0.08545155078172684,0.17354276776313782,-1.265289545059204,-1.2892117500305176,-0.03864563629031181,0.9524224400520325,-0.3320876955986023,-0.06033753231167793,-1.9777051210403442,0.15404237806797028,2.4573726654052734,0.6571124196052551,-1.4388962984085083,0.7190479040145874,-2.3409318923950195,0.266061931848526,-1.7608962059020996,0.04435160383582115,-0.000932773866225034,-0.1937652975320816,1.747642159461975,-4.06681489944458,0.6191958785057068,-3.1555850505828857,-0.27441149950027466,3.911511182785034,0.34768420457839966,0.841338038444519,0.7077538371086121,0.8559955358505249,1.546250820159912,-0.13147278130054474,-2.752960205078125,-0.30595600605010986,0.06415248662233353,-2.708467721939087,0.07555701583623886,-0.03641181066632271,0.35784175992012024,-1.7126491069793701,-0.02231796830892563,4.625063896179199,-0.04439210519194603,0.9539964199066162,-0.9701459407806396,-0.08723165839910507,-0.47566547989845276,-0.39759039878845215,0.044115133583545685,0.29917946457862854,1.1798304319381714,-0.5645874738693237,-0.0805678516626358,-0.038490861654281616,0.6557720899581909,-2.2556514739990234,0.027988510206341743,-0.9023160338401794,-0.28666311502456665,-2.5399959087371826,-1.3788691759109497,-0.0841037705540657,-0.050807468593120575,-0.09301929175853729,-3.0308191776275635,0.1904301941394806,-1.8264821767807007,0.3213711977005005,2.2874245643615723,0.6821509003639221,0.43431323766708374,0.9438233971595764,-2.2970728874206543,0.21972981095314026,0.4844416379928589,0.7574892640113831,0.04329567402601242,-2.776848077774048,0.7104123830795288,2.3029911518096924,0.23702040314674377,-0.5792253613471985,0.5775392651557922,-0.3758756220340729,-0.168766587972641,0.025664711371064186,-1.0858824253082275,0.03718751668930054,-0.028206566348671913,0.01820644736289978,-0.02239861525595188,0.07913877069950104,0.017918406054377556,-0.0857655480504036,-0.022683454677462578,-0.06705500930547714,-0.017862072214484215,-0.10132679343223572,-0.011731212958693504,0.04816047474741936,0.040609974414110184,-0.017488982528448105,-0.09043444693088531,0.020125262439250946,0.01760554313659668,-0.032517507672309875,0.05431799218058586,0.06958441436290741,0.001265610451810062,-0.10316884517669678,-0.03648129850625992,-0.11986825615167618,0.012145387008786201,-0.08443260937929153,-0.04234766960144043,0.016016198322176933,-0.10267613083124161,0.0399935245513916,0.03634275868535042,-0.08436555415391922,-0.07735062390565872,-0.05828287824988365,-0.021234214305877686,-0.045902807265520096,-0.08974573016166687,0.06187526136636734,0.02813841588795185,0.02610163763165474,0.043198853731155396,-0.07034669816493988,-0.0953620970249176,-0.0689246654510498,0.07894165813922882,-0.11862606555223465,0.026813624426722527,-0.03427443653345108,-0.09793832153081894,-0.021060124039649963,-0.07507331669330597,-0.007783100474625826,-0.05772972106933594,-0.1147284284234047,0.012677078135311604,-0.09966737031936646,-0.033309102058410645,-0.06622288376092911,-0.06534797698259354,0.07839316129684448,-0.11074412614107132,-0.015867872163653374,0.027119465172290802,-0.09460277855396271,-0.05519884079694748,-0.02122117392718792,-0.0530502013862133,0.06298793852329254,-0.04405047371983528,-0.05014121159911156,-0.015629934147000313,0.030055582523345947,0.016450824216008186,0.02026073820888996,-0.021222708746790886,-0.005879191216081381,-0.061819761991500854,0.07484535127878189,0.06267011910676956,-0.006825772579759359,-0.0827842503786087,0.054031532257795334,0.062338877469301224,-0.003082189243286848,-0.06974810361862183,-0.04878994822502136,-0.017455046996474266,-0.10045036673545837,0.03323250263929367,-0.04698387533426285,-0.03908977285027504,-0.07352252304553986,-0.06245308741927147,0.05668548867106438,-0.0636080801486969,-0.09807752817869186,-0.06870017200708389,-0.042015191167593,-0.0856064185500145,-0.13554023206233978,-0.005988043732941151,0.07024534046649933,-0.01845078356564045,-0.08999274671077728,-0.08704321086406708,-0.07103396952152252,0.014182034879922867,0.025000154972076416,-0.09737253189086914,0.01014343835413456,-0.034675389528274536,-0.023486783728003502,-0.11836116015911102,-0.010882081463932991,-0.04995761066675186,0.04440176486968994,0.0153519781306386,0.035113800317049026,-0.08182480186223984,-0.04602959007024765,0.05044836178421974,-0.10527455061674118,-0.06620360165834427,0.03988145664334297,-0.09046196192502975,0.045965857803821564,0.01947789080440998,0.731900155544281,0.04811590537428856,-0.08091218769550323,4.92136287689209,0.4489001929759979,-0.06978194415569305,-0.2361350953578949,-2.2154862880706787,-1.395665168762207,0.7346113324165344,-0.24306951463222504,-0.8430184721946716,-0.9031257033348083,-0.8969206213951111,-0.06225018948316574,-1.2957581281661987,0.35098040103912354,-0.09664799273014069,2.7294862270355225,-1.0288692712783813,-0.4900258183479309,-0.3687671720981598,-0.8064339756965637,-0.05509239062666893,0.7824785709381104,-0.39761123061180115,-1.7030525207519531,-0.2938367426395416,-0.7468252182006836,-2.2055115699768066,-1.4814435243606567,0.0414988175034523,-2.426130533218384,4.073003768920898,0.12389388680458069,0.1829969584941864,0.07779684662818909,0.050337668508291245,-0.4737912118434906,-1.3402867317199707,0.053236208856105804,-0.0678306519985199,-4.1748456954956055,-0.47916939854621887,0.04133538901805878,-0.06325056403875351,-0.2970706522464752,0.3592706620693207,-0.08119575679302216,0.487692654132843,0.251618891954422,1.4702073335647583,-2.1293866634368896,0.6360759735107422,-3.5116465091705322,-2.7242939472198486,0.22989822924137115,1.8329843282699585,-0.5380176901817322,-0.46187618374824524,0.2290748804807663,-1.6225661039352417,0.44512608647346497,1.2320226430892944,0.023001831024885178,-1.817551612854004,0.41515010595321655,0.3008444011211395,2.5759503841400146,0.8154732584953308,0.7330152988433838,1.4937528371810913,0.017589561641216278,0.17653216421604156,-0.49126380681991577,-0.01811894029378891,0.6310089826583862,0.0816134437918663,0.018664099276065826,2.3032805919647217,0.011239683255553246,0.08214948326349258,0.7979680299758911,-0.037145037204027176,-0.5529282093048096,-0.4513609707355499,0.08120878040790558,-3.088529586791992,-0.706412672996521,-0.0561300590634346,-2.693631887435913,0.278504341840744,0.13032138347625732,0.8995749354362488,-0.05110408738255501,0.3543715178966522,0.21156704425811768,-0.030071808025240898,1.268433690071106,-0.7982635498046875,-2.21171236038208,-0.4902266561985016,0.06053926795721054,0.026641717180609703,-0.8602111339569092,-0.19165931642055511,-2.1692416667938232,-0.43679550290107727,0.11820539832115173,-0.5956467390060425,-0.4720231592655182,0.24901045858860016,0.11998162418603897,-0.151032954454422,-3.5367159843444824,0.5992185473442078,0.5006160736083984,0.5453700423240662,-0.5748386383056641,0.04381134733557701,-0.3320678472518921,-1.5675805807113647,-3.3696982860565186,4.227492809295654,-2.6838839054107666,0.29250019788742065,0.038920916616916656,-0.532721757888794,-0.04074373096227646,-0.05005062371492386,0.001653083716519177,0.0055796424858272076,-0.06390248984098434,-0.0035268377978354692,-0.10424315184354782,0.057457827031612396,0.025362424552440643,-0.15961962938308716,-0.06912876665592194,0.02928127720952034,-0.06109533831477165,-0.14315810799598694,0.061584487557411194,-0.1721070408821106,-0.1066892147064209,-0.13321955502033234,-0.1443437933921814,0.1165139302611351,0.12345513701438904,-0.019590027630329132,-0.023930946364998817,0.004597009159624577,-0.0930367261171341,-0.011127935722470284,-0.04392242431640625,0.01853463612496853,-0.08826541155576706,-0.10781848430633545,-0.048785630613565445,-0.006673579569905996,-0.08031285554170609,-0.1032244935631752,-0.12114468216896057,-0.07509070634841919,-0.08591823279857635,-0.02399933524429798,-0.07450845837593079,-0.01799728535115719,-0.08393392711877823,0.05265563726425171,-0.12922759354114532,-0.011386814527213573,-0.039959609508514404,0.05906670168042183,0.021006716415286064,0.033385004848241806,-0.007673002313822508,-0.1240071952342987,0.004764040000736713,0.04606178030371666,0.011069482192397118,-0.04539104551076889,-0.10312201827764511,-0.02021854743361473,0.0815008208155632,-0.1622573733329773,-0.0533682182431221,-0.11432358622550964,-0.15270216763019562,-0.03889599069952965,-0.019565623253583908,-0.13560380041599274,-0.08088391274213791,-0.19907772541046143,-0.12679798901081085,0.11556591093540192,0.1261603832244873,-0.1168946921825409,-0.047299377620220184,-0.04599200561642647,-0.03136289864778519,-0.24581065773963928,0.006932851858437061,0.08373794704675674,0.0029037988279014826,0.04880505055189133,0.018857141956686974,-0.12169595062732697,-0.03481436148285866,-0.05971352756023407,0.1406816989183426,0.07853589951992035,0.05184740200638771,-0.10947670787572861,0.041965302079916,-0.08212125301361084,-0.03992904722690582,-0.05514855682849884,-0.13911211490631104,0.0020092255435884,-0.14412005245685577,-0.0988709107041359,0.01616070233285427,0.07478233426809311,-0.009271222166717052,0.027740444988012314,0.00034130277344956994,-0.08062513172626495,-0.11451225727796555,-0.08925821632146835,-0.02856960892677307,-0.04870108142495155,-0.008803293108940125,-0.01787536032497883,-0.1213754266500473,-0.08609125018119812,-0.06438060849905014,-0.11143924295902252,-0.10505946725606918,0.058400653302669525,0.02510686218738556,0.04003356024622917,-0.17512743175029755,0.09346234053373337,-0.10364343971014023,-0.17575259506702423,0.03680809959769249,-0.024904409423470497,0.006758664734661579,-0.018075760453939438,-0.10004954785108566,0.1501503735780716,-0.11207347363233566,0.026960818096995354,-0.056033845990896225,-0.047686975449323654,-0.05719606578350067,0.044914230704307556,-0.024320164695382118,0.07368140667676926,-0.0024603623896837234,0.08759161084890366,-0.004304873291403055,-0.06690642237663269,-0.01941033825278282,-0.09361203014850616,-0.061312559992074966,-0.022251393646001816,-0.06509652733802795,-0.0783635750412941,-0.07500718533992767,-0.06857038289308548,-0.03861482813954353,-0.005926405545324087,0.10266485810279846,0.06690856069326401,0.013147532008588314,-0.11359430104494095,-0.0023260414600372314,0.07202070951461792,-0.02334968000650406,-0.11466994881629944,-0.10550299286842346,0.011659636162221432,-0.013216239400207996,-0.0702877938747406,-0.07440756261348724,-0.03958479315042496,-0.006567917764186859,-0.08419787138700485,-0.1193736121058464,-0.07319824397563934,-0.016114015132188797,0.024197682738304138,-0.033186689019203186,0.01838892139494419,0.02019370347261429,0.04506290331482887,-0.0012828476028516889,0.0404742993414402,0.05357576534152031,-0.013276783749461174,-0.05876695364713669,-0.04939647391438484,0.055253032594919205,0.010041647590696812,-0.0896793082356453,0.0629052221775055,0.014383000321686268,0.027529580518603325,0.012832775712013245,-0.10401742160320282,0.05972116440534592,0.03181154280900955,-0.028213603422045708,-0.0020347372628748417,-0.12045720964670181,-0.025364646688103676,0.0405491478741169,0.06041372939944267,0.021469583734869957,-0.11064425855875015,0.006304878741502762,0.023997414857149124,0.09983832389116287,0.01572122983634472,-0.013337330892682076,-0.03815978765487671,-0.027940211817622185,0.018878242000937462,0.032490454614162445,-0.0046827783808112144,-0.05935187637805939,-0.08260549604892731,-0.027205368503928185,-0.11272452026605606,-0.0013464809162542224,0.07497882843017578,0.057740259915590286,0.012306236661970615,-0.03612223267555237,-0.03637522831559181,-0.005465561058372259,-0.12916094064712524,0.01261752936989069,0.04519336670637131,