fc.0.weight
0.01752350851893425,-0.7537502646446228,0.8554901480674744,0.752227783203125,-0.28550994396209717,-0.2750566601753235,-0.1436901092529297,-0.44807153940200806,-0.4187924265861511,-0.4030803442001343,-0.10149544477462769,-0.11359554529190063,-0.3489266037940979,-4.288738250732422,-0.02520175836980343,0.18379302322864532,0.1694921851158142,-2.1212756633758545,0.3730534017086029,-0.7188680768013,0.06778717041015625,-0.2684522867202759,-0.4848916530609131,-0.07153093814849854,-0.6168742775917053,-0.4374783933162689,0.20263883471488953,0.17960648238658905,0.3129759728908539,-0.940168023109436,0.516376256942749,0.7190232276916504,-0.8897560834884644,0.04010888189077377,1.1457864046096802,0.0386996753513813,0.4945629835128784,0.9335431456565857,0.26632311940193176,0.5634477734565735,-0.2630149722099304,0.04780210554599762,-0.31812548637390137,-0.2840398848056793,-1.011057734489441,0.0968436598777771,-0.424597829580307,0.9983171224594116,-0.4681496024131775,0.2753693461418152,-0.675031840801239,0.25862744450569153,-0.5605491995811462,0.21421989798545837,-0.36692747473716736,-0.19149751961231232,-0.303600013256073,0.02158147096633911,-0.4724690914154053,-0.19621342420578003,-0.3453984558582306,1.283217430114746,0.11287961900234222,-0.8715182542800903,1.0726951360702515,-0.1578163206577301,-0.18735143542289734,0.403542160987854,-2.0055887699127197,0.5192546844482422,-0.6553108096122742,0.7117817401885986,0.748310387134552,0.6552145481109619,0.31454867124557495,-0.006055458914488554,-1.1993463039398193,-0.8824301362037659,1.0165935754776,-0.7509731650352478,-0.560319185256958,-0.16810087859630585,-0.991284191608429,-0.8019843697547913,-0.1855470985174179,-0.4488935172557831,0.26223719120025635,0.3617118299007416,0.9336428046226501,0.21527767181396484,-0.8487505316734314,0.03229335695505142,-0.18075257539749146,-0.07956284284591675,0.19578611850738525,-0.11174356937408447,1.4636434316635132,0.007653177250176668,0.42321503162384033,-0.5432998538017273,0.22957094013690948,0.21076448261737823,1.3722444772720337,0.11131605505943298,-0.4841441810131073,0.6505439877510071,-0.1012616977095604,-0.3859855830669403,0.40104520320892334,0.3414294719696045,0.927140474319458,-0.08657797425985336,-0.1776895672082901,0.8585547804832458,-0.653508722782135,0.8356263041496277,-0.821367084980011,0.7582943439483643,-1.6706905364990234,0.13000990450382233,0.027570374310016632,-0.49743586778640747,-0.9711045026779175,-0.9434415102005005,1.1637754440307617,-0.17836494743824005,-0.9237983226776123,0.16596101224422455,-0.1804821491241455,-0.14967133104801178,-1.1322224140167236,-0.33494386076927185,-3.4569711685180664,-0.8132626414299011,0.06469806283712387,-0.18450328707695007,1.0940254926681519,-0.7077836394309998,-0.10240646451711655,-0.4072496294975281,0.45638057589530945,-0.6851322054862976,-0.06444847583770752,-0.4831407368183136,-0.42747920751571655,0.4502202570438385,-0.3902859687805176,0.006423043552786112,0.7361156344413757,-0.7253707647323608,-0.04376332089304924,-0.446103572845459,0.8926475048065186,0.24243928492069244,-0.9313439130783081,-0.5708491206169128,-0.7791299223899841,-0.34477293491363525,-3.3545563220977783,0.37611123919487,0.0142822265625,-0.4420563578605652,0.31411486864089966,-0.3601539134979248,-0.474592924118042,-0.2738567590713501,-0.34581416845321655,0.3525165319442749,-0.4145587384700775,0.4625696837902069,-0.39465945959091187,0.010761852376163006,0.6391081213951111,0.8829076886177063,0.3285923898220062,0.6257851719856262,-0.22964340448379517,-0.22689957916736603,1.427764892578125,0.7390094995498657,-0.012518584728240967,-0.3105156421661377,0.08129644393920898,-0.039524853229522705,-0.6635643839836121,-0.2573200464248657,-0.33810749650001526,0.5262141227722168,-0.5567583441734314,0.689355194568634,0.9695259928703308,-0.777733325958252,-0.2272944450378418,-0.12327426671981812,0.232521653175354,-0.1169365644454956,1.017081379890442,0.03331562504172325,-0.8365819454193115,-0.16720522940158844,0.6738352179527283,-0.716314435005188,0.5284048318862915,-0.32082319259643555,-0.6105505228042603,-2.6621804237365723,-0.4200479984283447,-0.14468108117580414,0.41398584842681885,-0.7670485377311707,-0.3801976144313812,-0.2812538743019104,1.2955883741378784,0.17343401908874512,-0.0023395647294819355,-0.47771480679512024,-1.1125339269638062,0.3651493489742279,-0.216295525431633,0.8077563643455505,0.39919301867485046,0.36122381687164307,-1.914688229560852,-0.08728035539388657,-0.2904447615146637,-0.7867944240570068,0.4635024666786194,0.8648226857185364,0.6820881366729736,0.6569135785102844,0.4438841640949249,0.1321296989917755,0.33490777015686035,-0.48681557178497314,-0.7324416041374207,0.9988252520561218,-0.6582722067832947,0.2955857813358307,0.27704253792762756,0.2768559753894806,-0.6294353604316711,-1.4618717432022095,0.012932486832141876,0.7114722728729248,0.03965676575899124,1.1443371772766113,-0.5920767188072205,0.055816832929849625,0.4144069254398346,-0.22394990921020508,1.3301501274108887,0.0721319168806076,0.5100275278091431,1.0404194593429565,-1.9078730344772339,0.17507143318653107,0.31197091937065125,-0.2056611180305481,1.1724963188171387,0.04030660539865494,0.2636265754699707,0.9074363708496094,-0.5028570294380188,0.6485357284545898,0.8097069263458252,-0.4334718883037567,0.12662014365196228,0.5855103135108948,0.062210261821746826,-0.616974413394928,0.7914674282073975,0.7556442618370056,0.8014381527900696,-1.1734672784805298,-0.5392627716064453,-0.3264339864253998,-1.4565731287002563,-0.0815199464559555,-0.10827872902154922,-0.08738770335912704,0.017149604856967926,-0.7630990743637085,0.822899580001831,0.6891745328903198,0.7883901596069336,0.10771791636943817,0.42113253474235535,0.5129855871200562,0.6127246022224426,0.8460330367088318,-0.04978669062256813,0.6485110521316528,0.8483486771583557,0.4077507555484772,-0.7565494179725647,0.10527973622083664,-0.6590393781661987,-1.229384183883667,-0.09290990978479385,0.16591094434261322,-0.06947863101959229,0.017650306224822998,-0.0051999688148498535,-0.06884658336639404,0.6385949850082397,0.15823052823543549,0.3488899767398834,0.16673079133033752,-0.17781823873519897,-0.03753930330276489,-0.408841073513031,-0.2481786608695984,0.15852411091327667,-0.3153751790523529,-0.14402160048484802,-0.446854829788208,0.7340782880783081,0.9054402709007263,-0.4393478035926819,-1.0502164363861084,0.8174994587898254,0.02552948333323002,0.6373904347419739,0.5340965986251831,0.05022001266479492,-0.14166563749313354,-0.4874526262283325,0.23956769704818726,0.6440091729164124,-2.02164626121521,-0.19897900521755219,-0.7021819353103638,0.042704999446868896,-0.22946101427078247,0.3377871513366699,-0.43469661474227905,-0.5374892354011536,0.06895537674427032,-0.061924830079078674,0.8341953754425049,0.912047266960144,-0.38841602206230164,-0.8562847375869751,0.15669004619121552,0.10381501913070679,0.1806209683418274,0.1344691514968872,-0.17186564207077026,-0.3846239745616913,0.8138459324836731,0.1225244402885437,0.22620798647403717,0.0013698253314942122,-0.11234462261199951,-0.8739293813705444,-0.2086881399154663,-0.6254487037658691,-0.5941132307052612,0.5959678888320923,0.3250786066055298,-0.7194759249687195,0.6133716106414795,-0.07475592941045761,1.071673035621643,0.7663702368736267,-0.885968804359436,-0.5771987438201904,0.905555009841919,0.4902629852294922,-0.6870089769363403,0.763880729675293,-0.3421329855918884,-0.84453946352005,0.6498689651489258,0.5888507962226868,-1.4536186456680298,-0.31599587202072144,-0.09471994638442993,-0.14615052938461304,0.3793365955352783,-0.6605039834976196,-0.3078317642211914,0.04118096083402634,0.5160185694694519,0.9145517945289612,0.03369416296482086,0.2761295437812805,0.5351071357727051,-0.45967644453048706,-0.2532609701156616,-0.3945044279098511,0.1314263939857483,0.7812055349349976,-1.3209155797958374,-0.1855364441871643,0.0011238151928409934,-0.29641249775886536,0.7252273559570312,0.277156800031662,-0.647230863571167,0.19744274020195007,-0.3355359137058258,-1.7126284837722778,-0.12301132827997208,0.044992897659540176,0.3794540762901306,0.98270583152771,-0.734503984451294,-0.03691023588180542,0.15421724319458008,-0.39131879806518555,0.03652060031890869,-0.29027557373046875,-0.4739741384983063,-0.4692181348800659,-0.3035486340522766,-0.6604860424995422,0.3100958466529846,0.03237447142601013,0.1270441710948944,0.7335576415061951,-1.327592134475708,1.026977300643921,-0.3292817175388336,-0.43386441469192505,0.6049427390098572,-0.4720185399055481,0.45243045687675476,-0.1680910438299179,0.5866639614105225,-1.7329527139663696,-1.8380603790283203,-0.05328958481550217,0.4409283995628357,0.7948273420333862,0.5137955546379089,0.558135449886322,-0.7220126986503601,-0.5031458139419556,0.33318889141082764,-0.053722281008958817,-0.42307379841804504,-0.7455073595046997,0.985103189945221,-1.003113865852356,0.1720186322927475,0.333634614944458,0.528351366519928,0.0439661368727684,-1.363258957862854,0.3054687976837158,0.6431390643119812,1.1793677806854248,0.2923952043056488,-4.027368068695068,0.6558030843734741,-0.050137389451265335,0.5470605492591858,-1.0462325811386108,-0.4823387861251831,0.18763814866542816,-0.14888915419578552,-0.19094620645046234,-1.7141867876052856,1.2671914100646973,-0.25840139389038086,-0.34339600801467896,0.198041170835495,0.7555574178695679,1.1926876306533813,-0.22642391920089722,-0.7144739031791687,0.8284034729003906,0.29612070322036743,1.0446490049362183,-0.06319583207368851,0.4511287808418274,-0.6742591261863708,0.38800856471061707,0.9567801356315613,-1.6866899728775024,1.0289232730865479,-0.19927680492401123,0.5233598947525024,-0.15278169512748718,0.9497999548912048,0.44931936264038086,0.6053659915924072,-0.8973686695098877,0.8995186686515808,1.169778823852539,0.22090895473957062,-1.0751023292541504,-3.0818028450012207,0.803109884262085,-0.34863725304603577,-0.33587878942489624,1.1304101943969727,-0.16242718696594238,0.6858841180801392,0.431649774312973,-0.5756215453147888,-1.058107614517212,0.4757133424282074,-0.2702711820602417,-0.2726712226867676,-0.31170421838760376,-0.12739145755767822,0.07439965754747391,-0.965378999710083,0.4543946385383606,0.08911791443824768

fc.0.bias
-0.23992525041103363,0.04116654396057129,-0.11897677183151245,0.5689855813980103,0.1298096776008606,-0.0520554780960083,0.49205952882766724,-0.42369627952575684,-0.29766353964805603,-0.5298561453819275,0.8235718607902527,0.38860639929771423,0.8278427720069885,1.0531281232833862,-0.060595154762268066,-0.2655605673789978,0.15221598744392395,0.11881867796182632,-1.0735734701156616,-0.4157579243183136,0.6959527134895325,0.34327560663223267,0.6067078113555908,-0.36749082803726196,-0.6264240741729736,-0.45928025245666504,0.760265052318573,-0.15511645376682281,-0.2122121900320053,0.32322821021080017,-0.008735266514122486,0.21999333798885345,0.7126340270042419,0.7918632626533508,-0.0444868728518486,0.6884637475013733,-0.5258780121803284,0.5958148837089539,0.526969313621521,0.8369490504264832,-0.46033310890197754,-0.3902665376663208,0.7084048390388489,-0.5685040354728699,-0.57574063539505,-0.32049620151519775,1.072858214378357,-0.05266644060611725,-0.30222582817077637,0.20772220194339752,0.49120163917541504,0.9768128395080566,0.6571377515792847,-0.23101621866226196,0.4677731394767761,0.6361520290374756,0.7141705751419067,-0.5150494575500488,0.49652087688446045,0.4775787889957428,-0.13302390277385712,-0.6773864030838013,-0.3597524166107178,0.08827410638332367,-0.2828094959259033,0.28988197445869446,-0.20840688049793243,0.05856776610016823,-0.4657413065433502,0.5543438196182251,-0.1877865493297577,-0.4902711808681488,-0.1626976579427719,0.3337932825088501,0.4239402115345001,-0.09059518575668335,-0.443987101316452,-0.27945905923843384,-0.1241188645362854,-0.02573055773973465,-0.6959959268569946,-0.37132614850997925,0.4746728539466858,-0.4517258405685425,0.34147393703460693,0.32608672976493835,-0.4699762463569641,0.1890670359134674,1.274523138999939,0.786151111125946,-0.24637693166732788,0.3592495024204254,0.4336923658847809,0.7587507367134094,-0.44471079111099243,0.8050344586372375,-0.6026782989501953,-0.2763366103172302,-0.7372425198554993,0.47939473390579224,0.8712307810783386,-0.31892281770706177,-0.39990752935409546,0.06628794968128204,0.6768914461135864,-0.4963042438030243,0.8086646795272827,-0.4957807660102844,-0.6537019610404968,0.5669168829917908,0.7000882625579834,0.35168981552124023,0.30139246582984924,-0.13133881986141205,0.8249484896659851,0.7489938139915466,-0.28020524978637695,-0.14980947971343994,-0.3133016526699066,0.024105971679091454,-0.5428085923194885,-0.10349494218826294,-0.5808166265487671,0.33295348286628723,-0.05031202733516693,0.8421045541763306,-0.11433559656143188,0.3331860303878784

fc.2.weight
0.07952141761779785,0.0718841552734375,-0.08142472803592682,0.07605183869600296,-0.009088451974093914,-0.004807543475180864,-0.06948104500770569,0.006789801642298698,0.023319367319345474,0.05504411831498146,-0.01870906725525856,0.02024981379508972,-0.04000469297170639,-0.02808408997952938,0.020077209919691086,0.03727510944008827,-0.028519807383418083,0.09981991350650787,0.009431879036128521,-0.06313830614089966,0.002181824529543519,0.019664360210299492,-0.07453137636184692,0.03602468967437744,-0.09296899288892746,0.05592641234397888,-0.10646169632673264,-0.02915303409099579,-0.0322134904563427,0.0818914845585823,-0.04888073354959488,0.011942571960389614,0.014286189340054989,-0.024639468640089035,-0.05011362582445145,0.049699265509843826,0.053697433322668076,-0.0520239919424057,-0.10994722694158554,-0.06761757284402847,0.06598195433616638,0.029904358088970184,0.005104532465338707,0.013898560777306557,0.07294007390737534,-0.06422313302755356,-0.05474875494837761,-0.0019207530422136188,0.04324396327137947,-0.07337095588445663,-0.03864056244492531,0.05842864513397217,-0.08797517418861389,-0.0008072742493823171,0.004197251051664352,0.010335366241633892,0.006046872120350599,0.06670015305280685,-0.09358328580856323,-0.09722950309515,-0.01825481653213501,0.07668804377317429,-0.06929802149534225,-0.05617064610123634,-0.09891989827156067,0.0983395054936409,0.013102126307785511,-0.04239536076784134,0.005744848866015673,-0.07921340316534042,0.03347595036029816,0.015419847331941128,-0.02528013102710247,-0.09110728651285172,-0.1015453115105629,0.07458130270242691,-0.08952543139457703,0.07004067301750183,0.03911533206701279,-0.08380482345819473,-0.027715368196368217,-0.002468846505507827,-0.034184232354164124,-0.052867550402879715,-0.0434754341840744,0.013387797400355339,-0.03753359243273735,0.0014007852878421545,-0.0008029893506318331,-0.0366952084004879,-0.01689632050693035,-0.04781777411699295,0.0025860152672976255,-0.031013736501336098,0.054974377155303955,0.0781511664390564,0.04507806897163391,0.035321883857250214,0.06166921183466911,0.03194543719291687,-0.02087440714240074,0.010258318856358528,-0.0389423593878746,0.07394278049468994,-0.019473416730761528,-0.026866041123867035,-0.05259968340396881,-0.02674148976802826,-0.020788121968507767,-0.10440894216299057,0.05886210501194,-0.016677917912602425,0.06805168092250824,-0.03160944581031799,0.06507595628499985,0.017129426822066307,-0.05456902086734772,-0.09619047492742538,-0.04557564854621887,0.032865796238183975,-0.030763540416955948,0.023701971396803856,0.04554636403918266,-0.031115489080548286,-0.033713310956954956,-0.036395225673913956,-0.06923342496156693,-0.029209807515144348,0.21075639128684998,0.08168094605207443,-0.05006428062915802,2.6771838665008545,0.31801798939704895,-0.02937939763069153,0.3624960482120514,-0.3770722448825836,-0.08910919725894928,-1.4120770692825317,0.5320014953613281,1.323824405670166,0.3460704982280731,0.22579284012317657,0.026181094348430634,-2.099731922149658,-0.6478137373924255,0.6652168035507202,0.011807807721197605,-1.8551899194717407,-1.0988426208496094,0.36674171686172485,-0.6719114780426025,-0.017518527805805206,1.133331537246704,-0.7521111965179443,-0.25702762603759766,-0.5158029198646545,-0.9905640482902527,-1.0739442110061646,-0.7136861085891724,-1.327974796295166,-0.8335537314414978,4.7693610191345215,-0.006978175602853298,0.3308998644351959,-0.06248822435736656,0.2907819151878357,-0.901421844959259,-2.5502703189849854,-0.037122491747140884,0.029316293075680733,0.16789944469928741,-1.557050347328186,-0.16154804825782776,0.04230624809861183,0.35024675726890564,1.0642105340957642,0.015184297226369381,-1.1208828687667847,0.06246396526694298,1.5689830780029297,0.02636270597577095,0.2009720504283905,0.5558191537857056,-1.7741090059280396,0.5704108476638794,-0.254180371761322,0.12919244170188904,0.14839725196361542,-0.2325119823217392,-0.2544388473033905,-0.3461337387561798,0.5400110483169556,-0.24199822545051575,-0.8151745796203613,-0.5177913904190063,0.7029819488525391,0.47039687633514404,0.7257267236709595,0.2830508053302765,-1.5107684135437012,-0.599417507648468,-1.1293889284133911,0.5211442708969116,-0.004490356892347336,-1.9666379690170288,-0.05064912140369415,0.03174407780170441,-0.8340740203857422,-1.308131217956543,0.012040658853948116,1.046428918838501,0.08617562800645828,0.07963209599256516,-0.8479079008102417,-0.0074508460238575935,-0.6095256209373474,0.12382930517196655,0.5348485112190247,-0.4740053713321686,0.32974985241889954,0.16575618088245392,1.16903555393219,0.009387051686644554,0.55406254529953,-1.5636543035507202,-0.08045198023319244,-0.07014326006174088,-0.696800708770752,-0.9145675301551819,-1.2243754863739014,0.022075675427913666,-0.06446003168821335,-0.05770156905055046,-0.7561014890670776,-0.08908780664205551,0.017976144328713417,-0.5345542430877686,0.03821208328008652,0.17352193593978882,0.546657383441925,0.30659815669059753,-0.4469078481197357,-0.6281365156173706,0.3295902609825134,-0.34192267060279846,-0.6800311207771301,-1.1536986827850342,0.11046387255191803,1.6394399404525757,-0.9342464804649353,-0.021762453019618988,2.545994997024536,-0.5644124150276184,0.30168601870536804,0.043380580842494965,0.30907440185546875,0.03277401998639107,0.024573171511292458,0.07271996885538101,0.012238053604960442,-0.05311185494065285,-0.07471286505460739,-0.05485665425658226,0.039113741368055344,0.040254201740026474,0.026259656995534897,-0.07327613979578018,0.07213898003101349,-0.113348588347435,-0.07946164906024933,-0.009157930500805378,-0.07859935611486435,-0.019456325098872185,-0.050086408853530884,0.05717471241950989,-0.010774441063404083,-0.08788571506738663,-0.07527194172143936,-0.10246294736862183,0.06478005647659302,0.059673674404621124,0.052381452172994614,-0.03032051771879196,-0.06882627308368683,0.011656178161501884,-0.10289213806390762,0.005049130879342556,0.05600370094180107,-0.059963732957839966,-0.0863223522901535,0.016121475026011467,-0.07390287518501282,-0.045599423348903656,-0.10258402675390244,0.04841158539056778,-0.015278737992048264,-0.06089314445853233,0.08620254695415497,0.0518387071788311,5.022533514420502e-05,0.04467811435461044,0.013003240339457989,-0.06173509731888771,0.011008567176759243,-0.011935829184949398,0.02601470798254013,-0.08221449702978134,0.05396091565489769,0.0008208350627683103,-0.006257249042391777,-0.051142748445272446,-0.06970873475074768,-0.030183402821421623,-0.0518549419939518,-0.09583333134651184,-0.09631884843111038,-0.0092984763905406,0.053663209080696106,-0.04545240104198456,-0.09862539917230606,-0.10396064072847366,-0.0948718786239624,0.006484061945229769,0.01830962300300598,-0.07560762017965317,0.0072911824099719524,-0.08136086165904999,-0.03860021382570267,-0.008642601780593395,0.040738508105278015,-0.044181324541568756,0.06595631688833237,0.021911023184657097,-0.056620486080646515,0.06485676765441895,-0.008129199966788292,-0.055594395846128464,-0.06516037881374359,0.0071840183809399605,0.07270239293575287,-0.10269943624734879,-0.032992664724588394,0.06855736672878265,-0.07378584146499634,-0.08527440577745438,0.02914159744977951,-0.08590128272771835,0.0030864442232996225,-0.0913020446896553,0.07383646070957184,0.0023986403830349445,0.08824991434812546,-0.02649003267288208,0.07394406199455261,-0.03154943510890007,-0.08332366496324539,0.06142972409725189,0.012055378407239914,-0.0459657721221447,-0.02209019474685192,-0.02226465940475464,-0.01749880611896515,0.03331000357866287,0.03189839795231819,-0.09816011041402817,-0.01284321304410696,0.027975156903266907,0.008623332716524601,-0.05314278602600098,-0.0437898114323616,-0.038802798837423325,0.00032895614276640117,-0.08564316481351852,-0.09587164968252182,0.049520719796419144,-0.02928985469043255,-0.062279112637043,0.01636999100446701,-0.07473114132881165,-0.03880569711327553,-0.06619539856910706,0.054146017879247665,0.07334829866886139,-0.05608087033033371,-0.3373164236545563,-0.07598789036273956,-0.01637137494981289,-0.7818527221679688,0.6479750871658325,0.01325297076255083,0.17720016837120056,0.1303689032793045,1.6444839239120483,0.009869174100458622,0.30095604062080383,-0.4753500819206238,0.3670719265937805,0.29105135798454285,0.07846774905920029,0.5593655109405518,0.13009771704673767,-0.40491604804992676,-3.0763800144195557,3.0835440158843994,0.7390711903572083,0.1675555258989334,0.44106942415237427,-0.0037820683792233467,0.9559069275856018,0.29632309079170227,0.2903328537940979,0.3713682293891907,0.3889743983745575,-0.611657440662384,0.22254031896591187,0.4592381417751312,0.5788539052009583,-2.8184545040130615,0.8394877314567566,-0.3248318135738373,-0.05875575542449951,-0.288831889629364,0.554438054561615,1.4346915483474731,-0.04247819632291794,0.08008105307817459,0.28087323904037476,0.06715675443410873,0.1406802535057068,-0.05331150442361832,0.3853006064891815,-0.030725546181201935,-0.07147665321826935,0.24253298342227936,0.19409503042697906,1.1751676797866821,0.03439323976635933,0.6486852765083313,0.35543546080589294,-0.39054837822914124,0.4191374182701111,-1.5049445629119873,-0.01971573568880558,0.2263566553592682,0.773730456829071,-1.8399542570114136,0.24910126626491547,-1.4845157861709595,0.32391437888145447,0.21691767871379852,-0.1490083783864975,-0.035251226276159286,-1.880147099494934,1.33827543258667,-0.259147047996521,-0.5726104378700256,0.09701593220233917,0.2270333170890808,0.7077031135559082,0.08043435961008072,0.22554582357406616,-0.011947598308324814,0.014163913205265999,0.8839789032936096,0.1892983615398407,0.04792318865656853,-0.13783030211925507,0.07460035383701324,0.25456953048706055,0.41269737482070923,0.07690586149692535,0.12898974120616913,0.5023219585418701,0.3818720281124115,0.34392014145851135,0.19004680216312408,0.25248950719833374,0.6718648076057434,0.07058928906917572,0.41338297724723816,0.04047339782118797,-0.08614218235015869,1.002299427986145,0.34703052043914795,0.3958178162574768,0.6941322684288025,0.003661876078695059,0.1171213835477829,0.3706666827201843,0.5253002643585205,0.25608229637145996,1.5783607959747314,0.21488778293132782,-0.5167849659919739,0.14540989696979523,0.792682409286499,0.03711285814642906,-1.3472129106521606,-0.08089758455753326,-0.8881884813308716,0.9989036321640015,0.939257800579071,0.32316306233406067,0.2094869762659073,-1.9002641439437866,0.021061977371573448,-0.0038145522121340036,0.09666720032691956,0.17105615139007568,-0.08801408112049103,0.031702689826488495,0.10782104730606079,0.6417980194091797,-0.049761950969696045,-0.018647799268364906,3.149435520172119,1.4471880197525024,0.03663444146513939,0.2185979187488556,0.03216562420129776,0.2567608952522278,-0.00555852334946394,-0.1157987043261528,-0.003024572040885687,0.15909820795059204,0.06215386837720871,-0.0881616398692131,0.27817124128341675,-0.5453299283981323,0.42851683497428894,0.20346128940582275,2.411745309829712,0.32131054997444153,-0.06245894357562065,-0.07973506301641464,0.07736124843358994,-1.4739617109298706,-0.3136497139930725,0.08681351691484451,-0.40567833185195923,0.4816117584705353,0.9598240852355957,-0.11428743600845337,-0.4500531852245331,-0.3371388614177704,3.206251382827759,-0.2020755559206009,0.2389383763074875,-0.03478875383734703,-0.36586207151412964,-0.3441198170185089,-0.19819845259189606,0.08181927353143692,-0.07091858237981796,-0.01888919062912464,-0.1103849709033966,0.07898280024528503,0.02921842783689499,0.09469272196292877,0.0800604596734047,0.07589415460824966,-0.8915412425994873,-0.683664083480835,0.048342227935791016,0.4199076294898987,-1.209376335144043,0.49877437949180603,0.020596539601683617,-0.13325776159763336,-1.3311493396759033,-0.43605974316596985,0.2053583264350891,0.1906144917011261,1.264257550239563,-0.23092608153820038,0.8361227512359619,-0.1478271484375,0.2718226909637451,0.03361444175243378,-0.10556015372276306,-0.2828008532524109,0.5231074690818787,0.6388154625892639,-0.09898258745670319,-0.05252708122134209,0.08785070478916168,0.3233548700809479,0.021280912682414055,-1.249971866607666,-0.03921792656183243,0.006363683845847845,0.10536729544401169,-0.6752011179924011,0.08360964059829712,0.6184276342391968,-0.015048036351799965,0.5796019434928894,-1.2359578609466553,-0.026824666187167168,0.24924078583717346,-1.1341890096664429,0.010071920230984688,0.5454532504081726,-1.5337556600570679,-0.6601290702819824,-0.057122811675071716,-0.02760494127869606,0.02324548363685608,-1.1372336149215698,-0.04310134798288345,-0.608273983001709,-0.3019036054611206,-1.2201950550079346,-0.3422364890575409,-0.08553657680749893,-0.08207425475120544,0.22507593035697937,0.6568285822868347,0.09235076606273651,-2.060904026031494,0.04939643293619156,-0.5165620446205139,-0.22395218908786774,-0.21594974398612976,0.39089420437812805,-0.19069154560565948,0.21841362118721008,0.13480059802532196,-1.3696388006210327,-0.3193129599094391,-0.3609507381916046,-0.10069111734628677,1.3689507246017456,0.4877476394176483,-0.16445723176002502,2.361365556716919,0.3736360967159271,-1.9927760362625122,-0.08047790080308914,0.33985528349876404,0.006145789287984371,0.031073374673724174,0.02843521349132061,0.009616653434932232,-0.04978610947728157,0.07974867522716522,-0.017628880217671394,-0.045087940990924835,-0.0718950405716896,0.028538310900330544,-0.0020673349499702454,-0.005459582898765802,0.023298807442188263,0.03991498425602913,-0.02390012890100479,-0.00391593761742115,-0.0700986310839653,-0.11627870798110962,0.06996801495552063,-0.005628975108265877,0.004207087680697441,-0.10986270010471344,-0.06931990385055542,0.08130857348442078,0.08266209810972214,-0.024484239518642426,-0.11899624764919281,-0.08027275651693344,-0.09884578734636307,0.07184754312038422,0.08186792582273483,-0.08467599004507065,-0.05520216003060341,-0.10440007597208023,-0.04119043052196503,0.02375170588493347,-0.032312240451574326,0.04247252270579338,-0.08503183722496033,0.08468809723854065,-0.0659748762845993,-0.05213001370429993,-0.012344698421657085,-0.08670469373464584,0.00276107806712389,-0.038740359246730804,0.04767423868179321,-0.11584676057100296,-0.08005870878696442,0.0067219482734799385,-0.04380614683032036,-0.05886148661375046,-0.008922712877392769,0.04890267178416252,-0.009058969095349312,-0.00666118273511529,-0.011286298744380474,-0.01042803656309843,-0.021909702569246292,-0.037000562995672226,0.052954014390707016,0.0420287624001503,-0.010429092682898045,0.040165018290281296,0.053109101951122284,-0.08704483509063721,-0.0016961127985268831,0.05413948744535446,0.01769929565489292,-0.03785889223217964,-0.023572450503706932,-0.1165737584233284,-0.058448225259780884,0.007609750144183636,0.021507879719138145,0.0699242651462555,-0.11643222719430923,-0.0066880094818770885,-0.05055796727538109,-0.009761863388121128,-0.04170335456728935,-0.030399614945054054,-0.0817989781498909,-0.03125063329935074,-0.06336388736963272,-0.11861114203929901,0.08508435636758804,-0.10451823472976685,-0.032050300389528275,-0.101357601583004,-0.01963396556675434,-0.044504564255476,-0.09652949124574661,0.07949969917535782,-0.0057244375348091125,-0.09577961266040802,0.030931593850255013,0.07346493005752563,0.021205933764576912,0.0292345080524683,-0.04423225298523903,-0.018919499590992928,0.002295580692589283,-0.06978257745504379,-0.0967988446354866,-0.013268175534904003,-0.018312999978661537,0.00698452303186059,0.05434761196374893,-0.11540201306343079,-0.022762013599276543,0.04405456408858299,-0.002236119471490383,0.06140518561005592,-0.08402153104543686,-0.04226288944482803,-0.05774301663041115,0.06905768066644669,-0.10012397170066833,-0.08833545446395874,0.03484124690294266,0.000752630818169564,0.003247492015361786,-0.1156473308801651,-0.09743864089250565,0.010739319026470184,0.08013404160737991,-0.10908610373735428,-0.523485541343689,0.07683463394641876,0.03841941058635712,0.426642507314682,0.8328768610954285,-0.0865178033709526,-0.030037153512239456,-0.01598866656422615,-1.1032758951187134,-0.3292711675167084,0.34221726655960083,-0.5949980020523071,0.3287094831466675,0.3483845293521881,-0.0845399796962738,-0.2850463092327118,-0.027229074388742447,0.12556621432304382,-2.3082382678985596,-0.36458611488342285,0.7260103225708008,-0.01743938773870468,0.5056053400039673,0.05807562544941902,1.5257519483566284,-1.5982983112335205,0.09931915253400803,-0.8566766977310181,0.0709153264760971,0.46790435910224915,0.22504974901676178,0.03596728667616844,0.858305037021637,-1.100421667098999,0.8851328492164612,-0.3435252904891968,-0.06838338822126389,-0.3540571928024292,0.5676593780517578,1.5364844799041748,-0.04509110003709793,0.05902087688446045,0.0971512496471405,-0.34338584542274475,-0.8803890943527222,0.06562411785125732,0.15192429721355438,-2.0814359188079834,0.024034619331359863,0.09951867163181305,-0.23318618535995483,1.700742244720459,0.15199556946754456,0.4010889530181885,0.6440243124961853,0.24350257217884064,0.06887475401163101,-1.9142751693725586,0.2498498111963272,-0.3234263062477112,0.7957764267921448,-1.3088901042938232,-0.8469764590263367,-0.7499983906745911,-0.9149060845375061,0.11015519499778748,-0.5403359532356262,-0.2894762456417084,-2.1010191440582275,0.9359549880027771,-0.46690136194229126,-0.9820953011512756,-0.18056084215641022,0.34547966718673706,0.7128304243087769,0.036054689437150955,0.46130213141441345,-0.04762662202119827,-0.08132258802652359,0.3800738453865051,0.35856446623802185,0.06396842747926712,0.3067869544029236,-0.06213826686143875,-0.25380614399909973,0.31997010111808777,-0.01786414161324501,-0.2365126758813858,0.6566673517227173,-0.08444463461637497,0.0676332339644432,0.24673543870449066,-0.02324574440717697,0.6142030954360962,-0.07439728081226349,0.018482742831110954,0.010718840174376965,0.08621174842119217,0.719200849533081,-0.10872809588909149,0.78839111328125,-0.5045614838600159,0.014125927351415157,0.018262971192598343,-0.04289324954152107,1.1060901880264282,0.16073796153068542,1.6152592897415161,-0.5809317231178284,-0.2520807087421417,0.22194333374500275,0.7194346189498901,-0.16082562506198883,-0.763310968875885,0.33045560121536255,-0.8596284985542297,0.33248090744018555,0.3636917769908905,-0.13860397040843964,-0.045098789036273956,-1.8596464395523071,-0.5973145961761475,-1.2195509672164917,-2.0631015300750732,0.01625899225473404,0.5280600786209106,-0.059161603450775146,-0.24170170724391937,-2.325751543045044,-0.0674346312880516,0.08788038045167923,-0.24807845056056976,-0.8106348514556885,-0.03970400616526604,-1.0618737936019897,0.03871002793312073,-1.6760488748550415,0.4773339331150055,-0.3277720510959625,-1.215735912322998,-0.2831468880176544,-0.3478545546531677,-0.01002854760736227,0.0635901615023613,0.3589693605899811,-0.12785480916500092,0.4530779719352722,-0.19894355535507202,-1.5589826107025146,-1.5555037260055542,0.31599271297454834,0.05442967265844345,1.119978904724121,0.08999132364988327,-0.09068211913108826,-0.06449490040540695,-0.018278146162629128,-0.09695903211832047,-0.5895981192588806,0.37179267406463623,-1.5048176050186157,0.18181371688842773,-0.1805269420146942,-1.304632544517517,0.03791118040680885,-1.4818694591522217,0.4032438397407532,0.8889169692993164,0.02340574562549591,-0.04263877496123314,-0.12292692810297012,0.408344566822052,-1.040528416633606,-0.0759897530078888,-0.49829167127609253,-1.2366089820861816,-0.04872122034430504,0.33663272857666016,-0.13582324981689453,-0.3828426003456116,-1.4850200414657593,-0.013602230697870255,-0.6573300957679749,0.1425359845161438,-3.5649948120117188,0.7815398573875427,0.05693001300096512,-0.19984394311904907,-0.5146209597587585,0.8555784821510315,-0.5675174593925476,0.11575767397880554,-0.9985862374305725,0.2756650149822235,0.15010672807693481,-1.8858340978622437,-0.9405097961425781,-0.6277138590812683,-2.152538299560547,0.1546604335308075,0.25615301728248596,0.5584803223609924,-0.3642953038215637,0.003956546075642109,0.286864697933197,0.042650554329156876,-0.026288433000445366,0.3108185827732086,0.37554097175598145,-0.08806899189949036,-0.5877746939659119,0.06623905897140503,-0.18291224539279938,0.4883599281311035,0.005238695070147514,0.17270034551620483,-0.3140399158000946,-1.2454525232315063,-0.1911497265100479,-0.893064558506012,0.08286308497190475,-3.4140779972076416,0.07784676551818848,-0.9777098298072815,-0.41836950182914734,-0.08156397193670273,-0.8647711873054504,-0.0196539219468832,-0.6213172674179077,-0.4515186846256256,-0.02776229754090309,0.025337494909763336,-0.3110485076904297,0.2772025167942047,-0.07604276388883591,-3.0111937522888184,0.08583766967058182,0.6230111718177795,-0.046842318028211594,-0.9470057487487793,-0.43590474128723145,-1.0415574312210083,0.17931179702281952,-2.6198301315307617,0.4120633602142334,0.25315728783607483,0.71775883436203,-0.6091826558113098,-0.6426820755004883,0.3592471182346344,-2.1095006465911865,-0.42327481508255005,0.17077890038490295,-1.5790621042251587,0.054557524621486664,-0.9913675785064697,-0.04363960400223732,0.0741867870092392,0.06494144350290298,0.07738356292247772,-0.04849623516201973,0.005502028856426477,0.029037056490778923,-0.07945625483989716,0.04049159958958626,0.04904092475771904,-0.06671537458896637,-0.005659103859215975,-0.12251386046409607,-0.027396423742175102,-0.0694451704621315,-0.0949896052479744,0.07546135783195496,0.02756640873849392,0.04939497634768486,0.023603251203894615,-0.01919379271566868,0.012642398476600647,0.07363874465227127,0.05275358632206917,0.043703872710466385,-0.006542800460010767,0.005779729690402746,0.023847926408052444,-0.1257762908935547,-0.052074793726205826,-0.01389772817492485,0.05443735048174858,0.0589350126683712,0.059527408331632614,0.01351131685078144,0.03445221483707428,0.04141411557793617,-0.025132300332188606,-0.07218281924724579,-0.024155981838703156,0.06450244039297104,0.059326283633708954,0.02183602936565876,0.008393724448978901,-0.041781675070524216,-0.04278305545449257,-0.009102131240069866,-0.07666393369436264,0.0718136802315712,0.04486311599612236,-0.019328013062477112,-0.054506201297044754,-0.13616904616355896,-0.10435429960489273,-0.07229915261268616,-0.03748982027173042,-0.0584874153137207,-0.07286453247070312,0.06746998429298401,-0.0958201214671135,-0.1272359937429428,-0.08925297111272812,0.0354965440928936,-0.07395171374082565,0.03013572096824646,-0.09211637824773788,0.01797282136976719,-0.05419072508811951,0.03817838802933693,-0.1199805736541748,-0.1222296729683876,0.04498601704835892,-0.10987445712089539,-0.03822722285985947,-0.012066517025232315,0.08511783182621002,-0.0896923616528511,0.06141425669193268,0.05704359710216522,-0.004577503073960543,-0.0617489330470562,-0.06739134341478348,0.031887806951999664,-0.06250006705522537,-0.05853458493947983,0.017542840912938118,0.07797250896692276,-0.045152775943279266,-0.1164805218577385,-0.03677752614021301,-0.07446860522031784,-0.04430907592177391,-0.0731760710477829,0.02328673005104065,0.05803164839744568,-0.06888525933027267,0.04284679517149925,0.05452505126595497,-0.01347142830491066,0.0323958657681942,-0.02157668210566044,0.01468995213508606,0.033089153468608856,0.0781596302986145,-0.020615659654140472,-0.03696643188595772,0.038056228309869766,0.03638719767332077,-0.06615345925092697,-0.08562783896923065,-0.07063599675893784,-0.0114675834774971,-0.07234955579042435,-0.08137467503547668,0.03925357758998871,0.07397274672985077,-0.07424300163984299,-0.02848047763109207,0.022315125912427902,-0.06174749881029129,0.05190220847725868,-0.07297414541244507,0.020562808960676193,-0.0006666376139037311,-0.016958292573690414,0.019222861155867577,-0.03122430294752121,-0.12627777457237244,-0.46453583240509033,-0.04125216603279114,0.0187893807888031,-1.9583964347839355,1.2863521575927734,-0.06717252731323242,-0.03566265478730202,0.42659205198287964,0.07493330538272858,0.35275179147720337,0.006215684115886688,-1.6691348552703857,-0.03843988478183746,-0.058951620012521744,0.024805337190628052,1.3208695650100708,0.38184067606925964,-2.4084959030151367,-0.5685343742370605,-1.56376314163208,0.06597349047660828,0.12314704060554504,-0.15043608844280243,-0.06619595736265182,1.2619801759719849,-0.13048572838306427,0.17022369801998138,0.23488952219486237,0.4975023865699768,-1.921162724494934,0.20718207955360413,-0.026954984292387962,-0.22686313092708588,-5.171545505523682,0.8522202968597412,0.5506216883659363,0.07498245686292648,0.31342095136642456,0.07591380923986435,-2.42393159866333,0.03299398720264435,0.049401964992284775,0.18831123411655426,0.5243833661079407,-0.3387286067008972,0.05128331482410431,-0.21678359806537628,-0.019925393164157867,0.03683420643210411,-0.14897072315216064,0.25225701928138733,-0.4092683792114258,0.397184282541275,0.9230064749717712,0.30888983607292175,-1.3989626169204712,0.13412894308567047,0.1422165036201477,0.19300708174705505,0.10265810042619705,0.38420042395591736,-0.9335757493972778,0.10269089788198471,-1.3558791875839233,0.2827497124671936,-0.024989739060401917,0.7226991057395935,-0.07732974737882614,-1.1455028057098389,0.8505045175552368,-0.4166834056377411,0.44332367181777954,0.2528718411922455,-0.0710405632853508,0.22390593588352203,0.03825222700834274,0.5456035733222961,-0.012379741296172142,0.03251940757036209,1.1246916055679321,0.67536461353302,0.04066865146160126,0.30461204051971436,-0.07892831414937973,-0.49255892634391785,0.06035587191581726,0.028839949518442154,0.33982333540916443,-0.7392621636390686,0.002890972886234522,-0.06377458572387695,0.2800463140010834,0.4547053873538971,0.6661307215690613,-0.06772080808877945,-0.1405945122241974,0.7957600951194763,0.037018388509750366,1.6955806016921997,0.31439903378486633,-1.1510754823684692,0.08903452754020691,-0.027395661920309067,0.06070168316364288,-0.019544515758752823,0.5863549709320068,0.04334738850593567,0.5818659067153931,0.3946205973625183,-0.2508552670478821,0.12802842259407043,0.26229164004325867,0.49277737736701965,-0.3711482286453247,-0.9920987486839294,-1.5377233028411865,1.4170255661010742,1.2347155809402466,0.3099985420703888,0.5001444816589355,-1.0498913526535034,0.027236612513661385,-0.04588214308023453,-1.2988134622573853,0.21198132634162903,-0.4497404992580414,-0.05657297745347023,0.3436351716518402,0.02230912819504738,-0.016596827656030655,-0.082689568400383,-0.0003022139717359096,-0.07056291401386261,0.03276558220386505,-0.012408491224050522,-0.08443383127450943,0.05155764892697334,0.010793827474117279,0.037818700075149536,-0.04020795598626137,-0.10304670035839081,0.021528583019971848,0.015981031581759453,-0.006928516086190939,-0.08412067592144012,-0.004846455529332161,-0.04496629163622856,-0.05006854981184006,-0.01390934456139803,-0.04336294159293175,0.04127882048487663,-0.03186957165598869,0.05030500888824463,-0.06181277707219124,-0.06876487284898758,-0.053886279463768005,-0.0802447646856308,0.03955122455954552,0.057176318019628525,-0.11740614473819733,-0.05790812149643898,0.08400628715753555,-0.011088687926530838,0.023494543507695198,0.020649099722504616,-0.033991631120443344,0.053353529423475266,-0.05029725655913353,-0.02101297490298748,-0.02851828560233116,-0.073819100856781,0.05542074143886566,-0.0356980636715889,-0.012895481660962105,-0.04102344438433647,-0.10419654846191406,0.0620746873319149,-0.07599376887083054,-0.04994647204875946,0.009043259546160698,-0.10943733900785446,0.03326873108744621,-0.013826251961290836,-0.07387646287679672,-0.06905607879161835,-0.017849445343017578,-0.11288686096668243,-0.07442211359739304,-0.010824690572917461,-0.018284188583493233,-0.014375264756381512,0.030080055817961693,-0.0047000073827803135,-0.101941779255867,-0.08288676291704178,-0.012499764561653137,0.006259586662054062,0.026575589552521706,0.01586017571389675,0.036081381142139435,-0.00849789660423994,0.008647446520626545,-0.04944224655628204,0.0738077387213707,-0.06987858563661575,0.009171511977910995,-0.03978032246232033,-0.10350128263235092,-0.11156857013702393,0.0071077183820307255,0.027420444414019585,-0.0039276122115552425,-0.08896718174219131,-0.002185072749853134,0.008075262419879436,-0.03741567209362984,-0.11150239408016205,-0.09544451534748077,0.02353176474571228,0.03333522751927376,0.017040755599737167,-0.015403686091303825,-0.04197516292333603,-0.03462175279855728,-0.08599822968244553,0.013033248484134674,-0.04402107745409012,-0.030320990830659866,0.04923383891582489,-0.07995060831308365,-0.017115077003836632,0.00717635452747345,0.046995341777801514,0.00990543607622385,-0.035951390862464905,-0.0027356676291674376,-0.04872426390647888,-0.02008892223238945,-0.0345449261367321,-0.060802485793828964,-0.04994388669729233,-0.07104897499084473,-0.07042089849710464,-0.01042610127478838,-0.11524777114391327,-0.06825016438961029,-0.04448395222425461,0.053469039499759674,-0.07247582823038101,-0.06325723230838776,-0.07376990467309952,0.014779961667954922,0.034494124352931976,0.033241987228393555,-0.028485611081123352,-0.0798289105296135,-0.05832964926958084,0.06460695713758469,-0.05610404908657074,-0.04402665048837662,0.030321214348077774,0.022690534591674805,-0.037562113255262375,0.059001367539167404,0.010046965442597866,-0.06251676380634308,0.032223232090473175,0.01563071645796299,-0.033621955662965775,-0.007805476896464825,-0.050218433141708374,0.06720459461212158,0.04899458959698677,-0.04377572983503342,0.05448024719953537,0.03693325072526932,-0.006628155708312988,0.0249433983117342,-0.024776991456747055,-0.00010307011689292267,0.02718069590628147,0.0017800616333261132,-0.019332261756062508,-0.09893959760665894,-0.07946937531232834,0.05159779265522957,0.01726911962032318,0.07751543074846268,-0.04744955152273178,0.08418011665344238,-0.0008488136809319258,-0.008070419542491436,0.010703644715249538,0.06836578249931335,-0.024203510954976082,-0.009448301047086716,0.007042495999485254,0.05294239521026611,-0.07068275660276413,0.05428079888224602,0.009652407839894295,0.06437307596206665,0.02633107453584671,0.03398505598306656,-0.07382406294345856,-0.08394405245780945,-0.02700783684849739,0.07938531786203384,0.007948250509798527,0.06761424988508224,-0.07003811001777649,-0.04103870317339897,-0.06272876262664795,-0.0010670000920072198,-0.00952904112637043,-0.005842785816639662,0.024329308420419693,-0.0255537498742342,0.017099758610129356,-0.07984857261180878,-0.07548794150352478,-0.055836454033851624,0.03288187459111214,-0.04729091376066208,0.014091630466282368,-0.02139819599688053,0.06666702777147293,-0.07094401121139526,-0.04330028221011162,-0.014017072506248951,-0.04264696314930916,0.009779596701264381,-0.0077552273869514465,0.07044452428817749,-0.09265457093715668,-0.04660753905773163,0.006654650904238224,0.012739580124616623,0.05045867711305618,-0.02858845889568329,0.028055239468812943,0.08073284476995468,-0.07502113282680511,0.028588006272912025,-0.09096873551607132,0.036207735538482666,0.01586155779659748,0.013264499604701996,-0.08556045591831207,-0.05683746933937073,0.021781153976917267,-0.026170631870627403,-0.022299902513623238,-0.02108796499669552,-0.09054834395647049,-0.018810303881764412,-0.01573033630847931,0.042934950441122055,0.008701132610440254,-0.007161055225878954,-0.024552688002586365,-0.06463300436735153,0.05586063116788864,0.024688720703125,-0.07415840774774551,-0.09373262524604797,-0.07438138127326965,-0.09531379491090775,-0.048126839101314545,-0.006233897991478443,0.03719663619995117,-0.07638993114233017,-0.03809438645839691,0.052486319094896317,-0.00936915073543787,0.04973778501152992,0.0560460239648819,-0.023100918158888817,0.061982132494449615,0.02833588607609272,-0.05390659719705582,0.06629534810781479,0.06684664636850357,-0.03479161858558655,0.3994849920272827,-0.0816015899181366,0.005427449941635132,0.25817590951919556,-1.299234390258789,-0.0752599835395813,0.5065183639526367,-1.8171346187591553,-1.3976861238479614,-0.07105875760316849,0.6509958505630493,0.6360632181167603,0.8202962279319763,0.6355834007263184,0.030877791345119476,-0.36599642038345337,0.45520028471946716,0.8969849944114685,-0.7002255916595459,2.214857578277588,-0.1643429696559906,0.18555155396461487,0.5397660732269287,-0.029508262872695923,-0.7972477674484253,-1.9709357023239136,0.34833449125289917,-1.3291547298431396,0.29482027888298035,1.4040021896362305,0.02633778005838394,0.5215482711791992,-0.4181351363658905,3.9715795516967773,-0.039580006152391434,0.39612966775894165,-0.0734335258603096,0.31669187545776367,0.6463739275932312,-1.0492932796478271,-0.009388431906700134,0.07061620056629181,0.610734224319458,-0.17987331748008728,-2.4815831184387207,0.07341615110635757,0.7067896127700806,-0.7948543429374695,0.030583512037992477,0.7615786790847778,0.08578083664178848,-0.4097138047218323,0.3046789765357971,-0.2652469575405121,1.062395453453064,0.21561437845230103,0.33828240633010864,-0.3797438442707062,0.8920223712921143,0.3885760009288788,-0.26900914311408997,0.9646145701408386,-2.84987473487854,0.36442139744758606,-1.9578343629837036,0.7563203573226929,-0.7065209746360779,0.08963028341531754,0.14393681287765503,0.41538098454475403,0.38818359375,-2.0782153606414795,0.26987984776496887,0.6837623119354248,0.7527841329574585,-0.08436597883701324,-1.2996902465820312,-0.03260986879467964,-0.022528596222400665,0.3693270683288574,-1.3216639757156372,-0.054814472794532776,-0.5022488832473755,-0.0026874409522861242,0.6413148045539856,0.5220791101455688,-0.08143166452646255,0.2161151021718979,0.7889362573623657,0.40052294731140137,0.44520530104637146,0.8510632514953613,-0.06555105745792389,-0.43444424867630005,0.014438951388001442,0.7425157427787781,-2.7682676315307617,-0.06067464500665665,-2.077803611755371,-0.2784706652164459,-0.8016000986099243,-1.9761207103729248,-0.08058387786149979,0.020922454074025154,0.5390446186065674,-2.16121244430542,0.6759494543075562,-0.7239106297492981,-0.3780404031276703,1.0642746686935425,0.8870611190795898,0.5190659165382385,0.40778565406799316,0.6260500550270081,0.8120579719543457,0.011016135104000568,-0.3031817376613617,0.06248710677027702,-1.5212162733078003,0.03606395423412323,0.6650012731552124,0.2517120838165283,-0.23235704004764557,2.394198417663574,0.4234715700149536,1.004478931427002,0.07514423877000809,0.24084270000457764,-0.3794895112514496,-0.0003627789847087115,-0.014238269068300724,-0.3506593108177185,0.5188255310058594,-0.06881418824195862,0.11014756560325623,-0.020065641030669212,1.6474111080169678,-0.04746383801102638,0.31225821375846863,-0.4240061640739441,0.2861229181289673,0.2730911672115326,-0.05145064741373062,0.46396878361701965,0.08290286362171173,-0.3789924383163452,-3.2859482765197754,2.7426259517669678,0.616093635559082,0.21277569234371185,0.44234633445739746,-0.011169283650815487,1.1817491054534912,0.29241418838500977,0.25700846314430237,0.300740510225296,0.42857643961906433,-0.5236707329750061,0.2664092183113098,0.5527217984199524,0.6589376330375671,-2.5667450428009033,0.8949568867683411,-0.5814093351364136,0.030255509540438652,-0.22082547843456268,0.6491516828536987,1.3240842819213867,-0.08028365671634674,-0.07733086496591568,0.21365730464458466,0.024533580988645554,0.08286210149526596,0.04701678082346916,0.316374272108078,-0.21927334368228912,0.029134156182408333,0.2446517050266266,0.20068754255771637,1.2232388257980347,-0.06648183614015579,0.7139638066291809,0.4655017554759979,-0.32874807715415955,0.34910181164741516,-1.722762107849121,-0.08310084789991379,0.3084564507007599,0.6836880445480347,-1.8445237874984741,0.07696103304624557,-1.3602477312088013,0.23093484342098236,0.17488664388656616,-0.21992191672325134,-0.2213534265756607,-1.9585167169570923,1.392842411994934,-0.2965967357158661,-0.5656254291534424,0.10834896564483643,0.28677642345428467,0.8163553476333618,0.031941916793584824,0.2853427827358246,0.08599358052015305,-0.0641326755285263,0.5159397721290588,0.2378660887479782,-0.021485134959220886,-0.20175233483314514,0.071592777967453,0.32411348819732666,0.5482692122459412,-0.06605615466833115,0.24331097304821014,0.41095221042633057,0.24138668179512024,0.14658574759960175,0.2252293825149536,0.23243696987628937,0.395912230014801,-0.014313491061329842,0.43393808603286743,-0.04758835211396217,-0.02629544958472252,0.9013181328773499,0.19971631467342377,0.6275586485862732,0.6943953633308411,-0.07651277631521225,-0.003264796454459429,0.21979942917823792,0.46541839838027954,0.3202025890350342,1.7570414543151855,0.08753012865781784,-0.5719389915466309,0.16666965186595917,0.7631783485412598,-0.024346740916371346,-1.1708744764328003,-0.07508630305528641,-0.7142514586448669,0.9405070543289185,0.5618835687637329,0.27535364031791687,0.16194386780261993,-1.8649922609329224,0.07994256168603897,-0.036317963153123856,0.1458999216556549,0.13408420979976654,-0.050488606095314026,-0.0012301611714065075,-0.0004889591946266592,0.8616059422492981,0.02333528734743595,-0.02660508267581463,1.679168939590454,0.10890451818704605,-0.08452589064836502,-0.8305699229240417,-0.21157822012901306,-2.652228832244873,0.15618214011192322,-0.47173020243644714,0.7365984916687012,-0.3653680980205536,-0.7747703790664673,0.04601282998919487,-0.33259913325309753,0.03437042981386185,0.40898048877716064,2.9204647541046143,-3.751431703567505,-0.7441930174827576,-0.7103148102760315,-0.4073815941810608,0.05349905788898468,0.2118396759033203,-0.43548280000686646,-0.5840852856636047,-0.41657957434654236,0.39783239364624023,0.24798858165740967,-0.3257119953632355,-0.1812971979379654,-0.5256749987602234,4.388374328613281,-0.819574773311615,-0.8651180267333984,0.021914685145020485,-0.6116325259208679,-0.2820237874984741,-1.5187203884124756,-0.04696819558739662,-0.006754843518137932,-0.20217694342136383,0.14163486659526825,-0.09939207136631012,0.07886014133691788,-0.8008845448493958,0.6044259667396545,0.041186943650245667,-0.22647449374198914,-0.537234902381897,1.0756577253341675,-0.35912808775901794,0.02461433969438076,0.14086973667144775,0.11688950657844543,-0.9163737297058105,2.258878231048584,-0.06035872548818588,-0.42746394872665405,-0.41689470410346985,1.7417540550231934,-0.3298666179180145,1.1571502685546875,-0.43131551146507263,0.14047585427761078,-0.037577081471681595,0.4910939633846283,1.306849479675293,-1.1701855659484863,0.7217869758605957,1.0114480257034302,0.028440292924642563,-0.12143263965845108,-0.8738985657691956,-0.05892612785100937,0.0879860445857048,-0.07938939332962036,0.05973167344927788,0.22877980768680573,0.023844577372074127,0.03240511938929558,0.5368845462799072,0.026526689529418945,-0.28732389211654663,-0.4146658182144165,0.009754118509590626,-0.2824408710002899,-0.7717114686965942,-1.0129220485687256,0.4893871545791626,-0.30920323729515076,-0.6272827982902527,-2.2371249198913574,-0.05467239394783974,-0.9012126922607422,0.5544591546058655,0.07423801720142365,-0.14971643686294556,-0.7707455158233643,-0.38600820302963257,-1.3669787645339966,0.08144208043813705,0.08073848485946655,-0.6458210349082947,0.5238627195358276,-0.22238744795322418,-1.6126290559768677,0.03591290861368179,-0.1923779994249344,-0.3460366725921631,-0.7340908050537109,-0.6234729290008545,1.7277723550796509,-0.3999880254268646,0.9692506790161133,0.20762284100055695,0.18885748088359833,-0.1452804058790207,-0.08947569876909256,0.6855577826499939,-0.2641889452934265,-0.4935362637042999,0.947856068611145,0.08075091242790222,-0.21991105377674103,0.05273732915520668,-0.5940333604812622,-0.26993340253829956,-0.055880356580019,0.057192113250494,0.6728866100311279,-0.748131275177002,-0.008950230665504932,0.17117547988891602,-0.5591118931770325,-0.6695725321769714,-0.8188986778259277,0.33002969622612,1.058251142501831,-0.15046477317810059,0.2970757484436035,-0.07851263135671616,0.1427849978208542,0.02574746683239937,1.3924026489257812,-4.3650712966918945,1.0671143531799316,-0.8137272000312805,0.09765566140413284,-0.30924034118652344,0.05193924531340599,1.5459078550338745,-1.6586776971817017,0.2531788647174835,-0.2242944836616516,-0.7053595185279846,-0.2240566462278366,-0.11177588254213333,-0.3123093843460083,-0.4382374584674835,3.8031463623046875,1.47560715675354,0.8386173248291016,-0.025564517825841904,0.6347441077232361,-0.19203722476959229,-2.395901918411255,-0.051762018352746964,-0.07868112623691559,0.020993901416659355,-0.6971251368522644,-0.7264527678489685,-0.0332181416451931,0.02805504947900772,0.2541968822479248,-0.010035269893705845,-0.31137093901634216,0.3461075723171234,0.9886010885238647,0.8418518304824829,1.1878544092178345,-0.21852687001228333,-1.3969216346740723,0.20534703135490417,-0.22487415373325348,0.0033936211839318275,-0.001961038215085864,-0.3664376139640808,-3.3441507816314697,-0.2196974754333496,-0.028956618160009384,-0.1794726699590683,-0.5342065691947937,0.030070941895246506,0.10684413462877274,2.620056629180908,0.15519799292087555,-0.21305347979068756,0.17742405831813812,-0.500586986541748,-0.3394955098628998,0.5818324089050293,-0.06357130408287048,0.1177598163485527,0.028297340497374535,-0.02356584370136261,2.1584701538085938,-0.37773439288139343,0.04784323647618294,0.18025867640972137,0.015075579285621643,-0.03708299994468689,-0.2001028209924698,0.08463505655527115,-0.186770498752594,-0.0349879264831543,0.3820851147174835,-0.2816837430000305,-0.13103638589382172,0.38171088695526123,1.8159427642822266,0.05139948055148125,0.42528247833251953,0.8393680453300476,-0.028461692854762077,0.15099574625492096,0.6383610963821411,-0.908752977848053,-1.101360559463501,-0.05536824092268944,0.00990736298263073,0.0722363293170929,-0.2357768714427948,-0.14766235649585724,-0.6009398698806763,-0.46867504715919495,0.34788164496421814,-0.1818138211965561,0.33827465772628784,-0.07461965084075928,-0.8478596210479736,-0.5152915716171265,1.2642793655395508,0.8735673427581787,1.3288490772247314,-0.7540407180786133,0.11989137530326843,-0.3261505365371704,-0.6121506094932556,-1.2929071187973022,1.4562667608261108,-0.8391503691673279,0.4389030337333679,-0.031069697812199593,0.24699588119983673,-0.6612723469734192,0.009441315196454525,0.017124980688095093,-0.07840820401906967,-0.44465145468711853,-0.04319962486624718,-0.3120044469833374,-0.7968453168869019,-0.17768949270248413,0.1967036873102188,-0.15108546614646912,-0.5751864910125732,-0.13940389454364777,-0.12512338161468506,-0.002267321338877082,0.27233171463012695,-0.05407930910587311,-1.0399881601333618,0.20190025866031647,-0.3575778901576996,-1.2310247421264648,-1.2035964727401733,0.1023280918598175,0.0881471261382103,-0.7376608848571777,0.2958872318267822,0.16148388385772705,-0.1162046492099762,0.12331996113061905,0.22630396485328674,-0.5123257040977478,-0.11677202582359314,-1.5252398252487183,0.3211315870285034,-0.1178646981716156,-2.37349009513855,-0.1267210692167282,-1.9324899911880493,-0.007438632193952799,0.6433737277984619,-0.022486617788672447,-0.001966561423614621,-0.030436106026172638,0.2990557551383972,-0.2191365510225296,0.017626876011490822,-0.38048896193504333,0.09759899228811264,0.039557259529829025,-0.2055836170911789,-0.544514536857605,-0.4408736824989319,-1.677270770072937,-0.5378410816192627,-7.755005754006561e-06,-0.11049894988536835,-2.913738965988159,0.10840170085430145,-0.32582372426986694,0.029381701722741127,-0.3166595697402954,0.44079089164733887,-0.45906558632850647,-0.068410724401474,-0.43854981660842896,0.0682549998164177,-0.8017679452896118,-0.7404754757881165,-0.9434643983840942,-0.22662502527236938,-0.6802292466163635,-0.6656625270843506,0.2065000683069229,0.2800661325454712,-0.3859911561012268,-0.04976662993431091,0.16899409890174866,0.06816207617521286,0.022137273102998734,-0.06060495227575302,-0.03844793885946274,-0.028077440336346626,-0.4447159171104431,0.08666535466909409,-0.07680784910917282,-0.0773925930261612,0.04396208003163338,0.17551147937774658,-0.3063962459564209,-0.47683581709861755,-0.09889291971921921,-0.5913276672363281,-0.5598360300064087,-1.4801928997039795,0.021650098264217377,-0.46855613589286804,-0.4466976821422577,-0.009706934913992882,-0.7826665639877319,0.08972848206758499,-0.3889909088611603,0.05497414246201515,0.0048704370856285095,0.08018027991056442,0.09821146726608276,-0.7912912368774414,0.010075838305056095,-1.2777451276779175,0.16933993995189667,-0.16041705012321472,-0.24886707961559296,-0.45225098729133606,-0.7043265104293823,-0.7292171716690063,0.17541204392910004,-1.234410285949707,-0.0723365992307663,0.016205020248889923,0.4591604471206665,-0.8482749462127686,-1.8120161294937134,0.4252817928791046,0.21037396788597107,-0.3247317373752594,0.1421436369419098,-1.0259844064712524,-0.0737048089504242,-0.6497052907943726,-0.34157535433769226,0.0681643933057785,0.02595318667590618,-0.49558576941490173,0.6075119376182556,-0.018048608675599098,0.1524568349123001,-0.011061168275773525,1.5352956056594849,0.026723377406597137,0.24929670989513397,-0.37391388416290283,0.2740674912929535,0.25699958205223083,-0.007713863626122475,0.46666455268859863,0.10691025853157043,-0.37197887897491455,-3.2861733436584473,2.4554264545440674,0.509105384349823,0.08889789134263992,0.45900458097457886,0.03502114489674568,1.213369607925415,0.35586613416671753,0.22967040538787842,0.4592002332210541,0.3964989483356476,-0.42276209592819214,0.10220737755298615,0.4694964587688446,0.4834226369857788,-2.669184684753418,0.9537984132766724,-0.6052390336990356,0.02035764791071415,-0.2497214525938034,0.7439953088760376,1.3476617336273193,-0.02511890046298504,0.0626135990023613,0.14225651323795319,-0.04287278279662132,0.2580583989620209,0.056201640516519547,0.285401850938797,-0.26093241572380066,-0.08521347492933273,0.1607079952955246,0.13083964586257935,1.1539491415023804,-0.10262241214513779,0.7361249923706055,0.47792714834213257,-0.3552698791027069,0.36001965403556824,-1.574248194694519,-0.03732740134000778,0.2615869641304016,0.7021629214286804,-1.7140628099441528,0.18477830290794373,-1.278720736503601,0.1640341877937317,0.15470977127552032,-0.24972568452358246,-0.1614702343940735,-1.9662210941314697,1.3691306114196777,-0.3288947343826294,-0.5655795931816101,0.12299643456935883,0.29752108454704285,0.7949889898300171,-0.03044998086988926,0.23813165724277496,-0.019911151379346848,0.015958618372678757,0.46695074439048767,0.28875818848609924,-0.04177739843726158,-0.08535770326852798,0.08042994886636734,0.16621547937393188,0.48736798763275146,0.027100181207060814,0.16669581830501556,0.49440470337867737,0.23426540195941925,0.14001286029815674,0.17548994719982147,0.16734565794467926,0.35658031702041626,-0.012105375528335571,0.2582033574581146,0.09312499314546585,0.04858216643333435,0.9609265327453613,0.2908554971218109,0.5465573072433472,0.8546769618988037,-0.022881165146827698,0.07309101521968842,0.3553571403026581,0.427167683839798,0.16629032790660858,1.874151349067688,0.08960936963558197,-0.6805191040039062,0.15316204726696014,0.6378524303436279,-0.03999406844377518,-1.2796374559402466,-0.09016499668359756,-0.7432089447975159,0.9124442338943481,0.5412240028381348,0.36449506878852844,0.1043008491396904,-1.9470654726028442,-0.0028889933601021767,0.04493119195103645,0.3374651074409485,0.19326674938201904,-0.033961113542318344,-0.044357217848300934,0.11847507953643799,0.23899881541728973,0.05955372750759125,-0.012279083952307701,2.0735766887664795,-0.15253564715385437,0.041524726897478104,-0.27472227811813354,-0.07411009073257446,1.0708818435668945,-1.5528970956802368,-0.6110825538635254,-1.4498659372329712,-2.6368801593780518,-0.7111968398094177,0.031668003648519516,-0.6343063116073608,-1.3407407999038696,0.12947946786880493,-1.1857985258102417,2.157395601272583,0.002211896935477853,-0.21933108568191528,-2.254490375518799,0.048947419971227646,-0.6968743801116943,0.10461806505918503,-0.48266950249671936,0.15954919159412384,-1.36777663230896,-0.9576072692871094,-0.10687977075576782,-1.1428238153457642,-0.7206688523292542,0.7088873386383057,-0.4750223755836487,0.05838921293616295,-0.02124593034386635,0.046377841383218765,-0.9601373672485352,0.05194367095828056,0.01621314510703087,-0.05700182169675827,-0.8152381181716919,-1.3168919086456299,0.16907523572444916,-0.06774800270795822,-0.6961644887924194,0.27703434228897095,-0.0047807274386286736,-1.6776297092437744,-0.15778818726539612,-0.607146680355072,0.060321733355522156,-0.1712757796049118,-1.6067936420440674,-0.036861103028059006,0.037602610886096954,-1.2162177562713623,-2.90151309967041,-0.44606316089630127,-0.5854576230049133,-1.0739781856536865,-0.08417501300573349,0.03216760978102684,0.025709807872772217,-0.6148945689201355,-2.506344795227051,0.1237216368317604,-0.5813036561012268,-0.46343716979026794,0.1530797928571701,-2.4254648685455322,-1.9958192110061646,-1.3739584684371948,-0.4608910381793976,0.05446978658437729,-0.6329289078712463,-0.057710446417331696,0.06342915445566177,-0.577134370803833,-0.47741377353668213,0.01956970803439617,0.035851601511240005,0.07578536123037338,-1.6630711555480957,-1.7350667715072632,-0.08491717278957367,-0.7506999373435974,-2.7541518211364746,0.026753880083560944,-1.1013364791870117,-2.032888412475586,-0.156073197722435,0.29361072182655334,-0.03727317601442337,-0.20181027054786682,-0.909972608089447,0.059963006526231766,-1.6363813877105713,-0.3685075044631958,-0.110561802983284,0.2722896337509155,0.019656699150800705,-0.046602506190538406,-0.5944684147834778,0.007138299290090799,-1.3724974393844604,-0.04727720841765404,-0.4275408089160919,-0.20757821202278137,-2.3823299407958984,-0.39719507098197937,-0.19236595928668976,-0.009911824017763138,-0.2887917459011078,1.0962252616882324,-1.0830187797546387,-1.1857616901397705,-0.20987099409103394,-0.18468664586544037,-0.4513903856277466,-1.0482488870620728,-0.2286318838596344,1.6551649570465088,-1.7825639247894287,-2.9235141277313232,0.08489592373371124,-0.1001303493976593,-0.5430523157119751,0.041110340505838394,-0.0732407197356224,-0.6406984329223633,1.5926588773727417,-0.0771014615893364,-0.5827622413635254,-0.059661876410245895,-0.9971269965171814,-0.6141332387924194,-0.3146370053291321,-1.9063940048217773,-0.2428203523159027,-0.461275190114975,0.08567110449075699,-1.029310703277588,0.15255413949489594,-1.142484426498413,-0.6528660655021667,-2.1086888313293457,0.2601417303085327,-0.06915025413036346,0.2632599472999573,0.061382878571748734,0.991522490978241,-0.16195866465568542,-0.6684983372688293,-0.022481825202703476,-0.5066524147987366,-0.5521866083145142,0.1351137012243271,0.19266681373119354,0.39499416947364807,-1.2894357442855835,0.7966358661651611,-0.13123343884944916,-0.06110981106758118,0.21683114767074585,0.3376326262950897,0.749748945236206,0.01677962951362133,-0.057020869106054306,-0.7147835493087769,-0.6747594475746155,-0.8627763986587524,0.01766456663608551,-0.37075600028038025,-3.764782667160034,-0.007206426002085209,0.24024678766727448,0.1197052150964737,0.9765071868896484,0.14742521941661835,0.644156813621521,-0.6388595700263977,-0.6665675044059753,0.007279474753886461,-1.5868562459945679,0.16708126664161682,-1.0865225791931152,0.06878173351287842,-1.129491925239563,0.3679177761077881,-1.4748830795288086,0.22541019320487976,-0.5870680809020996,0.10471393913030624,-0.6050716042518616,-1.6697500944137573,-0.3288232088088989,-0.41501617431640625,-0.4214964210987091,-0.43036949634552,0.018902376294136047,0.36691921949386597,0.056164100766181946,-0.04297832027077675,-0.042677685618400574,-0.0348244346678257,0.022819506004452705,-0.02853349968791008,-0.019257927313447,0.28263261914253235,-0.0766298919916153,-0.677981972694397,0.441974014043808,0.0012380426051095128,-1.0053671598434448,0.36216217279434204,-0.1915488839149475,-2.6030030250549316,0.5405092239379883,0.21269652247428894,-0.7804334163665771,-0.08779986947774887,-0.47096458077430725,0.41548722982406616,0.03678686544299126,1.0214784145355225,-0.66389000415802,0.32749971747398376,-0.36747387051582336,-0.018331823870539665,-0.050289660692214966,-0.7810970544815063,1.2217782735824585,-0.6626184582710266,0.24323539435863495,-1.1919357776641846,0.3620922267436981,0.021097641438245773,-0.025784248486161232,0.20101486146450043,-1.2088326215744019,-0.6012294292449951,-0.9190914034843445,0.66827791929245,-0.44393637776374817,0.2052583545446396,0.1579725742340088,-1.6457610130310059,-1.2723705768585205,-1.59916090965271,-4.100362777709961,-1.054719090461731,0.7464657425880432,0.05206768959760666,0.040904734283685684,0.019223660230636597,0.08003454655408859,-0.08629544079303741,-0.03708112984895706,-0.10080087184906006,-0.07780491560697556,-0.045593731105327606,-0.0249008946120739,-0.14725206792354584,-0.006465969607234001,0.041624028235673904,0.04839284345507622,-0.008997797966003418,-0.08418343961238861,-0.06332959979772568,-0.037799395620822906,0.07454907149076462,0.06174882873892784,-0.08978952467441559,0.0766395702958107,-0.06408900022506714,-0.035030547529459,0.08583708852529526,-0.07853332906961441,-0.04106437787413597,0.035274624824523926,-0.08014418184757233,-0.005706331226974726,0.06071411818265915,-0.04635770246386528,-0.07223710417747498,-0.07411234080791473,-0.07069597393274307,-0.05301901698112488,-0.09966089576482773,-0.02166951820254326,-0.03516921401023865,-0.05013785511255264,0.015183347277343273,-0.11657460778951645,0.037090007215738297,0.006035470869392157,-0.07634473592042923,0.032105423510074615,-0.01874643936753273,0.003560944925993681,0.012249892577528954,-0.01916087605059147,-0.0551498681306839,-0.06170637905597687,-0.048909761011600494,-0.0035693624522536993,0.00802510604262352,0.0524548701941967,-0.029539335519075394,0.06935708224773407,0.05431414768099785,-0.042102567851543427,-0.023963462561368942,-0.0832156240940094,-0.03817584365606308,-0.050190553069114685,0.004794670268893242,-0.03538690507411957,-0.08424518257379532,0.050905741751194,0.043315231800079346,-0.09086202085018158,-0.0032549016177654266,-0.04051980376243591,-0.014643171802163124,-0.108469657599926,-0.05100113898515701,0.024645201861858368,-0.06309854239225388,-0.02532961219549179,0.058848362416028976,0.03400223329663277,-0.004070258233696222,-0.05343182012438774,-0.06620502471923828,0.08619745075702667,0.03502325341105461,0.006415129639208317,0.08326034247875214,-0.011687001213431358,0.01032999251037836,-0.02600543387234211,0.017231540754437447,-0.04066257178783417,0.021433744579553604,0.05289823189377785,-0.056827086955308914,-0.06697317957878113,-0.010326294228434563,0.061877090483903885,0.06449083983898163,0.05275586247444153,-0.04232592135667801,-0.0011360408971086144,-0.03971199318766594,-0.12997989356517792,-0.007268150337040424,-0.02432318776845932,-0.05327216163277626,-0.08608972281217575,-0.07404543459415436,0.12150020152330399,-0.024639027193188667,0.06743678450584412,0.026085443794727325,0.04520602151751518,-0.06736201792955399,-0.014761610887944698,0.06456462293863297,-0.010268270038068295,0.03470442444086075,-0.020336288958787918,0.0014046538854017854,-0.0667121633887291,0.010897924192249775,0.006782933138310909,-0.08318941295146942,-0.02886211685836315,-0.07890965789556503,0.0033050975762307644,0.06651339679956436,-0.065180703997612,0.6275041103363037,0.00881621427834034,0.047080568969249725,2.520787000656128,0.5547102093696594,-0.05475394055247307,0.43161386251449585,0.14632852375507355,1.5655007362365723,0.04316239058971405,-0.2960962951183319,-0.5943516492843628,-0.9893817901611328,-0.33668461441993713,-0.028465496376156807,-0.16738496720790863,-0.2847830355167389,-2.990292549133301,-0.5724974870681763,0.357089638710022,0.2090739905834198,0.32003018260002136,-0.42090243101119995,0.06934972107410431,-0.8276644945144653,0.9230876564979553,0.04887176677584648,0.5804185271263123,-0.2672567367553711,-4.763216972351074,-0.18109165132045746,-0.26584407687187195,-0.3488968014717102,3.2841477394104004,-1.3290473222732544,-0.4249219298362732,0.0674687996506691,0.16650709509849548,-0.6591750383377075,-0.45144838094711304,-0.05711223557591438,0.027625340968370438,-0.2722128927707672,0.15305779874324799,0.6691336035728455,-0.08282002806663513,-0.3635247051715851,0.7513551712036133,-0.04943513497710228,-0.8912341594696045,0.2820173501968384,-0.43217557668685913,-0.366585373878479,-0.1406535506248474,0.039768416434526443,-0.580111563205719,0.4961528182029724,-0.9312447905540466,-0.8506045937538147,0.2984473407268524,-0.3957071006298065,0.032563358545303345,0.6164736151695251,0.3382207751274109,0.5982739329338074,-0.36247435212135315,-0.2608329951763153,0.6363131999969482,-1.1182810068130493,0.5813422203063965,0.5688158869743347,0.1374233067035675,-0.22309093177318573,-0.2167109251022339,-0.077260822057724,-0.029278025031089783,0.2094084769487381,0.06803999841213226,0.007597991731017828,-0.8856251239776611,0.3407020568847656,-0.07974783331155777,-2.0422379970550537,0.0571729801595211,-0.05799198895692825,-0.4394855201244354,0.04188951104879379,0.34058138728141785,-1.2806732654571533,0.46209654211997986,-0.9910849928855896,0.03663810342550278,0.22981514036655426,0.593043863773346,0.049907293170690536,0.0007313473615795374,0.48909708857536316,-0.014775916002690792,-1.114811658859253,0.4170827269554138,-0.5792449712753296,0.8462342023849487,0.045555926859378815,0.07802055031061172,0.10835622251033783,-0.0028771162033081055,-0.2043025940656662,-0.9674103856086731,0.47810041904449463,0.4262770116329193,-1.318063735961914,0.22865177690982819,0.1969161480665207,-0.24594490230083466,4.390966415405273,0.8045117259025574,0.3980357050895691,-0.672919750213623,0.5270755290985107,0.26966142654418945,-0.027468154206871986,0.31111517548561096,0.7062297463417053,1.13826584815979,-0.13718898594379425,-0.46844780445098877,-0.04492693766951561,0.2180144190788269,-0.06587834656238556,0.04845096170902252,0.06086335703730583,-0.054090291261672974,0.0372568741440773,0.08146654069423676,0.04073738306760788,-0.07319512218236923,0.03925711661577225,-0.02749277651309967,-0.10800569504499435,-0.07986605912446976,-0.012927521951496601,-0.014969315379858017,0.03935687243938446,0.052240315824747086,-0.04551945626735687,0.03213120996952057,-0.09698877483606339,-0.026690568774938583,-0.048452142626047134,-0.03641008585691452,-0.06536763161420822,0.02213456481695175,-0.01627606339752674,0.060912806540727615,-0.023426443338394165,-0.03558187931776047,-0.08027689903974533,-0.09258025884628296,-0.07956862449645996,0.0591326579451561,0.05630003288388252,0.020660806447267532,-0.11432059109210968,0.05551498383283615,-0.05150792747735977,-0.05965935438871384,0.007481666281819344,0.08249012380838394,0.025522319599986076,0.004153203219175339,-0.05852404981851578,0.013165632262825966,-0.02237844094634056,-0.023358425125479698,-0.02813236601650715,-0.03467084839940071,0.014931290410459042,0.03332792595028877,-0.031175823882222176,0.021589184179902077,-0.058959558606147766,-0.08949154615402222,-0.01951698586344719,-0.03052361123263836,-0.009318159893155098,0.04052386060357094,0.011970149353146553,-0.059422675520181656,-0.09125075489282608,-0.0844516009092331,-0.07150525599718094,-0.029401736333966255,0.05255741998553276,0.020230086520314217,0.027857454493641853,0.060537371784448624,0.02716187946498394,-0.05022093281149864,-0.0011440106900408864,-0.03638560324907303,0.03281644359230995,-0.03865426406264305,0.014049751684069633,0.040872715413570404,-0.024310702458024025,-0.032089345157146454,0.013973576948046684,0.05100090801715851,0.03298427537083626,0.0470971018075943,-0.08082650601863861,0.07782101631164551,-0.08346852660179138,0.10117737948894501,-0.03349166736006737,-0.002327557420358062,-0.04191546142101288,-0.005502304993569851,-0.08717497438192368,-0.03065117448568344,0.024911781772971153,-0.02267901599407196,0.022620055824518204,-0.0948115810751915,-0.08004540205001831,0.07096606492996216,0.05220739170908928,0.03646966069936752,-0.07334229350090027,0.030863899737596512,0.08043891191482544,0.020344514399766922,0.0019643264822661877,-0.10953909158706665,-0.047933828085660934,0.026567960157990456,-0.05690866708755493,-0.09385371953248978,0.05373113229870796,-0.09739317744970322,-0.07390285283327103,-0.03384963050484657,0.04075934365391731,-0.006656322628259659,-0.0017972871428355575,-0.04865266755223274,-0.0259499903768301,-0.09804941713809967,0.006606753915548325,0.011573887430131435,0.04640486091375351,0.042275696992874146,0.004460294730961323,-0.04872208088636398,-0.004379647318273783,-0.035631194710731506,0.20604124665260315,-0.024015136063098907,-0.08176332712173462,3.098076105117798,0.18644806742668152,-0.07888692617416382,-0.23588335514068604,0.13317924737930298,-1.6323293447494507,-1.0686664581298828,-0.35623669624328613,1.1140917539596558,-0.5444320440292358,-0.5924078226089478,-0.08233950287103653,-1.0628471374511719,-0.3617633581161499,1.1158778667449951,1.3931611776351929,-1.939174771308899,-2.0719568729400635,-0.20568913221359253,-0.8317017555236816,0.0331813283264637,0.8547179102897644,-0.9095150232315063,-0.9554728865623474,-0.49296993017196655,-1.4274930953979492,-0.929750919342041,-2.1981098651885986,-0.13600647449493408,-1.5561802387237549,4.791451454162598,0.4878338873386383,0.1670565903186798,-0.0006156706367619336,0.10971250385046005,-0.7446289658546448,-2.016002655029297,0.010702960193157196,0.00841762125492096,-0.9223187565803528,-0.917107343673706,-0.5844457149505615,-0.04393070191144943,-0.27394211292266846,-0.03071942925453186,-0.04855626821517944,-0.21656887233257294,-0.17736393213272095,1.8208036422729492,0.1652887463569641,0.6332507133483887,-0.37173277139663696,-2.086933135986328,0.2537989616394043,1.522539734840393,-0.017134947702288628,-0.5545536279678345,0.053663093596696854,-0.9947540163993835,-0.2517882287502289,-0.7042783498764038,-0.3291395306587219,-0.9864685535430908,0.24028316140174866,0.2806223928928375,1.7929972410202026,-0.19616641104221344,0.16685183346271515,0.9160749316215515,-0.9397571086883545,-0.9580360651016235,-0.013772060163319111,0.022741079330444336,-0.3531026840209961,-0.040195196866989136,0.00015772857295814902,0.5017770528793335,-0.42191001772880554,0.06701928377151489,1.2208329439163208,0.04496888443827629,-0.0955982431769371,-0.333580881357193,0.06497184932231903,-1.2107326984405518,-0.3822765052318573,0.025322599336504936,-0.09876521676778793,0.21719884872436523,-0.17473764717578888,-0.05439285933971405,-0.05303756147623062,0.05716542899608612,0.6794393658638,-0.023201607167720795,0.9191680550575256,-0.9912797808647156,-1.4370663166046143,-0.8628155589103699,0.02053545042872429,0.031218497082591057,-0.6811197996139526,-0.01232199463993311,-0.6572427749633789,-0.4736209511756897,-0.570812463760376,-0.38538724184036255,-0.01374282781034708,0.2190481275320053,-0.009685695171356201,-1.217570424079895,-0.9525933861732483,1.1431770324707031,-0.16184604167938232,0.09337058663368225,-0.7836101055145264,-0.06842581927776337,1.2272096872329712,-1.3570082187652588,-1.604129433631897,2.581048011779785,-1.414263129234314,0.3903449773788452,0.005162124987691641,-0.021640267223119736,-0.3823084831237793,-0.028493091464042664,0.055705659091472626,-0.4155850410461426,1.8554259538650513,-0.07831306010484695,-0.21146160364151,0.343572199344635,-0.23284728825092316,-0.49902331829071045,0.09995758533477783,-1.6608387231826782,0.18234099447727203,0.010998263023793697,-0.034338194876909256,-0.7132999897003174,0.49367374181747437,-1.340445637702942,-1.2185747623443604,-1.0548738241195679,1.0254286527633667,0.16551242768764496,0.7065598368644714,0.0685214176774025,1.0353859663009644,-0.10798961669206619,-0.20957021415233612,0.10163387656211853,-0.1973574161529541,0.03696582093834877,0.2810707688331604,0.49641671776771545,0.9374719858169556,-1.3121358156204224,0.8034611940383911,0.4112207591533661,-0.045856159180402756,0.469577819108963,0.8948990702629089,1.6517115831375122,0.07114789634943008,0.03228791058063507,-0.2819741368293762,-0.3342093229293823,-0.4911954998970032,0.056613627821207047,0.21405109763145447,-2.9826128482818604,-0.053031954914331436,0.4506564438343048,0.5281175971031189,1.8311846256256104,0.5838977098464966,0.9330116510391235,-0.045806046575307846,-0.16780312359333038,0.32717347145080566,-1.078855037689209,0.6009089350700378,-0.45546621084213257,0.6957934498786926,-1.7887847423553467,0.31228306889533997,-1.2417675256729126,0.33165282011032104,-0.19571007788181305,0.43706488609313965,-0.19738323986530304,-2.0749495029449463,0.2517603039741516,-0.25143489241600037,-0.21277539432048798,-0.062048982828855515,0.4274287223815918,0.8521587252616882,0.06984498351812363,0.33369842171669006,-0.06403206288814545,0.009504130110144615,0.6915307641029358,0.32622337341308594,-0.02064516954123974,0.3143782913684845,0.05676809325814247,-0.21247732639312744,0.7167609333992004,-0.04523426294326782,-0.6398269534111023,0.4541858434677124,0.020197248086333275,-1.6268565654754639,0.9526817202568054,0.387190580368042,-0.47439834475517273,0.018517259508371353,0.18102145195007324,0.6208356618881226,-0.08604803681373596,0.8244559168815613,-0.31174150109291077,0.6853182315826416,-0.39838555455207825,-0.009462272748351097,-0.01944437436759472,-0.43816572427749634,1.5111101865768433,-0.17105814814567566,-0.7114537954330444,-0.8070063591003418,0.7012346982955933,0.473502516746521,-0.0032771453261375427,0.4175575077533722,-1.0814731121063232,-0.08073148131370544,-0.7834200263023376,0.9248408675193787,0.15750117599964142,0.24442262947559357,0.38329723477363586,-1.6661149263381958,-0.8540748357772827,-2.3980376720428467,-2.2293975353240967,-0.6476455330848694,1.2762540578842163,0.08456744998693466,0.35501354932785034,0.009966157376766205,0.06419403105974197,-0.07540257275104523,1.0491392612457275,0.06509584933519363,-0.052274346351623535,-0.4090387225151062,0.3428385555744171,-0.9162038564682007,0.020391443744301796,-1.6509654521942139,0.48244935274124146,-1.531026840209961,-2.2718937397003174,0.012947321869432926,-0.629313051700592,0.18893086910247803,-0.376196950674057,1.7483868598937988,-1.1518644094467163,-0.4530845582485199,-0.17874984443187714,-0.6962460875511169,0.07550880312919617,0.5397985577583313,0.21877612173557281,-1.365415334701538,-0.016575586050748825,-0.17361626029014587,-0.5709918141365051,-0.7335720062255859,-0.199163556098938,-0.7332994341850281,0.06589453667402267,0.007037075236439705,-0.541394829750061,0.0677950382232666,-0.0949983298778534,-0.6265562772750854,1.5254863500595093,-0.05939691886305809,0.06104639172554016,-1.4971327781677246,0.1196528971195221,0.4403252899646759,0.03968974947929382,-1.573144555091858,-0.25980812311172485,0.0783274695277214,-0.2244642674922943,-0.008215690031647682,1.2331055402755737,-0.1867307722568512,0.3205548822879791,-0.20255863666534424,-0.4285547435283661,-0.29000741243362427,2.1936392784118652,-0.0744597315788269,-0.9772850871086121,0.18318644165992737,1.314278244972229,0.40196967124938965,1.6419448852539062,0.12690837681293488,-0.27287036180496216,0.4704522490501404,0.03355959430336952,1.629005789756775,-0.31993380188941956,0.07982970029115677,0.8307486176490784,-0.01917276158928871,-0.5310677886009216,-0.5134948492050171,-0.011013560928404331,-0.034406282007694244,0.010247363708913326,0.06554554402828217,-0.2029300183057785,0.11590489745140076,-0.08036200702190399,1.8926352262496948,0.05474405735731125,-0.9416810274124146,0.013931221328675747,-0.05723392218351364,-0.733672022819519,-1.8451358079910278,-0.48457738757133484,0.7085292339324951,0.6332314610481262,-0.1375378966331482,-1.7513619661331177,0.023972759023308754,-1.4310201406478882,0.7318189740180969,0.02061203122138977,1.0970200300216675,-0.7475001215934753,0.5294421315193176,-0.3365005552768707,0.020751938223838806,-0.05592356622219086,-1.464087724685669,0.23951607942581177,-1.3470863103866577,-0.8952425122261047,0.021611914038658142,0.21620014309883118,-0.5622890591621399,-0.21172070503234863,-0.08798091113567352,1.104577660560608,-0.9161205291748047,0.29369786381721497,0.354383260011673,-0.2759816646575928,0.1839144229888916,0.15803322196006775,-0.1393643468618393,-0.2484174221754074,-0.11750480532646179,1.2542718648910522,-0.34309452772140503,0.6871560215950012,-0.06058529391884804,-0.19079037010669708,0.1107873022556305,-0.03120259754359722,0.04726273939013481,-1.7931996583938599,-0.09205165505409241,-0.014540314674377441,-0.42813724279403687,0.3073720633983612,-0.5655367374420166,0.6040563583374023,-1.3941072225570679,-0.6724740266799927,-2.0074965953826904,-1.7458577156066895,0.05537870153784752,0.2889631986618042,0.2088378518819809,-1.684495449066162,4.032222270965576,-1.3607455492019653,0.6744868755340576,-0.2894824743270874,-0.598518431186676,0.0021451376378536224,0.3299894630908966,0.8304147720336914,-0.6652275919914246,0.35106098651885986,-0.6042646169662476,0.19182784855365753,0.6304628849029541,-1.181804895401001,0.27567458152770996,-0.17175278067588806,-0.08790605515241623,-1.7737162113189697,0.036785684525966644,-0.6866546273231506,-2.4388906955718994,-0.5674943923950195,-0.028412602841854095,-0.049521997570991516,-0.4297102689743042,0.7057676911354065,0.8479805588722229,0.06365159898996353,-2.2952308654785156,0.08351560682058334,-0.0039643533527851105,-2.1496498584747314,-0.08613219112157822,-1.8581087589263916,-1.0203357934951782,0.24997982382774353,-1.3861503601074219,-0.40632498264312744,-0.5402742624282837,2.712440013885498,-0.6884645223617554,-0.3639279901981354,0.29398882389068604,2.6214544773101807,0.7626733779907227,-0.38197386264801025,0.4922234117984772,0.3182999789714813,0.2993798851966858,-0.03552152216434479,1.27069890499115,-0.3390190899372101,0.1269407570362091,1.089604377746582,0.4743591248989105,0.0841323584318161,-2.3926031589508057,0.04066647216677666,0.3347788453102112,-0.06602095067501068,0.10014083236455917,-0.10029933601617813,0.45713257789611816,0.06864012777805328,1.2620539665222168,0.08065309375524521,-0.9605875015258789,-0.7602773904800415,0.020997390151023865,-0.151292085647583,-2.490631580352783,-0.5867757201194763,0.4143628180027008,0.07860798388719559,-0.0044812774285674095,-3.125917673110962,-0.08713141828775406,-2.049539804458618,0.7332116365432739,-0.02760564722120762,0.7416719794273376,-0.2310350090265274,0.769595205783844,0.4106108844280243,-0.06488224864006042,-0.0018115452257916331,-0.8952548503875732,0.1585739254951477,-0.6969440579414368,1.681121587753296,0.3760751485824585,0.023602068424224854,-1.8083268404006958,-0.22435589134693146,-0.23112492263317108,1.6211912631988525,-1.3973077535629272,-1.452942967414856,0.014452300034463406,0.12277904152870178,0.7976931929588318,0.005802604835480452,-1.396279215812683,0.15232902765274048,0.721961498260498,-0.030452698469161987,0.272175669670105,0.07497937232255936,0.0193888358771801,-0.3018995523452759,-0.028448600322008133,0.019461559131741524,-0.03093084506690502,0.06718939542770386,0.07268150895833969,0.055386681109666824,-0.008073563687503338,-0.02275952138006687,0.02106248214840889,0.03420977666974068,0.07449241727590561,0.06976096332073212,-0.05986149609088898,0.013276278041303158,0.03736152499914169,-0.020230179652571678,0.01598357781767845,0.03543876111507416,0.011709384620189667,0.007021944969892502,-0.11070200800895691,-0.025449559092521667,-0.1028904914855957,-0.0521157905459404,-0.1061968132853508,-0.04350052773952484,0.057234976440668106,-0.014266588725149632,-0.0847882330417633,-0.10168968141078949,0.0443161241710186,0.015005253255367279,-0.09538348019123077,0.014424779452383518,0.01705068163573742,-0.04546695202589035,-0.018846647813916206,-0.050166673958301544,0.046370189636945724,-0.04718059301376343,0.0710739716887474,-0.024388747289776802,0.0024347002618014812,-0.017787998542189598,-0.0028221276588737965,0.036592062562704086,0.025514205917716026,-0.0008265451178885996,-0.029977945610880852,0.03870565444231033,-0.01015087217092514,0.0660461038351059,-0.027420565485954285,-0.053881071507930756,0.01376346405595541,-0.06425942480564117,0.0224550012499094,-0.07459495961666107,-0.03193292394280434,-0.04449966549873352,0.05008132755756378,-0.007777705322951078,-0.09434215724468231,0.03252040222287178,0.08067167550325394,-0.08239234238862991,0.001050122082233429,-0.07584842294454575,-0.060157548636198044,0.013502411544322968,-0.05470184609293938,-0.06142932549118996,-0.08973363041877747,0.04739687591791153,-0.08597853779792786,-0.036379050463438034,-0.0793088972568512,0.030759338289499283,0.042850688099861145,-0.044602327048778534,-0.07913932204246521,0.0031729096081107855,0.04569563642144203,0.01909666322171688,0.058275576680898666,-0.03854389116168022,-0.08794157207012177,-0.05585167557001114,-0.10666454583406448,-0.03795443847775459,-0.013568218797445297,0.04736877977848053,-0.007240558974444866,0.05014227703213692,-0.05976925790309906,-0.026909340173006058,-0.015242225490510464,-0.07620711624622345,0.045581571757793427,-0.04532623291015625,-0.07665644586086273,0.0031419196166098118,0.03985777869820595,0.013029097579419613,-0.05493582785129547,0.05709695443511009,-0.029762975871562958,-0.05819030851125717,0.009722648188471794,-0.09800220280885696,0.018913861364126205,0.07062961906194687,-0.08261395990848541,0.014613157138228416,-0.02911265380680561,-0.014863596297800541,0.05255505442619324,-0.07521699368953705,0.007986500859260559,-0.06868930906057358,0.05413336679339409,-0.045035965740680695,-0.04092821478843689,-0.031312741339206696,-0.07755831629037857,-0.09560922533273697,0.04897308722138405,0.03901069238781929,-0.34651944041252136,-0.006924769375473261,0.022648178040981293,-0.6911278367042542,0.3654184341430664,0.009766878560185432,0.10157183557748795,-0.5288475751876831,-1.4595247507095337,-0.12185047566890717,0.5630587339401245,1.2365666627883911,0.5418064594268799,0.5090291500091553,0.03255438432097435,-0.8603204488754272,0.33580178022384644,1.588804006576538,0.6630575656890869,-0.5674408674240112,-0.1966625601053238,-0.043502792716026306,0.2486417591571808,0.041503001004457474,0.814551830291748,-0.6559733748435974,0.09603767096996307,-0.13624267280101776,0.08847920596599579,0.38298532366752625,-0.4733373820781708,0.027588432654738426,-0.8855941295623779,2.714808464050293,0.16888155043125153,0.6852580904960632,-0.11625754833221436,0.3804793953895569,-0.04069377854466438,-0.3390113413333893,-0.08249935507774353,0.06344872713088989,0.3249345123767853,-0.18759992718696594,-0.9241942167282104,-0.0783519372344017,0.5842631459236145,-0.5262507796287537,-0.007717561908066273,0.3205251395702362,0.3371492028236389,0.05415476858615875,0.3620143532752991,1.329851508140564,0.6820234060287476,-0.1087459847331047,0.08468343317508698,0.47883209586143494,0.5425990223884583,0.11387641727924347,-0.5106630325317383,0.8946490287780762,-0.5934045314788818,-0.02127731591463089,-0.33101385831832886,0.20232746005058289,0.1714375913143158,-0.16568633913993835,1.9034122228622437,-0.05853169411420822,-0.3846201002597809,0.6737737655639648,0.18806199729442596,0.07395852357149124,0.2838611304759979,-0.052037689834833145,0.2212122529745102,-0.06785726547241211,-0.00989646464586258,-0.0647590234875679,-0.12625151872634888,0.0660398006439209,0.9124061465263367,-0.06498176604509354,-0.07526938617229462,-0.052340418100357056,-0.0010681907879188657,0.022010453045368195,1.7883104085922241,0.05977831408381462,-0.03531695157289505,0.6863621473312378,0.23243583738803864,0.10786505043506622,0.010974101722240448,0.6786470413208008,0.35906869173049927,0.027087336406111717,0.47063755989074707,-0.12151512503623962,0.022310767322778702,-0.7655091881752014,0.017656104639172554,0.030354227870702744,0.1888352632522583,-1.1704789400100708,0.3646952211856842,0.2684868276119232,-0.2536090016365051,0.3470645844936371,0.8949314951896667,0.45787280797958374,0.1377437263727188,-0.4575282633304596,-0.16985821723937988,0.40217435359954834,0.3287470042705536,-0.31476932764053345,-0.14109466969966888,0.0591593012213707,0.6718654036521912,-0.29881638288497925,-0.6847211122512817,1.0357422828674316,-0.013178628869354725,1.1031951904296875,-0.007227320224046707,0.193620502948761,0.21514290571212769,0.02471747249364853,0.08177579194307327,2.2985260486602783,0.840702474117279,0.0014069776516407728,-0.11428333818912506,-0.9472256898880005,-2.39247989654541,-0.2072495073080063,0.25862225890159607,0.45173153281211853,0.26987382769584656,0.3454955816268921,0.02514776960015297,1.0727208852767944,-0.6588401794433594,0.8641567826271057,0.8494477868080139,-2.051438808441162,-0.1481964886188507,-0.2743462026119232,-0.9926127791404724,-0.050294581800699234,-0.208408921957016,-2.5986061096191406,0.3018431067466736,-1.2321349382400513,0.13458409905433655,0.7888675332069397,-0.9318159222602844,-0.8809599876403809,-0.6581873297691345,4.674488067626953,0.1873096376657486,1.646344780921936,0.12645915150642395,0.8194242715835571,-0.6061095595359802,-2.214231252670288,0.08571658283472061,0.08545155078172684,0.16044388711452484,-0.34837377071380615,-1.5004630088806152,-0.03864563629031181,0.22171650826931,0.19539999961853027,-0.06033753231167793,-0.7154435515403748,-0.3043553829193115,1.6546002626419067,1.1692016124725342,-1.1240959167480469,0.1176137700676918,-0.8234593272209167,-0.19985324144363403,0.2752612829208374,-0.1340181827545166,0.1767580360174179,-0.45599204301834106,2.9170384407043457,-2.0005581378936768,0.7343108057975769,-1.5085171461105347,-0.18766050040721893,0.7202320098876953,-0.14335452020168304,0.9048640727996826,-0.026718078181147575,0.35271984338760376,0.13281799852848053,-0.26990753412246704,-1.080767273902893,0.18509703874588013,0.06415248662233353,-2.2029917240142822,0.07555701583623886,-0.03641181066632271,1.3355281352996826,-1.7226651906967163,-0.02231796830892563,2.95428729057312,-0.04439210519194603,0.5242829918861389,-1.0300346612930298,-0.08723165839910507,0.1932711899280548,-0.5275005102157593,-0.16183076798915863,0.10285713523626328,0.10603437572717667,-0.44305306673049927,0.7605589628219604,-0.038490861654281616,0.3627261221408844,-2.441377878189087,0.027988510206341743,-0.9023160338401794,0.30222615599632263,-2.1743338108062744,-1.211907148361206,-0.0841037705540657,-0.050807468593120575,0.25554725527763367,-0.5752978920936584,0.15626370906829834,-1.669663429260254,-0.4147196114063263,1.087697148323059,0.1464986950159073,0.2693940997123718,0.05120009183883667,0.302388459444046,0.40840378403663635,1.4463621377944946,0.06919261068105698,1.2918552160263062,-1.1241838932037354,-0.46924301981925964,2.7622599601745605,0.3732873201370239,-0.16760140657424927,0.5717474222183228,0.07076726853847504,-0.21400560438632965,0.025664711371064186,-0.2585331201553345,0.05604257807135582,-0.028206566348671913,0.01820644736289978,-0.02239861525595188,0.07913877069950104,0.017918406054377556,-0.05052518844604492,-0.022683454677462578,-0.04863807186484337,0.003524055937305093,-0.06877171993255615,0.02135731466114521,0.07904290407896042,0.07106877118349075,-0.017488982528448105,-0.06839987635612488,0.032414328306913376,0.05360160395503044,-0.02323240600526333,0.05431799218058586,0.06958441436290741,0.035912465304136276,-0.07849311083555222,-0.03648129850625992,-0.08816047757863998,0.03728621080517769,-0.05524524673819542,-0.027871794998645782,0.040717121213674545,-0.05640173330903053,0.0399935245513916,0.0588219091296196,-0.02948884293437004,-0.07735062390565872,-0.006127077154815197,0.007095379754900932,-0.045902807265520096,-0.0634501725435257,0.07707106322050095,0.02813841588795185,0.02610163763165474,0.043198853731155396,-0.04298873990774155,-0.0776820108294487,-0.05050451681017876,0.07894165813922882,-0.0793917253613472,0.05230936035513878,-0.03427443653345108,-0.05527342110872269,0.0038550246972590685,-0.07507331669330597,-0.007783100474625826,-0.04491622373461723,-0.07407732307910919,0.06440902501344681,-0.06847074627876282,-0.01946953684091568,-0.04393072426319122,-0.035111770033836365,0.07839316129684448,-0.07795785367488861,0.00032244445174001157,0.04407389834523201,-0.07849611341953278,-0.028511563315987587,-0.008409887552261353,-0.027408316731452942,0.06298793852329254,-0.04405047371983528,-0.018375594168901443,-0.0018184467917308211,0.053455647081136703,0.030805109068751335,0.02026073820888996,-0.021222708746790886,0.008142096921801567,-0.061819761991500854,0.07484535127878189,0.047468267381191254,0.008585323579609394,-0.0827842503786087,0.054031532257795334,0.062338877469301224,0.02881675958633423,-0.0575757659971714,-0.04878994822502136,0.010782933793962002,-0.07108300924301147,0.06418290734291077,-0.014581186696887016,-0.024855755269527435,-0.04503745958209038,-0.034611284732818604,0.05668548867106438,-0.029002806171774864,-0.08716215938329697,-0.06870017200708389,-0.042015191167593,-0.05915683135390282,-0.08158686012029648,0.014795566909015179,0.07024534046649933,-0.01845078356564045,-0.05960049107670784,-0.08704321086406708,-0.0403301939368248,0.014182034879922867,0.04258114844560623,-0.06405384093523026,0.0383773073554039,-0.0048902458511292934,0.007176291197538376,-0.06491824239492416,0.008656425401568413,-0.046785805374383926,0.06251639127731323,0.026858510449528694,0.049307335168123245,-0.058035217225551605,-0.0067980545572936535,0.07611843198537827,-0.07689972966909409,-0.06620360165834427,0.06658093631267548,-0.06250171363353729,0.045965857803821564,0.057267818599939346,0.2411694973707199,0.04811590537428856,-0.08091218769550323,2.501538038253784,0.29799631237983704,-0.06978194415569305,-0.31442198157310486,0.17450307309627533,-2.3859331607818604,-1.0246902704238892,-0.46122339367866516,0.840147852897644,-0.3870493173599243,-0.7420340180397034,-0.06225018948316574,-1.156410813331604,0.1525360345840454,0.044962335377931595,0.8115532398223877,-1.18718683719635,-1.1886446475982666,-0.10234668850898743,-0.26776328682899475,-0.05509239062666893,0.4005773663520813,-1.1582002639770508,-1.5586819648742676,-0.8566504120826721,-0.5122966766357422,-1.3444430828094482,-1.4814435243606567,0.00069708056980744,-1.088277816772461,3.503016233444214,0.0983649417757988,0.41228529810905457,0.07779684662818909,0.21242660284042358,-0.6297465562820435,-0.7456599473953247,0.053236208856105804,-0.0678306519985199,-1.24016535282135,-0.9996777176856995,-0.5967438817024231,-0.06325056403875351,-0.26298508048057556,-0.32309481501579285,-0.08119575679302216,-0.43397030234336853,0.12294105440378189,1.6267489194869995,0.26713064312934875,0.693915069103241,0.03406669571995735,-1.2953088283538818,0.2516172528266907,0.886615514755249,0.27318769693374634,-0.9177310466766357,0.10250819474458694,-1.6225661039352417,-0.19572126865386963,0.35600876808166504,-0.24121752381324768,-0.8205786943435669,0.6178452372550964,0.30373531579971313,2.6077146530151367,-0.5356916785240173,0.24415189027786255,0.953033447265625,-0.7705232501029968,-0.5128938555717468,0.18837997317314148,-0.01811894029378891,-0.461685448884964,0.0816134437918663,0.018664099276065826,-0.08568975329399109,-0.20792852342128754,0.08214948326349258,1.512290596961975,-0.037145037204027176,-0.3998100459575653,-0.2593174874782562,0.08120878040790558,-1.8147656917572021,-0.2364412397146225,-0.12412718683481216,-0.3113330006599426,0.5791981816291809,0.019721107557415962,0.45914795994758606,-0.05110408738255501,0.020533010363578796,0.7400135397911072,-0.030071808025240898,1.268433690071106,-1.4967865943908691,-1.0297307968139648,-0.8880921006202698,0.06053926795721054,0.026641717180609703,-1.1971708536148071,0.22158920764923096,-0.9128516316413879,-0.43679550290107727,-0.5960397124290466,0.06749256700277328,0.20535768568515778,-0.10440024733543396,0.1041279211640358,0.014884878881275654,-1.5875848531723022,0.8513307571411133,0.43238991498947144,-0.676273763179779,-0.9430199265480042,0.0835607722401619,1.086901307106018,-1.823569893836975,-1.8015867471694946,2.4764649868011475,-1.3714497089385986,0.7609375715255737,0.038920916616916656,0.03288973122835159,-0.04074373096227646,-0.05005062371492386,0.001653083716519177,0.0055796424858272076,-0.06390248984098434,-0.0035268377978354692,-0.10424315184354782,0.057457827031612396,0.025362424552440643,-0.15961962938308716,-0.06912876665592194,0.02928127720952034,-0.06109533831477165,-0.14315810799598694,0.061584487557411194,-0.1721070408821106,-0.1066892147064209,-0.13321955502033234,-0.1443437933921814,0.1165139302611351,0.12345513701438904,-0.019590027630329132,-0.023930946364998817,0.004597009159624577,-0.0930367261171341,-0.011127935722470284,-0.04392242431640625,0.01853463612496853,-0.08826541155576706,-0.10781848430633545,-0.048785630613565445,-0.006673579569905996,-0.08031285554170609,-0.1032244935631752,-0.12114468216896057,-0.07509070634841919,-0.08591823279857635,-0.02399933524429798,-0.07450845837593079,-0.01799728535115719,-0.08393392711877823,0.05265563726425171,-0.12922759354114532,-0.011386814527213573,-0.039959609508514404,0.05906670168042183,0.021006716415286064,0.033385004848241806,-0.007673002313822508,-0.1240071952342987,0.004764040000736713,0.04606178030371666,0.011069482192397118,-0.04539104551076889,-0.10312201827764511,-0.02021854743361473,0.0815008208155632,-0.1622573733329773,-0.0533682182431221,-0.11432358622550964,-0.15270216763019562,-0.03889599069952965,-0.019565623253583908,-0.13560380041599274,-0.08088391274213791,-0.19907772541046143,-0.12679798901081085,0.11556591093540192,0.1261603832244873,-0.1168946921825409,-0.047299377620220184,-0.04599200561642647,-0.03136289864778519,-0.24581065773963928,0.006932851858437061,0.08373794704675674,0.0029037988279014826,0.04880505055189133,0.018857141956686974,-0.12169595062732697,-0.03481436148285866,-0.05971352756023407,0.1406816989183426,0.07853589951992035,0.05184740200638771,-0.10947670787572861,0.041965302079916,-0.08212125301361084,-0.03992904722690582,-0.05514855682849884,-0.13911211490631104,0.0020092255435884,-0.14412005245685577,-0.0988709107041359,0.01616070233285427,0.07478233426809311,-0.009271222166717052,0.027740444988012314,0.00034130277344956994,-0.08062513172626495,-0.11451225727796555,-0.08925821632146835,-0.02856960892677307,-0.04870108142495155,-0.008803293108940125,-0.01787536032497883,-0.1213754266500473,-0.08609125018119812,-0.06438060849905014,-0.11143924295902252,-0.10505946725606918,0.058400653302669525,0.02510686218738556,0.04003356024622917,-0.17512743175029755,0.09346234053373337,-0.10364343971014023,-0.17575259506702423,0.03680809959769249,-0.024904409423470497,0.006758664734661579,-0.018075760453939438,-0.10004954785108566,0.1501503735780716,-0.11207347363233566,0.026960818096995354,-0.056033845990896225,-0.047686975449323654,-0.05719606578350067,0.044914230704307556,-0.024320164695382118,0.07368140667676926,-0.0024603623896837234,0.08759161084890366,-0.004304873291403055,-0.06690642237663269,-0.01941033825278282,-0.09361203014850616,-0.061312559992074966,-0.022251393646001816,-0.06509652733802795,-0.0783635750412941,-0.07500718533992767,-0.06857038289308548,-0.03861482813954353,-0.005926405545324087,0.10266485810279846,0.06690856069326401,0.013147532008588314,-0.11359430104494095,-0.0023260414600372314,0.07202070951461792,-0.02334968000650406,-0.11466994881629944,-0.10550299286842346,0.011659636162221432,-0.013216239400207996,-0.0702877938747406,-0.07440756261348724,-0.03958479315042496,-0.006567917764186859,-0.08419787138700485,-0.1193736121058464,-0.07319824397563934,-0.016114015132188797,0.024197682738304138,-0.033186689019203186,0.01838892139494419,0.02019370347261429,0.04506290331482887,-0.0012828476028516889,0.0404742993414402,0.05357576534152031,-0.013276783749461174,-0.05876695364713669,-0.04939647391438484,0.055253032594919205,0.010041647590696812,-0.0896793082356453,0.0629052221775055,0.014383000321686268,0.027529580518603325,0.012832775712013245,-0.10401742160320282,0.05972116440534592,0.03181154280900955,-0.028213603422045708,-0.0020347372628748417,-0.12045720964670181,-0.025364646688103676,0.0405491478741169,0.06041372939944267,0.021469583734869957,-0.11064425855875015,0.006304878741502762,0.023997414857149124,0.09983832389116287,0.01572122983634472,-0.013337330892682076,-0.03815978765487671,-0.027940211817622185,0.018878242000937462,0.032490454614162445,-0.0046827783808112144,-0.05935187637805939,-0.08260549604892731,