fc.0.weight
-0.16718941926956177,-0.08902198076248169,0.1947149634361267,-0.31399476528167725,-0.21170367300510406,0.6187511682510376,0.30954235792160034,0.5566615462303162,-0.38962823152542114,0.06610497087240219,0.24871249496936798,0.27927786111831665,-0.39701467752456665,0.41284534335136414,-0.016142234206199646,0.6460461020469666,-0.1239766776561737,0.47389689087867737,-0.2537009119987488,0.021139755845069885,0.7664893269538879,0.6904869675636292,0.28099310398101807,-0.2977775037288666,-0.19220219552516937,-0.47183817625045776,-0.6540547609329224,0.4581056535243988,0.5387609004974365,0.15678922832012177,0.7841889262199402,-0.004236692562699318,-0.13995133340358734,0.031050868332386017,0.8486292958259583,-0.18625226616859436,-0.20505483448505402,0.625609278678894,-0.11861690133810043,0.5704150795936584,0.5983303785324097,-0.5481286644935608,0.0737682655453682,0.5683782696723938,-0.20719756186008453,-0.3432990610599518,-0.05400041863322258,0.4788164794445038,0.04394986107945442,-0.06513146311044693,0.6743492484092712,-0.44912320375442505,0.4921448230743408,-0.7944858074188232,-0.5377473831176758,0.32063043117523193,0.5295581817626953,0.7868220806121826,-0.4439508318901062,-0.32061946392059326,0.3130824565887451,0.2598166763782501,0.4205406904220581,0.6325918436050415,-0.11676919460296631,-0.23920880258083344,-0.1153314858675003,0.6338090300559998,0.02468264102935791,-0.43822866678237915,0.04349011182785034,-0.363908588886261,-0.4469588100910187,-0.17240339517593384,-0.19443964958190918,0.22985221445560455,0.7450829744338989,0.07006127387285233,0.5865409970283508,0.17773988842964172,0.1406611204147339,-0.04905301332473755,0.04692262411117554,-0.4916136860847473,-0.5790475606918335,0.44169896841049194,-0.12500478327274323,0.13034029304981232,0.6487414240837097,0.11819499731063843,0.5507628321647644,-0.2912123501300812,0.18226613104343414,-0.9334527254104614,-0.1994660645723343,0.5338595509529114,-0.8027855157852173,0.5693312883377075,0.13189542293548584,0.7543554306030273,-0.5473760366439819,0.8505134582519531,-0.16508105397224426,0.7464645504951477,0.7200555801391602,0.4295118451118469,0.1980835199356079,0.29868340492248535,0.014800488948822021,-0.3608459234237671,-0.282870352268219,-0.010499000549316406,-0.2601199150085449,0.3802686333656311,0.06547288596630096,-0.23697063326835632,0.48999953269958496,0.002518277382478118,0.6288058757781982,-0.4762519598007202,0.058780305087566376,0.1054353415966034,-0.7028899788856506,-0.3607325851917267,0.6739078164100647,-0.6063875555992126,0.3526608645915985,0.28415876626968384,-0.32415977120399475,0.501792311668396,0.37089020013809204,0.6471991539001465,-0.2075660526752472,0.7460579872131348,-0.8004412055015564,0.32838401198387146,0.6914371252059937,0.12854214012622833,0.317190945148468,-0.545706570148468,-0.48249495029449463,-0.033101439476013184,-0.329440176486969,-0.4581493139266968,0.7541093230247498,-0.24051758646965027,0.30019518733024597,-0.32659241557121277,0.14346939325332642,0.07318966090679169,0.20868350565433502,-0.30568546056747437,0.527488112449646,0.7335418462753296,-0.46046096086502075,0.5047350525856018,0.24846385419368744,0.2324053794145584,-0.10979992151260376,-0.057037603110075,0.37463662028312683,-0.19634991884231567,-0.3564232587814331,0.02173381857573986,-0.01615595817565918,-0.14278900623321533,0.05801123380661011,-0.22232437133789062,0.6388244032859802,0.4477093517780304,-0.3868367671966553,0.5577293634414673,-0.21549773216247559,-0.36738964915275574,-0.42405521869659424,0.46068429946899414,0.6890805959701538,-0.2610478401184082,0.5114760398864746,0.4634203314781189,-0.3209938406944275,0.1656273752450943,-0.4434050917625427,-0.3068309426307678,0.46526017785072327,-0.07512973994016647,0.3065567910671234,0.14059653878211975,-0.10300701856613159,-0.11641716957092285,-0.15955489873886108,-0.20854008197784424,-0.013870279304683208,0.7081522941589355,0.5886883735656738,0.21881724894046783,-0.5025814771652222,0.15165774524211884,-0.028591802343726158,0.32317206263542175,-0.400577187538147,-0.2913782000541687,-0.05050098896026611,-0.38226789236068726,-0.16119813919067383,0.5825397372245789,-0.23812060058116913,-0.4197242856025696,-0.4129182696342468,0.5721253752708435,0.2312512993812561,0.3902398347854614,0.6856974363327026,-0.011053310707211494,0.38598474860191345,0.48673486709594727,0.4648604393005371,0.594768226146698,-0.30969858169555664,-0.5498284697532654,0.6980791091918945,0.6781315207481384,-0.5162190794944763,-0.07689441740512848,0.14839471876621246,-0.7332776188850403,-0.4362219572067261,-0.005172133911401033,-0.2138744741678238,0.34190040826797485,0.031190840527415276,-0.6244044899940491,0.9012151956558228,0.15448097884655,0.499610036611557,0.0900559201836586,0.7417069673538208,0.21813102066516876,0.31950676441192627,-0.36462247371673584,-0.6165536046028137,0.57964688539505,0.22139477729797363,-0.09720011055469513,-0.5322165489196777,-0.36963197588920593,0.4295746982097626,0.19193202257156372,-0.33892694115638733,0.5504642724990845,0.3182735741138458,0.04010989889502525,0.06627577543258667,0.12860846519470215,-0.34647154808044434,-0.0023273825645446777,-0.48642727732658386,0.1061846911907196,0.3637017607688904,0.06744886189699173,-0.4595121741294861,-1.0355041027069092,0.4891219139099121,-0.14782336354255676,0.6137966513633728,-0.52140212059021,-0.2835972011089325,0.5924437046051025,-0.3906915783882141,0.4272322356700897,0.6424643993377686,0.13893382251262665,0.24515238404273987,-0.4108727276325226,-0.3612626791000366,0.6385096907615662,0.31436681747436523,0.30726322531700134,-0.560958981513977,-0.2866694927215576,-0.12152822315692902,0.6086267828941345,0.7814304828643799,-0.3151179552078247,-0.596314013004303,0.011515699326992035,-1.3267121315002441,0.17571991682052612,-0.07865303754806519,0.4232403635978699,-0.29032641649246216,0.08804666996002197,-0.1985187530517578,-0.025815129280090332,0.22172802686691284,-0.06149280071258545,0.08259563893079758,-0.1423436552286148,0.7066574096679688,0.5635848641395569,0.304770827293396,-0.27341318130493164,0.07563096284866333,-0.3650243282318115,-0.3344646096229553,0.32356929779052734,-0.5760290622711182,0.5376636385917664,-0.2789575457572937,-0.15355008840560913,0.2438996434211731,0.08538377285003662,-0.47845596075057983,-0.211847722530365,-0.44825994968414307,-0.2703896760940552,0.04865144565701485,-0.35207873582839966,-0.9856628775596619,-0.10148196667432785,-0.37441492080688477,0.47463059425354004,0.257458359003067,0.5534989237785339,0.5986664295196533,-0.523242175579071,-0.07633809745311737,0.5377980470657349,0.31108203530311584,-0.16942331194877625,0.5677881836891174,0.033302098512649536,0.07317745685577393,-0.2749432325363159,-0.29959332942962646,0.06812602281570435,0.2263588011264801,0.7651876211166382,-0.6284693479537964,0.4922521710395813,-0.027636734768748283,-0.8350368738174438,0.35516253113746643,0.5314009189605713,0.5570303797721863,-0.24782133102416992,-0.40683096647262573,0.0590972900390625,-0.08329624682664871,0.5586133599281311,0.6032955050468445,-0.1657717078924179,0.5463998317718506,-0.6147252321243286,-0.40519654750823975,0.5847771763801575,-0.15789425373077393,0.00509798526763916,-0.46342331171035767,-0.38934481143951416,-0.3032410740852356,-0.37335705757141113,-0.20496439933776855,-0.12000709772109985,0.12858892977237701,-1.1952091455459595,0.19398297369480133,0.04637780413031578,0.20821373164653778,0.47225698828697205,0.4850122332572937,-0.29419296979904175,-0.3673032522201538,0.0701293796300888,0.6036809682846069,-0.01517118513584137,0.0835919976234436,-0.4240223169326782,-0.25263261795043945,-0.12571054697036743,0.15514028072357178,-0.17798656225204468,0.10801930725574493,0.2929069697856903,-0.4030338227748871,-0.15879525244235992,-0.09200959652662277,0.11175195872783661,-0.32743775844573975,0.695406436920166,0.16964231431484222,-0.06281188130378723,-0.34579017758369446,0.8010709285736084,-0.16580088436603546,0.5087540149688721,0.318352073431015,-0.305713027715683,0.21691738069057465,0.09616079926490784,-0.17846012115478516,-0.39566072821617126,0.5586101412773132,-0.23491324484348297,0.5172386169433594,0.1053667888045311,0.86848384141922,-0.08757375925779343,-0.6525319218635559,0.34059593081474304,0.08324199169874191,0.9888597726821899,-0.25619804859161377,-0.007529791444540024,0.3344717025756836,-0.3795718550682068,0.16145361959934235,-0.2362830638885498,0.5632861256599426,-0.4113272726535797,0.1077614426612854,0.05361729860305786,0.1861470341682434,-0.3421548008918762,-0.5606371164321899,0.5165250301361084,0.6357653737068176,0.008914859965443611,0.6758314967155457,0.4005085527896881,0.011458809487521648,-0.2964719831943512,-0.4262080192565918,0.11239427328109741,-0.10139888525009155,0.12305349111557007,-0.27668583393096924,-0.49228835105895996,0.14023758471012115,-0.022416353225708008,0.686907172203064,-0.4900127053260803,0.3880367875099182,0.1683366596698761,-0.10996440052986145,-0.7151191234588623,-0.4655188024044037,0.6769475340843201,-0.23695358633995056,0.12696628272533417,0.6538889408111572,-0.20485807955265045,-0.38756707310676575,0.2730521261692047,-0.15064837038516998,0.36650386452674866,-0.09154576063156128,-0.337610125541687,-0.28780806064605713,0.09810465574264526,0.2837907373905182,-0.13988961279392242,0.1563103199005127,0.37292417883872986,0.689764142036438,0.1658954620361328,0.5661594271659851,-0.15150108933448792,0.6991537809371948,-0.13843315839767456,0.22974367439746857,-0.2037496417760849,-0.5716531872749329,0.012437795288860798,0.13760098814964294,0.04049979895353317,0.3360472023487091,-0.539779543876648,0.11277272552251816,0.2119232565164566,0.8039001226425171,-0.07568371295928955,0.5995837450027466,-0.20771493017673492,-0.4407764673233032,-0.28519201278686523,0.28095775842666626,-0.12143754959106445,0.0035115480422973633,-0.1321042776107788,0.40599310398101807,-0.14962732791900635,0.6515090465545654,0.21321582794189453,-0.2188195139169693,0.15940938889980316,-0.19274550676345825,0.32901495695114136,0.42531171441078186,-0.5952304601669312,-0.5535868406295776,0.33982598781585693,0.6635849475860596,0.6996604204177856,0.06317610293626785,-0.2688256502151489,-0.5606322288513184,0.4831933081150055,0.6273238658905029,0.5152781009674072,0.40375909209251404,-0.13773532211780548

fc.0.bias
-0.45162200927734375,-0.4053218364715576,0.3687414824962616,-0.0467512272298336,0.3403511345386505,-0.28752008080482483,0.7047536969184875,-0.3963775634765625,0.10454655438661575,-0.1519361287355423,-0.24765175580978394,0.3090002238750458,0.29443520307540894,0.3513187766075134,-0.17084912955760956,0.038991477340459824,0.15911434590816498,-0.2838394045829773,0.7055224776268005,-0.40146756172180176,-0.41299742460250854,0.5743756294250488,0.30579105019569397,0.14869645237922668,-0.18174150586128235,-0.43365439772605896,-0.4592350721359253,-0.41158008575439453,0.3185219466686249,0.2778652310371399,0.6457158923149109,-0.11700814217329025,-0.33232977986335754,0.12538063526153564,0.36994192004203796,-0.21341007947921753,0.3648737370967865,0.2016470581293106,-0.572238028049469,-0.45622724294662476,0.5401708483695984,-0.14170598983764648,-0.4720273017883301,-0.32787448167800903,0.0009788627503439784,0.787231981754303,-0.07125186175107956,-0.053684771060943604,-0.3544391989707947,0.33837464451789856,-0.2599050998687744,0.5668969750404358,0.011686587706208229,-0.18660034239292145,0.06214727461338043,-0.3505013883113861,0.642215371131897,0.5131608247756958,-0.28650861978530884,0.369255006313324,0.4604472815990448,0.14199930429458618,0.11252839863300323,-0.2227262258529663,0.35882052779197693,0.5315300822257996,0.38512104749679565,-0.1015428975224495,0.5010267496109009,0.46112245321273804,-0.18083667755126953,0.5724459290504456,-0.46298283338546753,-0.3223385810852051,-0.015236563049256802,-0.31051385402679443,0.199446439743042,-0.3421880602836609,-0.12311536073684692,0.6796135902404785,-0.09679713845252991,0.4644014835357666,0.03522444888949394,-0.430250883102417,-0.25841382145881653,0.049887336790561676,0.4380077123641968,-0.054510992020368576,0.40438395738601685,-0.10014832019805908,-0.32282423973083496,0.17168520390987396,-0.19393643736839294,0.31100717186927795,-0.34507906436920166,0.17369593679904938,0.6304998993873596,0.20360475778579712,-0.44230929017066956,0.277911901473999,-0.22801753878593445,0.02232624776661396,-0.1831340789794922,-0.21796825528144836,0.4151259958744049,-0.4367295503616333,0.28026890754699707,0.09786522388458252,-0.4976502060890198,-0.1326669454574585,0.3502037525177002,0.4593484103679657,-0.06506901979446411,0.29808467626571655,-0.09769010543823242,0.3449656367301941,0.0846705511212349,0.3231116235256195,0.5275551080703735,0.45889079570770264,0.08861597627401352,-0.21959930658340454,-0.427121102809906,-0.34324559569358826,0.47420942783355713,-0.3287312984466553,0.5719444751739502,-0.31779375672340393

fc.2.weight
0.055608224123716354,-0.05407465994358063,-0.05251706764101982,-0.022297358140349388,0.07939933985471725,0.05871032550930977,0.06043671444058418,0.03544024005532265,0.06034563481807709,-0.040928538888692856,0.023357782512903214,0.012851891107857227,-0.057683177292346954,-0.07115263491868973,-0.0060006785206496716,0.01696719415485859,0.028454085811972618,-0.07566481083631516,-0.07861334085464478,0.07317374646663666,0.023537253960967064,-0.08213937282562256,0.038489796221256256,-0.02621074579656124,-0.0609387569129467,0.018958864733576775,-0.021835049614310265,0.020499741658568382,0.07502610981464386,-0.06754885613918304,-0.0738089382648468,0.01647949032485485,-0.04956284910440445,-0.030508512631058693,0.040535468608140945,0.018415242433547974,0.010057966224849224,-0.025195196270942688,-0.0760844498872757,-0.007056615315377712,-0.040516532957553864,-0.047402191907167435,0.07959459722042084,-0.05492490902543068,-0.0526747927069664,-0.03804702311754227,0.05775197222828865,-0.012765237130224705,0.08236663788557053,-0.07389654219150543,-0.08491941541433334,0.07552708685398102,-0.010582568123936653,0.025190675631165504,-0.07285916060209274,-0.0877232477068901,0.04329533874988556,-0.00838104821741581,0.03141710162162781,-0.020108746364712715,0.023501861840486526,0.041124988347291946,0.0628632977604866,-0.07874192297458649,0.07055114954710007,-0.016570961102843285,0.047644566744565964,-0.022589266300201416,-0.07099318504333496,-0.014260132797062397,-0.027678878977894783,0.08091792464256287,-0.016470525413751602,-0.002986167324706912,-0.0018275189213454723,-0.025745833292603493,-0.07366884499788284,-0.05335838347673416,0.010392390191555023,-0.08596965670585632,-0.021242907270789146,0.07897400110960007,0.055412475019693375,0.0483146496117115,0.04872174561023712,-0.011148357763886452,0.022730322554707527,-0.06445039063692093,0.0850047841668129,-0.06621844321489334,0.004397433716803789,-0.0171422827988863,-0.08253727108240128,0.053926415741443634,-0.0055430373176932335,-0.03935299813747406,-0.08760426938533783,-0.024658434092998505,-0.06518293172121048,-0.08235111832618713,0.02146076411008835,-0.03198946639895439,-0.002184355165809393,-0.026960348710417747,-0.07603655010461807,-0.015610718168318272,0.018090881407260895,0.0020501490216702223,-0.02094113640487194,0.032323502004146576,-0.01270369254052639,0.08313822746276855,0.05227692797780037,-0.02838159166276455,-0.0495089553296566,0.003280320670455694,-0.03547283262014389,-0.027274226769804955,-0.06056759133934975,0.06550328433513641,-0.059920743107795715,0.005852964241057634,0.07356417924165726,-0.019448725506663322,-0.027686748653650284,0.007171696983277798,-0.08436846733093262,-0.0672420933842659,-0.05795669928193092,-0.14925096929073334,-0.03561295196413994,-0.27670714259147644,-0.3866909146308899,-0.11014527827501297,0.292289137840271,-0.04122729226946831,-0.039423562586307526,-0.2040279060602188,0.3764563500881195,0.19738377630710602,0.10365039110183716,0.6248361468315125,0.2467842698097229,0.08923796564340591,0.1584957242012024,-0.018581882119178772,0.018837014213204384,0.02571103163063526,-0.05897006765007973,-0.1697273701429367,-0.03425775468349457,0.5377311706542969,-0.3939611315727234,-0.06180298700928688,0.0590456984937191,0.009655126370489597,-0.278494268655777,0.12895238399505615,-0.421454519033432,0.20012883841991425,-0.24362564086914062,-0.4157836437225342,0.034599658101797104,-0.05710342526435852,0.18835408985614777,0.07915906608104706,0.413783460855484,0.0054217916913330555,0.059864602982997894,-0.04408251494169235,0.2566264867782593,-0.050255343317985535,0.045812446624040604,-0.3028084933757782,0.03121901862323284,-0.03326624259352684,-0.14083737134933472,-0.21119417250156403,-0.013286614790558815,-0.39265331625938416,-0.17651215195655823,0.11299046874046326,0.22979970276355743,0.5571691393852234,0.5547531247138977,-0.3253973126411438,-0.013026075437664986,0.04105886444449425,-0.28485286235809326,0.2187390923500061,-0.15577438473701477,-0.014242105185985565,-0.11208711564540863,0.5863704085350037,0.19694377481937408,-0.10269643366336823,0.25030288100242615,-0.28274667263031006,-0.2892068028450012,-0.4298517107963562,0.0829806923866272,-0.04400210827589035,0.08992194384336472,-0.07069084048271179,-0.31572189927101135,0.008378087542951107,-0.03079609014093876,-0.5390005707740784,-0.18262946605682373,0.20748674869537354,0.07554037123918533,-0.08468014001846313,0.0849384292960167,0.3004782497882843,0.42391499876976013,-0.11956189572811127,0.49792400002479553,0.04131671413779259,0.04074208438396454,0.648756206035614,-0.1545577496290207,0.049311563372612,-0.06474781781435013,0.09078115969896317,-0.045226432383060455,-0.28190580010414124,0.059202998876571655,0.19087624549865723,0.12450620532035828,0.10442902147769928,-0.19135527312755585,0.18942828476428986,-0.006025825627148151,-0.06961677968502045,-0.058554757386446,0.09926612675189972,-0.05222375690937042,-0.044428370893001556,0.1929960548877716,0.4925898313522339,-0.41957566142082214,-0.3375607430934906,0.07496356219053268,0.08694137632846832,0.13396957516670227,0.04519832879304886,-0.15179596841335297,0.24255040287971497,0.10466571152210236,0.06484055519104004,0.060803402215242386,0.17297151684761047,-0.03176566958427429,-0.2247278094291687,0.14987461268901825,-0.1004500463604927,0.08688267320394516,-0.1451656073331833,-0.0316125825047493,-0.5136716365814209,-0.24656248092651367,0.21830587089061737,-0.3470016121864319,0.28272101283073425,0.08060261607170105,-0.09186840802431107,0.15087048709392548,-0.4292355179786682,0.1351323127746582,-0.09529781341552734,0.2074204534292221,0.06685801595449448,-0.4657175540924072,0.03695877268910408,-0.4464409053325653,0.1546086072921753,-0.05808176100254059,-0.2510544955730438,0.09453380852937698,-0.23158222436904907,-0.7637077569961548,-0.7806950211524963,0.12120706588029861,0.07693713158369064,0.05789455026388168,0.21597053110599518,0.04681176319718361,0.128074049949646,-0.12858840823173523,-0.08715443313121796,0.22144506871700287,0.012341766618192196,0.1703254133462906,0.11308535933494568,0.11761601269245148,-0.08598863333463669,-0.017608774825930595,-0.025031382218003273,0.07215916365385056,-0.009542499668896198,-0.01646040380001068,-0.08478158712387085,0.05560194328427315,-0.011370903812348843,0.0776711031794548,-0.6115490794181824,0.012174696661531925,-0.0402882881462574,-0.0038828698452562094,0.10269415378570557,0.30531373620033264,0.27719366550445557,-0.21813440322875977,0.03880270570516586,0.18803147971630096,0.09253830462694168,-0.056463003158569336,-0.2063939869403839,0.027057388797402382,-0.041856613010168076,-0.20596298575401306,-0.30113908648490906,-0.04689718782901764,-0.019524306058883667,-0.11287745088338852,0.258100688457489,0.035607852041721344,-0.07470841705799103,-0.021883053705096245,-0.07808923721313477,0.03349168971180916,-0.004968955181539059,-0.12994392216205597,-0.03215864673256874,0.08563848584890366,0.1450280398130417,-0.11982130259275436,0.023865289986133575,0.12573479115962982,-0.049835748970508575,-0.07796452194452286,-0.23492099344730377,0.18401683866977692,0.038188546895980835,-0.020187465474009514,0.0504610501229763,-0.04792257770895958,-0.09404821693897247,0.23941658437252045,-0.03876180574297905,0.07449682801961899,-0.02623203955590725,-0.4466954171657562,-0.039435695856809616,-0.6937064528465271,-0.006231171544641256,0.04185527190566063,0.11498083919286728,-0.887427568435669,0.4154527485370636,0.12554974853992462,0.0777893215417862,-0.0842767208814621,0.08140775561332703,-0.0787757858633995,0.027989840134978294,0.01691889390349388,-0.38991764187812805,0.011399944312870502,-0.43635573983192444,0.011075991205871105,0.08463548868894577,0.0399765744805336,0.1494975984096527,-0.46742039918899536,-0.023030085489153862,0.22984535992145538,0.004000568296760321,0.0535256527364254,0.133228600025177,0.12963418662548065,-0.21521146595478058,-0.36036232113838196,0.2185225486755371,-0.03013826347887516,-0.03670913353562355,-0.13645648956298828,-0.2391408085823059,-0.19673384726047516,0.1906907558441162,0.0727214589715004,0.05952755734324455,-0.07611019164323807,-0.04590066894888878,0.33284640312194824,-0.23193253576755524,-0.018160955980420113,0.4919697344303131,0.7182602882385254,0.06612040102481842,-0.1316690444946289,-0.05405358597636223,-0.5895199179649353,0.2334582805633545,-0.08415999263525009,-0.32784631848335266,0.07103192806243896,0.40342679619789124,-0.4049226641654968,0.0535605289041996,0.2631998062133789,-0.06830707937479019,-0.24487638473510742,0.031804248690605164,-0.04524140805006027,0.21672426164150238,-0.14250506460666656,0.4378967881202698,0.08244398236274719,-0.06748010963201523,0.17986443638801575,0.06735427677631378,0.8462872505187988,-0.043059639632701874,0.1244661957025528,-0.010864319279789925,0.44610515236854553,0.03994534909725189,0.13666468858718872,-0.40549421310424805,0.17426636815071106,-0.08823563903570175,-0.06501024961471558,-0.621649980545044,0.035761021077632904,-0.1049656793475151,-0.1010812520980835,0.05131925642490387,0.5710583925247192,1.018728256225586,0.39600545167922974,-0.534268319606781,0.20343945920467377,0.14380764961242676,-0.34553152322769165,0.22130157053470612,-0.11677253991365433,-0.012358403764665127,-0.5304605960845947,0.5810540914535522,0.1890798956155777,-0.25728845596313477,0.13443045318126678,0.37844544649124146,-0.1267930567264557,-0.31388282775878906,0.06896644830703735,-0.07333426177501678,0.012793581932783127,-0.07257016003131866,0.08909498155117035,-0.013142039999365807,0.006980455946177244,-0.5010406374931335,-0.17055274546146393,0.09903162717819214,0.018164101988077164,0.07506237924098969,0.4284593164920807,0.06029389426112175,0.4539332389831543,0.01310870423913002,0.271847665309906,-0.010096435435116291,-0.030370617285370827,0.6104434728622437,-0.04779963567852974,-0.29602205753326416,0.052346404641866684,-0.04958067461848259,-0.46433594822883606,-0.2805289030075073,0.015728069469332695,0.013183432631194592,0.06788595020771027,0.06500659883022308,-0.743735671043396,0.059131767600774765,-0.10103711485862732,-0.03332006558775902,-0.12343580275774002,0.11994494497776031,-0.013447815552353859,-0.004808386322110891,0.14060421288013458,0.09227705001831055,-0.46810492873191833,-0.3690532445907593,-0.014395677484571934,0.07203683257102966,0.05487079173326492,0.012610910460352898,-0.9284262657165527,0.12249811738729477,0.1583186239004135,0.06863303482532501,0.06221568211913109,0.4753948748111725,-0.07156356424093246,-0.24714131653308868,0.0456601046025753,0.18275994062423706,-0.005060403607785702,-0.08551231771707535,-0.09248817712068558,-0.06298806518316269,-0.056803494691848755,0.05568240210413933,-0.08116906136274338,0.011728418990969658,0.07034321874380112,-0.07483167201280594,-0.061836909502744675,-0.07790102064609528,0.0652603954076767,-0.08352941274642944,-0.008988628163933754,-0.011016982607543468,0.05393601581454277,-0.015788493677973747,-0.056937482208013535,0.03829491510987282,0.000268053961917758,-0.035166457295417786,0.049995485693216324,-0.07731904834508896,0.022193096578121185,-0.0626872330904007,-0.004839659668505192,-0.04115162417292595,-0.04861721396446228,0.0271436870098114,-0.07056623697280884,0.06469466537237167,0.011961257085204124,0.08669248223304749,-0.08545945584774017,0.0723114088177681,0.0314137265086174,-0.0717574954032898,0.0007147039286792278,0.018446000292897224,-0.027668146416544914,-0.07029835879802704,-0.03373439610004425,0.04741334915161133,-0.09941824525594711,-0.05951693654060364,-0.061413004994392395,-0.0696118026971817,-0.030264999717473984,0.08440829068422318,0.07130551338195801,-0.020607031881809235,0.03856992349028587,0.03782614693045616,0.07171956449747086,0.015054474584758282,-0.030623212456703186,-0.03751169517636299,0.06020652502775192,-0.09052231162786484,0.009986916556954384,0.06288911402225494,-0.07964484393596649,0.03861398249864578,0.010415734723210335,-0.046743761748075485,-0.017403176054358482,0.023640425875782967,-0.020075811073184013,0.022307781502604485,0.057487089186906815,0.024400528520345688,-0.06503883749246597,-0.043294843286275864,-0.03142860531806946,0.04607176408171654,-0.10348650068044662,-0.03652011603116989,0.04694095626473427,0.06859453022480011,0.018308470025658607,0.056740470230579376,-0.07067383825778961,0.017148613929748535,-0.05952504649758339,-0.0035362604539841413,0.019477689638733864,-0.04639612138271332,-0.008558719418942928,0.07864437252283096,-0.08356934040784836,-0.08284269273281097,0.04838643968105316,0.05753447487950325,-0.03927643597126007,0.024446740746498108,0.02757803164422512,0.009854269213974476,0.05859449878334999,-0.07520508021116257,-0.039511289447546005,-0.015478735789656639,0.06748853623867035,0.07361319661140442,0.009550846181809902,-0.03496843948960304,-0.006572952028363943,0.02727464959025383,-0.01623019203543663,-0.018607601523399353,-0.04085376486182213,-0.0028615910559892654,0.061991870403289795,-0.03893741965293884,-0.007308843079954386,0.003912483341991901,0.0022434534039348364,-0.014061611145734787,0.021397849544882774,-0.09046880155801773,0.039945777505636215,-0.025508904829621315,0.07796759903430939,-0.07258506119251251,-0.013501130975782871,-0.005863383412361145,-0.06998087465763092,0.002533752005547285,0.08679985255002975,0.0018097962019965053,0.07531289756298065,-0.07097654789686203,-0.0010268025798723102,-0.055257972329854965,-0.018891513347625732,0.028390906751155853,-0.07423099875450134,-0.05601591244339943,-0.025647399947047234,-0.0844855085015297,-0.03671113774180412,0.0594005361199379,0.03163362294435501,-0.08463882654905319,-0.04011303186416626,-0.05339346081018448,-0.019252827391028404,-0.04474435746669769,0.017571790143847466,-0.05838266760110855,-0.024938037618994713,0.03440617769956589,-0.07161302864551544,-0.02424696646630764,0.0022232988849282265,-0.015149694867432117,-0.07822704315185547,0.06398970633745193,-0.03219641000032425,-0.015468883328139782,0.005713216029107571,0.04544728249311447,0.04370454326272011,0.07335425913333893,0.023846685886383057,0.0370480902493,-0.016154950484633446,-0.05034875124692917,-0.0829702839255333,0.0764821469783783,0.05055513232946396,-0.023895040154457092,-0.043468572199344635,0.034654825925827026,0.017766572535037994,-0.05796772241592407,-0.0656522735953331,-0.019408054649829865,-0.06687282025814056,-0.07906918972730637,-0.0864546149969101,-0.013343523256480694,0.06942232698202133,-0.04593144357204437,0.043116383254528046,0.08443614095449448,0.07931234687566757,0.04235361889004707,0.01614745892584324,0.015557834878563881,0.050684332847595215,0.007774165365844965,-0.039702508598566055,-0.03302357345819473,-0.06159349903464317,-0.01576341688632965,-0.0613500252366066,-0.05804983153939247,-0.04576399549841881,0.03350795432925224,-0.02524590864777565,-0.012589484453201294,-0.025838535279035568,-0.021079493686556816,-0.0821409523487091,0.027596091851592064,0.08653852343559265,0.031110452488064766,0.03450560197234154,-0.05380728840827942,-0.08264220505952835,-0.0681437999010086,0.04601425305008888,-0.02470080368220806,0.038712721318006516,-0.08406481891870499,-0.008550646714866161,-6.279880471993238e-05,0.010602829977869987,0.0266414862126112,0.03221229836344719,0.00858127698302269,0.031110284850001335,-0.01897880993783474,-0.005732118617743254,-0.024733994156122208,0.04292837530374527,-0.009436795487999916,0.07196428626775742,0.06921993941068649,0.035262931138277054,-0.0695575550198555,-0.06382784247398376,-0.022428834810853004,0.06061358377337456,-0.06637299060821533,-0.043200865387916565,-0.05327606946229935,0.07108825445175171,0.08228519558906555,-0.004965530708432198,-0.03574728965759277,0.05748160928487778,-0.08297847211360931,-0.04981435090303421,-0.027174843475222588,-0.07211876660585403,0.048569224774837494,-0.0020831923466175795,0.056082598865032196,0.038183167576789856,0.0030147850047796965,0.04956350103020668,0.002255562227219343,0.07382369041442871,-0.03437546268105507,0.07009680569171906,-0.04259776324033737,0.06823059916496277,-0.09371086955070496,0.3405374586582184,0.041459254920482635,0.21753419935703278,0.2397342473268509,0.25281819701194763,-0.17835889756679535,-0.18084189295768738,0.15714265406131744,0.3637748956680298,0.13124756515026093,-0.6460192799568176,0.15480083227157593,0.0903821662068367,0.017565762624144554,0.2595249116420746,0.31005769968032837,0.08304010331630707,0.18520860373973846,0.20514769852161407,-0.10723305493593216,-0.6899461150169373,-0.9089622497558594,0.02561069093644619,-0.0009293379844166338,0.2700383961200714,0.34501171112060547,0.6537272334098816,0.002789602614939213,-0.09317154437303543,-0.4744362533092499,0.23788197338581085,-0.08557888865470886,0.11680871248245239,0.20789150893688202,-1.1833468675613403,-0.038287244737148285,0.13271915912628174,0.054743632674217224,-0.35271134972572327,0.05145474523305893,0.040691472589969635,0.29695674777030945,0.09930281341075897,0.07530700415372849,0.07287021726369858,0.25367259979248047,0.07250554114580154,0.4231138229370117,0.10772944241762161,0.13359861075878143,-0.41682761907577515,-0.8456317186355591,0.2384302169084549,0.8157316446304321,0.19709813594818115,0.16440004110336304,0.1932545155286789,-0.4908451735973358,0.022391879931092262,-0.0007064022356644273,0.3716903626918793,-1.0922771692276,-0.020474452525377274,-0.009701160714030266,0.07914134114980698,0.1534048169851303,0.2844744026660919,0.433652400970459,-0.03602512180805206,-0.06472237408161163,0.0763261616230011,0.011829018592834473,-0.26490774750709534,-0.006156927440315485,-0.04264441132545471,1.6834689378738403,-0.016535120084881783,0.019715305417776108,0.08491396903991699,0.06071754917502403,-0.5715112090110779,-0.14338640868663788,0.17977026104927063,0.15339387953281403,-0.03777372092008591,-0.08053062111139297,-0.003763481741771102,-0.6090662479400635,0.1688057780265808,0.2808208167552948,-0.06766878813505173,0.11357898265123367,0.40166306495666504,0.17500688135623932,-0.7081331014633179,0.1566641628742218,-0.18337033689022064,0.16487644612789154,-0.6906459927558899,-0.29770976305007935,0.39422452449798584,-0.0014519589021801949,0.15270832180976868,0.0978044643998146,-0.005769155453890562,0.014758273959159851,0.12651978433132172,0.17016196250915527,0.49141213297843933,0.20452949404716492,0.040481697767972946,0.06998226046562195,0.1780170500278473,0.1464363932609558,0.4886046051979065,0.23066923022270203,0.134039506316185,0.020473357290029526,0.011639968492090702,-0.30892708897590637,0.29023274779319763,-0.04064341261982918,0.12475679069757462,0.058083824813365936,-0.038264162838459015,-0.09249664843082428,-0.07940486073493958,-0.25714194774627686,-0.32708150148391724,0.19305849075317383,0.2575147747993469,-0.014375993981957436,-0.02578166127204895,-0.1726311892271042,0.3056415319442749,-0.03733847290277481,0.02847316302359104,0.5470912456512451,0.3399726152420044,0.12549848854541779,0.12046272307634354,0.008977689780294895,-0.2488175928592682,0.13847629725933075,0.04901257902383804,-0.35629400610923767,-0.014383085072040558,0.5108774900436401,-0.5904024839401245,0.034820813685655594,0.20003822445869446,-0.07159890979528427,-0.26322707533836365,0.0464981272816658,-0.2647843658924103,0.11649216711521149,-0.07145463675260544,0.030140047892928123,-0.006755591370165348,0.054981667548418045,0.08478076010942459,-0.05085612088441849,0.6122948527336121,0.07900691777467728,0.11553197354078293,0.06490542739629745,0.329697847366333,-0.06222587823867798,0.1263151317834854,-0.43926307559013367,0.0962379202246666,-0.0029956188518553972,-0.0009160921326838434,-0.4118253290653229,0.08255169540643692,-0.21579189598560333,-0.13345304131507874,0.13608194887638092,0.4415827691555023,0.5794569253921509,0.3822425603866577,-0.337703675031662,0.17796961963176727,0.08119424432516098,-0.3604141175746918,0.019870039075613022,-0.05686761066317558,0.029029853641986847,-0.4002269208431244,0.4478380084037781,0.23985090851783752,-0.2615930438041687,0.06729162484407425,0.013816826976835728,-0.24617035686969757,-0.48218193650245667,-0.051133692264556885,0.0263756662607193,0.015406017191708088,-0.05749666690826416,-0.13278719782829285,0.04525682330131531,0.023028552532196045,-0.36621254682540894,-0.15710680186748505,0.23268163204193115,0.14810419082641602,-0.03311873972415924,0.22284789383411407,0.16741085052490234,0.3134603202342987,-0.003585467115044594,0.46772706508636475,0.03280427306890488,0.06851213425397873,0.5262774229049683,-0.11029016226530075,-0.17602023482322693,0.07465115189552307,0.01171264611184597,-0.3438197076320648,-0.28168120980262756,0.023314401507377625,0.1432337611913681,0.05169694498181343,-0.018769903108477592,-0.573931872844696,-0.2258738875389099,-0.011289347894489765,-0.012345781549811363,-0.08737818151712418,0.17585812509059906,0.05040246620774269,-0.04377562180161476,0.03316209837794304,0.29208165407180786,-0.4995982050895691,-0.3307143747806549,0.05633511021733284,0.11869267374277115,0.03718150407075882,0.14344052970409393,-0.6825081706047058,0.08715775609016418,0.17924241721630096,-0.040494829416275024,0.020798373967409134,0.35507768392562866,-0.03493276610970497,-0.17498043179512024,0.21464185416698456,0.1351303905248642,-0.040933165699243546,-0.08176559209823608,-0.16484923660755157,-0.34473130106925964,-0.23804640769958496,0.26270735263824463,0.08186100423336029,0.15331631898880005,-0.05730146914720535,-0.04334337264299393,0.45323359966278076,-0.24676181375980377,-0.1275399923324585,0.4474065601825714,0.56736820936203,0.028593000024557114,-0.0912177562713623,0.03439541161060333,-0.3743484616279602,0.16858895123004913,-0.014707901515066624,-0.4233000874519348,0.12269233912229538,0.4319811165332794,-0.5290995836257935,0.05536912381649017,0.2486993670463562,-0.038895975798368454,-0.2114488184452057,0.06798317283391953,-0.31721752882003784,0.24650664627552032,-0.2836436629295349,0.1374039202928543,0.026677405461668968,-0.08508946746587753,0.058727558702230453,-0.04346691071987152,0.5977239012718201,0.04839704558253288,0.14267665147781372,0.001420633285306394,0.4015454649925232,0.0444679893553257,0.11350563913583755,-0.3804565966129303,0.13083578646183014,0.0053513324819505215,-0.18785080313682556,-0.5508004426956177,-0.08130316436290741,-0.20612448453903198,-0.1280011087656021,0.22145387530326843,0.43929049372673035,0.818691074848175,0.3125058710575104,-0.2340630292892456,0.2157832533121109,0.00417937058955431,-0.3061652183532715,0.036511894315481186,-0.13703644275665283,0.014124262146651745,-0.501523494720459,-0.12164365500211716,0.1212296262383461,-0.20991387963294983,0.1824072301387787,0.04681483656167984,-0.23802530765533447,-0.26616495847702026,0.03466367349028587,0.04985925555229187,0.07384876906871796,-0.07415895164012909,-0.18285802006721497,0.06471608579158783,0.025662340223789215,-0.35315343737602234,-0.17068734765052795,0.22006142139434814,0.03844571113586426,0.04153727740049362,0.20800916850566864,0.006605352275073528,0.46053487062454224,-0.03319555148482323,0.36161983013153076,0.034991554915905,-0.009102233685553074,0.5022925138473511,-0.059606652706861496,-0.22916238009929657,-0.049411214888095856,0.04975419491529465,-0.3352060616016388,-0.22532416880130768,-0.009493106976151466,-0.022889818996191025,0.12008793652057648,0.04949527606368065,-0.502680778503418,-0.14556720852851868,0.05081985518336296,0.08090782910585403,-0.21411506831645966,0.1413726508617401,-0.012217865325510502,-0.08422879129648209,0.17713555693626404,0.09737114608287811,-0.44099074602127075,-0.2625683844089508,0.010840127244591713,0.060147859156131744,0.097525455057621,0.18356487154960632,-0.6997275352478027,0.1616184264421463,0.1973038613796234,-0.0024421673733741045,-0.0785452127456665,0.4357320964336395,-0.1453036665916443,-0.3009353280067444,0.08137515187263489,0.06756560504436493,0.058123085647821426,0.36040979623794556,0.08349116146564484,-0.12310703843832016,-0.5205464959144592,0.23379403352737427,-0.8999347686767578,0.28782919049263,0.45448970794677734,0.22279708087444305,-0.14343900978565216,-0.08948488533496857,0.3062153458595276,-0.48110052943229675,-0.5077773332595825,0.20978029072284698,-0.08341267704963684,-0.03594772145152092,-0.2528609335422516,0.3310852646827698,0.06348741054534912,0.06625259667634964,0.1512555480003357,-0.3777543306350708,0.4257301092147827,0.2842763364315033,0.18088437616825104,0.06355821341276169,0.1261765956878662,0.13242557644844055,-1.8348921537399292,0.013412016443908215,0.31160449981689453,-1.102940559387207,0.03301085904240608,-0.012754152528941631,0.07837466150522232,0.05299507454037666,-0.3302893340587616,0.045199692249298096,-0.28465962409973145,-0.011552798561751842,-0.4409143030643463,0.024445708841085434,0.22894589602947235,-0.8697625994682312,0.13761915266513824,0.02327825129032135,0.34750133752822876,-0.0877557024359703,0.054887112230062485,-0.41077113151550293,0.3200927674770355,0.14615988731384277,-0.42170703411102295,-0.1463986188173294,-0.41382139921188354,-0.40528661012649536,0.20251376926898956,0.09949011355638504,0.19606678187847137,0.2886357307434082,0.262628436088562,-0.05323237553238869,0.4155193269252777,0.558742880821228,-0.23919376730918884,0.45638686418533325,-0.20531046390533447,-1.1199694871902466,0.49524515867233276,-0.9511753916740417,0.08639618009328842,-0.024618659168481827,0.32207468152046204,-0.047202762216329575,-0.667732834815979,-0.0416530966758728,-0.07052551954984665,-0.5431164503097534,0.31022346019744873,0.010123427025973797,0.3518221080303192,-0.01547930482774973,-0.5321969389915466,0.276608407497406,-0.6957318782806396,0.32220301032066345,-0.4147201180458069,0.06253491342067719,0.009856240823864937,-0.2456361949443817,0.36576488614082336,0.412873774766922,0.011118654161691666,0.08042165637016296,-0.241724893450737,0.2904870808124542,-0.09237203001976013,0.07997182011604309,-0.16503864526748657,0.30137690901756287,0.2505028247833252,-0.21368691325187683,0.23484118282794952,-0.014846954494714737,0.2421494871377945,0.010724550113081932,-0.07653073966503143,0.044183749705553055,0.021499907597899437,-0.499908447265625,0.6670447587966919,-0.14794345200061798,0.0055585685186088085,0.03102113865315914,0.12348863482475281,0.016345512121915817,0.01722395420074463,0.023364145308732986,0.11116217821836472,-0.049335043877363205,-0.08067294210195541,-0.12958692014217377,0.27787113189697266,0.5282871127128601,-0.7119182348251343,0.20901897549629211,0.04652484133839607,0.08769560605287552,-0.037213992327451706,-0.005796049255877733,0.037652771919965744,0.06005319952964783,-0.028218219056725502,-0.01762320101261139,0.03338465839624405,-0.00577561603859067,-0.09152208268642426,-0.08452679961919785,-0.016563216224312782,0.009992722421884537,0.022578299045562744,-0.03883270546793938,0.033036474138498306,0.06934193521738052,-0.03531496599316597,0.048301417380571365,-0.0503978505730629,-0.046993281692266464,-0.0951046422123909,-0.09739932417869568,0.030637776479125023,0.015694759786128998,0.04439205676317215,-0.0337798036634922,0.011188354343175888,0.05561603978276253,0.030060110613703728,-0.10110403597354889,0.034991081804037094,-0.027159886434674263,-0.09562346339225769,-0.022615376859903336,0.013279511593282223,0.01327253133058548,-0.04569483920931816,0.04406121000647545,0.050853922963142395,0.08167161047458649,0.0649966448545456,0.009972902946174145,0.010116564109921455,-0.08345766365528107,-0.01826113648712635,-0.08546475321054459,0.06234128400683403,-0.043297093361616135,-0.038273490965366364,-0.020031344145536423,-0.03969200700521469,-0.04698896035552025,-0.017799098044633865,0.05014018714427948,-0.08437597006559372,-0.10846215486526489,-0.003843874204903841,-0.030913829803466797,0.006316422019153833,-0.014786114916205406,-0.09383893013000488,-0.06058268994092941,0.003916572779417038,-0.013945612125098705,-0.09805486351251602,0.005462718661874533,-0.022634776309132576,-0.07503608614206314,0.055955011397600174,-0.10668367892503738,-0.06292247027158737,0.04238814860582352,0.04088214412331581,-0.03640902787446976,-0.052380289882421494,0.07175828516483307,0.0195950698107481,-0.02857918106019497,0.05710311606526375,0.0538235567510128,-0.07533573359251022,0.06586410105228424,0.0626138225197792,-0.0657464861869812,0.01196060236543417,-0.020772170275449753,-0.0626557320356369,-0.02776121161878109,0.05795423313975334,-0.012877303175628185,-0.0236570592969656,-0.05423179268836975,-0.054575372487306595,-0.08026942610740662,-0.001041429117321968,0.006524284835904837,0.05532853305339813,-0.0921332836151123,-0.05760623887181282,0.00630714138969779,0.04566853120923042,-0.02823517471551895,-0.04137702286243439,0.031174568459391594,9.391506318934262e-05,0.010985651053488255,-0.014987397938966751,-0.06951957195997238,0.0364639051258564,-0.08772487938404083,0.0563758946955204,0.039136458188295364,0.03388388454914093,-0.04038677364587784,-0.014403595589101315,-0.04962762072682381,0.06844836473464966,0.045245133340358734,0.032792828977108,0.06116056442260742,-0.050300534814596176,-0.04045023396611214,0.008524361997842789,0.047033026814460754,0.046098772436380386,0.009649867191910744,-0.08271021395921707,-0.029522283002734184,-0.022611698135733604,-0.17495454847812653,-0.19037704169750214,0.2515157461166382,0.11753363162279129,0.09183906763792038,-0.09437651187181473,-0.0353286974132061,0.2909158170223236,-0.13854153454303741,-0.08172425627708435,0.44479015469551086,0.6189476847648621,0.07221918553113937,-0.03629523515701294,0.0010096909245476127,-0.34029677510261536,0.09665067493915558,0.021991003304719925,-0.35296469926834106,0.06354222446680069,0.4228384494781494,-0.4663139581680298,0.09311897307634354,0.21120738983154297,-0.05806581676006317,-0.20588918030261993,-0.01271152961999178,-0.13025785982608795,0.13444246351718903,-0.09947136789560318,0.3143064081668854,0.030427129939198494,-0.042273279279470444,0.03180661052465439,-0.03930278122425079,0.8028039336204529,-0.029433177784085274,0.12520821392536163,-0.05375725030899048,0.45235639810562134,-0.07873520255088806,0.1738360971212387,-0.30357372760772705,0.13165691494941711,-0.04253401979804039,-0.1212739646434784,-0.4896288216114044,-0.034495677798986435,-0.19339025020599365,-0.029622424393892288,0.08703314512968063,0.4961414039134979,0.7865324020385742,0.30082038044929504,-0.3573940098285675,0.23108911514282227,0.12639211118221283,-0.29698458313941956,0.11696641892194748,-0.10495080798864365,0.03986028581857681,-0.447205513715744,0.5679581761360168,0.1567012369632721,-0.15849335491657257,0.0003500846796669066,0.16496002674102783,-0.21835772693157196,-0.3254004120826721,-0.04967128112912178,-0.07329358160495758,0.04837046563625336,-0.0693291649222374,0.14104944467544556,0.009640712291002274,-0.02543565444648266,-0.6949621438980103,-0.07073184102773666,0.09120980650186539,-0.014373556710779667,0.07889669388532639,0.3205068111419678,0.11975051462650299,0.38485124707221985,-0.09523092955350876,0.3204789161682129,-0.004200017545372248,0.016028067097067833,0.5510410070419312,-0.030822571367025375,-0.21310292184352875,-0.07642968744039536,0.024664096534252167,-0.49565503001213074,-0.24008877575397491,0.21287435293197632,-0.027042677626013756,-0.0034186001867055893,0.0986592248082161,-0.7592551112174988,0.13714802265167236,-0.05673449859023094,-0.06469042599201202,-0.09805549681186676,0.06256115436553955,-0.009122242219746113,-0.08757133036851883,0.12012439221143723,0.12388631701469421,-0.3985012471675873,-0.2728481888771057,-0.010246499441564083,0.07397196441888809,0.12231658399105072,0.038582079112529755,-0.6047974824905396,0.10951840877532959,0.17684809863567352,0.0312359556555748,0.07440377026796341,0.4294383227825165,-0.050109151750802994,-0.3042587637901306,0.046426765620708466,0.1354575753211975,0.015213715843856335,0.02551325224339962,-0.07146769016981125,0.05881428346037865,0.05374860763549805,0.04565396159887314,-0.023419274017214775,0.05285273864865303,-0.030193181708455086,-0.07113825529813766,-0.054135918617248535,-0.07900336384773254,-0.05535906180739403,0.01836271770298481,-0.06010899320244789,0.04977129399776459,0.02754826843738556,0.03138316422700882,-0.015901846811175346,0.012926817871630192,0.06695037335157394,-0.06816370040178299,-0.033075716346502304,-0.019873682409524918,-0.023413699120283127,-0.054853323847055435,0.006040764041244984,0.0769122987985611,-0.04768572002649307,0.019276542589068413,0.01922714151442051,-0.07416246831417084,0.01057861652225256,-0.030135417357087135,-0.05850191414356232,0.024606646969914436,-0.04839923605322838,-0.03259377181529999,0.021597031503915787,0.027393028140068054,-0.02034149318933487,-0.03132480010390282,0.013842865824699402,-0.011854917742311954,0.02011278085410595,0.04710777848958969,-0.09881573170423508,-0.045213356614112854,-0.04326879605650902,-0.08953971415758133,-0.018534930422902107,-0.03701438382267952,-0.10830602794885635,-0.04149265214800835,-0.05459601432085037,0.052191875874996185,-0.050996169447898865,-0.0999765619635582,-0.005345548037439585,-0.10149575769901276,0.013035060837864876,0.08354417979717255,-0.10447364300489426,0.012034021317958832,-0.06568862497806549,0.024559516459703445,0.021477943286299706,0.04603585600852966,-0.01624574512243271,-0.07620005309581757,-0.09084799885749817,-0.10370992124080658,-0.03638162091374397,0.0612519197165966,0.001342275645583868,0.07615873217582703,-0.0006149557302705944,0.06997328996658325,-0.06497558951377869,0.07891419529914856,0.01194484531879425,-0.06521520763635635,0.07338790595531464,0.05224404111504555,-0.056315310299396515,-0.054441437125205994,-0.04168372601270676,-0.09699417650699615,-0.001884534489363432,0.053739771246910095,0.0076072742231190205,0.03263907879590988,-0.0640442967414856,-0.053502872586250305,-0.0009897133568301797,-0.02780415490269661,-0.03570660203695297,0.025807278230786324,-0.09046865254640579,-0.05770467221736908,-0.0033686079550534487,-0.018774958327412605,0.0220978744328022,-0.022146346047520638,-0.08322020620107651,0.057191912084817886,0.038825150579214096,-0.0162730123847723,0.0677114948630333,0.06194869056344032,0.059372399002313614,0.04250685125589371,-0.002647517481818795,-0.0713200569152832,-0.03906095027923584,-0.0849403589963913,0.025466954335570335,-0.043493032455444336,-0.032596390694379807,0.049545399844646454,-0.08356256037950516,-0.035333357751369476,-0.038576070219278336,-0.007479455787688494,0.030654288828372955,0.021011343225836754,-0.037922751158475876,0.059532370418310165,-0.07080606371164322,-0.022191401571035385,-0.018465714529156685,0.08451813459396362,0.07561562955379486,-0.05411956459283829,0.007112101651728153,-0.061606425791978836,0.031166834756731987,0.03700251877307892,0.03803643584251404,-0.020838623866438866,0.05437551438808441,-0.021079355850815773,-0.031237537041306496,-0.06330614537000656,-0.03615863248705864,0.051952067762613297,-0.011610929854214191,-0.015041250735521317,-0.0019018659368157387,0.02420545183122158,-0.01932292804121971,-0.0421283021569252,-0.023610074073076248,-0.022763144224882126,-0.08294347673654556,-0.03368723765015602,0.07517799735069275,-0.008707612752914429,0.045713115483522415,0.029069703072309494,0.07173047959804535,0.05415106192231178,-0.010839726775884628,0.04989583045244217,0.011321475729346275,0.07847703248262405,-0.05521262437105179,0.07439501583576202,0.008652705699205399,-0.005923064891248941,-0.06235559657216072,-0.028884530067443848,0.0029986007139086723,-0.01950385421514511,0.058815546333789825,-0.05979637801647186,0.03295191377401352,-0.038291845470666885,-0.019701333716511726,-0.08828333765268326,-0.001151915523223579,-0.07985861599445343,-0.035300228744745255,-0.028763115406036377,-0.037091609090566635,0.0713878870010376,-0.0451180525124073,-0.04471844807267189,-0.07731160521507263,0.07931260019540787,-0.06464939564466476,0.04455525428056717,-0.0741889551281929,-0.04323514178395271,-0.046501871198415756,0.04059122875332832,-0.08527746796607971,-0.02944331429898739,-0.056533683091402054,0.055763620883226395,0.05819222703576088,-0.04638609290122986,-0.03938393294811249,0.0481928326189518,-0.012263837270438671,0.06430531293153763,-0.07645747810602188,0.05974888801574707,0.07609058916568756,0.06183004751801491,0.013963555917143822,0.018082577735185623,-0.022597085684537888,-0.017259061336517334,0.04430137202143669,-0.021003155037760735,-0.08345186710357666,0.04099760949611664,-0.08762220293283463,0.02986007183790207,-0.056744396686553955,-0.08324017375707626,0.038357920944690704,-0.0832614004611969,0.07510455697774887,-0.07607497274875641,-0.02605275809764862,0.011320000514388084,0.07652390003204346,-0.03711694851517677,0.0551401823759079,-0.007786967325955629,0.045553725212812424,-0.036510348320007324,-0.064666248857975,-0.05927366018295288,0.04194064438343048,0.07112673670053482,0.06620077788829803,0.03935357555747032,0.062435295432806015,0.053286343812942505,0.059958990663290024,-0.02556876465678215,-0.0772625282406807,0.026062820106744766,0.0028163997922092676,-0.043005600571632385,0.07977377623319626,-0.028126973658800125,0.07783376425504684,-0.04198532924056053,-0.0435391366481781,0.02198692597448826,0.000635226781014353,-0.015591531060636044,-0.014354226179420948,0.20197489857673645,0.11781121790409088,-0.039378367364406586,-0.21743948757648468,0.16822898387908936,-0.6859623193740845,0.22799718379974365,0.37063950300216675,0.13782154023647308,-0.19697877764701843,-0.16256184875965118,0.29413947463035583,-0.38283684849739075,-0.48488521575927734,0.12365838885307312,-0.06801114976406097,0.032517336308956146,-0.23579995334148407,0.17708243429660797,-0.03467204049229622,0.07681219279766083,0.06652810424566269,-0.21823833882808685,0.2867606282234192,-0.019556617364287376,0.07830256968736649,0.012522618286311626,-0.0005915951915085316,0.22734937071800232,-0.9287126064300537,-0.06697694957256317,0.20303887128829956,-0.8270034790039062,-0.0026962587144225836,-0.00012460716243367642,0.0716354250907898,0.09593852609395981,-0.35880395770072937,-0.10205072164535522,-0.16656175255775452,-0.006332110613584518,-0.39844295382499695,0.04088570922613144,0.11341604590415955,-0.4628114700317383,0.1264464408159256,0.06370103359222412,0.3597460389137268,-0.05277780443429947,0.0037983476649969816,-0.26461899280548096,0.1602317988872528,0.11121556907892227,-0.4003891348838806,-0.15706148743629456,-0.3095412254333496,-0.4411514699459076,0.1011345386505127,0.039582543075084686,0.2085416615009308,0.12099658697843552,0.22769293189048767,0.07626747339963913,0.20479930937290192,0.2408781200647354,-0.19211220741271973,0.3397558033466339,-0.23106184601783752,-0.6563524007797241,0.4263131320476532,-0.3535958230495453,-0.029006367549300194,-0.07848256081342697,0.14455443620681763,-0.0036138815339654684,-0.45948800444602966,-0.009245996363461018,0.07172708958387375,0.709701657295227,0.15013903379440308,-0.02372833341360092,0.25094568729400635,-0.03276602551341057,-0.45507752895355225,0.2709655463695526,-0.46539247035980225,0.2706184387207031,-0.3526570498943329,-0.000522494490724057,0.045386772602796555,-0.2285609394311905,0.3864242732524872,0.2176404744386673,-0.0035527157597243786,0.05850859358906746,-0.2933279871940613,0.20778293907642365,-0.15276148915290833,0.09863884747028351,-0.25429022312164307,0.29281893372535706,0.29364481568336487,-0.2551642060279846,0.17916560173034668,-0.013800247572362423,0.180519700050354,0.07913673669099808,-0.00017866048438008875,-0.04741422086954117,0.01075073517858982,-0.36981749534606934,0.639582097530365,-0.15592950582504272,0.06452609598636627,-0.019756188616156578,0.056423842906951904,0.09243591874837875,0.00924832932651043,-0.0005426579155027866,0.048034362494945526,0.018022887408733368,0.043345168232917786,-0.1612945944070816,0.13635535538196564,0.426236093044281,-0.5489302277565002,0.2941889464855194,-0.05301760509610176,-0.09689590334892273,-0.07580182701349258,-0.04025581106543541,0.019994178786873817,0.0035264771431684494,-0.07898452877998352,0.0073307594284415245,0.06028172746300697,-0.08201978355646133,-0.07206189632415771,0.023059312254190445,-0.05029120296239853,0.030108554288744926,-0.07627377659082413,-0.06777679920196533,0.03153789043426514,0.0013238746905699372,-0.019001470878720284,0.03527762368321419,0.050935931503772736,-0.06441615521907806,0.0009157952154055238,0.022268185392022133,-0.03765251860022545,-0.06129450723528862,0.029332321137189865,0.014888500794768333,-0.08605524152517319,-0.09071512520313263,0.044319283217191696,-0.1026126965880394,-0.10016646981239319,0.01529044657945633,0.0627373680472374,-0.07602015137672424,0.027385104447603226,-0.015801293775439262,0.037942204624414444,0.02680150792002678,-0.07638904452323914,0.033887192606925964,0.027527280151844025,0.08823037147521973,0.05702054873108864,7.78486646595411e-05,0.04146524518728256,0.0512964241206646,-0.03376607224345207,-0.10503491014242172,0.011800053529441357,-0.02212194725871086,0.011023457162082195,-0.0229335930198431,-0.05952483415603638,-0.06110488995909691,0.06445365399122238,-0.02772090770304203,0.05585301294922829,0.015541382133960724,-0.09117826074361801,0.06578341871500015,0.049646779894828796,-0.009542204439640045,-0.04148801788687706,0.03856637701392174,-0.09530484676361084,0.05701925978064537,0.021973570808768272,0.057737112045288086,0.07635986059904099,0.07879661023616791,0.038696758449077606,0.03578418120741844,-0.10688459128141403,-0.08371181786060333,-0.017655154690146446,0.06774065643548965,-0.027015982195734978,0.05978231504559517,-0.06687038391828537,0.03198413923382759,0.05922897532582283,0.0833057090640068,0.07429144531488419,-0.05347178876399994,0.0692959874868393,-0.018761372193694115,0.03170667961239815,0.04130858927965164,0.022620128467679024,-0.02023622952401638,-0.08327379077672958,-0.08184731006622314,0.04352683946490288,0.07982265949249268,-0.021480200812220573,0.07908333092927933,0.006870768498629332,-0.03837905451655388,-0.05970347672700882,-0.045587923377752304,-0.022120393812656403,-0.06189940869808197,-0.03209375590085983,-0.07417722046375275,-0.0693792998790741,-0.02352752722799778,0.05258439853787422,-0.03863333910703659,-0.04510273039340973,0.04811376705765724,-0.0032281114254146814,-0.01906285434961319,0.05326155200600624,0.010864201933145523,-0.037700287997722626,0.05760502815246582,-0.042468637228012085,-0.08421453833580017,0.032915323972702026,-0.03331458568572998,0.06745181232690811,-0.06858658045530319,-0.055936187505722046,-0.011700576171278954,-0.009754207916557789,0.019010424613952637,-0.03285616636276245,0.0025041524786502123,-0.08297654241323471,-0.07809536904096603,0.05578109249472618,-0.03469134867191315,-0.05275262892246246,-0.10487200319766998,-0.007910642772912979,0.005942658055573702,-0.04956044629216194,-0.011860108003020287,-0.00021085538901388645,0.022570038214325905,0.044572968035936356,-0.08345794677734375,0.01967782899737358,0.06721271574497223,-0.051389649510383606,-0.022655002772808075,-0.08198069781064987,-0.0771631971001625,-0.06679374724626541,-0.0152437137439847,-0.10232284665107727,0.06133095920085907,0.03742096573114395,-0.030591605231165886,0.028861936181783676,0.04930606856942177,-0.07873594015836716,-0.048985205590724945,-0.04472558572888374,0.011229132302105427,-0.08195309340953827,0.03211746737360954,-0.09006964415311813,-0.10737724602222443,-0.0006343627464957535,-0.0544472262263298,-0.05333404242992401,0.002867376431822777,-0.10537119209766388,0.04922475665807724,-0.09794177860021591,0.05342532694339752,0.0018030055798590183,-0.0247444249689579,-0.0022673162166029215,0.04765458405017853,0.08364350348711014,-0.057309798896312714,-0.023012246936559677,-0.04436898231506348,-0.08344807475805283,0.05993618816137314,-0.017409808933734894,-0.022817138582468033,-0.03498572111129761,-0.018035778775811195,-0.03791176900267601,0.0387553945183754,0.035137031227350235,-0.07225897908210754,-0.0548178069293499,-0.006185671780258417,-0.048719849437475204,0.04991120100021362,-0.06539527326822281,-0.08234827220439911,0.036586396396160126,-0.021438131108880043,-0.06755205243825912,0.08342913538217545,0.02441425994038582,0.0033136168494820595,-0.06571613997220993,0.08221521228551865,0.07069440186023712,-0.02781449630856514,-0.11240940541028976,0.04579797759652138,-0.04380619153380394,0.0759691521525383,0.01642199233174324,-0.02238219976425171,0.044862475246191025,-0.11138145625591278,0.06500508636236191,0.009813451208174229,-0.058418817818164825,0.07923083007335663,0.0041723246686160564,0.002638266421854496,-0.047037746757268906,-0.07238908112049103,-0.08811119943857193,0.01734292320907116,-0.0007728246855549514,0.05121135711669922,-0.020654579624533653,0.05922532081604004,0.005372129380702972,-0.055814892053604126,-0.009405471384525299,0.04411213472485542,0.04146795719861984,-0.07408363372087479,0.03884945809841156,0.004288989584892988,-0.06771192699670792,0.021070284768939018,-0.01594296656548977,-0.0580318421125412,0.011393283493816853,-0.046008847653865814,-0.006514877546578646,-0.062250252813100815,-0.030363906174898148,-0.0052204555831849575,0.05883572995662689,-0.004217097535729408,0.016927659511566162,-0.016115395352244377,-0.0860845074057579,0.04116152226924896,0.0017218984430655837,-0.0780893862247467,0.061463527381420135,-0.21432654559612274,0.10115017741918564,-0.2575046122074127,-0.04804966598749161,0.060827046632766724,0.1320023089647293,0.018328305333852768,0.15174898505210876,-0.3134876787662506,0.18760332465171814,-0.019112572073936462,0.11733800917863846,0.2495868057012558,0.21490681171417236,-0.0019453028216958046,-0.06527311354875565,-0.017860285937786102,0.01960187591612339,-0.06416361778974533,-0.017844785004854202,-0.23175372183322906,0.16237691044807434,0.21715205907821655,-0.45516669750213623,-0.4028724133968353,0.02930588088929653,-0.030649472028017044,-0.021267028525471687,0.10591622442007065,-0.05813715234398842,0.0639391839504242,-0.30076074600219727,-0.13460351526737213,0.08039024472236633,0.08746796101331711,0.1480734497308731,0.18931792676448822,0.09232122451066971,0.046523530036211014,0.15873652696609497,-0.012261834926903248,0.15334734320640564,-0.027746429666876793,0.025699002668261528,-0.006494916044175625,0.10821731388568878,-0.026443205773830414,-0.21467198431491852,-0.11433476209640503,0.0056822169572114944,0.03909801319241524,-0.0707961842417717,0.10100100189447403,0.1084456741809845,0.00818698201328516,0.42734819650650024,0.18672886490821838,-0.0035588685423135757,0.1446561962366104,-0.06360247731208801,0.026822296902537346,-0.09356019645929337,-0.029405012726783752,-0.030289245769381523,0.5683655142784119,0.09200438112020493,-0.016305726021528244,0.03368140012025833,-0.22858746349811554,-0.10076969861984253,-0.41889676451683044,-0.038362905383110046,0.03983180597424507,-0.04547705501317978,0.03492935746908188,-0.12775863707065582,0.011194687336683273,-0.048916127532720566,-0.967737078666687,-0.06516103446483612,0.05097009614109993,0.03575953468680382,-0.003083189483731985,-0.04130113869905472,0.06297613680362701,0.284006804227829,0.017278002575039864,0.20548884570598602,-0.046093542128801346,-0.0008503863937221467,0.5136591196060181,-0.16606907546520233,0.028285741806030273,-0.021491868421435356,-0.05089695379137993,0.17969729006290436,-0.24152952432632446,0.02289058268070221,0.06355104595422745,0.08436493575572968,0.02606714889407158,-0.5675237774848938,0.5310348272323608,0.11712682247161865,0.08421439677476883,0.014196422882378101,0.1493866890668869,0.08495670557022095,-0.038715705275535583,0.10831336677074432,0.24043965339660645,-0.2352493554353714,-0.2084113508462906,-0.0676533505320549,0.11393743008375168,0.0750511884689331,0.10183790326118469,-0.009988387115299702,0.03613560274243355,0.14899398386478424,0.03977244347333908,0.08000374585390091,0.19376176595687866,0.10025861114263535,-0.28048262000083923,-0.0068359375,-0.0401386022567749,-0.01873594895005226,-0.6952012777328491,0.07577724009752274,-0.16785632073879242,0.28383079171180725,-0.37431246042251587,0.5579882264137268,-0.08323540538549423,-0.9128037095069885,-0.005669149104505777,-0.15198631584644318,0.18171478807926178,-0.2324608564376831,1.0575289726257324,-0.12126029282808304,-0.13512371480464935,0.07218652963638306,0.05059841647744179,0.4101509153842926,-0.30815091729164124,-0.029886741191148758,0.3679494261741638,-0.04673691466450691,0.41567325592041016,-0.16917887330055237,-0.4803946018218994,-0.5419606566429138,0.07110191136598587,0.2515106201171875,-0.22840575873851776,0.7734776735305786,-0.09239158034324646,-0.5298079252243042,0.24927519261837006,-0.012424622662365437,-0.05061392858624458,0.008512167260050774,0.031146351248025894,-0.7156280279159546,0.011654150672256947,0.25791943073272705,0.06939508020877838,-0.2555786073207855,0.05120030790567398,-0.11223383247852325,0.5832959413528442,-0.29218071699142456,-0.050958406180143356,-0.8335791826248169,0.21767057478427887,-0.08155816793441772,0.5046899318695068,0.0069951703771948814,-0.2872529923915863,-0.01664348691701889,-0.5426174402236938,0.7628056406974792,0.39281976222991943,-0.4777337610721588,-0.0059895822778344154,0.07394081354141235,-0.5989292860031128,-0.13152097165584564,-0.028086479753255844,0.09803702682256699,-0.9262313842773438,0.2741749882698059,-0.894853949546814,0.32094907760620117,0.5629937052726746,-0.6331034302711487,0.7057821750640869,-0.08619323372840881,-0.06420530378818512,-0.3132825791835785,0.07776736468076706,0.39516162872314453,-0.022041263058781624,-0.017055712640285492,1.3976396322250366,-0.14218533039093018,0.10410535335540771,-0.587394118309021,-0.013245384208858013,0.002068065572530031,-0.24258430302143097,0.6873084902763367,-0.5740396976470947,0.5024667978286743,-0.02948942221701145,0.037559088319540024,-0.22678184509277344,-0.5032267570495605,-0.19314000010490417,0.01747998408973217,-0.01740322634577751,0.3930433392524719,0.08443237096071243,-0.6190094351768494,0.0632886067032814,-0.06603100150823593,-0.6410517692565918,-0.0704197958111763,0.07095329463481903,-0.025924423709511757,-0.018175965175032616,-0.13650338351726532,-0.08936687558889389,-0.006494102068245411,-0.007032443769276142,-0.03336432948708534,0.6145941615104675,-0.9063391089439392,0.36987560987472534,0.05251799523830414,0.1115039512515068,-0.19175061583518982,-0.05446769669651985,0.24060572683811188,0.23624174296855927,-0.3753732740879059,0.019840354099869728,0.04049418494105339,-0.4979131519794464,0.013771227560937405,-0.7764330506324768,0.5514203906059265,-0.46293318271636963,-0.053239475935697556,0.20246554911136627,0.07831248641014099,-0.02012641914188862,-0.24786600470542908,0.10684341192245483,-0.3720133900642395,0.40286290645599365,0.3411707580089569,0.017298100516200066,-0.12732014060020447,0.0038596652448177338,0.19814138114452362,-0.2291489690542221,-0.4725446403026581,0.05950422212481499,-0.008577876724302769,0.019325152039527893,-0.24237635731697083,0.23408935964107513,0.07131807506084442,-0.01938396878540516,0.12155071645975113,-0.3272346258163452,0.33970725536346436,0.0443277433514595,0.1794499009847641,-0.020385798066854477,0.08210655301809311,0.04175988957285881,-0.5687327980995178,-5.9071724535897374e-05,0.29204919934272766,-0.6276651620864868,0.13790421187877655,-0.019618894904851913,-0.019430292770266533,-0.0017204225296154618,-0.540902316570282,-0.01727771945297718,-0.19646675884723663,-0.052061546593904495,-0.24001207947731018,-0.05894070118665695,0.02859816886484623,-0.4307743310928345,0.1507226526737213,-0.05734613910317421,0.17780597507953644,-0.12226702272891998,-0.019549742341041565,-0.15677055716514587,0.05137676000595093,0.11103411763906479,-0.3261567950248718,-0.19716086983680725,-0.3022947311401367,-0.30306893587112427,0.09481262415647507,0.05818626657128334,0.11142493039369583,0.10118301212787628,0.036085158586502075,-0.07890134304761887,0.2280227392911911,-0.32582947611808777,-0.003821474267169833,0.3040124177932739,-0.13312998414039612,-0.44875454902648926,0.27876973152160645,-0.13330842554569244,0.07240809500217438,-0.05915333330631256,0.13610213994979858,-0.04166405647993088,-0.32594048976898193,-0.010494722984731197,-0.06688663363456726,0.7908619046211243,0.06536895781755447,-0.09968644380569458,0.17326121032238007,0.07642310112714767,-0.3976515531539917,0.1767149269580841,-0.2851250171661377,0.17625868320465088,-0.3176584243774414,-0.06353709846735,0.042986590415239334,-0.3435917794704437,0.421567440032959,0.2036999613046646,-0.0730217769742012,0.1349366009235382,-0.167828768491745,0.11031989008188248,-0.329707533121109,0.10863467305898666,-0.21933797001838684,0.18128527700901031,0.3096257150173187,-0.2115253061056137,0.18742631375789642,0.00955235119909048,0.1322534680366516,0.11315876245498657,-0.03982418775558472,-0.06852705776691437,-0.016044214367866516,-0.26740121841430664,0.48551616072654724,-0.09812191128730774,-0.08502764999866486,0.06276701390743256,0.13938592374324799,0.04829859733581543,-0.05576470121741295,0.03570200502872467,0.17276225984096527,0.07325632125139236,-0.00683878967538476,-0.09093508124351501,0.13068677484989166,0.3281244933605194,-0.3265472948551178,0.2606688141822815,-0.03578412905335426,-0.0759262666106224,-0.06690073013305664,0.012051857076585293,0.045775432139635086,-0.02902493067085743,-0.009418775327503681,0.04278917610645294,-0.07883917540311813,-0.08578027784824371,-0.07761240005493164,0.009987556375563145,0.06306888163089752,-0.057723741978406906,-0.0016249400796368718,-0.024130426347255707,0.02223031222820282,-0.01405826024711132,0.04336128756403923,0.009569481946527958,0.0021213877480477095,0.032767340540885925,-0.06726805865764618,-0.004564324393868446,0.048994824290275574,0.011865077540278435,0.044026438146829605,-0.038692936301231384,-0.03600732237100601,-0.07137411087751389,0.01751323975622654,0.04764729365706444,0.0006482878816314042,-0.001544770086184144,-0.07008109986782074,0.0421280711889267,-0.06758559495210648,0.053376395255327225,-0.06901180744171143,0.05803271010518074,-0.10444347560405731,0.022519661113619804,-0.03224729001522064,-0.008555399253964424,-0.04595508798956871,-0.02990834042429924,0.014892881736159325,0.005960628390312195,0.047401923686265945,-0.10492995381355286,0.06515509635210037,-0.05406642332673073,-0.08368463814258575,0.0032200447749346495,-0.08749859780073166,0.015996530652046204,0.02944832853972912,-0.059847455471754074,0.0023442083038389683,-0.06162998452782631,0.008566559292376041,0.002585213864222169,-0.04139425605535507,0.06207345426082611,-0.09461499750614166,-0.0175864789634943,0.04286930710077286,-0.03584187477827072,-0.1162249743938446,-0.06026175245642662,-0.053834468126297,0.001397992018610239,-0.0036501383874565363,-0.07249011099338531,-0.0038695523981004953,0.0320696197450161,-0.07877861708402634,-0.060526780784130096,0.007187133189290762,-0.07669641077518463,-0.017715761438012123,0.0009011856163851917,0.016403749585151672,-0.00792603101581335,-0.11381259560585022,-0.09808734804391861,0.008828742429614067,-0.008317574858665466,-0.10887906700372696,-0.017396174371242523,0.005271748639643192,-0.06714403629302979,-0.08574173599481583,-0.05093108490109444,0.07721855491399765,-0.11067112535238266,-0.09652956575155258,-0.004910595249384642,-0.04346809163689613,0.006301401648670435,-0.06984808295965195,0.02259216457605362,0.017805417999625206,-0.08491098135709763,0.03735945001244545,0.08464808762073517,0.04637740179896355,0.044240858405828476,0.032743073999881744,-0.07805173844099045,-0.016613595187664032,-0.0198648851364851,0.010488756000995636,-0.07151101529598236,-0.0037118729669600725,-0.04144658148288727,0.01069085393100977,-0.07216872274875641,-0.019164148718118668,-0.09782233834266663,-0.0024143720511347055,-0.06128380447626114,-0.021519578993320465,-0.06733613461256027,-0.017376041039824486,0.02578369900584221,-0.02418406493961811,-0.03819127008318901,0.06324996054172516,-0.00641826493665576,-0.02575276978313923,0.02950470522046089,-0.08562126010656357,0.017363714054226875,-0.10782740265130997,-0.0021746193524450064,-0.012050457298755646,0.015912219882011414,-0.06044016033411026,0.0574476420879364,-0.030594291165471077,0.025689436122775078,0.00569584034383297,0.023189807310700417,-0.10788413137197495,-0.009907333180308342,-0.0045983316376805305,0.03222931548953056,-0.014444209635257721,-0.03986920416355133,0.046326927840709686,-0.0033162084873765707,0.04970983415842056,-0.06575118005275726,-0.028614075854420662,-0.07948796451091766,0.020180003717541695,-0.016930263489484787,0.0063654896803200245,0.04031550511717796,0.022059181705117226,-0.09300900995731354,-0.01447609718888998,-0.023541290313005447,-0.09156152606010437,-0.07745783776044846,-0.06545142084360123,0.05983205512166023,-0.09313756972551346,0.0068780179135501385,0.032486267387866974,-0.018739406019449234,-0.07808737456798553,-0.1194768100976944,-0.11254251003265381,0.07114212214946747,0.0355115607380867,0.04710710048675537,-0.002420051023364067,-0.021269582211971283,0.03449957072734833,-0.12023339420557022,0.023466026410460472,-0.036186885088682175,-0.059647105634212494,-0.05778975412249565,0.057358045130968094,0.016576308757066727,-0.006256908643990755,0.02485429123044014,-0.08412063866853714,-0.016553975641727448,-0.024758361279964447,-0.004075031261891127,0.018610170111060143,-0.09810592234134674,0.006069662980735302,0.03709618002176285,-0.09385357797145844,-0.02495596371591091,0.05901003256440163,0.07417933642864227,-0.06640830636024475,-0.01908506266772747,-0.10069244354963303,-0.00791962444782257,-0.05290135368704796,-0.06340156495571136,-0.04231768473982811,-0.05315907672047615,0.023821672424674034,-0.02047569677233696,0.01375141367316246,-0.012129472568631172,-0.034174785017967224,0.04700101166963577,0.034374091774225235,-0.0259894747287035,0.05594253167510033,0.06858989596366882,-0.08258006721735,-0.02038351073861122,-0.07581212371587753,-0.00634337030351162,0.01119464822113514,-0.03283745050430298,-0.04263867437839508,-0.049074359238147736,0.06283368170261383,-0.049590930342674255,-0.009143758565187454,-0.029806071892380714,0.030421625822782516,0.028983112424612045,-0.07358171045780182,-0.09676578640937805,-0.0270646084100008,0.08364497870206833,-0.10629607737064362,-0.029769351705908775,0.0675879418849945,-0.037685196846723557,0.08025941997766495,-0.09831756353378296,-0.09327739477157593,-0.07721080631017685,0.049547817558050156,-0.06297283619642258,0.025050589814782143,0.015885937958955765,-0.05827074497938156,0.01830494962632656,-0.06399789452552795,-0.05340133607387543,-0.0034104054793715477,0.0041864062659442425,-0.02804643101990223,0.012502209283411503,-0.0715172067284584,-0.03131784871220589,0.014120278880000114,0.02416110225021839,-0.061967961490154266,0.08798529952764511,0.01957619935274124,0.00726581085473299,-0.037613753229379654,-0.07767690718173981,0.013235216960310936,-0.017126118764281273,-0.009097428992390633,-0.036061178892850876,-0.04236767441034317,0.06920750439167023,-0.022637546062469482,-0.0814163014292717,-0.04350448027253151,0.059579405933618546,-0.004262205213308334,0.030711902305483818,-0.0883459746837616,0.05509290471673012,-0.0013343376340344548,0.02315756492316723,0.05452752485871315,-0.053661514073610306,-0.024380719289183617,-0.007975047454237938,-0.08192618191242218,0.0015732153551653028,-0.06925171613693237,0.04707930237054825,-0.07440687716007233,-0.0067179021425545216,-0.05210353434085846,0.030260035768151283,-0.03125837817788124,-0.024012576788663864,0.03581123799085617,0.015687182545661926,-0.06957421451807022,-0.04094585403800011,-0.07431512326002121,-0.06781119108200073,0.08260871469974518,0.08507782965898514,-0.004449052736163139,-0.028973788022994995,-0.07662210613489151,-0.071202851831913,-0.06217862293124199,0.07245637476444244,-0.05098298564553261,-0.04796372354030609,0.04274709150195122,-0.052965059876441956,0.0765751451253891,0.052631791681051254,-0.03891206532716751,0.01018279418349266,-0.08131615817546844,-0.05811680480837822,-0.06543272733688354,0.026773015037178993,0.004691386595368385,0.015661178156733513,-0.05071161314845085,0.039892688393592834,-0.028829434886574745,-0.0029996016528457403,-0.004799725022166967,-0.07610101252794266,-0.039144065231084824,0.025551727041602135,-0.021109722554683685,-0.04446196183562279,0.08113770931959152,-0.0005937647656537592,-0.0511510893702507,-0.055365659296512604,-0.08599695563316345,0.08324382454156876,0.01638961397111416,0.007944164797663689,0.0010387406218796968,-0.06576738506555557,0.03246811777353287,-0.047474946826696396,-0.06872766464948654,-0.029640961438417435,0.020026274025440216,-0.060788556933403015,0.01595732383430004,-0.04139328375458717,-0.00909015815705061,0.07575076073408127,-0.07641240209341049,-0.007694823667407036,-0.024154895916581154,0.0229417085647583,0.08381620049476624,0.07267387211322784,-0.040043868124485016,0.020334262400865555,0.01869875378906727,-0.07326425611972809,-0.06624843925237656,0.08243351429700851,0.03865308314561844,-0.06129693239927292,0.058964166790246964,-0.08607851713895798,-0.06640445441007614,-0.00433597294613719,-0.003835500217974186,0.0402894988656044,0.036058682948350906,0.05913939327001572,0.0615227110683918,-0.015678996220231056,0.026858005672693253,0.0048568760976195335,0.003573694499209523,0.028279228135943413,-0.029613418504595757,-0.15598677098751068,0.03599037230014801,0.04733635485172272,-0.26800528168678284,-0.07962540537118912,0.25155580043792725,-0.0906561017036438,-0.016879716888070107,-0.22063453495502472,0.2277514636516571,0.14759580790996552,-0.004684096667915583,0.3214176297187805,0.21804481744766235,0.06978709250688553,0.06705697625875473,0.02225625328719616,0.010743378661572933,0.03631049394607544,-0.03430192917585373,-0.1061406135559082,0.029893238097429276,0.42653873562812805,-0.2554340064525604,-0.19228443503379822,-0.10999659448862076,0.01941075176000595,-0.152939110994339,-0.034538011997938156,-0.478602796792984,0.088764488697052,-0.0495574027299881,-0.014262787066400051,-0.09822390228509903,0.03240710124373436,0.08500342816114426,-0.03469310328364372,0.06687187403440475,-0.031404126435518265,-0.06694144010543823,0.04212582856416702,-0.07713363319635391,0.03688347712159157,0.08318191766738892,-0.29473793506622314,-0.021090060472488403,0.0801834687590599,-0.10586155951023102,-0.1536412090063095,-0.07591821253299713,-0.42287781834602356,-0.006966343615204096,-0.028332790359854698,-0.2086583524942398,-0.09928037971258163,0.3887690305709839,-0.13076214492321014,0.01662406697869301,-0.04889151453971863,-0.06987860798835754,0.3915603458881378,0.003917774185538292,0.03456510230898857,0.0064666662365198135,0.7716086506843567,-0.010282663628458977,-0.16754211485385895,0.09131159633398056,-0.49359768629074097,-0.13346406817436218,-0.23291657865047455,0.047193679958581924,0.0690162181854248,0.011338859796524048,0.07625023275613785,-0.04458018019795418,-0.009841089136898518,0.040545690804719925,-0.8733536005020142,-0.131364643573761,0.09631291776895523,0.070255346596241,-0.05440603941679001,-0.01833047717809677,0.1502571552991867,0.10291347652673721,-0.14637738466262817,0.08682497590780258,-0.008018901571631432,-0.07833908498287201,0.5412230491638184,-0.27419254183769226,0.0953410267829895,0.07360880821943283,-0.0426282063126564,0.11258266121149063,-0.25577038526535034,0.15267157554626465,0.0837249681353569,0.1766389012336731,-0.04223468527197838,-0.136829674243927,0.3534003496170044,0.10783140361309052,-0.06758848577737808,0.059029098600149155,-0.05681557208299637,0.04899292811751366,-0.061497677117586136,0.09009762853384018,0.19798371195793152,-0.17077787220478058,-0.1924905627965927,-0.026619907468557358,0.0006865847972221673,-0.05294133722782135,0.02104870416224003,0.02840310148894787,0.11676143854856491,0.05251500755548477,0.027111539617180824,-0.025677017867565155,-0.04273669421672821,-0.00573187880218029,-0.09910794347524643,-4.9219815991818905e-06,-0.08755038678646088,-0.04150501266121864,-0.0041461824439466,-0.00876876711845398,-0.07571596652269363,-0.25410395860671997,-0.05868878215551376,0.47017356753349304,-0.1393008977174759,-0.013792499899864197,-0.03763853386044502,0.3898569345474243,0.3108784556388855,-0.021624695509672165,0.21181586384773254,0.2764672040939331,0.11150408536195755,0.33210235834121704,0.08769453316926956,-0.011581381782889366,0.030113626271486282,-0.06729690730571747,-0.22485312819480896,0.027200862765312195,0.48368558287620544,0.5104324817657471,0.7334567904472351,0.2020922154188156,-0.07632479816675186,-0.2716694176197052,-0.056498508900403976,-0.7139718532562256,0.21430188417434692,0.1059684082865715,-0.10340682417154312,0.019017430022358894,-0.07571281492710114,-0.020656326785683632,-0.11805916577577591,0.676604151725769,-0.08431640267372131,0.10219026356935501,0.009898977354168892,0.3450230658054352,-0.017206190153956413,0.2094605714082718,-0.2694365978240967,0.10971076041460037,-0.0010497199837118387,-0.20382067561149597,-0.10743531584739685,0.06117231398820877,-0.3218519985675812,0.0887177586555481,0.12212633341550827,-0.007180480752140284,0.5246301889419556,0.2609519064426422,-0.4601035714149475,0.11569011956453323,0.06989987194538116,-0.148593008518219,0.3079485595226288,-0.09480641782283783,0.03382958844304085,-0.05471966788172722,0.5200408697128296,0.20860499143600464,-0.0977361723780632,0.17420876026153564,-0.595901370048523,-0.329509437084198,-0.39522111415863037,-0.06995497643947601,-0.028190508484840393,0.12467889487743378,0.07143392413854599,-0.010235600173473358,0.05130092054605484,0.08375369012355804,-0.8880147933959961,0.1777249276638031,0.2495609074831009,0.04307493939995766,-0.05186764895915985,0.3399764895439148,0.318075954914093,0.2667447626590729,-0.008703265339136124,0.2674423158168793,-0.07633116841316223,0.009742486290633678,0.5159405469894409,-0.3704109489917755,-0.0468636117875576,-0.05129379779100418,0.07407882809638977,0.02932148613035679,-0.1529867947101593,0.5345149636268616,0.16780529916286469,-0.05182551220059395,-0.05316312238574028,0.5087913870811462,-0.1094336211681366,0.0432688407599926,-0.041038934141397476,-0.026881778612732887,-0.08284017443656921,-0.01508647482842207,-0.07117678225040436,0.15535993874073029,0.45851898193359375,-0.5955398082733154,-0.056722093373537064,0.01687544956803322,0.07831711322069168,0.0834442675113678,0.07744138687849045,-0.22730925679206848,0.11134696751832962,-0.015226638875901699,-0.02388102561235428,-0.006476179230958223,0.3321901559829712,-0.140203595161438,-0.0389973446726799,0.2426602840423584,-0.032751716673374176,0.06534691900014877,-0.0035092460457235575,-0.041011638939380646,-0.2136482298374176,-0.3881898820400238,0.14006297290325165,0.37735608220100403,0.08724743127822876,-0.02630554884672165,-0.06138663738965988,0.37614986300468445,0.12178239971399307,0.010563652962446213,0.4990701675415039,0.3489205539226532,0.04546971246600151,0.09892295300960541,-0.039613064378499985,-0.15724676847457886,0.14257729053497314,0.07475582510232925,-0.3709878623485565,0.01886853389441967,0.5457944273948669,-0.42144688963890076,-0.009819865226745605,0.09291815012693405,-0.027883784845471382,-0.3286365568637848,0.03288569301366806,-0.43532565236091614,0.14878560602664948,-0.18554578721523285,-0.1312871277332306,0.07645107060670853,0.054564256221055984,0.03497135266661644,-0.1179911196231842,0.6065504550933838,0.1049332469701767,0.05332871153950691,0.05253260210156441,0.2986709773540497,-0.03332187607884407,0.13008445501327515,-0.4157419204711914,0.18533611297607422,-0.020998528227210045,-0.0814208835363388,-0.4683507978916168,-0.0261965524405241,-0.37901222705841064,-0.09607233852148056,0.14095741510391235,0.21404951810836792,0.7136257886886597,0.4431300461292267,-0.5450994968414307,0.188825324177742,0.12516920268535614,-0.2863369584083557,0.05459172651171684,-0.05831970274448395,-0.026483509689569473,-0.35700365900993347,0.5007088780403137,0.2747376561164856,-0.20891286432743073,0.16070780158042908,-0.06551184505224228,-0.17704416811466217,-0.46983832120895386,-0.031265322118997574,0.04848337173461914,0.12799400091171265,-0.049501683562994,-0.1460207849740982,-0.02745475247502327,-0.01774541474878788,-0.5976360440254211,-0.09362634271383286,0.20539641380310059,0.08425959199666977,-0.03680326044559479,0.3601769506931305,0.2156224250793457,0.4726219177246094,-0.14354391396045685,0.514309823513031,0.052378080785274506,0.04050475358963013,0.558220386505127,-0.18557262420654297,-0.15151675045490265,0.08665508776903152,0.12859614193439484,-0.14363811910152435,-0.25789833068847656,0.08146320283412933,0.025075512006878853,0.10630864650011063,0.014216405339539051,-0.1931581348180771,0.05186764895915985,0.014073661528527737,-0.0009097186266444623,-0.08884821087121964,0.0900181457400322,-0.04393826797604561,-0.0008120854618027806,0.07767428457736969,0.471137136220932,-0.5269771218299866,-0.335754930973053,-0.040537405759096146,0.035045232623815536,0.07717689126729965,0.1624653935432434,-0.46121346950531006,0.18237657845020294,0.07509183883666992,0.05460299178957939,0.04084115847945213,0.2760477662086487,-0.13166317343711853,-0.1357882171869278,0.2643471658229828,0.10963262617588043,-0.027300577610731125,0.005351962987333536,0.012582261115312576,0.07416097074747086,-0.04910401254892349,-0.0067643350921571255,0.05443185567855835,0.08710576593875885,-0.10045868903398514,0.004836966283619404,-0.08631215989589691,0.08443578332662582,0.03299228474497795,-0.08090023696422577,0.017339687794446945,-0.057214271277189255,-0.038588620722293854,-0.07427052408456802,0.040019284933805466,0.07794927060604095,-0.020934170112013817,0.009272480383515358,0.06432092189788818,-0.09092704951763153,-0.04714161902666092,0.04954666644334793,0.06702228635549545,0.013544279150664806,-0.05538024380803108,-0.04134128615260124,0.04447797313332558,0.06847124546766281,0.018612388521432877,0.0038189487531781197,0.02175068110227585,-0.04976070672273636,-0.0573800653219223,0.006773490458726883,-0.006567087490111589,-0.07081065326929092,0.06742623448371887,0.03848320245742798,0.05818532407283783,-0.010433167219161987,-0.06466948240995407,-0.07282006740570068,-0.08641798794269562,-0.03900257870554924,0.00035022178781218827,-0.007703453302383423,0.00752000929787755,0.007265440654009581,-0.03387172520160675,-0.010863357223570347,-0.057757195085287094,-0.020288005471229553,0.04996081814169884,0.026145249605178833,-0.029858281835913658,-0.08281818777322769,0.05168977379798889,0.06300873309373856,-0.011071639135479927,0.06167946755886078,-0.01619279757142067,-0.08099698275327682,-0.01621013507246971,0.014342277310788631,-0.08947114646434784,0.03783751279115677,-0.09129314124584198,-0.016833506524562836,0.05538458377122879,0.0633838102221489,-0.07361052185297012,0.05577697977423668,-0.0511140450835228,0.0794517993927002,-0.012818447314202785,0.058227576315402985,-0.09101364016532898,0.037097103893756866,-0.006756065879017115,-0.03239822015166283,0.009828816168010235,-0.050306402146816254,-0.03494154289364815,0.028589699417352676,-0.041194017976522446,-0.06838934123516083,0.04013917222619057,-0.07533744722604752,-0.03391103819012642,-0.020189844071865082,0.01875174418091774,0.060080382972955704,0.009355230256915092,0.07000803202390671,0.07221297919750214,-0.05499621853232384,0.05743458494544029,-0.0716949924826622,-0.02292623184621334,-0.018120847642421722,-0.01813638024032116,-0.05774741992354393,0.028063340112566948,0.023915698751807213,0.022736938670277596,0.02331751212477684,-0.060488197952508926,-0.06773495674133301,-0.06631384044885635,-0.0036065627355128527,-0.0675077736377716,0.058131925761699677,-0.08516956865787506,0.021186696365475655,-0.015323877334594727,-0.0374482236802578,-0.019726356491446495,-0.018042244017124176,-0.016496097669005394,-0.035448744893074036,-0.07831220328807831,-0.0271085686981678,-0.06568048894405365,-0.016806814819574356,0.042478300631046295,-0.06663265824317932,0.1132386103272438,-0.004507806617766619,0.25324562191963196,0.017276756465435028,0.3506113290786743,0.17041374742984772,0.1292528510093689,-0.1194155141711235,-0.01847878098487854,0.1797448843717575,0.13779379427433014,0.28991076350212097,-0.40312013030052185,0.05721298232674599,0.09024423360824585,-0.01993989571928978,0.37481242418289185,0.2834472060203552,0.016720633953809738,0.18370886147022247,0.07222402840852737,0.10713593661785126,-0.5871638059616089,-0.7128937840461731,0.04202514886856079,0.07359044998884201,0.12043047696352005,0.13905832171440125,0.5066801905632019,0.08861080557107925,-0.010599826462566853,-0.25136128067970276,0.20517218112945557,0.04550492763519287,0.16560280323028564,0.09376668930053711,-1.0618969202041626,-0.00907255057245493,0.14412321150302887,-0.07293865084648132,-0.2309270054101944,-0.01695387437939644,0.12252385169267654,0.3828106224536896,0.18142695724964142,0.00816858559846878,0.01191119197756052,0.283597856760025,-0.008220373652875423,0.2572918236255646,0.06473501771688461,0.02219592034816742,-0.42525050044059753,-0.7773979902267456,0.21203269064426422,0.5834295153617859,0.13608792424201965,0.02219529077410698,0.03936103731393814,-0.5548918843269348,0.039098676294088364,-0.059981074184179306,0.15779322385787964,-1.1801332235336304,0.12476210296154022,0.01261764857918024,0.0638408437371254,0.10889723896980286,0.2652797996997833,0.43305110931396484,0.0022891429252922535,0.06581961363554001,0.159922257065773,0.01715337671339512,-0.16226443648338318,0.038807839155197144,-0.04456654191017151,1.3764680624008179,-0.09090878069400787,0.1925250142812729,0.06300769746303558,-0.05953868106007576,-0.5457320809364319,-0.037202805280685425,0.17097020149230957,0.15304788947105408,0.2147897481918335,0.05536579713225365,0.06773383170366287,-0.42196401953697205,0.05264700949192047,0.10991945117712021,0.08460021764039993,0.15268580615520477,0.3186241388320923,-0.02331564575433731,-0.5272233486175537,0.13894152641296387,-0.242184579372406,0.0973241999745369,-0.5268140435218811,-0.18398214876651764,0.15455400943756104,0.03462636470794678,0.09708946198225021,0.06296596676111221,0.05894845724105835,-0.09919707477092743,0.11130603402853012,0.34550711512565613,0.3163542151451111,0.2036985456943512,0.039885785430669785,0.0983889102935791,0.10308807343244553,0.12548375129699707,0.3988436162471771,0.10274042189121246,0.1549273133277893,0.023794392123818398,-0.0651332437992096,-0.248106449842453,0.0759250670671463,-0.09862934052944183,0.08179936558008194,0.10437963902950287,0.05862030014395714,0.0879354253411293,-0.08297359198331833,0.05218047276139259,0.04107813164591789,0.03833388537168503,-0.08558408170938492,-0.048545897006988525,0.03200134262442589,-0.05840969458222389,0.08451031893491745,0.05577002465724945,0.03564460948109627,0.03577880561351776,-0.016862932592630386,-0.08697371184825897,0.03042377531528473,-0.04658094793558121,0.07567835599184036,-0.015327997505664825,-0.05431119725108147,-0.017001911997795105,0.009918469935655594,0.07173609733581543,0.03141752630472183,-0.05005775764584541,0.007111669518053532,0.031024547293782234,0.022429877892136574,-0.047310784459114075,0.017780901864171028,-0.045012157410383224,-0.06803029030561447,0.07440616935491562,-0.05829928070306778,0.051416635513305664,0.026279466226696968,-0.0731343924999237,0.004817068576812744,-0.043152566999197006,-0.036695774644613266,-0.05133078247308731,-0.02276960201561451,-0.0245452169328928,-0.07318905740976334,-0.0872160941362381,0.0165031049400568,0.05721922591328621,0.06620552390813828,0.08562138676643372,0.03282927721738815,0.08386824280023575,-0.06729844212532043,-0.07468704879283905,0.059139981865882874,-0.034805476665496826,0.072564996778965,0.034319084137678146,-0.07459765672683716,0.033042170107364655,-0.03536612540483475,0.013468309305608273,-0.0340384803712368,0.020759155973792076,0.046989329159259796,-0.03263627365231514,0.010311436839401722,0.05887274071574211,-0.036198295652866364,0.05368197709321976,-0.07116855680942535,-0.028111325576901436,-0.0751478374004364,-0.014125052839517593,-0.03499796241521835,0.07714620977640152,0.0310997162014246,0.031139282509684563,-0.026966195553541183,-0.08383268117904663,-0.04343443363904953,-0.07966041564941406,0.021542739123106003,0.06840378791093826,-0.0765928328037262,0.05260947719216347,-0.06325884908437729,-0.02591213397681713,-0.027197740972042084,0.020505622029304504,0.03994627669453621,0.043908797204494476,-0.0042886631563305855,-0.014635303057730198,-0.05637803673744202,0.06464972347021103,-0.07204204797744751,0.061458323150873184,0.0639491081237793,0.04481697827577591,-0.053771961480379105,-0.05716507509350777,-0.025486115366220474,-0.040805596858263016,-0.06569287180900574,0.06806597113609314,-0.0608617439866066,-0.04591630399227142,0.02215617708861828,-0.07652611285448074,-0.060592953115701675,0.0856943428516388,0.014754178002476692,0.07403291016817093,0.0865723192691803,-0.06380917876958847,0.06233881413936615,0.0581829734146595,-0.08711594343185425,0.02890152670443058,-0.05132906511425972,-0.020549960434436798,0.04487938433885574,-0.07429476827383041,0.028316285461187363,0.06794150173664093,-0.04149901866912842,-0.03593141958117485,-0.07533208280801773,0.24574576318264008,0.1527487188577652,0.22138729691505432,0.05849509686231613,0.05767799913883209,-0.0359916165471077,-0.3277352750301361,0.10395098477602005,0.11976756155490875,0.2096402794122696,-0.09588745981454849,0.10873167961835861,-0.057921212166547775,0.45784878730773926,0.028150159865617752,-0.03968164697289467,0.06479831039905548,-0.04729843884706497,-0.14250853657722473,0.06660383194684982,0.11679098010063171,0.07939326018095016,0.11223406344652176,0.1899425983428955,0.5445554256439209,0.09962702542543411,-0.08352264761924744,0.09823370724916458,0.021561242640018463,-0.2760131061077118,0.01833924651145935,0.1538648009300232,0.3463129997253418,-0.00015089596854522824,0.024499688297510147,-0.0008667433867231011,0.06779555231332779,0.757317841053009,-0.04018748924136162,0.008509160950779915,-0.002558524487540126,0.303727924823761,-0.015236243605613708,0.05370120704174042,-0.07943248748779297,0.044098880141973495,0.045290496200323105,0.02307152934372425,0.06865530461072922,0.006875194143503904,0.05424913018941879,0.21109634637832642,0.07940566539764404,0.2955460548400879,0.6002073884010315,0.09810632467269897,-0.07581383734941483,-0.12967024743556976,0.14506040513515472,0.060136545449495316,0.2280430793762207,0.12518075108528137,0.012346160598099232,0.05053522810339928,0.9220914840698242,-0.039197780191898346,0.22375702857971191,0.06525693088769913,0.031988725066185,-0.008099740371108055,-0.39311960339546204,0.05989855155348778,0.05307666212320328,-0.03458811342716217,0.0422789566218853,0.09286725521087646,-0.05945902317762375,-0.06504733860492706,-1.1324183940887451,0.1829942911863327,0.025829387828707695,-0.07202112674713135,-0.0863647609949112,0.40353018045425415,0.03676600009202957,-0.09882492572069168,0.20634421706199646,0.04798801243305206,0.04363495856523514,-0.0406423844397068,0.6149536371231079,-0.18946021795272827,0.16292418539524078,0.08773675560951233,-0.010701513849198818,-0.058214202523231506,0.2098553329706192,0.6817083954811096,-0.043769314885139465,0.19582682847976685,0.07318522781133652,-0.10075655579566956,0.24460914731025696,0.06633207201957703,-0.034334685653448105,0.1880292445421219,0.10752222687005997,0.012933740392327309,0.0830639973282814,0.0071223704144358635,-0.1299595981836319,-0.3527468740940094,0.033391982316970825,0.04527922347187996,0.021480871364474297,0.09031802415847778,-0.01421632431447506,0.048153363168239594,0.049883678555488586,-0.06242712214589119,0.07506830990314484,0.05224744603037834,0.2888128161430359,0.07449357956647873,0.10172885656356812,-0.09325997531414032,-0.021313471719622612,-0.06073775887489319,-0.00279715983197093,-0.015492876060307026,-0.05259806662797928,-0.06738705933094025,-0.019334929063916206,0.049131203442811966,0.016863448545336723,0.057789187878370285,0.01269078440964222,0.027813000604510307,0.08356127887964249,0.03923846408724785,-0.0030771519523113966,-0.05356172099709511,0.001424921676516533,-0.0368003211915493,-0.0455608069896698,0.016094468533992767,0.006130090449005365,0.014700683765113354,-0.061199624091386795,-0.017027895897626877,0.04898969456553459,0.03559627756476402,0.06954196095466614,0.012289736419916153,0.023880034685134888,0.02228839136660099,-0.03207243233919144,0.02181367017328739,-0.06501414626836777,-0.0050604878924787045,-0.030039912089705467,-0.013195398263633251,-0.07070299237966537,-0.07670978456735611,-0.004729150328785181,-0.07867502421140671,-0.07231604307889938,-0.0007068763952702284,0.0241696797311306,0.03814132884144783,0.021998515352606773,-0.02224157564342022,-0.012596122920513153,-0.061784908175468445,0.0036831919569522142,-0.04648185148835182,-0.08668019622564316,0.057859256863594055,-0.06049230694770813,-0.04137475788593292,-0.015450402162969112,-0.046548210084438324,0.033133260905742645,-0.0875651091337204,0.04583575949072838,0.018126696348190308,-0.028862077742815018,-0.020632073283195496,-0.05310685187578201,0.004403218161314726,0.02896047942340374,-0.08302327245473862,0.07759515196084976,0.021938055753707886,0.06407131999731064,0.049082376062870026,0.004664623644202948,-0.009398283436894417,0.04001522809267044,0.008663758635520935,0.015691524371504784,-0.03742469474673271,0.07012840360403061,0.02038412354886532,0.05463290587067604,-0.05823875591158867,0.025645555928349495,-0.05855310708284378,-0.04468223452568054,-0.035222891718149185,0.08329766243696213,-0.02227732725441456,-0.060767028480768204,-0.07353531569242477,-0.0302390456199646,-0.021087711676955223,-0.06776916980743408,0.028291935101151466,0.06402033567428589,-0.06915067136287689,-0.06589974462985992,0.0286976620554924,-0.027622148394584656,-0.0869850218296051,-0.04907510429620743,-0.06410083174705505,-0.00236469111405313,-0.07774661481380463,-0.07647614181041718,0.0465301088988781,0.03181563317775726,-0.0426039844751358,-0.05894739180803299,-0.038069646805524826,0.04344777390360832,-0.015148778446018696,0.042126838117837906,0.08173573017120361,-0.08380459249019623,-0.041277337819337845,0.008267747238278389,0.030690185725688934,-0.053638290613889694,0.009231465868651867,0.012464234605431557,-0.07035160064697266,-0.03351882845163345,-0.05861300975084305,-0.01753874681890011,-0.023512473329901695,-0.02569648064672947,0.041370682418346405,0.05104048550128937,-0.08756443858146667,0.07027765363454819,0.013206061907112598,-0.06035112217068672,-0.024954356253147125,-0.2992272675037384,-0.3465767800807953,0.010009552352130413,0.24324931204319,0.044737558811903,0.002900556894019246,-0.10328494012355804,0.4271981120109558,0.03744182735681534,0.017320403829216957,0.4957185387611389,0.23757925629615784,0.09399712830781937,0.14422982931137085,0.048953741788864136,-0.09774026274681091,0.1719730645418167,0.004400604870170355,-0.2715222239494324,0.049455057829618454,0.5594822764396667,-0.53094482421875,-0.11575692147016525,0.09909708052873611,-0.04284480959177017,-0.2046361118555069,0.01132186409085989,-0.37943345308303833,0.21392560005187988,-0.15903465449810028,-0.2532634437084198,0.08819587528705597,-0.0698341652750969,0.13315512239933014,-0.029801005497574806,0.5421671271324158,0.08603842556476593,0.09694277495145798,-0.06820008903741837,0.30784302949905396,-0.0479242205619812,0.16289201378822327,-0.3571542203426361,0.05221793055534363,0.0017346694367006421,-0.17459657788276672,-0.31141337752342224,0.0016696789534762502,-0.39205196499824524,-0.15088938176631927,0.11758161336183548,0.3015584945678711,0.6198123693466187,0.34210559725761414,-0.4377233386039734,0.06476346403360367,0.04804426059126854,-0.22301319241523743,0.10055854916572571,-0.08713975548744202,0.007232862524688244,-0.23732003569602966,0.3968449831008911,0.11551831662654877,-0.2630784511566162,0.09205996245145798,-0.08752842992544174,-0.2983788549900055,-0.3753602206707001,-0.030636996030807495,0.08707618713378906,0.08585941046476364,0.07662564516067505,-0.06111939251422882,0.016912192106246948,0.017635485157370567,-0.582359790802002,-0.11801443248987198,0.08943687379360199,0.14400340616703033,-0.050645094364881516,0.3155433237552643,0.18682929873466492,0.400924950838089,-0.1541876345872879,0.4867660403251648,0.042953506112098694,-0.0266052708029747,0.4677819609642029,-0.07483648508787155,-0.07123781740665436,-0.07639563083648682,0.12208233028650284,-0.23026247322559357,-0.15127991139888763,0.03370679169893265,0.09712202847003937,-0.027067700400948524,-0.004347129259258509,-0.319029301404953,-0.05411924794316292,0.027915913611650467,0.03792755678296089,-0.04060506820678711,0.12720687687397003,-0.04618049040436745,0.0711592435836792,0.09502200782299042,0.40719175338745117,-0.38700905442237854,-0.33489909768104553,0.08442403376102448,0.03268808871507645,0.02066628821194172,0.1738903969526291,-0.3966900706291199,0.03809073194861412,0.11355993151664734,-0.05830076336860657,0.04473193362355232,0.2311512678861618,-0.05238605663180351,-0.17987315356731415,0.24210411310195923,0.06468794494867325,-0.05501221492886543,-0.04037763923406601,-0.07760649919509888,-0.03779156133532524,-0.03807332366704941,0.08786483108997345,-0.08567517250776291,0.027217643335461617,0.05932258442044258,-0.042997296899557114,-0.03619251027703285,0.06171654537320137,0.05619987100362778,-0.023115554824471474,-0.00860877800732851,-0.006447287742048502,-0.03954755514860153,-0.06781376153230667,-0.05341164767742157,-0.026274628937244415,-0.062126003205776215,-0.049153804779052734,0.08291250467300415,0.062166180461645126,-0.00854089017957449,0.034169070422649384,0.08687309175729752,0.032105349004268646,-0.06466101109981537,0.019601255655288696,-0.04821563512086868,0.07156886905431747,-0.03831203281879425,0.05585816502571106,-0.07128387689590454,0.012993894517421722,-0.05620798468589783,-0.03735274821519852,-0.016483664512634277,-0.04258193075656891,-0.05728205293416977,0.02289700135588646,-0.06198810786008835,0.07808776199817657,0.007763165049254894,0.08061344176530838,-0.052323561161756516,0.06724415719509125,0.0572541318833828,-0.005642409436404705,-0.031215494498610497,0.07541523873806,0.033110953867435455,0.07763165980577469,0.050998516380786896,0.05456104502081871,0.07435157150030136,-0.08492862433195114,-0.07694806158542633,-0.07187499850988388,-0.03932705521583557,-0.023035243153572083,-0.022460171952843666,0.030276736244559288,0.03695916011929512,-0.08679711073637009,-0.001105712028220296,0.044856730848550797,-0.05504225566983223,0.07632642239332199,0.08780205994844437,-0.02102312073111534,0.05229136347770691,-0.06129572167992592,0.04821321368217468,0.0034572426229715347,0.07242584973573685,0.03513824939727783,0.061442095786333084,0.03975694254040718,-0.04806852340698242,0.01583355851471424,0.07778602093458176,0.06480275094509125,-0.06171402707695961,-0.043174631893634796,-0.029389986768364906,-0.04265287518501282,0.013966706581413746,0.006307602394372225,-0.018796546384692192,0.014761163853108883,-0.03209318220615387,-0.025132955983281136,-0.029405012726783752,0.0720200389623642,0.056423407047986984,-0.03235873579978943,-0.003204256296157837,-0.027438167482614517,-0.08425064384937286,0.056184276938438416,-0.05942937359213829,-0.016368655487895012,-0.04359715059399605,-0.0561382956802845,-0.025524521246552467,-0.05453915894031525,-0.04296945780515671,0.03185126930475235,-0.03372494876384735,-0.0721445307135582,-0.06373418867588043,-0.060391489416360855,-0.06807907670736313,0.05076522380113602,-0.02945150062441826,-0.05617600679397583,-0.06730253249406815,-0.0783679410815239,0.0028222373221069574,0.057092152535915375,-0.022713473066687584,-0.035156067460775375,-0.05663963034749031,0.033356186002492905,-0.05054929479956627,-0.010193499736487865,0.026018651202321053,-0.10571803897619247,-0.005304860416799784,-0.09141026437282562,-0.28816425800323486,-0.17154324054718018,0.2340877205133438,-0.11752184480428696,