fc.0.weight
-0.25132524967193604,-0.10376578569412231,-0.162264883518219,-0.3724837303161621,0.1155882403254509,-0.08340100944042206,1.0261732339859009,-0.1585683971643448,1.003247618675232,0.04174365848302841,-0.06032530218362808,-0.2667001187801361,-0.36120715737342834,0.4389365315437317,-1.7133055925369263,0.06129002571105957,-1.5847541093826294,0.7498218417167664,0.12852011620998383,-0.39497530460357666,0.10717359930276871,0.34008458256721497,0.9643512964248657,-1.1332826614379883,0.11821287870407104,0.12863940000534058,-0.11936217546463013,-0.12945276498794556,0.24655945599079132,0.2893398702144623,0.46811941266059875,0.4055648148059845,-0.47812575101852417,-0.0354158878326416,0.2472379207611084,-0.24310559034347534,-0.7856204509735107,0.17349612712860107,0.30560994148254395,0.39391306042671204,-0.47231072187423706,-0.09565693140029907,-0.14912950992584229,-0.20143187046051025,-0.48828554153442383,0.22352439165115356,0.24329769611358643,-0.39140182733535767,-0.2926439642906189,0.6204925179481506,-0.09230838716030121,-0.8554760217666626,0.08726593852043152,-0.3111441135406494,-0.5482202172279358,0.5609750747680664,-0.8210040926933289,-2.203192949295044,-0.052509695291519165,0.7460771799087524,-0.3353803753852844,-0.017424941062927246,-0.1323087215423584,-0.051405489444732666,0.21218447387218475,0.33576488494873047,-0.48325955867767334,-0.24330763518810272,0.6258829236030579,-0.042088355869054794,-0.6510414481163025,-0.8180146217346191,0.7466704845428467,0.31312888860702515,0.5977305769920349,-0.24729938805103302,0.7802918553352356,0.3736257553100586,0.2228841334581375,0.17554745078086853,-1.3517611026763916,0.6031306982040405,-0.17933224141597748,0.9981740713119507,-0.2577701807022095,0.12882572412490845,-0.10035240650177002,-0.12451201677322388,-0.4272221624851227,-0.5520936250686646,0.3831678628921509,-0.489346981048584,-1.2120170593261719,0.3158504366874695,0.7494697570800781,-0.02634716033935547,0.027856972068548203,1.2709534168243408,-0.6512957215309143,0.7676777839660645,-0.3191083073616028,0.6737807989120483,0.36282211542129517,0.4868614077568054,-0.004121382720768452,-0.5285090208053589,0.3306021988391876,0.005218872334808111,-1.019302248954773,0.39533916115760803,0.4067089259624481,-0.8589097261428833,-0.16950151324272156,-5.9980926513671875,0.4088941812515259,-0.2795129120349884,0.7945165038108826,1.1246155500411987,-0.12552452087402344,0.06588709354400635,0.4531530439853668,-0.48678919672966003,0.12607499957084656,-0.6426956653594971,-4.5323100090026855,-0.589073896408081,-0.3229534327983856,-0.11938841640949249,0.4395638108253479,-0.476662814617157,-0.47878140211105347,-0.16573405265808105,0.7513545751571655,-2.6602320671081543,0.06395141035318375,-0.304202675819397,0.4803248345851898,-0.16337276995182037,0.08535803109407425,0.6609466671943665,-1.464843988418579,1.4047842025756836,-0.5725429058074951,-0.19453351199626923,-0.7564403414726257,0.7894961833953857,-0.235862597823143,-0.11226101219654083,-0.2501503527164459,-1.1445908546447754,0.5648735761642456,-1.0604264736175537,0.004298912361264229,-4.739596843719482,-0.2715306878089905,-0.18478691577911377,-2.046396255493164,1.221114158630371,0.7542296648025513,0.08575180172920227,0.4966304898262024,-0.316009521484375,0.4808443784713745,0.6657751202583313,0.5526629090309143,0.07319334149360657,0.5128703117370605,-0.5784302949905396,0.5361986756324768,-0.0026199552230536938,0.14085976779460907,0.5027453303337097,0.6833463311195374,-3.2138657569885254,-0.16777506470680237,0.05364719033241272,-0.9192437529563904,0.7259154915809631,-1.3144999742507935,0.5152727365493774,-1.555111050605774,0.9149350523948669,-0.7779137492179871,0.7311642169952393,-0.5426973104476929,0.45968109369277954,-0.6263009309768677,-1.1246421337127686,0.654994785785675,-0.03169636428356171,0.9346957802772522,-0.021656882017850876,0.15451882779598236,-0.2573452591896057,-0.02020362764596939,-0.20982147753238678,-0.08452141284942627,-0.916368842124939,0.28234705328941345,-1.0974220037460327,0.5747056007385254,0.32556140422821045,0.7038111686706543,0.1623971313238144,0.5385982990264893,0.641743004322052,-0.5474763512611389,-1.1218936443328857,-0.25916677713394165,-0.23355633020401,-0.24958395957946777,-0.14810973405838013,-0.315542995929718,-0.22434502840042114,0.20592784881591797,-0.46886688470840454,0.028917372226715088,-0.35086625814437866,-0.07460927963256836,-0.3151719570159912,0.6971176862716675,-0.3895483911037445,-0.3682890236377716,0.10732913017272949,-1.6231764554977417,0.8232920169830322,0.35865896940231323,-0.13424421846866608,-1.10032320022583,-0.2937842011451721,0.5521043539047241,1.1727545261383057,-0.28866320848464966,-0.9246085286140442,0.48266831040382385,0.7426005601882935,-0.5052322745323181,1.17539644241333,-0.2265842705965042,-0.1859528124332428,0.16332454979419708,-0.12614066898822784,1.0862632989883423,-0.1428017020225525,-1.1990982294082642,-1.7460814714431763,-0.13100193440914154,-0.2812959849834442,0.3178688883781433,-0.37425363063812256,-0.27693110704421997,-0.3233172297477722,0.4714833199977875,-0.17126356065273285,-1.110186219215393,0.0008236862486228347,-0.10050185024738312,-0.08473999053239822,0.7273566126823425,-1.0621286630630493,-0.7977170944213867,0.4250618517398834,-0.8349305391311646,-0.9783515334129333,-0.019115719944238663,0.39833876490592957,0.5121070742607117,0.26122406125068665,-0.10786014795303345,-0.05597496032714844,-0.07205098867416382,-0.4052676558494568,0.588263988494873,-0.7004398703575134,0.38597002625465393,0.8462925553321838,-0.1373913586139679,0.817405641078949,0.4732252359390259,0.8787654042243958,0.36716172099113464,0.49693697690963745,-0.5035098195075989,-0.23330235481262207,-0.10390376299619675,-0.46161165833473206,0.9892870187759399,-0.15167269110679626,-0.2801707088947296,-1.1684677600860596,0.1437234878540039,0.5587107539176941,0.51048743724823,-1.1745579242706299,-0.15563194453716278,-1.1112464666366577,-0.8105584383010864,0.1442214697599411,-0.17630453407764435,0.5667061805725098,0.04529977962374687,-0.5195004940032959,-1.2899943590164185,-0.48253461718559265,0.12173757702112198,-0.4058403968811035,-0.13364779949188232,0.8056014180183411,0.12964433431625366,-0.3988456726074219,0.2726978063583374,-0.14992159605026245,0.6642180681228638,0.28260117769241333,0.4761924147605896,-0.9647862315177917,-0.7946497201919556,-0.2462853044271469,-3.212611198425293,0.23631170392036438,-0.16490218043327332,-0.3455736041069031,0.11128131300210953,0.8227423429489136,1.061177134513855,-1.1523925065994263,-0.5246894955635071,0.07498463243246078,0.360054612159729,-0.6526521444320679,-0.09809280931949615,-0.5253289937973022,0.08389536291360855,0.7774266600608826,0.8912991881370544,-0.7552649974822998,0.08777347952127457,0.7581587433815002,0.0043907747603952885,0.8111531138420105,-0.09999650716781616,0.09081900119781494,-0.16092538833618164,0.10173720121383667,-0.26918819546699524,-0.4497140645980835,0.005256242118775845,-0.9092985987663269,0.6653488874435425,-0.6059830784797668,0.3756616711616516,0.37582847476005554,-0.4293147027492523,-2.1950860023498535,0.7477215528488159,0.0020107899326831102,-0.22308099269866943,0.37176501750946045,-0.42235100269317627,-0.09315645694732666,1.051970362663269,0.0039147874340415,-1.4811214208602905,0.11735125631093979,-0.2971551716327667,-0.6553090214729309,1.0441609621047974,0.0018719467334449291,0.5366733074188232,0.6014654040336609,-0.2967313230037689,-0.9818258285522461,0.10502445697784424,-0.3662487268447876,0.30840903520584106,0.034210383892059326,0.03832775354385376,-0.3341633081436157,-0.37635767459869385,-0.1092260479927063,0.9421997666358948,0.4272960424423218,-3.0915162563323975,0.4914611577987671,-1.7720818519592285,-0.8409619331359863,0.0060342466458678246,-0.5527552366256714,0.312283456325531,0.994390606880188,-0.3573444187641144,-1.0364185571670532,-0.3360059857368469,-0.5603241324424744,-0.09136603772640228,0.3836723864078522,0.2535732686519623,-0.9049820899963379,0.8193366527557373,-0.7429220080375671,-0.2729156017303467,0.3364570438861847,0.7696540355682373,-0.6431236863136292,-0.015660107135772705,0.7821624875068665,-0.05606389418244362,-0.9738453030586243,0.54436856508255,-1.040161371231079,0.468123197555542,0.949979841709137,0.8250269293785095,-1.326027512550354,-0.18342040479183197,0.32193636894226074,-3.453221559524536,0.5461417436599731,0.16838623583316803,0.6853792071342468,-0.2988819181919098,-0.013940923847258091,0.08348003774881363,0.2694871425628662,-0.1312428116798401,0.2796291410923004,0.006583955604583025,0.16557063162326813,0.2577619254589081,-0.9103748798370361,0.35191500186920166,0.43723446130752563,-0.41778630018234253,0.9132992625236511,-0.5272011756896973,0.6770362257957458,-0.14643710851669312,-0.07281714677810669,-0.037224531173706055,-0.0062599778175354,-0.48562923073768616,-0.20944160223007202,0.9989510774612427,-0.9700943231582642,-0.28651031851768494,-0.2762027978897095,0.28163769841194153,-0.2820865511894226,-1.3570839166641235,0.04567306488752365,0.16992467641830444,0.24150815606117249,0.6860207915306091,-1.5489734411239624,-0.45103976130485535,0.39327099919319153,0.10295534878969193,-7.573406219482422,0.035101696848869324,-0.08965018391609192,-1.0703611373901367,-1.4315521717071533,0.9458094239234924,0.002964911749586463,0.24319803714752197,0.029363930225372314,-0.4139662981033325,-0.4523438811302185,-1.0188899040222168,0.46193593740463257,-0.11733106523752213,1.0396173000335693,-1.3084796667099,-1.6863046884536743,-0.20625445246696472,-0.2461022287607193,0.8105084300041199,0.3758138418197632,-1.3065714836120605,0.2650980055332184,0.26698893308639526,-0.6709321737289429,-0.8790495991706848,0.366256445646286,0.02503138780593872,0.1898425817489624,0.09426242113113403,-0.018921971321105957,-0.11984682083129883,-0.009967267513275146,-0.4529581665992737,0.12824273109436035,0.7964280247688293,0.28971874713897705,-0.3009672164916992,0.5857380032539368,0.0499955378472805,-1.7483874559402466,-0.1022634357213974,-0.23744963109493256,-1.2306954860687256,-0.6659965515136719,0.9091246128082275,0.9508364200592041,0.24219615757465363,1.3662195205688477,-0.35474395751953125,0.0639253631234169,0.04201674461364746,0.7279361486434937,0.39402061700820923,0.6642560362815857

fc.0.bias
-0.051482439041137695,-0.5400303602218628,-0.6764083504676819,0.7508337497711182,-0.44655096530914307,-0.4380873441696167,-0.2979249358177185,-0.6724268794059753,-0.24248111248016357,0.17172685265541077,-0.08419197797775269,-0.45681315660476685,0.3149856626987457,0.46661579608917236,0.036936283111572266,-0.3330073356628418,-0.5146764516830444,0.4737256169319153,-1.1577762365341187,-0.9353657960891724,0.12071233242750168,-0.2308608889579773,-0.3489927053451538,-0.24072636663913727,0.28553295135498047,-0.9725808501243591,0.3890235126018524,0.13236860930919647,0.04689374938607216,-0.26829203963279724,0.6678184270858765,0.22648204863071442,-0.3729504346847534,-0.6543782949447632,-0.451959490776062,0.5557529926300049,0.6681920886039734,0.26665472984313965,0.15511149168014526,0.02587430737912655,-0.5896195769309998,-0.11019766330718994,-0.505729615688324,-0.03570257127285004,0.10048560053110123,-0.5090775489807129,0.6837379932403564,-0.26342642307281494,0.36094656586647034,0.745952308177948,-0.35333502292633057,0.4599960446357727,-0.19612360000610352,-0.390070378780365,-0.42515408992767334,0.21212337911128998,0.5263494849205017,0.17610886693000793,0.2836136221885681,0.03902853652834892,-0.5926549434661865,0.5799896717071533,-0.25424855947494507,0.4433566629886627,-0.22425653040409088,0.9066122770309448,-0.6255766153335571,-0.11265760660171509,0.12539666891098022,-0.6592809557914734,0.5828161239624023,-0.12871667742729187,0.5228491425514221,0.619070827960968,0.5770353674888611,0.8359736204147339,0.18680667877197266,-0.45940226316452026,-0.6228267550468445,0.9011334180831909,0.6001340746879578,0.32468876242637634,0.7103288769721985,-0.03595400229096413,-0.591744065284729,-0.31640875339508057,0.4673093855381012,-0.15899211168289185,0.2375122308731079,-0.4822126626968384,0.3990592658519745,-0.01873019151389599,0.09042812138795853,-0.4588661193847656,-0.22641175985336304,-0.3948791027069092,0.05608709156513214,0.06124001368880272,0.6518480777740479,0.6436676383018494,0.24160566926002502,-0.02879195846617222,0.3145855665206909,0.0820620134472847,-0.06072235852479935,-0.428958535194397,-0.48527586460113525,0.29220327734947205,0.4524693191051483,-0.16761863231658936,0.2595827579498291,0.5937085747718811,0.38214731216430664,-0.3918616771697998,0.20150652527809143,-0.4533437490463257,-0.3387054204940796,0.1237901821732521,0.6055500507354736,-0.9999115467071533,0.9462984204292297,-0.47447872161865234,-0.3910207748413086,-0.4126552939414978,-0.006917582359164953,0.12228590995073318,-0.10184575617313385,-0.5252850651741028

fc.2.weight
-0.03497885912656784,-0.8069327473640442,0.7996563911437988,-0.46328413486480713,-2.447322130203247,0.4722529351711273,-0.08107279986143112,-1.260064959526062,0.07127417623996735,-0.6465896368026733,0.002397365402430296,0.06201633810997009,0.23095093667507172,0.08736363053321838,-0.8429023623466492,-0.055143240839242935,-0.025158021599054337,0.4785851538181305,-0.6691680550575256,-0.22136849164962769,-0.869394838809967,0.07554586231708527,-0.04730391502380371,-0.3076499104499817,-0.16959287226200104,-0.8016090989112854,0.02185632288455963,-0.7492949366569519,2.0338923931121826,0.05409834161400795,0.2905452847480774,0.34192803502082825,0.028462450951337814,2.032111644744873,-0.34097719192504883,-0.2889702618122101,-0.2135876566171646,-0.613935649394989,-0.0025485705118626356,-1.6875635385513306,-0.3269474506378174,0.4181673228740692,-0.21909736096858978,0.2885548770427704,-1.141526699066162,-0.05563630908727646,-0.02035883627831936,0.23249472677707672,0.1505075842142105,-0.0483226478099823,0.3268173933029175,0.5029672980308533,0.01619606465101242,-0.04336796700954437,0.07984413951635361,0.27093520760536194,-1.0191755294799805,-1.3547163009643555,-0.27720579504966736,0.09660665690898895,-0.760513186454773,-0.2151244580745697,0.014428677968680859,0.20661985874176025,-1.5089828968048096,-0.18772248923778534,-1.1107925176620483,0.023074081167578697,0.12678641080856323,-1.3218251466751099,0.34657952189445496,-0.4978635013103485,-0.11627445369958878,0.21592368185520172,-1.0029603242874146,-0.2905406951904297,0.023762688040733337,0.07357925921678543,1.7326939105987549,-0.7366829514503479,-0.14317438006401062,0.33226850628852844,0.3662230372428894,0.20676667988300323,-0.2628628611564636,0.0002127256739186123,0.018404170870780945,0.17102445662021637,-0.17000581324100494,0.03319105505943298,0.471610963344574,-0.5962331891059875,0.715056300163269,-0.0060529932379722595,0.04631741717457771,0.07594119757413864,1.0337810516357422,0.5170760154724121,-0.17374096810817719,0.20937663316726685,-0.07519914954900742,0.4569803774356842,0.07662349939346313,-0.2889328598976135,1.4242724180221558,-0.02028384990990162,-0.0031797057017683983,0.16988404095172882,-0.24565984308719635,-0.04610151797533035,0.12029851973056793,-0.08628494292497635,-0.8508615493774414,2.133889675140381,1.6799523830413818,-0.6320468187332153,0.03889037296175957,-1.857588291168213,0.9859229326248169,0.1937149614095688,0.5184441208839417,0.03367352858185768,0.06423317641019821,-0.0495593287050724,0.03742595762014389,-1.759686827659607,-0.02217649668455124,-0.48179391026496887,-0.03283459693193436,0.7925815582275391,2.3295161724090576,-2.093045949935913,0.14008168876171112,0.7023075222969055,-0.08669079840183258,0.5788185000419617,-0.05019313469529152,-0.07199285924434662,0.042612917721271515,0.03093721903860569,-0.19683848321437836,-0.1919589638710022,1.292826533317566,0.012117249891161919,-0.05090969428420067,0.4623537063598633,1.1105390787124634,2.93951153755188,0.08853115141391754,0.0875801369547844,0.07705795764923096,0.45668619871139526,-0.49480342864990234,-0.5185337662696838,0.2044503539800644,-0.03790567070245743,-0.2804173231124878,0.1423337757587433,0.3480680584907532,1.4265663623809814,-0.04124104976654053,1.2378679513931274,0.3388133645057678,-0.8951464891433716,-0.5116401314735413,-0.12383794784545898,-0.6212551593780518,-1.1166539192199707,0.8610507845878601,0.820769190788269,0.33389943838119507,1.0677886009216309,-0.975059449672699,0.4236474931240082,0.3495157063007355,0.8298324346542358,0.2844199538230896,0.3797845244407654,0.603523313999176,0.5608536005020142,-0.015643887221813202,0.04118070378899574,0.013512669131159782,0.09317947179079056,-0.17483943700790405,0.07612934708595276,0.17903611063957214,-0.3086356222629547,0.8227405548095703,0.31334248185157776,0.09102671593427658,0.20486457645893097,0.9414805769920349,1.3127074241638184,0.45274752378463745,-0.03169883415102959,0.37452295422554016,0.6275009512901306,-0.4140337109565735,0.5489153265953064,-0.30202651023864746,0.9015955328941345,-0.773276686668396,0.8597133755683899,-0.20725631713867188,0.03776603192090988,1.077678918838501,-0.41329169273376465,0.048513785004615784,0.966565728187561,0.15747754275798798,0.11440616101026535,0.8365989327430725,0.08231981098651886,-0.35808032751083374,0.7997706532478333,-0.3243120610713959,0.03291722387075424,-0.11238472163677216,0.45436233282089233,0.8576307892799377,0.03984254226088524,0.05083061754703522,0.7244876027107239,0.3046203553676605,0.016013987362384796,-0.06800417602062225,0.6798530220985413,0.06934033334255219,0.12879875302314758,0.2956926226615906,0.28051692247390747,-0.027059445157647133,0.2541862726211548,0.08461600542068481,0.17251551151275635,-0.39526647329330444,-0.025250039994716644,0.03299073874950409,-0.03749976307153702,-0.33408114314079285,-3.1890666484832764,0.8282012939453125,-1.3575491905212402,0.08612607419490814,-0.019504355266690254,2.3562328815460205,2.7755682468414307,-0.20561756193637848,0.07561306655406952,0.032833196222782135,0.19761614501476288,-0.6669150590896606,0.2398039698600769,0.2866610884666443,0.1366952508687973,0.0076779332011938095,0.08453837037086487,-0.18322739005088806,0.2925684452056885,-0.40481775999069214,-0.26698601245880127,0.05428433045744896,0.3004104197025299,-0.06817560642957687,0.43886733055114746,0.038563553243875504,-0.06355283409357071,0.7978578209877014,-0.0490712933242321,-0.0799555629491806,-0.045706212520599365,0.021997081115841866,0.3124062418937683,-1.4077922105789185,2.52136492729187,-0.24282218515872955,0.013005590066313744,-0.10532663762569427,-0.06369300186634064,0.39680176973342896,-1.2222638130187988,0.10374858975410461,0.5902776122093201,-2.433201789855957,-0.1061735525727272,0.20721296966075897,0.1576918512582779,-0.026620622724294662,-2.109001398086548,0.030580587685108185,0.19499866664409637,0.6776046752929688,0.09700272232294083,-0.7073494791984558,-0.35132652521133423,-0.5532599091529846,0.07660087198019028,0.13850116729736328,-2.318862199783325,0.003852629102766514,-1.3981213569641113,1.3058967590332031,0.08715150505304337,0.1178181990981102,0.09398379176855087,0.043010540306568146,0.4274933636188507,-0.05472230911254883,0.019884692505002022,0.07399249821901321,-0.3650537431240082,-0.06945253908634186,0.73850017786026,0.11446895450353622,0.467172235250473,0.03386352211236954,-0.042234066873788834,0.005419471766799688,0.5066484808921814,0.38697025179862976,1.3521745204925537,0.11473113298416138,0.0034133046865463257,-0.03220916911959648,-0.08449070900678635,0.3167025148868561,0.007993661798536777,0.19350653886795044,-0.5400160551071167,-0.18021757900714874,1.186288595199585,0.47196027636528015,0.06593707948923111,-0.5343905091285706,0.5438747406005859,0.12880286574363708,-1.018979549407959,-0.001379270339384675,0.36546939611434937,-0.39993318915367126,0.07612130790948868,0.5599424839019775,-1.3138216733932495,0.12312234193086624,-0.04047580808401108,0.886658251285553,-0.007831834256649017,-0.034914351999759674,0.06892066448926926,-0.044193655252456665,-0.28014498949050903,0.9856194257736206,-0.03020606003701687,0.29819455742836,-0.05839559808373451,0.9034778475761414,0.217385396361351,-0.04150514304637909,-2.422207832336426,0.6828119158744812,-0.3167111873626709,-0.02013811096549034,-0.5895049571990967,0.38553717732429504,0.04305817931890488,0.40881121158599854,0.5482973456382751,-0.223611980676651,0.3009612262248993,-2.2726078033447266,-2.224970817565918,-0.03961465507745743,0.15974707901477814,1.1804885864257812,-0.9829744696617126,-0.5071296095848083,-0.004904481116682291,-0.03161066398024559,0.3062104880809784,-0.6624486446380615,0.3854607939720154,0.25329890847206116,-0.08427724242210388,-0.008272403851151466,-0.3841709792613983,-2.1487154960632324,0.8506712913513184,-1.500533103942871,-0.17237380146980286,0.011662812903523445,0.8959764838218689,-0.036709051579236984,0.4069099724292755,0.05885345861315727,0.055898722261190414,-0.2275998443365097,0.12093532085418701,-0.9257137775421143,0.04103529825806618,0.04404635354876518,-1.2588945627212524,-1.3502905368804932,-2.8214845657348633,1.119978904724121,0.07922735065221786,-0.012301133014261723,-2.709608793258667,0.27271023392677307,0.9204890131950378,-0.2328471690416336,-0.8201737403869629,0.21167562901973724,-2.4400277137756348,-0.5508167147636414,-0.4411866366863251,0.0711948573589325,-2.213587999343872,-0.3102795481681824,0.5128388404846191,-0.24660536646842957,-1.063337802886963,-1.785190463066101,-1.831697702407837,-0.12195360660552979,-1.4879668951034546,-0.25593289732933044,-0.8164174556732178,1.0914620161056519,0.6795834302902222,-0.06199388578534126,0.0009759420063346624,-0.409175843000412,-2.5595788955688477,0.3779730200767517,-1.871509313583374,0.04488428682088852,-0.04719521850347519,-0.019391406327486038,-0.5023840665817261,1.330146312713623,0.8858715295791626,0.18436142802238464,-1.044390082359314,-1.1748638153076172,-0.973733127117157,0.04565495252609253,0.24614299833774567,-0.33596688508987427,0.08450423181056976,-0.20067466795444489,0.029244760051369667,-0.20758049190044403,-0.05831494927406311,-0.3057231903076172,-1.195185899734497,0.3925301432609558,-0.4313881993293762,0.8935118317604065,1.3724260330200195,0.17791695892810822,-0.006638044025748968,0.42885103821754456,2.8265068531036377,0.11336244642734528,-0.8895225524902344,-0.22791068255901337,-2.1347320079803467,-1.7266178131103516,-0.06358159333467484,-0.8764963150024414,-1.2650421857833862,-1.7430897951126099,0.04039084166288376,0.6285415291786194,-1.6453741788864136,-2.505157232284546,0.08268322050571442,0.08018150180578232,-5.331765174865723,0.2456764280796051,-1.8282926082611084,0.15315096080303192,-0.7355440258979797,-0.9244683980941772,-3.304786443710327,-0.13718515634536743,0.2126287817955017,0.9463077187538147,-0.35835936665534973,0.06145724654197693,0.10969778895378113,0.01841524802148342,0.02619432844221592,-4.077322959899902,0.4786824584007263,1.4602930545806885,1.7447456121444702,-0.644041895866394,1.1967241764068604,-0.06751861423254013,0.6756447553634644,-0.9006113409996033,-1.3951607942581177,0.5153234601020813,-0.03984042629599571,0.02105272002518177,-2.5442583560943604,-0.4956786036491394,1.2112977504730225,-3.3153598308563232,0.18741744756698608,0.049273110926151276,1.3093719482421875,1.824144721031189,0.5992509722709656,1.6918938159942627,1.239227294921875,-0.022379690781235695,0.38069626688957214,0.05114572495222092,0.087134450674057,-0.04576495289802551,0.006676229182630777,0.8638688921928406,-0.5814903378486633,-1.083271861076355,0.012580370530486107,-0.03262129798531532,0.482232928276062,1.6521340608596802,3.1227262020111084,0.9188281297683716,-0.03680494427680969,0.006772827822715044,0.3237115144729614,0.07592681795358658,0.4293922185897827,-0.2109353393316269,-0.0011913515627384186,0.2795460522174835,-0.02035664953291416,-0.21953201293945312,3.7828094959259033,0.008584280498325825,1.1500717401504517,-0.6173110008239746,0.27281513810157776,0.8268648386001587,0.12037445604801178,1.9312305450439453,2.3081610202789307,1.0030196905136108,-0.41090577840805054,-0.6115413904190063,1.1483078002929688,0.8461825251579285,1.322186827659607,1.369753360748291,-0.6802319884300232,-0.14072932302951813,0.15367427468299866,-0.5748298168182373,0.5543969869613647,0.07941348105669022,0.038985706865787506,-0.01210413221269846,-0.594474196434021,1.0131627321243286,-0.14098642766475677,-0.4388243556022644,0.5156536102294922,1.2842731475830078,-0.23296459019184113,0.026920260861516,0.27143946290016174,-0.316545307636261,1.2704579830169678,0.24630366265773773,-0.04890000447630882,-0.66798335313797,0.5584582686424255,0.41740667819976807,1.0427868366241455,-1.1050738096237183,0.08634723722934723,-0.38771000504493713,0.4551160931587219,-0.9443729519844055,0.07195726782083511,1.4303877353668213,-1.056447982788086,-0.22215302288532257,0.42354121804237366,-0.3622940182685852,0.9269121885299683,0.34950143098831177,-0.02631949447095394,0.44441577792167664,-0.2619268596172333,1.6233190298080444,-0.026145270094275475,-0.9981620907783508,0.8324288129806519,0.25686413049697876,-0.07574529200792313,-0.08656627684831619,1.8639742136001587,2.616913318634033,0.4248564541339874,-0.29923227429389954,0.6320016384124756,0.6221123933792114,0.5503373742103577,-0.8413800597190857,-0.6099720001220703,2.3688454627990723,-0.12408913671970367,0.019206641241908073,0.02559124492108822,0.018999967724084854,-0.05071530118584633,1.351793646812439,0.025528177618980408,0.03930220007896423,0.11357826739549637,-1.5190526247024536,-2.4537556171417236,-0.03638439252972603,-0.1541980654001236,1.584276795387268,3.3015551567077637,0.5810731053352356,-0.08475024253129959,-0.06790576130151749,-0.03249810263514519,0.9069444537162781,-1.149454116821289,0.2569577395915985,-0.30500754714012146,0.006724350620061159,-0.01058900821954012,0.042828839272260666,-0.07306863367557526,-0.11553417146205902,-0.11828693747520447,0.07235343009233475,-0.10668816417455673,-0.008416661992669106,-0.08979771286249161,0.06846820563077927,-0.0523226261138916,0.026560824364423752,-0.026923492550849915,-0.025693809613585472,0.06326095759868622,-0.02498454600572586,-0.0779041200876236,-0.027348460629582405,0.060216158628463745,-0.025176363065838814,0.08458220213651657,0.04681222885847092,0.01174488477408886,-0.06634186953306198,-0.1238190084695816,-0.038188762962818146,-0.11438057571649551,-0.001945626107044518,0.014053565450012684,-0.10310438275337219,-0.019905993714928627,-0.07669215649366379,0.07212477177381516,-0.06573962420225143,-0.10208719223737717,-0.11637219786643982,-0.0576450452208519,0.03431525081396103,0.0551314502954483,-0.040167588740587234,0.030525995418429375,-0.024099742993712425,-0.07753453403711319,0.06898944824934006,-0.014126734808087349,-0.03169146925210953,-0.06447809934616089,-0.007930651307106018,-0.021294713020324707,-0.02809462882578373,0.002232455415651202,0.04583897441625595,-0.004443215671926737,-0.08459968864917755,0.0072917151264846325,0.038055893033742905,0.03886806592345238,0.020006056874990463,-0.05271264910697937,-0.12453478574752808,-0.07707880437374115,-0.04992011561989784,-0.00045591298840008676,0.037962473928928375,0.039629776030778885,-0.010496617294847965,-0.03736200928688049,-0.0922369733452797,0.007722710724920034,-0.05839180946350098,-0.12542907893657684,-0.11217701435089111,0.0198920127004385,-0.12619444727897644,0.06598041951656342,0.03231297433376312,0.07145379483699799,-0.054992351680994034,-0.010921544395387173,-0.024306338280439377,0.06379204243421555,0.05360158160328865,0.04824509099125862,0.026166409254074097,-0.07050256431102753,-0.008292381651699543,-0.09782823920249939,-0.023270703852176666,0.07949981838464737,0.003990042023360729,-0.08618029206991196,0.02949368953704834,0.02119600772857666,0.029359620064496994,0.051234129816293716,-0.07568393647670746,-0.018021253868937492,-0.022329598665237427,-0.07057752460241318,-0.08613612502813339,-0.10856454819440842,-0.05308910086750984,0.018318746238946915,-0.02601531706750393,-0.09860783070325851,0.061554405838251114,-0.03631862998008728,0.02105589210987091,-0.06706542521715164,0.035812120884656906,0.0309947207570076,-0.09849125146865845,0.028281114995479584,-0.012129251845180988,-0.021948885172605515,0.06365049630403519,-0.05077768489718437,-0.05172010883688927,0.05691510811448097,0.07320757955312729,0.05926802381873131,0.02770736999809742,-0.055423177778720856,-0.08587590605020523,0.03424665331840515,-0.11709972470998764,-0.040159713476896286,-0.054847925901412964,-0.022607656195759773,-0.048299651592969894,0.014770785346627235,0.06186452507972717,-0.010123851709067822,0.023214293643832207,0.038447778671979904,-0.05406442657113075,-0.04169386625289917,0.023957375437021255,-0.009892950765788555,-0.011306407861411572,-0.04849450662732124,0.01652040332555771,-0.030445143580436707,0.04200441390275955,-0.04402455314993858,-0.07623140513896942,0.0012376006925478578,0.012288461439311504,-0.003883547615259886,-0.029582208022475243,-0.010649566538631916,0.0022557228803634644,0.005284284241497517,0.021228471770882607,-0.009330100379884243,0.030915429815649986,-0.05216008424758911,0.03724246099591255,0.0734485611319542,0.061786141246557236,-0.011985604651272297,-0.03425110876560211,0.0554114431142807,-0.03890206664800644,0.014920704998075962,-0.07887277752161026,0.00554305873811245,-1.2867153600382153e-06,-0.02209528535604477,0.04852811247110367,-0.02759675309062004,0.013404624536633492,0.03467072546482086,-0.011672822758555412,0.013747885823249817,0.06309094280004501,-0.012809046544134617,-0.06798595190048218,0.006941743660718203,-0.07913732528686523,0.005092002917081118,-0.040966421365737915,-0.014803917147219181,0.018766779452562332,-0.06246337667107582,-0.08111429214477539,-0.006087258458137512,-0.0010574777843430638,-0.05057608336210251,0.0009934117551892996,0.005764087196439505,-0.06587991863489151,-0.05121563747525215,-0.034976374357938766,-0.08330404758453369,-0.007145287469029427,-0.06690721958875656,0.06938506662845612,0.02151111327111721,0.02548373118042946,0.014770124107599258,-0.044387754052877426,-0.05044247582554817,-0.07876238226890564,0.04981224238872528,-0.06686168164014816,0.05223008245229721,-0.05816138908267021,0.033157747238874435,0.024317676201462746,-0.07426522672176361,0.07223014533519745,-0.02081466279923916,-0.028650939464569092,-0.009446058422327042,-0.019154438748955727,-0.025470415130257607,-0.044534530490636826,0.010419624857604504,0.058068275451660156,-0.04800807312130928,-0.05414886772632599,0.013089768588542938,-0.05537901073694229,-0.060004591941833496,-0.07020264863967896,0.016330942511558533,-0.02174423076212406,-0.06645359098911285,-0.05585670471191406,0.050834670662879944,0.06284654140472412,0.04097789153456688,-0.053020723164081573,-0.061518922448158264,-0.05672956258058548,-0.0848979577422142,0.029157839715480804,0.04717683792114258,0.07358045130968094,0.05016187205910683,0.022485554218292236,0.03742024675011635,0.07088716328144073,0.02031146176159382,0.017071928828954697,0.055728089064359665,-0.04987095296382904,0.08352441340684891,0.004905629437416792,0.013371490873396397,-0.004343773238360882,-0.078355573117733,-0.08489017188549042,-0.07222891598939896,-0.05832852050662041,-0.15456236898899078,2.5442557334899902,0.302934855222702,-0.7568632960319519,-0.3303242027759552,0.050240516662597656,0.3364769518375397,-0.007248752284795046,0.09694696217775345,0.05760464817285538,0.030000906437635422,-0.6586079597473145,0.07824796438217163,2.461836338043213,-0.04462427273392677,0.016298839822411537,-0.5044522285461426,1.6531760692596436,4.470478534698486,0.8854432106018066,0.032596394419670105,0.04460689425468445,-1.7781914472579956,-0.03412472829222679,0.7534171938896179,-0.22498029470443726,-3.47597599029541,0.7732058167457581,-0.07280436903238297,-0.5922458171844482,5.894980430603027,0.07052167505025864,3.6329119205474854,0.26129665970802307,0.5681198835372925,0.22524765133857727,-1.210059642791748,2.625939130783081,-0.8343526124954224,1.0340367555618286,-0.40135863423347473,0.37158113718032837,5.002394199371338,0.6836492419242859,1.689380407333374,0.19856217503547668,-0.3090067505836487,-0.09814097732305527,0.1294795572757721,0.004017651546746492,0.34528377652168274,-0.0203818678855896,0.045777514576911926,0.00199839286506176,-0.12651214003562927,0.6699671149253845,0.09566748142242432,-0.05858777463436127,0.03753006458282471,-0.05418959632515907,2.452515125274658,0.10571588575839996,-0.9036816954612732,-2.3095359802246094,0.5890691876411438,0.21466578543186188,-0.06728271394968033,0.043053556233644485,0.40945154428482056,-0.7549085021018982,0.180812269449234,-0.15287336707115173,1.0384732484817505,0.10700153559446335,-1.1922883987426758,0.03570437803864479,-0.039486318826675415,1.029656171798706,-2.0299222469329834,0.004135703202337027,1.13034188747406,-0.7117399573326111,-0.46846386790275574,1.170346975326538,0.05904777720570564,-0.8334417939186096,0.9106559753417969,0.3846258521080017,0.003865982871502638,-1.4309680461883545,0.10887032747268677,0.30393365025520325,0.037799589335918427,-0.001267503248527646,1.9430660009384155,0.926885724067688,-0.05580552667379379,-0.11043979227542877,0.017078004777431488,-1.593865156173706,-0.3896855413913727,0.01233348622918129,1.0596835613250732,2.5505473613739014,0.4254649877548218,0.02975112944841385,0.37644824385643005,0.020082904025912285,0.054234351962804794,-1.8539124727249146,-0.5848317742347717,0.22681452333927155,-2.3273425102233887,4.559479236602783,-1.8899705410003662,-0.06030946224927902,0.198597714304924,3.0507681369781494,3.204392194747925,0.41598451137542725,0.08520197868347168,-0.08237894624471664,0.5336421728134155,0.802123486995697,0.4287724196910858,0.46996328234672546,0.29133400321006775,-0.03373204916715622,-0.6658621430397034,-1.161858320236206,-0.2389897108078003,-0.7675378918647766,-1.979927897453308,0.017727723345160484,0.2599779963493347,-0.00200435658916831,-0.03357358276844025,0.053530458360910416,-0.06452208012342453,-0.05620597302913666,0.22986984252929688,-0.8138481378555298,0.038202691823244095,-0.07126108556985855,0.048943668603897095,-2.98755145072937,-2.2803614139556885,-0.3700285255908966,-0.0706232488155365,-0.01586245372891426,0.7887744903564453,0.09937415271997452,0.6889299750328064,0.12355499714612961,0.0833795890212059,-0.21730449795722961,0.027165113016963005,-0.013403371907770634,-2.98500919342041,-0.013725669123232365,-2.8911211490631104,0.2928469181060791,0.01863841898739338,-0.3419274091720581,0.5065483450889587,-2.0196287631988525,-0.41511112451553345,0.10106205940246582,0.10413718968629837,0.19206535816192627,-1.714678406715393,-0.4245692491531372,-1.6894510984420776,-0.2469942569732666,0.4213739037513733,0.09920544177293777,-0.4456782639026642,0.5600556135177612,-0.3087216913700104,-0.08071908354759216,-0.0028770703356713057,-0.06981050968170166,0.11141708493232727,-0.4784282147884369,0.0992569699883461,0.25830817222595215,-0.4469723403453827,-0.7210811972618103,-0.6776633858680725,0.03107205405831337,0.3747842609882355,0.057301804423332214,-0.41484248638153076,0.14123530685901642,-0.05051214247941971,0.13311320543289185,0.03430250287055969,0.21555180847644806,-0.5379408597946167,0.48303133249282837,-0.526326060295105,0.10281047970056534,1.0815162658691406,0.10797367244958878,0.03385942801833153,-4.015954971313477,2.4954171180725098,0.09104225784540176,-0.34300363063812256,0.1997803896665573,-0.04672032967209816,-0.08790126442909241,-0.08787643164396286,-0.19973960518836975,-0.26237401366233826,-0.09025664627552032,0.016221994534134865,1.315941333770752,-0.4552983343601227,0.03987547382712364,0.06260065734386444,-0.01628640666604042,-1.469871163368225,-0.9281863570213318,0.445018470287323,0.06998346000909805,-0.3789425492286682,0.39404019713401794,0.6013190746307373,0.18432237207889557,0.29745686054229736,-2.1425647735595703,-0.41667667031288147,0.025797002017498016,0.1322086900472641,0.17425265908241272,-0.050289008766412735,-0.4183354079723358,0.05152389779686928,0.029250746592879295,3.1813223361968994,-1.9414507150650024,2.9227135181427,0.07683513313531876,0.022616155445575714,-1.9912790060043335,-3.486194133758545,-0.31051135063171387,-0.02520887181162834,0.02031012251973152,-0.08560647815465927,-0.8191465139389038,0.7830089330673218,-0.2775283753871918,0.1781909465789795,0.04640607163310051,-0.379363477230072,-0.2106391340494156,-0.81331467628479,-0.4218992590904236,-0.9670457243919373,-0.009861908853054047,0.36323457956314087,-0.02892698347568512,0.10924902558326721,-0.06861600279808044,-0.07517698407173157,0.4483433961868286,0.03176793456077576,-0.5797486305236816,-0.010716215707361698,0.08084233105182648,0.3436810374259949,-1.4615628719329834,-2.5507357120513916,-0.2523045241832733,0.06233948841691017,-0.008465644903481007,1.7116059064865112,-0.0949714332818985,-0.3506329357624054,0.09396511316299438,0.7221598625183105,-0.5625644326210022,0.002269393764436245,0.09887183457612991,-2.1103405952453613,0.08811601251363754,-3.387315273284912,0.2418489158153534,-0.11640076339244843,-0.3208596706390381,0.7893690466880798,-1.785169243812561,-0.0036883929278701544,-0.11227890104055405,0.39758333563804626,0.1897745132446289,-2.0984010696411133,-1.1092360019683838,-1.6841765642166138,-0.4609420597553253,0.524806559085846,0.0606263130903244,-0.11255092918872833,0.8626984357833862,0.18879084289073944,-0.08520613610744476,0.048841528594493866,0.08649589866399765,0.04852934554219246,-0.16692739725112915,0.11722507327795029,0.2620878517627716,-0.12049084901809692,-0.612027108669281,-1.068145513534546,-0.08689858764410019,-0.055047668516635895,0.7965101599693298,-0.5506002306938171,0.3349264860153198,-0.07698076218366623,0.1983644962310791,-0.0025217621587216854,0.27363836765289307,-0.40809234976768494,0.3267684876918793,-0.09296926856040955,-0.022569796070456505,1.122694730758667,0.04540148749947548,-0.06519020348787308,-0.8523333668708801,2.302117109298706,0.06440102308988571,-0.3420960605144501,0.19328702986240387,0.35455837845802307,-0.5455518960952759,-0.07810942828655243,0.3267619013786316,-0.025273019447922707,-0.49121975898742676,0.07512687891721725,1.1459089517593384,-0.3051251173019409,0.6945986747741699,0.019745713099837303,-0.01889568567276001,-2.015317678451538,-1.2274812459945679,0.7631258964538574,0.11777199059724808,-0.2634601294994354,0.7349438071250916,0.9919581413269043,0.20750051736831665,0.32669711112976074,-0.6534444689750671,-0.468999981880188,0.11826002597808838,0.05032183229923248,-0.010123242624104023,0.07471209764480591,-0.2539936304092407,0.15729892253875732,0.5264629125595093,3.2193589210510254,-3.572725772857666,2.8063642978668213,0.08406823128461838,-0.061885420233011246,-0.4321328401565552,-4.42742395401001,-0.671406090259552,-0.043763887137174606,0.07814359664916992,-0.22579309344291687,-0.9141373038291931,0.8847708106040955,-0.16287818551063538,0.09929501265287399,0.0228899959474802,-0.051538147032260895,0.014199222438037395,-0.09444868564605713,-0.026338256895542145,0.0014280995819717646,-0.08160721510648727,-0.010694462805986404,0.008036266081035137,-0.09045510739088058,-0.0036562811583280563,0.01872391626238823,0.07944146543741226,0.046639494597911835,-0.08813005685806274,0.018013952299952507,-0.04216143116354942,0.017880983650684357,0.03020986169576645,0.019570015370845795,-0.12151575833559036,-0.06974125653505325,0.05560354143381119,-0.016559850424528122,0.05766165629029274,-0.07321295142173767,-0.00029107200680300593,0.08640990406274796,0.0455213226377964,0.03156024590134621,-0.048315487802028656,-0.14194561541080475,0.003956777509301901,0.030375372618436813,0.019927095621824265,-0.048015888780355453,-0.07857193797826767,-0.022055411711335182,-0.039911527186632156,0.008252998813986778,-0.037709321826696396,0.07384029775857925,-0.016128508374094963,-0.0086221843957901,0.053100910037755966,-0.09695154428482056,-0.10511474311351776,0.011349918320775032,-0.02347193844616413,0.06827132403850555,-0.08095259964466095,-0.016766630113124847,0.0712653174996376,-0.044863928109407425,0.06608167290687561,-0.002719766926020384,-0.11404450237751007,0.02993549220263958,-0.058597151190042496,0.052438266575336456,0.06826456636190414,0.06565739214420319,-0.003471621312201023,-0.016263235360383987,0.017224429175257683,-0.003864964470267296,0.0022054424043744802,0.030592311173677444,-0.05036301910877228,0.018208689987659454,-0.015812767669558525,0.06305409967899323,-0.03679066523909569,0.03994922339916229,0.052784260362386703,-0.09437340497970581,0.043234456330537796,-0.016475887969136238,0.014804141595959663,0.03757169470191002,-0.04052811115980148,0.0078023807145655155,-0.1099383533000946,0.014091696590185165,-0.07921449840068817,0.05027484521269798,0.05387243628501892,-0.05491439998149872,-0.0007480336935259402,-0.028112052008509636,0.06831079721450806,-0.03425772488117218,-0.040277790278196335,0.054203879088163376,0.010288519784808159,-0.025845596566796303,-0.03726468235254288,0.0706295594573021,0.046905115246772766,0.02625805325806141,-0.07592890411615372,-0.007030651438981295,-0.05441832169890404,0.07006620615720749,0.04110434278845787,0.0011368654668331146,0.030391491949558258,-0.0014047609874978662,0.025925954803824425,-0.0857243463397026,-0.07218027114868164,-0.010729056783020496,-0.02603316307067871,0.012299240566790104,0.08183624595403671,-0.13676822185516357,0.04178079217672348,-0.009510607458651066,-0.014021456241607666,-0.07922343909740448,-0.009485903196036816,-0.06607862561941147,0.06572790443897247,-0.06485985219478607,-0.08625728636980057,-0.07934895902872086,-0.017567848786711693,-0.0375690758228302,-0.02506287582218647,0.31458866596221924,0.7833805084228516,-0.740495502948761,-1.8245173692703247,0.7815597653388977,-0.079171322286129,-0.778196394443512,-0.04905955120921135,-0.21440167725086212,-0.043611302971839905,-0.06448697298765182,0.35899341106414795,-0.18918220698833466,-1.8686180114746094,-0.010465799830853939,-0.047220200300216675,0.2293747365474701,1.1524133682250977,0.03972647711634636,-1.936172604560852,-0.06886011362075806,0.08370599895715714,1.7480734586715698,-0.58491450548172,0.22631648182868958,0.15081602334976196,0.673037588596344,-1.7425333261489868,-0.26450300216674805,0.3446410596370697,-0.8672804832458496,0.0050452412106096745,1.3801860809326172,-0.13111191987991333,-0.679518461227417,-0.3226868808269501,0.20673833787441254,0.03191034868359566,0.3568893373012543,0.22688928246498108,0.5248574614524841,-0.14490476250648499,-1.0129071474075317,-0.9714906215667725,-0.07425999641418457,0.10759429633617401,0.22672004997730255,0.09731689840555191,0.7189731597900391,0.06137879192829132,0.3526088297367096,-0.05328858643770218,0.002470637671649456,0.07702399790287018,0.005822442471981049,-1.0379031896591187,-0.0478176549077034,0.03476429358124733,-0.14278946816921234,0.20354463160037994,-0.9102848172187805,0.022322608157992363,-0.22198240458965302,-0.013113926164805889,0.10732188820838928,-0.3649243116378784,0.07483146339654922,0.08872854709625244,-1.3817503452301025,-0.05783743038773537,0.11875735223293304,0.1624990552663803,0.05648113414645195,-1.7927489280700684,-0.15983982384204865,-0.03579772263765335,0.08366017788648605,1.589087963104248,-0.9582610130310059,-0.1490003764629364,0.3717971742153168,0.25620603561401367,0.4105324447154999,-0.6401601433753967,-0.005873911548405886,0.6576045155525208,0.25671273469924927,0.9977841973304749,-0.027704661712050438,0.09522432088851929,0.021461106836795807,0.4104260504245758,-0.05284417048096657,0.030413955450057983,0.09981272369623184,0.41822949051856995,0.41370052099227905,0.044056568294763565,0.2605705261230469,0.4120672345161438,0.6116594672203064,0.07403165102005005,0.1974361091852188,-1.097444772720337,0.1321658343076706,-0.039526429027318954,0.2789490818977356,-0.459583580493927,-0.012744395062327385,0.7260332703590393,0.22804531455039978,-1.337926983833313,1.997836947441101,-2.2101967334747314,-1.654191493988037,0.07307696342468262,-1.6756601333618164,0.40676793456077576,-1.8603746891021729,0.11205142736434937,0.037291236221790314,0.0020661649759858847,-0.0685255229473114,0.03419342637062073,-0.5146511793136597,-0.14212484657764435,-0.6699917912483215,-0.021636169403791428,-0.07948727160692215,-0.09619787335395813,-0.10251723229885101,-0.09138727933168411,-0.04286167025566101,0.0459984689950943,-0.0655357763171196,-0.08583351969718933,0.00735635356977582,-0.08254005759954453,-0.06540728360414505,0.023730643093585968,-0.095492422580719,-0.039261266589164734,-0.05104640871286392,0.04624670371413231,-0.010742451064288616,0.06508668512105942,-0.021916890516877174,0.05168149247765541,-0.04140323027968407,-0.07942613214254379,-0.044840410351753235,0.012962118722498417,0.02275238372385502,0.03590182960033417,0.023335561156272888,-0.10525386780500412,-0.058710239827632904,-0.07703258097171783,0.004951864946633577,-0.029782911762595177,0.045854970812797546,-0.047926969826221466,-0.05856922268867493,0.01864844374358654,-0.03320332616567612,0.006726531311869621,0.05982331186532974,-0.04415697976946831,-0.0005004043923690915,0.012754852883517742,0.04934591054916382,-0.11452674865722656,0.05145156383514404,-0.01026024017482996,-0.00502526480704546,-0.0323832742869854,0.022860916331410408,-0.07731366902589798,-0.018688412383198738,0.08810492604970932,0.016370857134461403,0.05567865073680878,-0.11722046881914139,0.02523118257522583,-0.06108540669083595,-0.031806621700525284,-0.009130352176725864,-0.05537332594394684,0.001828934415243566,-0.0255030058324337,0.046868883073329926,0.06557557731866837,-0.03291758894920349,0.0022790597286075354,0.037499167025089264,-0.026901347562670708,-0.03543170914053917,0.017525779083371162,-0.05474436283111572,-0.012001381255686283,0.023350313305854797,-0.09569958597421646,0.00934511050581932,-0.08622301369905472,-0.08148068934679031,-0.05821758881211281,-0.08256310224533081,-0.08366915583610535,-0.0170074962079525,-0.10941135138273239,-0.0776570737361908,-0.06191680580377579,-0.019315047189593315,0.034571271389722824,0.0688970535993576,-0.050808362662792206,-0.03612886741757393,-0.0880492627620697,-0.0714203342795372,-0.025907767936587334,-0.0682310238480568,0.06117064878344536,0.03227690979838371,-0.049962516874074936,-0.06880269199609756,-0.12160877883434296,-0.03735368698835373,-0.04478362202644348,-0.025436008349061012,-0.08542397618293762,0.006332621909677982,-0.024242596700787544,-0.013923109509050846,0.07727940380573273,-0.06261998414993286,-0.03321121260523796,-0.05478150397539139,-0.08829782903194427,-0.0641070082783699,0.009697852656245232,-0.0019663821440190077,-0.044135067611932755,-0.015400846488773823,0.08785557001829147,-0.0313604399561882,0.010233866050839424,-0.032644666731357574,0.009452334605157375,-0.02369348332285881,-0.011990630999207497,-0.06620552390813828,0.02670872025191784,0.017711952328681946,0.015792272984981537,0.024176469072699547,0.07774338126182556,0.0458771251142025,-0.08589886873960495,-0.036872487515211105,0.03601192310452461,-0.06411970406770706,-0.04957946389913559,0.07406143099069595,-0.008628039620816708,0.06735432893037796,0.005883889738470316,0.012094332836568356,-0.046001967042684555,0.011098826304078102,-0.010835056193172932,-0.04164733365178108,0.03895481303334236,0.03470221534371376,-0.06044245883822441,-0.06889166682958603,-0.021507136523723602,-0.039201583713293076,-0.0535745844244957,0.041068218648433685,-0.08629115670919418,-0.04622473195195198,-0.06962671875953674,-0.04968860000371933,0.03940786421298981,-0.09078043699264526,0.01832030713558197,-0.08440372347831726,0.015938514843583107,0.07720755785703659,0.008547513745725155,-0.02832884155213833,0.014405207708477974,-0.01705298386514187,0.04933473840355873,0.04799569025635719,-0.028969520702958107,0.01449184212833643,0.06451623886823654,-0.075700543820858,0.06009426712989807,-0.027164706960320473,-0.09451757371425629,-0.060041848570108414,-0.022196773439645767,-0.06858905404806137,0.008349912241101265,0.021632902324199677,0.053903479129076004,0.007773269433528185,0.08144015073776245,-0.0887896865606308,0.05119086429476738,-0.07347311079502106,-0.0047492580488324165,-0.08860092610120773,-0.058886703103780746,-0.015648527070879936,-0.04395043104887009,0.08223064988851547,-0.010051000863313675,-0.10670173168182373,-0.0611228309571743,-0.03486918285489082,-0.0026301138568669558,-0.05892382934689522,-0.04687287285923958,0.06398190557956696,-0.041367802768945694,0.03737260401248932,0.008379317820072174,0.024603785946965218,-0.028630774468183517,-0.037141088396310806,0.06191821023821831,-0.05368269979953766,-0.0435875728726387,-0.07503175735473633,-0.0208891611546278,-0.07516273856163025,0.05859502777457237,-0.028133168816566467,0.056258417665958405,0.014399112202227116,-0.07161422818899155,-0.035428714007139206,0.04807513952255249,0.030047552660107613,0.05474873632192612,-0.005405818112194538,0.029578447341918945,0.047528982162475586,-0.04342496395111084,0.03178345039486885,0.025306997820734978,0.06055938079953194,-0.006109402049332857,-0.021345485001802444,0.0020632960367947817,-0.06908770650625229,-0.019211841747164726,-0.06587108969688416,0.07766605168581009,-0.0431535579264164,0.05943278968334198,-0.08453495800495148,-0.09348950535058975,-0.02062036655843258,0.03764539584517479,0.022120993584394455,-0.06785368174314499,0.015233219601213932,-0.04655415564775467,0.003857955802232027,-0.030382271856069565,0.0458243191242218,-0.09991128742694855,0.003702695481479168,0.0767364427447319,0.004296339116990566,-0.04205426946282387,0.02270943485200405,0.055999383330345154,-0.06680047512054443,-0.006475978996604681,-2.511265993118286,-0.8167085647583008,-1.340680718421936,-0.25783494114875793,-1.6153314113616943,-0.0008386169211007655,0.09843186289072037,0.02406938001513481,0.33133020997047424,-0.03880732133984566,-0.07944659888744354,-0.592150092124939,0.20875033736228943,-0.3432976007461548,-0.02671206183731556,-0.02167363651096821,-2.4282584190368652,-2.179403066635132,-2.7533092498779297,1.0861517190933228,0.07541637867689133,-0.05268220975995064,1.1405737400054932,0.3128669559955597,0.8431755304336548,-0.1790880262851715,0.5584467053413391,-0.6699459552764893,0.015122049488127232,-0.827041745185852,-0.07221478968858719,-0.033829230815172195,0.6270325183868408,0.2199288308620453,0.5963959693908691,0.34826233983039856,-0.4297049641609192,-0.06636390835046768,0.40434500575065613,-0.382097452878952,-0.4293687045574188,0.1013408899307251,0.3119427561759949,-0.801013171672821,1.2720425128936768,-2.8214008808135986,-0.4080224931240082,-0.27450308203697205,-1.2730623483657837,0.06723997741937637,-2.954463243484497,0.0136330621317029,-0.06915537267923355,0.06796140968799591,-0.2699738144874573,0.49373799562454224,0.4599502384662628,0.05046863481402397,0.14180918037891388,-2.412628650665283,-0.7777515649795532,0.08142322301864624,0.020049279555678368,-1.6429539918899536,-2.8096601963043213,0.28918686509132385,0.01183075737208128,-0.05307328701019287,0.8524969816207886,-0.5416020154953003,-0.4590255618095398,0.07356587797403336,-0.47982901334762573,0.45211413502693176,0.3521321415901184,0.226069375872612,0.08268328756093979,0.0440441332757473,2.772745370864868,0.18532738089561462,-0.18457788228988647,-0.29181531071662903,-0.3034061789512634,0.7335788011550903,-0.034653738141059875,-0.22930914163589478,-0.5876412391662598,-0.633540153503418,0.07926133275032043,-0.3989641070365906,-0.38946858048439026,-1.2772939205169678,8.236547728301957e-05,0.06790531426668167,2.6301958560943604,-0.035847894847393036,-0.3845219910144806,0.02220742031931877,-0.29182061553001404,-0.02397133968770504,-0.3723068833351135,-0.046470846980810165,-0.7950811982154846,0.09310123324394226,-0.20518887042999268,-0.02061777375638485,-0.3185015618801117,0.2482270747423172,0.019818270578980446,-0.027508927509188652,-0.0572030246257782,0.4520021378993988,0.2483256459236145,-0.44701430201530457,-1.579892635345459,-0.034656256437301636,0.6033867597579956,-1.0846202373504639,1.9138376712799072,-0.6693069338798523,0.04893743246793747,0.0838562622666359,0.1293635219335556,0.04630747810006142,0.6407342553138733,0.01969802938401699,0.4504220485687256,0.06463301181793213,-0.00038118247175589204,-0.0903732106089592,0.018646545708179474,-0.05771750956773758,-0.01924392767250538,-0.023569149896502495,-0.041176266968250275,0.07151548564434052,-0.07901369035243988,0.04068255051970482,0.0253219623118639,-0.07937608659267426,-0.0021692467853426933,-0.08496815711259842,-0.009227683767676353,0.03479565680027008,0.08657673746347427,0.05931171774864197,-0.0511588528752327,-0.02187383733689785,0.058208346366882324,0.011053948663175106,0.022420277819037437,-0.08186519145965576,0.06550382077693939,-0.008974088355898857,-0.06194397807121277,-0.09297344833612442,-0.062251441180706024,-0.06039389967918396,-0.05637805536389351,0.022773943841457367,0.04670962318778038,-0.1067311242222786,-0.01852784864604473,-0.08484234660863876,-0.003963335882872343,0.004113595467060804,0.0389452688395977,-0.06476959586143494,-0.09487289190292358,0.01468057930469513,-0.009484727866947651,0.0043061464093625546,-0.04703071713447571,-0.07376810908317566,-0.11701609194278717,-0.004554674029350281,0.013845089823007584,-0.003041316056624055,-0.08891920000314713,0.018815312534570694,0.06377112865447998,0.043715089559555054,0.04756792634725571,0.03549468517303467,-0.022130198776721954,0.024378661066293716,-0.010127902030944824,0.005997905507683754,-0.07722097635269165,-0.009232508949935436,0.07853325456380844,-0.024691477417945862,-0.08252833783626556,-0.05492999404668808,-0.036117613315582275,0.0180659256875515,-0.10668039321899414,-0.060446299612522125,-0.0833153948187828,-0.12551403045654297,-0.09385769814252853,0.006589605938643217,0.058094415813684464,-0.1109711304306984,0.07012341916561127,0.08700481057167053,0.030011631548404694,-0.08879227936267853,-0.06022685021162033,-0.044780999422073364,0.02892991527915001,0.00255530490539968,-0.04228096082806587,-0.03331520035862923,0.020330533385276794,-0.08054600656032562,0.012872342951595783,0.07952683418989182,-0.05995713919401169,0.06925079971551895,0.027372945100069046,0.04431314393877983,-0.01562574878334999,-0.010518163442611694,-0.05557500571012497,0.0029658095445483923,-0.007993906736373901,0.05407802015542984,-0.07889576256275177,-0.0176262054592371,0.030987810343503952,-0.04231523349881172,-0.08083175867795944,0.0430968701839447,0.015123178251087666,-0.0020741382613778114,-0.08524234592914581,-0.06458374112844467,-0.005503125488758087,-0.0007891038549132645,0.00305768009275198,-0.06756079196929932,-0.06971225887537003,0.05418649688363075,-0.12186796218156815,-0.09885580837726593,-0.10148168355226517,-0.03450503945350647,0.08659922331571579,0.013458005152642727,-0.08089625090360641,0.0470799058675766,0.0245504267513752,-0.005139277782291174,-0.07348767668008804,0.034083638340234756,0.0033093017991632223,-0.010379331186413765,-0.12789450585842133,-0.07734237611293793,-0.01352024544030428,0.0039670090191066265,0.02441195212304592,0.06091729551553726,-0.0036537006963044405,-0.055958960205316544,0.05703436955809593,-0.015783950686454773,-0.03466293588280678,0.031029710546135902,0.011744472198188305,0.08204114437103271,0.0756361186504364,0.04085409641265869,-0.0054975952953100204,0.03358365222811699,-0.08213204890489578,-0.06336972117424011,0.028502194210886955,-0.0890987366437912,-0.07822207361459732,0.028260793536901474,-0.003118077991530299,0.0703972801566124,-0.05844215303659439,-0.0335797518491745,-0.09910789877176285,-0.010663541965186596,-0.05468074977397919,-0.038432229310274124,0.015216734260320663,-0.11149358004331589,-0.062365733087062836,-0.02022315375506878,0.032766979187726974,-0.08420857787132263,-0.10995376855134964,-0.069176584482193,0.029690252617001534,-0.08227210491895676,-0.08279506862163544,-0.0813412144780159,-0.10129404813051224,-0.08666332066059113,-0.07392212003469467,0.03856698051095009,0.017100345343351364,0.017627054825425148,0.001287544029764831,-0.009989846497774124,-0.09611346572637558,0.02833600714802742,-0.11946339160203934,-0.05511622875928879,0.007840700447559357,-0.120218925178051,0.04093518480658531,-0.023316774517297745,-0.053165413439273834,-0.020039277151226997,0.04359019920229912,-0.08578770607709885,0.024391550570726395,-0.06774032115936279,-0.005032653454691172,-0.03333122655749321,-0.12825308740139008,-0.09991945326328278,-0.1182287335395813,-0.10895556956529617,-0.06175929307937622,-0.0812026783823967,0.03598069027066231,0.06426478177309036,0.08364522457122803,-0.04974782094359398,0.0019811231177300215,0.01630169339478016,-0.12959058582782745,-0.03685419261455536,0.018888277933001518,0.0054485006257891655,-0.04315303638577461,-0.1015668511390686,0.005574384238570929,0.011998364701867104,0.030883895233273506,-0.0592571422457695,-0.045777734369039536,0.023185718804597855,0.019334575161337852,0.01813437044620514,-0.09638582170009613,0.04039281979203224,-0.016847897320985794,-0.023988354951143265,0.0357678048312664,0.03530453145503998,-0.05350912734866142,-0.049172669649124146,0.00912899523973465,-0.020986517891287804,-0.0448647104203701,-0.05151882767677307,-0.08175401389598846,-0.10384327173233032,-0.04956008121371269,-0.014331185258924961,0.04977835714817047,-0.00812510121613741,-0.045826561748981476,-0.0782642513513565,0.02994651533663273,-0.11176227033138275,0.002239272464066744,0.027492916211485863,-0.052024226635694504,-0.049115777015686035,-0.05187825858592987,-0.017839884385466576,-0.008294746279716492,-0.025316497310996056,-0.028824791312217712,-0.03192825987935066,-0.010523472912609577,0.04890041425824165,0.03182274103164673,0.014633210375905037,-0.05625495687127113,0.01746034249663353,-0.04746415093541145,-0.008833315223455429,-0.018615398555994034,0.0437464565038681,0.07528079301118851,-0.03546496108174324,-0.02552966959774494,-0.054853200912475586,0.0654320940375328,0.04270077496767044,-0.002094392664730549,-0.07085955142974854,0.016712624579668045,0.04527046158909798,0.07171395421028137,-0.08616182208061218,-0.02101428434252739,-0.006437886971980333,-0.046652037650346756,-0.0849311500787735,-0.0789693146944046,0.024488724768161774,-0.009079907089471817,0.013795110397040844,0.030796626582741737,0.08055833727121353,-0.0746711790561676,0.006181130185723305,-0.10140206664800644,0.040636640042066574,0.004539283458143473,0.0471792034804821,-0.03494549170136452,0.007140295580029488,0.031705502420663834,-0.057070668786764145,-0.0012434649979695678,-0.06753771752119064,0.022866399958729744,-0.029684824869036674,-0.014190173707902431,-0.10313200950622559,-0.09084323048591614,-0.06434909254312515,-0.07582028955221176,-0.03170645236968994,0.04650290310382843,0.08727116882801056,-0.08454787731170654,-0.022734960541129112,0.0398615263402462,0.04213481768965721,-0.06656932085752487,0.0543891042470932,-0.03193970024585724,0.03752836585044861,-0.07206721603870392,-0.030218394473195076,0.028400881215929985,-0.07419453561306,0.08785831928253174,0.008836187422275543,-0.0481901690363884,0.02030930668115616,0.037162233144044876,0.05721732974052429,-0.04429076984524727,-0.11390738934278488,-0.05147220566868782,-0.06437757611274719,0.04843689501285553,-0.00421063881367445,0.027488280087709427,0.03838680312037468,-0.03034433349967003,0.002578581450507045,0.025498041883111,-0.11284501105546951,0.029387975111603737,0.004713451489806175,0.034858230501413345,0.02968628518283367,0.02483881264925003,-0.07846681028604507,-0.08405910432338715,-0.024423928931355476,-0.053276725113391876,0.0374513640999794,-0.054146908223629,0.03881222382187843,0.03706573694944382,-0.08734795451164246,0.01282473374158144,0.0018092060927301645,0.007938948459923267,-0.06587515026330948,-0.017063148319721222,0.01666218414902687,-0.06744799017906189,-0.08155909925699234,-0.0023964198771864176,0.040269166231155396,0.04038836434483528,-0.010226050391793251,-0.05288071185350418,-0.09263603389263153,-0.036957159638404846,-0.09793275594711304,0.0413719080388546,-0.06996999680995941,0.030066993087530136,0.05346200615167618,0.04798731207847595,-0.0722847729921341,-0.04111180454492569,0.021524332463741302,0.04083609580993652,-0.039220575243234634,0.03993940353393555,0.04956450313329697,0.017594503238797188,-0.07654335349798203,0.06660617142915726,-0.08682386577129364,0.011500579304993153,-0.10254259407520294,0.037443965673446655,0.028737006708979607,-0.10740939527750015,-0.05235638469457626,-0.005799935664981604,-0.03714805096387863,-0.03763400390744209,-0.0014999276027083397,0.017017364501953125,-0.02690129727125168,0.053022462874650955,-0.06894468516111374,0.046548012644052505,-0.046104542911052704,-0.05246666073799133,-0.013540971092879772,-0.06661632657051086,0.03331860154867172,0.06497523188591003,-0.036117225885391235,-0.10813792049884796,-0.07362018525600433,0.07262206077575684,-0.00282621243968606,-0.0001487783738411963,-0.027848176658153534,0.04869913309812546,-0.019783487543463707,0.023755637928843498,0.03536434844136238,-0.03821850195527077,-0.09486010670661926,-0.08258237689733505,-0.0870102196931839,-0.0783548355102539,-0.0863051787018776,-0.08441285043954849,0.007794809062033892,-0.0667206197977066,-0.004772560205310583,-0.067266084253788,-0.06745419651269913,0.06864207237958908,0.0017064540879800916,-0.11201729625463486,-0.07613525539636612,0.05859304964542389,0.041058436036109924,0.08819125592708588,0.03749551996588707,-0.08412311971187592,-0.08048082888126373,-0.09515899419784546,-0.06270934641361237,-0.032412294298410416,-0.05916585028171539,-0.011885883286595345,-0.05880139768123627,-0.005044593475759029,0.04955154284834862,-0.09333230555057526,-0.01362342108041048,0.03197701275348663,0.05881520360708237,-0.09703045338392258,0.006203868426382542,-0.05674488842487335,-0.08922039717435837,-0.0868854820728302,0.004282820038497448,0.04339748993515968,-0.10758619010448456,0.05558105185627937,0.0568905770778656,0.054961927235126495,-0.038226477801799774,0.01218375563621521,-0.015719816088676453,-0.032219093292951584,-0.051056522876024246,0.07988493144512177,-0.00978472363203764,0.045385707169771194,0.027425101026892662,-0.06017006188631058,0.03008688986301422,-0.0029922262765467167,0.045873746275901794,-0.023248400539159775,0.02592901512980461,0.008479763753712177,0.04831505939364433,-0.07526488602161407,0.041424524039030075,-0.05609392374753952,-0.06236284598708153,-0.042630039155483246,-0.037218429148197174,-0.08470923453569412,0.0270477794110775,-0.0028669985476881266,-0.08641805499792099,-0.1052839457988739,-0.06859152764081955,0.06682031601667404,-0.019347362220287323,-0.04366299882531166,-0.10091019421815872,0.04807736352086067,0.033671073615550995,-0.04279864951968193,-0.04530031606554985,0.01681789569556713,-0.09657436609268188,0.06279511749744415,-0.09191250056028366,0.05537687987089157,-0.0743752121925354,-0.08011280000209808,-0.09743308275938034,-0.09200316667556763,-0.11232879757881165,-0.07485119253396988,0.07547152042388916,-0.007116625085473061,-0.09240084886550903,0.011949625797569752,0.04430749639868736,0.006360222585499287,-0.07079172879457474,-0.06643722206354141,-0.024520393460989,-0.0026721239555627108,-0.03763781115412712,0.012192229740321636,-0.02009015530347824,0.020473314449191093,-0.0009042251040227711,-0.03500571846961975,0.08727344870567322,-0.08483362942934036,0.047373563051223755,-0.07274991273880005,-0.07656384259462357,-0.014980707317590714,-0.0076480829156935215,0.06594595313072205,-0.039088521152734756,-0.009535865858197212,0.017878351733088493,-0.01363995112478733,-0.09767825156450272,0.019449753686785698,0.012884387746453285,-0.08330588042736053,-0.028007864952087402,0.07130011916160583,0.04691527411341667,0.06255381554365158,-0.028378594666719437,-0.037791941314935684,0.035560350865125656,-0.006880574394017458,-0.03923185542225838,0.05092090368270874,0.03460614010691643,0.051066357642412186,0.010432487353682518,0.03927852213382721,0.029249142855405807,0.015267344191670418,0.05895763635635376,-0.07128051668405533,-0.04191656783223152,0.039585258811712265,0.039398737251758575,-0.013864321634173393,0.007571807596832514,-0.061521317809820175,0.024303987622261047,-0.08111998438835144,-0.029030662029981613,-0.010368640534579754,0.0023255222477018833,-0.08506850898265839,-0.017401453107595444,0.0648597851395607,-0.0847260057926178,-0.05692216008901596,-0.06908932328224182,0.04200000688433647,0.06616313010454178,-0.029523277655243874,-0.04883416369557381,-0.03881078213453293,0.040311299264431,-0.03073233738541603,0.020254913717508316,0.0637943297624588,0.06536750495433807,-0.029711661860346794,-0.014994913712143898,-0.03343607485294342,-0.018181832507252693,-0.04644902050495148,-0.020623696967959404,0.03197351470589638,-0.03673016279935837,0.0006225405377335846,0.041200246661901474,-0.0006895423284731805,0.04563051462173462,0.06644110381603241,-0.03205561637878418,-0.032220594584941864,-0.07451049238443375,-0.04236792027950287,-0.05054463818669319,0.07218164950609207,-0.09169892966747284,-0.008564184419810772,-0.10064787417650223,-0.03501482680439949,-0.08621589094400406,-0.050119541585445404,0.007832727394998074,-0.10039010643959045,0.060288604348897934,0.023920869454741478,-0.07766515761613846,-0.06548316031694412,-0.10484913736581802,-0.04071074724197388,0.02693159505724907,0.030030284076929092,0.009885785169899464,-0.07787152379751205,0.005551056005060673,-0.007022328674793243,-0.07188113033771515,0.06601990759372711,0.0003171600110363215,-0.08510333299636841,0.04966157674789429,-0.06995460391044617,0.00742714898660779,0.04705801233649254,-0.00017825151735451072,-0.06275530904531479,0.008836517110466957,-0.08153634518384933,0.020866209641098976,0.05222640186548233,-0.09322807192802429,0.07049646973609924,-0.04025159403681755,0.04350746423006058,-0.07569369673728943,-0.06372954696416855,-0.03236740827560425,-0.0293718334287405,0.001214271760545671,-0.034700945019721985,-0.08634752780199051,0.051104091107845306,-0.06953117251396179,0.004933583550155163,0.05525744706392288,0.031628042459487915,0.0861678496003151,-0.02490042895078659,-0.09735649079084396,0.021815776824951172,0.025091461837291718,0.04807579144835472,-0.09442830830812454,-0.09172337502241135,-0.04684066399931908,-0.05535521358251572,-0.01769564300775528,0.07019626349210739,-0.0614980086684227,-0.04044366255402565,0.08814190328121185,0.020725112408399582,-0.06804731488227844,-0.007503456436097622,0.020155996084213257,0.0816979706287384,-0.07635373622179031,0.02467682771384716,-0.035290926694869995,-0.05645716190338135,-0.1066119372844696,0.052921488881111145,-0.023896483704447746,0.03128507733345032,0.07105851918458939,0.06597603112459183,-0.023261824622750282,-0.09422987699508667,-0.07845523208379745,0.03764844685792923,-0.07727337628602982,-0.03442677855491638,0.07921382784843445,0.03640111908316612,-0.03324924781918526,-0.017692888155579567,0.0003359512484166771,0.028720177710056305,0.09167958796024323,-0.08932375907897949,0.05980890244245529,-0.032690245658159256,0.0617881640791893,0.0087943309918046,-0.07092607766389847,0.03931742534041405,-0.07259579002857208,0.0378105491399765,-0.05583399161696434,0.01659836620092392,-0.06520011276006699,-0.028308724984526634,-0.04516829922795296,-0.01518942415714264,-0.03185258433222771,0.027004370465874672,-0.023620640859007835,0.033269114792346954,-0.011186758987605572,0.026487300172448158,0.042411185801029205,-0.02874666079878807,0.057042453438043594,0.03595409542322159,0.037369806319475174,-0.055494435131549835,-0.10062144696712494,0.07676009088754654,0.06626422703266144,-0.08874236047267914,-0.05932747572660446,-0.078299880027771,0.06643713265657425,-0.0003876920382026583,0.07679685950279236,0.0040811034850776196,-0.008557254448533058,0.03794953599572182,0.017565149813890457,0.03737914189696312,-0.008735617622733116,-0.028583070263266563,-0.07644625753164291,0.07326879352331161,0.08618081361055374,-0.008523941971361637,-0.03385407477617264,-0.021024227142333984,-0.060361336916685104,-0.024800878018140793,-0.00011405066470615566,-0.01783663034439087,-0.0011828141286969185,0.07270392030477524,-0.006864688824862242,-0.051574140787124634,0.05653480440378189,-0.022525550797581673,0.004686130676418543,0.016695018857717514,0.07990770787000656,-0.08238595724105835,-0.0591169148683548,0.02765960991382599,0.07513677328824997,0.009970489889383316,-0.0403839610517025,-0.07604266703128815,-0.01698155514895916,0.04712151363492012,-0.019424334168434143,-0.04275623708963394,0.01624392159283161,0.022335490211844444,-0.0620102658867836,0.03469296544790268,0.045129381120204926,0.004947924055159092,-0.025591766461730003,-0.07817286998033524,0.07578019797801971,0.0772184506058693,0.0795387327671051,0.01627887226641178,0.038853440433740616,0.04078841209411621,0.028022775426506996,-0.0346500501036644,0.0783291608095169,0.05276251211762428,-0.047196514904499054,0.04527411237359047,-0.07721821218729019,0.032295212149620056,0.0523427277803421,-0.06999630481004715,0.024425121024250984,-0.00782034732401371,-0.0380076989531517,0.08017506450414658,0.03074517659842968,0.07581806182861328,-0.04679582267999649,-0.07825089991092682,0.0854949951171875,0.012623866088688374,0.08585559576749802,-0.043918829411268234,-0.04864277318120003,0.03599606454372406,-0.0415305458009243,-0.018313204869627953,0.05371652543544769,-0.08692121505737305,-0.07557278871536255,0.031066009774804115,0.056181907653808594,-0.08725934475660324,0.08446036279201508,0.042484939098358154,0.018718648701906204,-0.0570559985935688,-0.06162041053175926,0.028876859694719315,0.017774147912859917,-0.021747972816228867,-0.06860249489545822,-0.03944239020347595,-0.04154978320002556,-0.01202457956969738,-0.06318360567092896,-0.02909722551703453,-0.012492863461375237,0.08592762053012848,-0.050368547439575195,0.07019942253828049,0.08478916436433792,0.0857122391462326,0.08052809536457062,0.07686968892812729,0.04744204133749008,0.034091267734766006,0.020758450031280518,0.02730405516922474,0.022601142525672913,-0.014207660220563412,0.005310229025781155,-0.06503589451313019,-0.011654098518192768,0.028677694499492645,-0.06611339747905731,0.02252916619181633,-0.04679115489125252,0.03365879878401756,-0.05318398028612137,-0.08377712219953537,0.032860927283763885,-0.04953707754611969,0.08163397759199142,0.0038123931735754013,0.04945206642150879,-0.002489867154508829,0.0569416768848896,0.003269752487540245,-0.037750259041786194,-0.041010357439517975,0.03983805328607559,-0.08523145318031311,-0.0738300010561943,-0.00037150338175706565,0.0611271969974041,-0.0361085943877697,-0.04727353900671005,-0.02043793350458145,-0.06488700956106186,-0.01973283849656582,0.02225644327700138,-0.05739092081785202,-0.06623087078332901,0.08114470541477203,0.031857799738645554,-0.02405783161520958,0.07628854364156723,-0.0339103527367115,-0.027544692158699036,-0.033596064895391464,0.017810963094234467,-0.04540662094950676,-0.03912755474448204,-0.0459359772503376,0.07842888683080673,0.001173526281490922,0.0005757575272582471,-0.0865979716181755,0.024663861840963364,-0.013998493552207947,0.05113091692328453,-0.0760112926363945,0.062398213893175125,0.029854899272322655,0.042632970958948135,-0.05527588352560997,-0.06187477707862854,-0.10689707845449448,-0.005546672735363245,-0.03891128674149513,-0.06359755247831345,-0.07142665982246399,0.02834482677280903,-0.03139521926641464,0.0018227352993562818,-0.0817115381360054,-0.08470941334962845,-0.005712562706321478,-0.08674363791942596,-0.05130024626851082,0.0802980288863182,0.0460822619497776,-0.016591249033808708,0.017097340896725655,-0.017925802618265152,-0.07272550463676453,-0.07641246169805527,-0.007727284915745258,-0.00922020897269249,-0.07123398035764694,0.08170641958713531,0.014431730844080448,-0.0662592351436615,0.0014451730530709028,-0.016697358340024948,-0.0018610992701724172,-0.05134092643857002,0.07226264476776123,0.014357823878526688,0.04494209587574005,-0.015057017095386982,-0.07597479224205017,0.04317822307348251,-0.06498604267835617,-0.044252682477235794,0.05738125368952751,-0.01444124337285757,-0.0957888662815094,0.038751278072595596,-0.06808103621006012,0.008081046864390373,-0.01430065743625164,0.06591179221868515,-0.07318289577960968,0.06557049602270126,0.03812214732170105,-0.041557677090168,0.04569294676184654,0.004884313326328993,-0.10598242282867432,0.023060552775859833,0.005394986364990473,-0.06015843525528908,-0.0034686329308897257,0.04061843827366829,0.00180461211130023,-0.05937320739030838,0.025397654622793198,-0.07805413007736206,-0.0968368873000145,-0.010567070916295052,-0.029954787343740463,-0.007625338155776262,-0.03308647498488426,-0.06297806650400162,-0.055945124477148056,-0.009370076470077038,-0.021470995619893074,-0.033539433032274246,0.04959908500313759,0.044917140156030655,0.0771910771727562,0.047323405742645264,-0.06961534917354584,-0.07323843240737915,0.03850630670785904,0.037144917994737625,-0.039178285747766495,-0.03933179751038551,-0.03854065015912056,-0.08628921210765839,0.043912578374147415,0.029461247846484184,0.04542763903737068,-0.042560551315546036,0.05942414700984955,0.026887835934758186,-0.016518637537956238,-0.06923911720514297,-0.03866952285170555,0.020001782104372978,0.05625321343541145,-0.03671382740139961,-0.06243037432432175,0.04689789190888405,-0.05393477529287338,0.059111855924129486,-0.0317252054810524,-0.01569833792746067,-0.059064555913209915,-0.09757860004901886,0.05693113058805466,-0.007888146676123142,0.04458482190966606,0.023717084899544716,-0.023919040337204933,-0.0017526578158140182,-0.057891521602869034,0.014711982570588589,0.008423026651144028,0.01426820456981659,-0.04470805451273918,-0.019953012466430664,-0.08494371175765991,-0.06639480590820312,-0.01647104136645794,0.056112680584192276,-0.05364358052611351,-0.026888884603977203,0.006288285832852125,-0.002959414152428508,0.04563898965716362,-0.03808552399277687,0.021059060469269753,0.05249456316232681,0.0383853055536747,-0.07377265393733978,0.06551282852888107,0.03087589517235756,0.062028177082538605,0.05338893458247185,0.006416752003133297,-0.017429998144507408,-0.0027217064052820206,0.040375448763370514,0.05968129634857178,-0.08991668373346329,0.07619000226259232,-0.07940231263637543,-0.00651822192594409,0.03856831416487694,-0.05163058638572693,-0.08736702799797058,-0.04688768461346626,-0.06785756349563599,-0.0052592153660953045,-0.043722961097955704,0.0750315710902214,0.06659366190433502,-0.05748444423079491,0.05262117087841034,-0.050590258091688156,0.0030629695393145084,0.007980584166944027,-0.041869647800922394,0.05979996174573898,0.016605498269200325,-0.021970655769109726,0.020805906504392624,-0.00792138371616602,0.05132824927568436,-0.015599599108099937,-0.0452653132379055,-0.006807221565395594,-0.08839669823646545,0.04417222738265991,0.0024450544733554125,-0.014138275757431984,0.06944496184587479,-0.035838063806295395,0.03653895854949951,0.053988147526979446,0.05503471940755844,-0.08978080749511719,0.034860458225011826,-0.02789299376308918,-0.07266489416360855,-0.06352391093969345,-0.06299092620611191,-0.0018846278544515371,-0.0178294125944376,0.007213274948298931,-0.08813206851482391,-0.03205513209104538,0.03488032519817352,0.04098816588521004,0.014317663386464119,0.010292013175785542,0.03836101293563843,-0.05825452134013176,0.05061522126197815,-0.09633861482143402,0.017031466588377953,0.01606021448969841,0.0036617813166230917,-0.07537659257650375,-0.0817732959985733,-0.007938981056213379,-0.0743684470653534,0.0831175372004509,-0.07602547109127045,-0.0692700520157814,0.0748366042971611,0.0591462142765522,-0.05029386654496193,-0.01451384648680687,-0.037746675312519073,-0.06737028062343597,-0.04997430741786957,-0.07446989417076111,-0.08389285951852798,-0.0344708226621151,0.004237074870616198,0.007006344385445118,-0.07982394099235535,0.042958322912454605,-0.08063630014657974,-0.08561567217111588,0.014447481371462345,-0.03426793962717056,0.044459179043769836,-0.031941015273332596,0.0804290696978569,-0.01941727288067341,-0.06408759206533432,-0.00018982939945999533,-0.013368158601224422,-0.07407072931528091,0.06923945248126984,0.04790892079472542,0.03734772279858589,-0.060125209391117096,0.007383569143712521,0.03677753731608391,-0.06307124346494675,-0.04115508124232292,-0.09697215259075165,-0.0751735046505928,0.07830118387937546,-0.013274062424898148,-0.04436720535159111,-0.08797751367092133,0.02875961735844612,-0.0874955952167511,-0.04805199056863785,-0.1155284121632576,-1.614547848701477,0.5976863503456116,0.34500983357429504,0.7752674221992493,-0.07961494475603104,-0.09106574207544327,0.04483603686094284,0.13590748608112335,0.04564160108566284,0.08820293843746185,0.06428702920675278,0.3408219516277313,-0.25888413190841675,-0.07900172472000122,0.017516104504466057,-0.24111011624336243,-0.18855752050876617,-0.47631198167800903,-0.02021254226565361,0.011389374732971191,0.09760170429944992,0.1659078598022461,0.4423377513885498,1.705095648765564,-0.2531135380268097,0.8589502573013306,-1.484882116317749,0.254794180393219,-0.46590739488601685,-3.3025760650634766,-0.07913003116846085,-1.7642779350280762,0.19012665748596191,0.29744580388069153,-0.18065616488456726,-1.2175540924072266,-0.815487802028656,0.4148642420768738,-1.5331227779388428,-0.3113190531730652,0.16548310220241547,-3.276682138442993,0.6632006168365479,-0.36207491159439087,-0.1657908856868744,-0.17858771979808807,-0.15731783211231232,-0.653784453868866,-0.44668641686439514,-0.3105638921260834,-0.0769956037402153,-0.04745176434516907,0.05755185708403587,0.004668646026402712,-0.03269056975841522,0.110146164894104,0.04710715636610985,-0.06075761467218399,-0.4227117896080017,-0.040608637034893036,0.02880246192216873,1.4132311344146729,-0.6407144069671631,-0.6373273134231567,0.06517385691404343,0.01927022449672222,-0.17425571382045746,-0.12068483978509903,0.2919408082962036,-0.6931444406509399,0.35089391469955444,-1.0576876401901245,0.5705989003181458,0.4467359483242035,0.33892878890037537,-0.028569819405674934,-0.9856905937194824,1.6444085836410522,0.03925233334302902,-0.8652870655059814,-0.09586183726787567,-0.14781150221824646,0.3534611761569977,0.024166444316506386,-0.3075239360332489,-1.5178840160369873,0.15421707928180695,-0.08776433020830154,1.5918781757354736,-0.6649401187896729,-0.06084953621029854,-0.027543818578124046,-0.047880999743938446,-0.8700307607650757,-0.7375901937484741,0.30752596259117126,0.15553368628025055,-0.8138197064399719,0.09715060889720917,0.5348683595657349,-0.21507234871387482,0.5809282660484314,-2.090437173843384,0.2659471333026886,0.04976978898048401,-0.45868226885795593,0.4409998059272766,0.06935866177082062,0.16358105838298798,0.15511325001716614,0.7156063914299011,2.8460605144500732,-2.1750733852386475,1.973082184791565,-0.05013919621706009,0.39256978034973145,-4.26558256149292,-1.2961701154708862,-0.0004340999876148999,-0.06044808402657509,0.04323820769786835,-0.2574937045574188,0.2630029022693634,0.6251804828643799,0.012469960376620293,0.13761037588119507,0.04857688769698143,-0.021578863263130188,-0.012113985605537891,-0.021549878641963005,0.05411451309919357,0.07743456959724426,0.05128585547208786,0.006854209583252668,-0.01056912261992693,-0.1010001078248024,-0.05060328543186188,-0.07735399901866913,-0.034830015152692795,0.006932185031473637,-0.07390927523374557,0.015122510492801666,-0.08370327204465866,-0.01776338741183281,0.05696703493595123,-0.06354197859764099,0.040031664073467255,-0.08027707785367966,-0.06615819036960602,0.03821315988898277,-0.09379299730062485,-0.08242098987102509,-0.06481646746397018,0.07665719836950302,0.10281648486852646,-0.04982020705938339,-0.09605345129966736,-0.04482894018292427,0.04726225137710571,-0.05290568619966507,0.05042071267962456,-0.0034820912405848503,0.03215639665722847,-0.03028731979429722,-0.05849388241767883,-0.05248797684907913,-0.038056354969739914,0.08530690521001816,-0.11712735891342163,0.11831245571374893,0.05308517441153526,-0.09802065789699554,-0.09677787125110626,-0.026650171726942062,-0.048874784260988235,-0.027879545465111732,-0.06991339474916458,-0.000746850564610213,0.07362298667430878,-0.0027991090901196003,-0.077220119535923,-0.007763756904751062,-0.022167425602674484,-0.041477471590042114,-0.039886634796857834,-0.0026964626740664244,0.031931955367326736,-0.0338931679725647,0.08069884032011032,-0.16352029144763947,0.09728143364191055,0.06232326477766037,0.05377425625920296,-0.0879843607544899,-0.03520496189594269,-0.03687362000346184,-0.0424276702105999,0.0213987547904253,0.022980932146310806,-0.08943414688110352,-0.018365003168582916,-0.09574662894010544,-0.06311342865228653,-0.07768828421831131,0.053364720195531845,-0.07170023769140244,0.0032504175323992968,0.018312828615307808,0.02208574116230011,-0.008874867111444473,0.0022124070674180984,-0.03142751380801201,0.01996692270040512,-0.07050212472677231,7.623733381478814e-06,-0.01957886479794979,-0.01637980528175831,-0.009190625511109829,-0.10509233176708221,0.08585473150014877,0.018856868147850037,-0.14422014355659485,0.04284633696079254,-0.010866234079003334,0.026203280314803123,-0.0796554908156395,-0.061845917254686356,0.0740405023097992,-0.06898967176675797,-0.12108564376831055,0.1037306934595108,0.017700068652629852,0.07306896895170212,-0.030832333490252495,-0.09976866096258163,-0.04757435992360115,0.093754842877388,-0.048390306532382965,-0.05630078911781311,0.05650493502616882,0.06856947392225266,0.004885670263320208,-0.04097997024655342,0.007076578680425882,-0.020548319444060326,-0.08907806128263474,-0.07578342407941818,0.0061315130442380905,0.01251798216253519,0.03895985707640648,0.05363999679684639,0.012149575166404247,-0.08925499022006989,0.03648407384753227,-0.07137542217969894,-0.07704805582761765,-0.041975777596235275,0.0005261223996058106,0.0011592142982408404,0.03645875304937363,-0.07524329423904419,-0.07798171043395996,0.002519127679988742,-0.0844869390130043,0.07658816874027252,-0.04792027920484543,-0.10571473836898804,-0.1169087216258049,0.019052091985940933,0.0024391855113208294,0.06328637897968292,0.012669584713876247,0.009866985492408276,0.04770182445645332,-0.02154640108346939,-0.05038398504257202,0.07038629800081253,-0.02013598568737507,-0.025659581646323204,-0.023940004408359528,-0.09759580343961716,-0.012935778126120567,-0.06783310323953629,0.06787590682506561,-0.003901289077475667,0.07797480374574661,-0.05555735155940056,-0.026799358427524567,0.03414921090006828,-0.07201556861400604,-0.06687320023775101,0.06547046452760696,0.0192568302154541,-0.051550958305597305,-0.031362567096948624,-0.08728371560573578,-0.026274848729372025,-0.019646257162094116,0.04232189804315567,0.031651854515075684,-0.018522195518016815,0.0012555967550724745,-0.07777953892946243,0.041542764753103256,-0.024441294372081757,-0.02964741922914982,0.08349481970071793,0.037929169833660126,0.007821780629456043,-0.0736570954322815,0.06372352689504623,0.05051655322313309,0.02603961154818535,0.08199036866426468,0.011350871063768864,0.036082956939935684,-0.005022049881517887,0.06235480681061745,0.023081937804818153,-0.05334559828042984,0.0036034313961863518,-0.012108389288187027,0.04946460202336311,-0.016883812844753265,-0.11121540516614914,0.016427434980869293,-0.02058888040482998,-0.09123773127794266,-0.018100565299391747,-0.09620276093482971,0.03578323870897293,-0.0772283747792244,-0.01523077767342329,0.03145134449005127,-0.11117170006036758,0.05360891669988632,0.016743173822760582,0.04899085685610771,-0.03560156747698784,0.07787458598613739,0.04469042271375656,0.026120305061340332,-0.007127308286726475,0.05403685197234154,-0.06865421682596207,-0.058675121515989304,0.04596398398280144,0.052706338465213776,0.014790982939302921,-0.03871934115886688,-0.10291661322116852,-0.03661205619573593,0.04687479883432388,-0.04078558459877968,-0.0780167505145073,0.036394961178302765,0.029296694323420525,-0.03271566703915596,-0.09323100000619888,0.021641893312335014,-0.07957708090543747,-0.026210596784949303,-0.0943421795964241,0.03798399493098259,-0.03820113465189934,-0.05021264776587486,0.03490234166383743,-0.01661692187190056,0.011748532764613628,-0.019747113808989525,-0.05568583682179451,-0.04404011368751526,-0.0478203147649765,0.05117005854845047,-0.00786630529910326,0.05897345021367073,-0.06121347099542618,-0.059910476207733154,0.00019578645878937095,0.019182005897164345,-0.07198870927095413,0.014139258302748203,-0.005493704695254564,-0.0554455891251564,-0.336429625749588,-2.9301939010620117,0.8120468258857727,-0.409227192401886,0.0023983875289559364,-0.06337589770555496,0.0794767513871193,0.2477373629808426,0.058367010205984116,-0.008899264968931675,0.6703352332115173,0.07454027235507965,0.6744678616523743,0.04538273438811302,0.025606971234083176,-0.8227416276931763,-0.4046277105808258,-1.743228554725647,0.4982473850250244,-0.012455816380679607,-0.09620676189661026,1.8157743215560913,0.2671981751918793,-0.2634642422199249,0.06184640899300575,0.9805998206138611,0.10587100684642792,0.21176595985889435,0.05774809420108795,-3.420060396194458,-0.04390387609601021,-2.6419615745544434,0.07328139990568161,-0.008710941299796104,-0.9394155740737915,0.6525454521179199,-1.0077069997787476,1.0592262744903564,-0.11686016619205475,0.09558989852666855,0.08840012550354004,-1.43063485622406,-3.564605236053467,0.4154472351074219,-4.768874168395996,0.19678334891796112,0.0792267769575119,0.13043150305747986,0.4749688506126404,-1.3525919914245605,0.04098835587501526,0.08648984879255295,-0.02826279029250145,0.013347556814551353,0.15735016763210297,0.37377288937568665,0.20444144308567047,0.12725985050201416,-0.2930434048175812,-0.10488997399806976,0.04063164442777634,-3.887622833251953,0.7569910883903503,-2.90320086479187,0.004901219625025988,-0.02722718007862568,0.07957464456558228,0.15024958550930023,-0.5732799172401428,0.1044754683971405,0.009439175948500633,0.05510099232196808,0.43746426701545715,-1.8114385604858398,0.035846054553985596,-0.0051012649200856686,-0.6243005990982056,1.3629746437072754,0.22522880136966705,-0.6900045275688171,0.09394197165966034,0.4886395335197449,-0.35825857520103455,0.013503006659448147,0.1211443841457367,0.21074557304382324,0.3888474106788635,-0.039769891649484634,1.386252522468567,0.12398922443389893,0.32664811611175537,-0.014378681778907776,0.017290091142058372,-2.4736881256103516,-0.41771918535232544,0.9979551434516907,0.03117874637246132,0.185780867934227,0.8394901752471924,0.9604034423828125,0.11803571879863739,0.27026820182800293,0.5094071626663208,-0.4384773075580597,-0.03109169751405716,0.02979385294020176,0.03818429261445999,0.00039927815669216216,0.5994633436203003,0.27111369371414185,0.6823845505714417,1.3806350231170654,-4.594862461090088,2.6823039054870605,0.0028035028371959925,0.07886457443237305,-0.728531002998352,-1.2567983865737915,-1.121446132659912,-0.020483052358031273,0.0186634361743927,-0.20532825589179993,-0.15986424684524536,0.3242518901824951,-0.26055532693862915,0.18915550410747528,0.026166174560785294,0.020024435594677925,-0.07968160510063171,-0.04385598748922348,0.025242934003472328,-0.07541586458683014,0.041770633310079575,-0.019661348313093185,0.0024136973079293966,0.02548963576555252,0.019686192274093628,0.02615300379693508,0.04752383753657341,-0.08234252780675888,-0.06550084054470062,-0.049166835844516754,0.010397374629974365,-0.022815382108092308,-0.08459276705980301,0.00030377868097275496,0.006246763281524181,-0.06235085427761078,-0.044900428503751755,-0.08574662357568741,-0.003962901420891285,-0.022198645398020744,-0.09515457600355148,-0.07111270725727081,0.011624985374510288,0.029851632192730904,-0.06676815450191498,0.009670183062553406,-0.044617243111133575,0.049318451434373856,-0.0955033004283905,-0.0025202599354088306,-0.062077444046735764,-0.0621139258146286,0.030842525884509087,-0.03834904730319977,0.024240190163254738,0.029330233111977577,-0.08847791701555252,-0.013227218762040138,-0.039227429777383804,-0.03922899067401886,-0.021615948528051376,0.02925836853682995,-0.11288232356309891,0.012121466919779778,-0.007793419994413853,0.017318956553936005,-0.07627159357070923,-0.048716213554143906,-0.08248930424451828,-0.05550895258784294,0.015875663608312607,-0.05949673429131508,-0.028424346819519997,-0.08783765137195587,0.024632124230265617,-0.011941119097173214,0.05418924614787102,-0.08369062840938568,0.0014782547950744629,-0.0843832790851593,-0.025279756635427475,0.07038062810897827,0.030652597546577454,-0.09715208411216736,-0.016752144321799278,-0.04999751225113869,-0.0818001925945282,-0.08682091534137726,-0.02033992111682892,-0.08045842498540878,0.041802119463682175,-0.004147544968873262,-0.028534812852740288,0.03211554139852524,-0.03293897584080696,0.08663279563188553,-0.0338822603225708,-0.05259627103805542,0.036239732056856155,-0.0037384042516350746,-0.06165098398923874,-0.0792849212884903,-0.05743836611509323,-0.004704831633716822,-0.08473271131515503,-0.11651989817619324,-0.11323946714401245,0.008109917864203453,0.03863559290766716,-0.027726473286747932,-0.06600484251976013,0.02590293064713478,-0.0901431068778038,-0.009263500571250916,-0.05900358408689499,0.018706392496824265,-0.060066044330596924,0.032894235104322433,-0.05331867188215256,-0.014292174950242043,-0.07054963707923889,0.0674901232123375,-0.04560786485671997,0.07775933295488358,-0.08601531386375427,-0.06046532094478607,-0.013723351061344147,0.08824139088392258,0.03506770357489586,0.02220037765800953,0.025017082691192627,-0.06145505607128143,0.03974291682243347,-0.08713339269161224,-0.004857645370066166,-0.08137815445661545,-0.0768231749534607,-0.05597614496946335,0.010600216686725616,-0.01629878580570221,-0.09589602798223495,-0.06065124273300171,0.04026689752936363,1.45368492603302,-0.5185332894325256,-3.208048105239868,0.10443035513162613,2.600081205368042,-0.07950486242771149,0.6849240660667419,-0.06032871454954147,0.15973319113254547,0.05240665376186371,0.006128889042884111,0.23245084285736084,-0.4202006757259369,-0.04970097914338112,0.06096677482128143,0.0631180852651596,-2.0638020038604736,1.9896260499954224,1.031683087348938,-2.6296894550323486,0.035297658294439316,0.007024879567325115,1.0148252248764038,-0.5886620879173279,1.7232779264450073,0.3041200041770935,0.9742239117622375,2.7999110221862793,0.19069790840148926,0.3724402189254761,-2.4001033306121826,0.0561872273683548,-0.05603354051709175,0.3940039277076721,-1.5785430669784546,-1.4020931720733643,0.1694820374250412,-1.7856011390686035,0.6080809235572815,0.1295558512210846,0.8832327127456665,0.41315633058547974,-0.3076065480709076,-1.2086259126663208,-0.5677579045295715,-0.6401390433311462,0.8399795293807983,0.13856784999370575,0.8877122402191162,0.5747613906860352,-0.10108575969934464,-0.0652138888835907,-0.024926772341132164,-0.05241639167070389,-0.29812783002853394,-1.487742304801941,0.22736027836799622,0.20861665904521942,-0.4692597985267639,1.2467974424362183,0.572447657585144,-0.08111301064491272,2.3299262523651123,-0.5680366158485413,-0.7208882570266724,0.6752086281776428,0.06922874599695206,0.20367717742919922,0.7698870301246643,-1.580142617225647,0.7477540969848633,-0.19931432604789734,0.6605655550956726,-0.13776616752147675,-1.6468818187713623,-0.8025454878807068,-0.06677554547786713,1.8886160850524902,-0.240720734000206,0.10342832654714584,0.023201286792755127,0.13990269601345062,0.37498611211776733,0.5567556619644165,-0.0005227578803896904,0.5188702344894409,0.4600309729576111,0.6353839635848999,0.06889784336090088,-2.2618961334228516,0.8008474111557007,-0.6473942399024963,0.03786754235625267,0.008048846386373043,0.41923901438713074,-0.9473977088928223,0.09799743443727493,-0.06600841134786606,0.5365097522735596,0.7987076640129089,0.9538512825965881,0.13471442461013794,0.06160604581236839,1.3888148069381714,-0.11732078343629837,0.055646661669015884,-0.0920674279332161,-0.5313786268234253,0.022873705253005028,0.9270356297492981,0.4347616732120514,0.41719573736190796,-1.3166862726211548,1.3822784423828125,1.647573471069336,0.04103480279445648,0.07592601329088211,-2.211655855178833,0.5761940479278564,-0.185871422290802,0.08549707382917404,-0.004494571592658758,-0.34323132038116455,-0.48371219635009766,0.27803441882133484,-0.18048524856567383,0.29966679215431213,0.04736463725566864,0.05772746354341507,-0.09578254073858261,-0.03751009330153465,0.04047006741166115,0.013397320173680782,0.05569540336728096,-0.044218067079782486,0.03034307435154915,0.00393829308450222,-0.07041158527135849,-0.06699422746896744,0.04575987532734871,-0.1467326134443283,0.0035089936573058367,-0.08303173631429672,0.02649758569896221,-0.12792421877384186,-0.14345018565654755,-0.14885824918746948,-0.06662438809871674,-0.00017115834634751081,0.031936027109622955,0.05459636449813843,-0.02097984217107296,-0.04403647407889366,-0.08347997814416885,-0.0021885463502258062,-0.028793249279260635,-0.06505220383405685,0.011631671339273453,-0.02995464950799942,-0.06487935781478882,-0.016470884904265404,-0.05633576586842537,0.006949498783797026,-0.013769689947366714,0.11615827679634094,-0.0601767860352993,-0.01654333807528019,-0.07019170373678207,-0.04833606630563736,-0.05077103152871132,-0.008404220454394817,-0.12293027341365814,0.00966381374746561,-0.1366601288318634,-0.06886917352676392,-0.0546795129776001,-0.024794399738311768,-0.08386816084384918,-0.09225306659936905,-0.06905904412269592,0.05835461989045143,0.018444661051034927,-0.17673109471797943,0.04675460234284401,0.004617437720298767,-0.11245093494653702,-0.0550844632089138,0.056654151529073715,0.02704778127372265,-0.07560072094202042,-0.12897056341171265,0.040004998445510864,-0.08188106119632721,-0.03525096923112869,-0.0784919485449791,-0.017989210784435272,-0.07671569287776947,-0.13232846558094025,0.03661564365029335,-0.14501874148845673,-0.04428202286362648,-0.09340560436248779,-0.0454280786216259,-0.14076796174049377,0.06589623540639877,0.07898467034101486,0.0026157142128795385,-0.1455763578414917,-0.13685040175914764,0.010170670226216316,-0.0005752512370236218,-0.09184589982032776,0.014782880432903767,-0.0061136819422245026,-0.11165257543325424,0.05970827490091324,-0.016416849568486214,-0.18255546689033508,0.00975952111184597,-0.10890897363424301,0.04593679681420326,0.03175123408436775,-0.04212512820959091,0.063758984208107,-0.09983550012111664,0.015493836253881454,-0.0071322061121463776,-0.0604582205414772,-0.0941607654094696,-0.006622450426220894,-0.16762985289096832,-0.018079154193401337,-0.016259698197245598,-0.04807353764772415,-0.16071268916130066,-0.0755060464143753,0.06752894073724747,0.05866900831460953,-0.03014553152024746,0.0033653026912361383,-0.06582988798618317,0.07722184807062149,0.1350294053554535,-0.03679037466645241,-0.13753347098827362,-0.03260541707277298,0.048659998923540115,-0.007517567370086908,-0.034804560244083405,0.004884008318185806,-0.03980335220694542,-0.04456544667482376,-0.019170144572854042,-0.10868197679519653,-0.016597803682088852,0.036235857754945755,-0.5023103356361389,-0.7153528332710266,-0.2633340060710907,-0.1480199545621872,-0.9123337268829346,-0.04548642784357071,-0.1604563593864441,-0.001458112383261323,0.04611803591251373,0.07174210995435715,-0.0840945690870285,0.22969108819961548,0.14741511642932892,-0.3409513235092163,0.007141467183828354,-0.013748928904533386,0.13397927582263947,-1.2359236478805542,-2.9771833419799805,-0.3499280512332916,-0.06741166859865189,0.04382803663611412,1.5591763257980347,-0.008060721680521965,0.2178627997636795,0.08206784725189209,0.6146142482757568,-0.28720295429229736,-0.14777764678001404,0.13525940477848053,-2.651388645172119,-0.027688203379511833,-2.64546799659729,0.00876743532717228,0.05298611894249916,-0.3008141815662384,0.4773320257663727,-2.005357503890991,0.588544487953186,-0.47061774134635925,0.1633620709180832,-0.11925607174634933,-1.9388798475265503,-0.37948310375213623,-1.5892735719680786,-0.5368078351020813,0.20649771392345428,0.014017787761986256,-0.2408754974603653,0.45668524503707886,-0.09604018181562424,-0.026256000623106956,-0.05220964923501015,-0.0816035345196724,0.0594063438475132,-0.03315950185060501,0.13721108436584473,0.17139074206352234,-0.322071373462677,-0.685224175453186,-0.7185930013656616,-0.0194286797195673,0.178105890750885,0.33978816866874695,-0.4229748845100403,-0.12348096817731857,0.033535487949848175,0.09619161486625671,-0.46625521779060364,0.196889728307724,-0.42398640513420105,0.2587137520313263,0.03317685425281525,0.07181670516729355,1.1018774509429932,0.0992247462272644,0.01624741032719612,-0.8006964921951294,2.1630847454071045,-0.023011520504951477,-0.25564467906951904,0.28163835406303406,0.3411511480808258,-0.8707776069641113,0.08251181244850159,0.16630195081233978,-0.3036658465862274,0.11186444759368896,-0.05698227509856224,1.1178619861602783,-0.45640984177589417,0.4553230106830597,-0.03691978380084038,-0.0630270466208458,-1.2501996755599976,-1.3521803617477417,0.6698604226112366,0.05345182865858078,-0.4462880492210388,0.6382519602775574,0.676647961139679,0.016934948042035103,0.4716985821723938,-0.6787133812904358,-0.5395222306251526,0.09558641910552979,0.001507516484707594,-0.07061325013637543,0.025350380688905716,-0.1288059502840042,0.08564897626638412,0.5765766501426697,3.1432995796203613,-2.1763112545013428,2.6468300819396973,-0.039245542138814926,-0.11813919991254807,-0.5184324979782104,-3.672037363052368,-0.40465429425239563,-0.05852769315242767,-0.013690940104424953,-0.3987194001674652,-0.7039201855659485,0.9317095875740051,-0.2468309998512268,-0.16240949928760529,0.033483006060123444,0.03865987807512283,0.1805526465177536,0.28948670625686646,-0.5626332759857178,0.6114873290061951,-0.017253592610359192,-0.5809202194213867,-0.011676025576889515,-0.5317944288253784,0.023026973009109497,0.022758718580007553,0.5873320698738098,-0.028582777827978134,-2.479227066040039,-0.040325239300727844,0.012001204304397106,1.0975477695465088,-0.466975599527359,-1.1684871912002563,0.43480655550956726,-0.03279314562678337,-0.055156271904706955,-2.056436538696289,0.0012293739710003138,-1.6386497020721436,0.08368140459060669,-0.16898603737354279,0.1035732552409172,0.01448837574571371,0.2748367488384247,-0.7037522196769714,0.07018737494945526,1.697370171546936,-0.6147613525390625,-0.2961607575416565,-0.11499209702014923,0.6656596660614014,-1.0799349546432495,-1.7802278995513916,-1.8177615404129028,0.331291526556015,-0.5570500493049622,2.233783006668091,0.28826093673706055,0.4953545331954956,0.2345450520515442,-0.16626980900764465,0.11263526231050491,1.1224349737167358,-0.7263861298561096,1.1790411472320557,0.04015945643186569,-0.010705183260142803,0.006585118360817432,0.3869467079639435,-1.3340771198272705,-3.121436595916748,-0.5199544429779053,0.3945721387863159,0.43021324276924133,-0.17007127404212952,-0.0444050133228302,0.909026563167572,0.4349861443042755,-0.057773467153310776,-0.4546976685523987,-0.07045125961303711,-0.14904500544071198,0.06351308524608612,0.6807904243469238,0.7322657704353333,-0.6642102599143982,0.9896073937416077,-0.13638904690742493,0.05720175802707672,-0.47458621859550476,-0.02759026363492012,0.04912771284580231,0.41628676652908325,-0.24163170158863068,-0.46156853437423706,0.25504031777381897,0.19000974297523499,0.9951775074005127,-0.012166035361588001,0.25763773918151855,-1.3569539785385132,-1.3701879978179932,-0.012121960520744324,0.8807610869407654,0.6860296726226807,1.3522123098373413,0.01696450635790825,0.05153225362300873,0.012362470850348473,-1.174560308456421,0.8265150785446167,-0.3217002749443054,0.5183936953544617,-0.13441625237464905,0.8670949339866638,-0.23827673494815826,0.8415107131004333,-0.20319099724292755,0.5133468508720398,-0.1254531741142273,-0.2685835063457489,-0.035198625177145004,-0.07120683789253235,1.0263261795043945,-0.45195555686950684,-1.1078801155090332,-2.422619104385376,-2.034776449203491,-2.8800547122955322,-0.02830887772142887,-0.20816178619861603,-6.216294765472412,1.6673095226287842,0.6705986261367798,-0.027813589200377464,0.04163160175085068,-0.05745375528931618,0.4293300211429596,-4.0952606201171875,0.24338844418525696,-0.23742936551570892,0.045257147401571274,0.8050343990325928,0.2619715929031372,1.197685956954956,1.0181796550750732,1.1392912864685059,0.052136220037937164,0.26803287863731384,0.02260598912835121,0.145406574010849,-0.032145895063877106,-0.01575949601829052,-0.2474977970123291,0.11524281650781631,1.930694341659546,0.0012972905533388257,-0.04723767191171646,-0.4951264262199402,2.6294450759887695,2.0976266860961914,-0.7110268473625183,0.055901315063238144,0.0454794205725193,-1.1205742359161377,0.2864380478858948,0.1035766527056694,0.008814878761768341,-0.0852663591504097,-2.948629379272461,0.3942968547344208,-0.33061859011650085,-0.9997134804725647,-0.026371704414486885,-2.608640670776367,